// Generated by export_denoise_c.py. Do not edit by hand.
// Architecture: cw_denoise_gru_mask
// sample_rate=9600 fft_length=256 hop_length=144 band_bins=0..128

#ifndef DENOISE_MODEL_WEIGHTS_H
#define DENOISE_MODEL_WEIGHTS_H

#include "denoise_model.h"

#ifndef DENOISE_MODEL_ATTR
#define DENOISE_MODEL_ATTR
#endif

static const float DENOISE_MODEL_ATTR k_denoise_input_norm_weight[129] = {
    0.86876142f, 0.921144366f, 0.953949809f, 0.953015089f, 0.955599725f, 0.970942616f, 0.921929777f, 0.866322815f,
    0.904888153f, 0.893977523f, 0.898472488f, 0.93421787f, 0.927525103f, 0.904562235f, 0.923269868f, 0.947373271f,
    0.906429589f, 0.945061207f, 0.909163952f, 1.00059927f, 0.911814153f, 0.916870594f, 0.943227649f, 0.848747075f,
    0.88288182f, 0.821992815f, 0.926733017f, 0.884502769f, 0.862206697f, 0.922801197f, 0.842938125f, 0.882221818f,
    0.896025181f, 0.876133621f, 0.865225136f, 0.890523255f, 0.911915243f, 0.928954244f, 0.869408548f, 0.8822456f,
    0.884985507f, 0.857529879f, 0.930061877f, 0.882290125f, 0.874861717f, 0.940168619f, 0.879484236f, 0.870204508f,
    0.887212753f, 0.876426935f, 0.833020866f, 0.855361581f, 0.815423608f, 0.908708394f, 0.82083571f, 0.875930667f,
    0.839456916f, 0.879264891f, 0.904580593f, 0.913029373f, 0.848474801f, 0.884426475f, 0.880479753f, 0.890509427f,
    0.8729617f, 0.870267451f, 0.851997793f, 0.928034008f, 0.866272926f, 0.815766871f, 0.837677419f, 0.76252979f,
    0.864459336f, 0.838743567f, 0.835405171f, 0.830402851f, 0.887677729f, 0.880115092f, 0.859562159f, 0.869584441f,
    0.850170076f, 0.843921304f, 0.872721851f, 0.879404604f, 0.846260667f, 0.867081106f, 0.877115905f, 0.856661081f,
    0.856552303f, 0.856739759f, 0.848511159f, 0.885692418f, 0.886891544f, 0.87719053f, 0.903692484f, 0.854269981f,
    0.872217298f, 0.894719422f, 0.847247005f, 0.853016198f, 0.937027872f, 0.940164983f, 0.867474794f, 0.87306881f,
    0.878026068f, 0.87120235f, 0.877887011f, 0.878697276f, 0.888491929f, 0.875304818f, 0.927400172f, 0.938151002f,
    0.911274493f, 0.908622205f, 0.873577118f, 0.919013798f, 0.913674057f, 0.911792278f, 0.970832109f, 0.952440202f,
    0.985921144f, 0.907247663f, 0.900984943f, 0.921833098f, 0.919833362f, 0.960681558f, 0.954990864f, 0.872391999f,
    0.847202301f
};

static const float DENOISE_MODEL_ATTR k_denoise_input_norm_bias[129] = {
    -0.113414437f, 0.0604751706f, -0.059003979f, -0.0965449065f, 0.118717045f, -0.0881489739f, -0.127934009f, -0.044766821f,
    0.0229672119f, 0.0680808425f, 0.0453057773f, 0.196989596f, -0.0148801366f, 0.0378910564f, 0.137384519f, 0.116474867f,
    0.060310442f, 0.064482823f, 0.0544830561f, 0.0161652323f, -0.0969964117f, -0.00503145484f, 0.085935235f, 0.00219778437f,
    0.0884071961f, 0.095184803f, -0.0473878011f, 0.0757879689f, 0.0505712405f, -0.0114654005f, -0.00308290962f, 0.0402982645f,
    0.0740018114f, 0.109527394f, -0.000973204034f, 0.0727665946f, -0.0539600588f, -0.0208230019f, -0.0259759147f, 0.116889969f,
    0.0317703635f, -0.1154278f, 0.0145871472f, -0.0329170898f, 0.00343226199f, -0.0697962195f, 0.0718049109f, 0.111698717f,
    0.0526378863f, 0.0929403231f, 0.0183796156f, 0.000964366365f, -0.0798308179f, -0.0388536826f, 0.0118358191f, -0.0828773603f,
    0.0296881646f, -0.119067758f, 0.0532891639f, -0.0278465152f, 0.0630143732f, 0.0860602781f, 0.0544692874f, -0.00640047668f,
    0.042023398f, -0.135595903f, 0.0420687981f, -0.0518783703f, 0.0146448594f, 0.105785564f, 0.00293263048f, 0.271685064f,
    0.0180565063f, -0.00237130583f, 0.0387217589f, 0.0257428139f, -0.000720747863f, 0.0107519403f, 0.0633759871f, -0.0639743805f,
    0.0611710101f, -0.0467520356f, 0.112666585f, 0.120096304f, 0.143671602f, 0.14063859f, 0.0348950326f, 0.097347267f,
    0.0271173622f, -0.0554036163f, -0.0509891771f, -0.0426810682f, 0.0868364275f, -0.015573577f, 0.0454955213f, 0.0908485502f,
    0.100185327f, -0.0266139191f, -0.118311048f, -0.130524412f, -0.0682426766f, 0.0619942211f, -0.0491632074f, 0.13082999f,
    0.101831213f, 0.0814089105f, 0.0201828908f, -0.000737933442f, 0.116567045f, 0.132641956f, 0.10474018f, 0.0772339031f,
    0.0693930984f, 0.170442671f, 0.0345066004f, 0.0599871762f, -0.101634085f, 0.143116429f, 0.0225839932f, 0.106098294f,
    0.0393909141f, 0.0855945051f, 0.014438631f, -0.0355489478f, 0.0354468524f, 0.0441585556f, -0.0148434788f, 0.00885889493f,
    -0.0399200469f
};

static const float DENOISE_MODEL_ATTR k_denoise_gru_weight_ih[24768] = {
    0.0845061913f, 0.309477687f, 0.162515745f, 0.221187651f, 0.383659035f, 0.135505274f, -0.00262643001f, 0.00456800172f,
    0.0610301457f, 0.00714215636f, -0.167656675f, -0.0595038459f, -0.0144335711f, -0.019246228f, 0.0147195859f, -0.0996279716f,
    0.0680366606f, -0.0396814086f, -0.0773150474f, 0.0421286449f, -0.0112893237f, 0.0423232876f, -0.0544182174f, 0.0349916257f,
    -0.0204641502f, -0.098966606f, -0.173826814f, -0.0973976254f, -0.00183334271f, -0.0337491445f, 0.00762514165f, -0.0673833713f,
    -0.0722865388f, -0.0444963947f, -0.160266519f, -0.0181783698f, -0.0654930994f, 0.100673296f, 0.235775441f, 0.0994895324f,
    0.17107366f, -0.058829803f, -0.129139096f, -0.181249708f, -0.0594104342f, 0.139512807f, 0.221685708f, 0.0833879113f,
    0.220155314f, 0.237118453f, -0.00846335199f, -0.202427134f, -0.32378611f, -0.271042645f, -0.135580257f, 0.0117340004f,
    -0.0610847138f, -0.161216795f, -0.0830492526f, -0.137129307f, -0.106066279f, 0.0199050866f, 0.120954528f, 0.108580284f,
    0.0257809889f, -0.0438609235f, 0.108511947f, -0.0250796415f, 0.00822990853f, 0.0984331518f, 0.0632199794f, 0.0269124433f,
    -0.0190458409f, 0.103764705f, 0.0631172359f, -0.125121519f, -0.0119512491f, -0.0549542382f, 0.0786130503f, 0.131716758f,
    0.227227241f, 0.086841926f, -0.100887664f, -0.0363761745f, -0.0987666175f, -0.0880559161f, -0.00564227905f, 0.0746198371f,
    0.0476272702f, 0.101308689f, 0.0762315765f, 0.037441805f, 0.0526910648f, -0.0846462399f, 0.116803057f, -0.104281574f,
    0.0166938156f, -0.065828532f, -0.0882994831f, -0.13270852f, -0.11333245f, -0.0923999771f, -0.0817363262f, -0.130098835f,
    -0.00489618396f, 0.042828504f, -0.0708022639f, 0.057969898f, -0.130446121f, 0.0534308068f, 0.0190699138f, -0.0633740649f,
    0.052616749f, 0.107133582f, 0.185059771f, -0.00418562116f, 0.0723761767f, 0.0170710459f, 0.179594934f, 0.026065018f,
    -0.140458658f, -0.0820032135f, 0.0555195808f, -0.0658289418f, -0.0379689001f, -0.0588816814f, -0.0504048057f, 0.0330333635f,
    0.0544193238f, -0.203394935f, -0.0927956477f, -0.0263097174f, -0.138467386f, 0.10854397f, -0.0609452128f, 0.0417534672f,
    -0.0260461029f, -0.0467025787f, -0.150951445f, -0.0650400296f, -0.136688292f, -0.132177949f, -0.144506797f, -0.115159519f,
    -0.15045318f, -0.181118757f, -0.144282043f, -0.0562689006f, -0.0733219832f, -0.0641330555f, -0.0439601019f, -0.0271921139f,
    0.113569751f, 0.0685593709f, -0.00699840253f, 0.0446372181f, 0.0829852894f, 0.198851883f, 0.166764438f, 0.178011969f,
    0.238690332f, 0.150786653f, 0.106491722f, 0.107413143f, 0.100466736f, 0.202971429f, 0.0983264446f, -0.0248323288f,
    0.101430446f, -0.0777423158f, -0.0579734892f, -0.0023442714f, -0.066615127f, 0.00531644188f, 0.153451666f, 0.160895288f,
    0.108126469f, 0.1044131f, 0.168245211f, 0.117888086f, 0.0623307303f, 0.0690406114f, -0.00167321879f, -0.0628743991f,
    -0.117558822f, -0.0430947058f, -0.109338477f, 0.0431180708f, 0.105788656f, 0.116086595f, 0.135908782f, 0.119703487f,
    0.0428847224f, 0.0427842066f, -0.0528661162f, 0.0485301688f, 0.0788104236f, -0.052977331f, 0.041884616f, -0.00323237875f,
    0.0136033278f, -0.0603873171f, 0.0366248786f, -0.0100115919f, -0.039265126f, 0.0370223373f, -0.00579133024f, -0.0281738751f,
    -0.0475347377f, -0.191455349f, -0.106084861f, -0.0864549205f, 0.00253081578f, -0.039969191f, -0.0941997021f, -0.32799238f,
    -0.266772002f, -0.158716455f, -0.143970981f, 0.0759852752f, 0.00372897368f, 0.0851096958f, 0.108304411f, 0.0603685677f,
    0.0218017865f, 0.182344526f, 0.115235388f, -0.0301548056f, -0.055556342f, 0.0796321854f, 0.101445504f, 0.0440015681f,
    0.117566764f, 0.207720011f, 0.211758047f, 0.0869619921f, 0.0604285449f, 0.103468783f, 0.0290317666f, -0.0588816851f,
    0.0940555707f, -0.038176015f, -0.0376956314f, -0.0314867795f, 0.0513849594f, 0.0367800333f, -0.0292678624f, 0.0485178232f,
    0.152679116f, 0.00526034925f, -0.0172171481f, -0.0434040204f, -0.104800053f, 0.0304826368f, 0.161289901f, 0.0756083727f,
    0.178295225f, 0.164074898f, -0.0443795472f, 0.0286907908f, -0.0362383574f, -0.0207648873f, 0.170932367f, 0.0875542164f,
    0.190383509f, 0.101018429f, 0.0697888359f, 0.0495773181f, 0.115123823f, 0.0483815111f, -0.103373513f, -0.167362869f,
    -0.161861226f, -0.086396046f, -0.0601413324f, -0.165188938f, -0.113438614f, 0.0549401566f, -0.0656520948f, 0.0278248135f,
    0.00648550969f, -0.0388307236f, -0.149468005f, -0.215296999f, -0.115678914f, -0.0807585642f, -0.0608676597f, -0.0176165402f,
    -0.0368652493f, 0.0127219837f, -0.0829293281f, -0.137693241f, -0.0827255994f, -0.101181895f, -0.0452535599f, 0.140118003f,
    0.133130386f, 0.245498449f, 0.112707183f, 0.102281883f, -0.0803230628f, -0.139504626f, -0.0182770416f, -0.141001835f,
    -0.0358606279f, -0.0346735045f, 0.0588189214f, -0.0517515317f, 0.111943051f, 0.0479876995f, 0.147839442f, 0.0137112914f,
    0.041942887f, 0.0335506499f, 0.179409549f, 0.196005568f, 0.198675752f, 0.141251951f, 0.0657344609f, 0.0141274873f,
    0.0824418962f, -0.0453639776f, 0.044335153f, 0.000219151014f, -0.0696322098f, -0.0954388678f, -0.118690841f, -0.0623016879f,
    -0.168382987f, -0.180677101f, -0.221659228f, -0.0503082275f, -0.0834036842f, 0.010139389f, 0.0733787417f, -0.0401708484f,
    0.0290419254f, 0.140826702f, 0.0155139482f, -0.116919734f, -0.184821069f, -0.352567613f, -0.181323871f, -0.115514219f,
    -0.182613745f, 0.0267313365f, 0.0401002243f, 0.0493331179f, 0.130397514f, -0.0573220998f, -0.196903855f, -0.134510219f,
    -0.0413504131f, 0.0164076462f, 0.0281185489f, 0.0936342552f, 0.159915134f, -0.0277142748f, -0.10897065f, -0.054276105f,
    -0.0923383161f, -0.0113158394f, 0.109675653f, 0.139653996f, -0.0301577058f, -0.0839370638f, -0.0697288513f, -0.0337360539f,
    0.0671160817f, 0.179507226f, 0.121125072f, 0.144416511f, 0.0319446735f, -0.00390653592f, 0.0992143601f, 0.00749355555f,
    0.0140612992f, 0.024491353f, 1.09124539e-05f, 0.0328722224f, -0.026459692f, -0.0504076928f, 0.0200144518f, 0.235689387f,
    0.144633025f, -0.014507398f, -0.0396961719f, 0.134589553f, 0.214264035f, 0.227571338f, 0.228210568f, 0.233731985f,
    0.114877112f, -0.0267038252f, -0.210792899f, -0.164129868f, -0.124550819f, -0.0531169586f, -0.00304293679f, -0.0675280914f,
    0.183856279f, 0.0760973692f, 0.083853595f, 0.0779448748f, -0.0974778831f, -0.0548608564f, -0.101478219f, -0.0613124073f,
    0.00816251151f, 0.101572491f, 0.105417505f, 0.079634361f, 0.121092685f, 0.124224253f, 0.000890789146f, -0.0156577118f,
    0.232167393f, 0.249489069f, 0.21954979f, -0.0513674356f, -0.204273224f, -0.103137232f, -0.135870457f, -0.0333227366f,
    -0.164020985f, 0.0520122014f, 0.0137880947f, 0.144728079f, 0.0816100463f, 0.0981015638f, -0.158979848f, -0.0380774364f,
    -0.173337832f, 0.0602709427f, 0.0800907463f, 0.0656081811f, 0.00630504685f, 0.0404319614f, 0.0789365396f, 0.0742510483f,
    -0.0490637682f, 0.0920820087f, 0.0168966614f, 0.0723221749f, -0.0739993379f, -0.0708288476f, -0.00952927023f, -0.0519683361f,
    -0.0355832428f, -0.173122317f, -0.126964912f, -0.0279194955f, -0.0271690655f, -0.0938475505f, 0.0639650822f, -0.115627013f,
    -0.100157179f, -0.121948071f, 0.00181284477f, -0.103479192f, -0.0582032017f, -0.124998361f, -0.0168966521f, -0.080842942f,
    -0.00518276123f, 0.0754167438f, 0.0552605726f, 0.231156737f, 0.101530768f, 0.0218258854f, -0.0168841202f, 0.108762525f,
    0.0665016025f, -0.270369828f, -0.121912785f, 0.00407313462f, 0.149853811f, -0.0886879638f, -0.190611199f, -0.41775021f,
    -0.118586086f, -0.0261354111f, 0.0490401126f, -0.0829243287f, -0.132737979f, -0.199391544f, -0.126346901f, -0.0240432657f,
    0.190151006f, -0.074810423f, -0.0364249796f, -0.0574222244f, 0.0999117568f, 0.0509922244f, 0.0453964695f, 0.129787445f,
    0.0643461272f, 0.00612116931f, 0.0249184277f, 0.0481653214f, 0.033529181f, -0.0861474723f, 0.0583176948f, -0.0135163832f,
    0.0906754434f, 0.169797763f, -0.0616255775f, -0.0155139789f, -0.132721156f, 0.031354595f, -0.0356108397f, 0.0683500767f,
    0.0382781327f, 0.0704990476f, 0.0874846429f, 0.113527782f, 0.00569669949f, 0.0738502517f, 0.22613284f, 0.00788200647f,
    -0.0174814425f, -0.134182379f, -0.10449715f, 0.0897163078f, 0.0581115074f, 0.0567830242f, -0.0446885414f, 0.0179373007f,
    -0.186828852f, -0.157755747f, -0.104070149f, -0.0231965818f, 0.0207644813f, -0.0768362656f, -0.0274240989f, -0.170846343f,
    -0.13138175f, -0.106042378f, -0.174509913f, -0.125933796f, -0.100387461f, -0.205348179f, -0.0386363529f, 0.0121005205f,
    -0.00598470028f, 0.145821437f, 0.0776555985f, 0.209921509f, 0.209783435f, 0.159181848f, 0.192625567f, 0.0775529817f,
    0.0840111598f, 0.00776640652f, 0.0332970284f, 0.100868344f, 0.177662581f, 0.0967504457f, 0.166322812f, 0.102595739f,
    0.059077505f, 0.0643394887f, 0.0607451163f, -0.0124508245f, 0.0457598753f, -0.0265753493f, 0.0260103885f, 0.00789418817f,
    0.00653727865f, 0.116719231f, -0.00825480744f, -0.182788f, -0.088241607f, -0.143152133f, -0.0918549225f, 0.0604559816f,
    0.0229295809f, 0.141776711f, 0.169253692f, 0.0411164127f, 0.0457550213f, 0.0326338187f, 0.155271173f, 0.101328097f,
    0.162390038f, 0.245306313f, 0.104989588f, 0.139011949f, 0.0830609426f, 0.0187886283f, 0.0612896867f, 0.0166606344f,
    0.0573936217f, 0.0976167917f, 0.074296385f, -0.00429606345f, -0.0277925562f, 0.117768094f, 0.0172151923f, 0.146752149f,
    0.12222378f, 0.0721300691f, 0.0643828511f, -0.000450124033f, -0.0755609646f, -0.0232003387f, 0.0226256307f, 0.0563388579f,
    0.00447226595f, -0.105759196f, -0.131082118f, -0.233443797f, -0.0730024278f, -0.180659488f, -0.114608809f, -0.0184700675f,
    -0.0418214202f, -0.168395415f, -0.104585387f, -0.215385824f, -0.260989487f, -0.173782974f, -0.0986030921f, -0.173411891f,
    -0.104010835f, -0.0687023625f, -0.0637840331f, -0.0429926552f, 0.050445471f, 0.0231722929f, 0.0507383794f, -0.039085079f,
    0.0601849146f, 0.00609870302f, 0.021373203f, -0.117423333f, -0.164577469f, -0.209864065f, -0.121211059f, 0.0328627303f,
    0.172952369f, 0.205733448f, 0.219649255f, 0.206559196f, 0.0662516803f, -0.0710973069f, -0.100935876f, -0.103888631f,
    -0.167705402f, -0.0488351434f, 0.213167012f, 0.173035949f, 0.0934359655f, 0.00579648605f, 0.0430381149f, 0.191092491f,
    0.103248373f, 0.169940814f, 0.136720151f, 0.0389822349f, 0.104623847f, 0.0713679716f, 0.081495598f, -0.10457129f,
    -0.0126504293f, -0.145855859f, -0.0249079652f, -0.173669219f, -0.0465080887f, -0.0624971725f, 0.0145663973f, 0.114460975f,
    0.226678699f, 0.128692865f, 0.239837572f, 0.137504086f, -0.0745942518f, -0.0991412252f, -0.129396871f, 0.0418323241f,
    0.0323467702f, 0.0638261586f, -0.0149769811f, 0.0989065692f, -0.069536075f, -0.0342485234f, -0.0654360056f, -0.00467934087f,
    -0.0347599834f, -0.117703229f, -0.0660082549f, -0.0810724124f, -0.100507528f, 0.0250818953f, -0.0731856003f, 0.0592883639f,
    0.0730556175f, 0.0389727466f, 0.0474056862f, 0.0366842598f, 0.0951481164f, 0.191117257f, 0.0198446549f, -0.0453931279f,
    0.0274614468f, 0.0289322231f, 0.0490017347f, 0.0695184618f, 0.0658570677f, 0.0664353371f, 0.0952351093f, 0.0894855186f,
    0.0120351892f, 0.0492145196f, -0.0131319929f, 0.103553645f, 0.0116423108f, 0.129311651f, 0.147580817f, 0.23531431f,
    0.106320582f, 0.285590738f, 0.317226708f, 0.287831932f, 0.198131919f, 0.197934538f, 0.0423524156f, -0.0190132577f,
    -0.235102639f, -0.171975538f, -0.149065584f, -0.117599741f, -0.142377526f, -0.118299678f, -0.172803968f, -0.151227027f,
    -0.109569058f, -0.037213292f, 0.0409042276f, -0.0374591351f, -0.0064369943f, -0.0205559991f, -0.0728021637f, -0.0764086619f,
    -0.0253250487f, -0.0827529803f, -0.0370100327f, -0.0455868691f, 0.0903586596f, 0.13068451f, -0.0596350804f, 0.142925248f,
    0.113254122f, -0.0442012586f, -0.0230167955f, -0.0100329993f, -0.0153386453f, 0.069570601f, -0.0284771062f, -0.133026019f,
    -0.0592604503f, -0.186953962f, -0.213134557f, -0.0720623583f, -0.155678526f, -0.127780125f, 0.0110945562f, 0.151414186f,
    0.101628646f, 0.0658808202f, 0.144289851f, 0.073666051f, 0.109162025f, -0.0321053974f, 0.0023439026f, 0.0299785696f,
    0.103944033f, -0.13812153f, -0.0942649618f, -0.0374389775f, 0.0517284013f, -0.116616115f, -0.170309871f, -0.334065914f,
    -0.125354379f, -0.0858770683f, 0.0795794725f, 0.0152566014f, 0.0238161571f, -0.095322527f, -0.333354264f, -0.451357037f,
    -0.369065762f, -0.287715167f, -0.0912791565f, 0.283705831f, 0.464710891f, 0.51765877f, 0.348852783f, 0.198296577f,
    0.0824586302f, 0.00385603495f, 0.152612165f, 0.101987019f, 0.254409164f, 0.230059132f, 0.109434195f, -0.0463216789f,
    -0.114262454f, -0.186126739f, 0.0541506f, 0.0385146774f, 0.0183052868f, 0.111909978f, 0.176421657f, 0.204850852f,
    0.0192383938f, -0.00657319464f, -0.0113430209f, -0.140808478f, -0.100752212f, 0.0565604195f, -0.0537182651f, 0.0795561001f,
    -0.0821929947f, -0.0313121937f, -0.0400225148f, 0.128357425f, -0.0355357379f, 0.0350141339f, -0.147974312f, -0.0478498787f,
    -0.110400133f, -0.114089452f, -0.0187390782f, 0.144594505f, 0.145017222f, 0.0717358142f, 0.00346582406f, -0.0788361803f,
    0.00353367557f, 0.00410869578f, 0.0810872167f, 0.0639184192f, 0.218297556f, 0.129138574f, 0.117940307f, 0.0616466478f,
    0.0617002919f, 0.027147511f, 0.000764903205f, -0.035324391f, 0.0300137289f, 0.0959899798f, 0.0896968022f, 0.0655554235f,
    -0.026268065f, 0.0389068723f, 0.0167320147f, -0.101441763f, -0.119074441f, -0.0270845722f, 0.00575986924f, -0.0266912114f,
    0.0104175024f, -0.00373373413f, 0.145056739f, -0.0286544226f, -0.0516034663f, 0.0445391424f, -0.0539105833f, 0.12847434f,
    0.102280438f, 0.0938347355f, 0.238791391f, 0.187214047f, 0.133105814f, 0.125114486f, 0.186723784f, 0.267035514f,
    0.176819563f, 0.0290818978f, -0.0299461577f, 0.134061038f, 0.0656786263f, 0.0214060005f, -0.163011596f, -0.340958983f,
    -0.0408501774f, 0.264946759f, 0.172529191f, -0.183887988f, -0.216225579f, -0.235069901f, 0.0520893298f, 0.00548907695f,
    -0.0573103912f, -0.0602968372f, -0.147798106f, -0.187238172f, -0.0219797939f, 0.00728611741f, -0.0104669593f, 0.0495609157f,
    0.0605792888f, -0.0503795743f, -0.286965579f, -0.187666476f, -0.173844948f, -0.177286252f, -0.103097498f, -0.326080173f,
    -0.064450562f, 0.263033867f, 0.430258304f, 0.243523747f, 0.280358106f, 0.204543531f, 0.173069313f, 0.241640776f,
    0.172280356f, 0.151861891f, 0.064720735f, 0.103710927f, -0.128929064f, -0.123106442f, -0.0205513518f, 0.140376195f,
    0.0487332083f, 0.144881323f, 0.00483840983f, -0.0394202434f, -0.0301346779f, 0.0333670899f, 0.0547166876f, 0.107826412f,
    -0.0491957292f, -0.180238217f, -0.129639164f, -0.0447928086f, 0.0880578235f, 0.125124395f, 0.0910061896f, 0.0111364666f,
    0.11424192f, 0.113023855f, 0.0176285468f, -0.0710818842f, -0.129112646f, -0.156825289f, -0.171907544f, 0.0867321417f,
    -0.023367092f, 0.150507659f, 0.0474576242f, 0.107114241f, 0.242809147f, 0.223687097f, 0.259132445f, 0.103872269f,
    0.153948694f, -0.0383438244f, -0.132689312f, -0.100807384f, -0.0691789314f, 0.158862546f, 0.00936833024f, -0.236646026f,
    -0.105805472f, 0.0907260403f, 0.0897430778f, 0.101322591f, -0.0893142223f, -0.193330422f, -0.106941782f, 0.0541010424f,
    0.161195487f, -0.0812620819f, -0.0889619365f, -0.0202569813f, -0.0359672271f, 0.198787928f, 0.145257682f, 0.18045564f,
    0.0977374092f, 0.117195927f, 0.0458137132f, 0.0354870446f, 0.0564341769f, 0.0120868515f, 0.0809456632f, -0.0846544355f,
    -0.0746797174f, -0.109036699f, -0.090659067f, 0.0692231432f, 0.0646278411f, 0.229671374f, 0.00291086943f, -0.224939093f,
    -0.374367416f, -0.157400981f, 0.294354618f, 0.0524635017f, -0.133693129f, -0.288061172f, -0.0287511814f, 0.0581332371f,
    0.259230405f, 0.233421668f, 0.0755828023f, 0.116722189f, -0.0240525976f, -0.116332769f, 0.043711178f, 0.0419894382f,
    0.00661175f, 0.0254709739f, -0.0895359218f, -0.235445157f, -0.209474966f, -0.00809253287f, -0.123151667f, -0.0318578407f,
    -0.0980788246f, 0.108009614f, 0.110402346f, 0.00338044739f, 0.0594087765f, -0.0149287451f, -0.0116000203f, -0.0225752499f,
    0.0593520366f, -0.00279821875f, 0.0667969957f, -0.0779625177f, 0.0162299946f, -0.00127111049f, 0.0581569411f, 0.0100180544f,
    -0.0661514103f, -0.0152456034f, -0.0914703459f, -0.0461934209f, 0.0530453362f, 0.0506338738f, 0.0933227837f, 0.137595415f,
    0.100643538f, 0.100504018f, 0.148407832f, 0.209733084f, 0.19110468f, 0.0375362039f, 0.0253063552f, -0.0974708647f,
    0.111017942f, 0.0573519059f, 0.0781424493f, -0.111643255f, -0.0292854775f, -0.121003076f, -0.0884307399f, -0.114417158f,
    0.0235628616f, -0.0316058099f, 0.0178824198f, 0.0359877199f, 0.13308993f, -0.00968783069f, 0.0973986015f, 0.122223265f,
    0.00377015956f, -0.0578334183f, -0.273207486f, -0.0719785616f, -0.0146596571f, 0.154998288f, 0.0601600781f, -0.043774657f,
    -0.00418284023f, 0.0239064507f, -0.0573061965f, 0.161717027f, 0.067495741f, 0.0867745355f, -0.0408647545f, 0.110927276f,
    -0.0231747832f, -0.0230778195f, 0.0687259734f, 0.126708582f, 0.0322760828f, 0.0613464527f, -0.0253567174f, 0.0636280552f,
    -0.0641858205f, 0.0505841002f, 0.0463519767f, 0.162414595f, 0.112897158f, 0.0999993905f, 0.0980806425f, 0.122149751f,
    0.0101196514f, -0.106827639f, -0.0832319185f, -0.144844934f, -0.0194287393f, -0.156866968f, -0.0523437262f, 0.131251454f,
    0.404968798f, 0.43225953f, 0.391951799f, 0.324716449f, 0.119940616f, -0.0197842326f, -0.0825359598f, -0.0616783127f,
    -0.249213666f, -0.260062397f, -0.315061629f, -0.259078234f, -0.246702552f, -0.113834217f, -0.197206676f, -0.164631486f,
    -0.0412550792f, -0.0442559831f, -0.090313673f, -0.132805184f, 0.053687755f, -0.0264901575f, -0.0562333874f, -0.155408084f,
    -0.0196001697f, 0.0251361821f, 0.0631712824f, 0.0821446627f, -0.0438773446f, 0.0914418846f, 0.0184594672f, 0.0379692204f,
    0.0388996899f, -0.0860257968f, -0.0710215345f, -0.0186540224f, 0.0145048089f, -0.158005968f, -0.231717944f, -0.188399523f,
    -0.248115957f, -0.246886969f, -0.125855416f, -0.121817797f, -0.0142386016f, -0.0658799037f, -0.171997771f, -0.0501174815f,
    -0.0884667113f, 0.0884919092f, 0.0148180155f, -0.0660922974f, -0.214433387f, -0.308209628f, -0.235634476f, -0.158266321f,
    -0.00382406008f, -0.0947065726f, 0.0310403984f, 0.229253873f, 0.126255244f, 0.275467753f, 0.2104747f, 0.144395784f,
    0.0870024115f, -0.0462241508f, 0.00931548327f, -0.0824535191f, 0.17084448f, 0.0952699333f, 0.217128947f, 0.1559605f,
    0.0987430662f, 3.94432645e-05f, -0.0763590112f, 0.00138834387f, -0.0694337115f, -0.142620236f, -0.117028818f, -0.0880130827f,
    -0.0600365177f, -0.0348553099f, -0.120484576f, -0.086901404f, -0.131333634f, -0.112124309f, -0.0623541214f, 0.044920247f,
    -0.00162278605f, 0.107791767f, 0.00310726278f, 0.00151011953f, 0.0168112572f, -0.0413190722f, -0.0974829569f, -0.0885152817f,
    -0.0168389641f, -0.141033515f, 0.0678476095f, 0.00369218877f, 0.0386148728f, -0.0633438751f, -0.0435853936f, -0.0397668369f,
    0.00303202402f, 0.00200292375f, 0.0357600898f, -0.0389091559f, 0.122011445f, 0.0138040148f, 0.103644788f, -0.0553855039f,
    0.047299169f, 0.0148046128f, -0.0311221518f, 0.124742121f, -0.0292113163f, -0.000835135521f, 0.0633005053f, 0.0543194525f,
    -0.0794667229f, 0.0600701384f, 0.0409428217f, -0.0318055227f, -0.0132206334f, -0.0168025233f, 0.0283074044f, -0.00761073921f,
    0.0811855569f, 0.0591013394f, 0.0370098054f, -0.0324228406f, -0.0674344376f, -0.0457540005f, 0.136883795f, 0.102964923f,
    0.0662709773f, 0.131554291f, -0.020845307f, 0.0921590626f, 0.0807403177f, 0.209028333f, 0.11272195f, 0.162374839f,
    0.188334778f, 0.174522534f, 0.294217408f, 0.286849141f, 0.285890847f, 0.00168509572f, -0.121702984f, -0.178393319f,
    -0.149962232f, -0.13795945f, -0.113291055f, -0.170909941f, -0.159230933f, -0.177835539f, -0.233291686f, -0.071232304f,
    -0.1145657f, -0.0838559717f, -0.0547644943f, -0.0377937742f, -0.075164333f, -0.0881328657f, -0.19337672f, -0.153415546f,
    0.0114899622f, 0.0148611283f, -0.0713888332f, -0.0575793311f, -0.0215683561f, -0.0634246916f, 0.017825596f, -0.0257396363f,
    -0.0467965677f, -0.077709496f, 0.172663227f, 0.127865091f, -0.0571816117f, -0.191383779f, -0.0805262327f, 0.0256022364f,
    0.0511861667f, 0.0756863132f, 0.186065465f, 0.106913187f, 0.131315336f, 0.201693207f, 0.000652656483f, -0.0191958733f,
    -0.00538305519f, -0.152793005f, -0.0446678437f, -0.0460982025f, 0.004351818f, 0.0889699459f, -0.0587132014f, -0.0719241053f,
    0.0897010043f, -0.110551938f, -0.00668290071f, -0.128436387f, -0.0596968159f, 0.0153134298f, 0.074387081f, 0.10523513f,
    -0.0839822814f, -0.0524762534f, -0.184700653f, -0.247830659f, -0.0999988467f, 0.166116387f, 0.284813017f, 0.343898952f,
    0.243874431f, 0.0330287404f, 0.0844395459f, 0.157167107f, 0.219011828f, 0.112774014f, 0.0328078829f, 0.0754630491f,
    -0.0862828717f, 0.0356953852f, 0.0828353986f, -0.0837417915f, -0.00312124006f, -0.0438454226f, -0.0572600476f, 0.0713755637f,
    -0.034998145f, 0.0311928764f, 0.0519401431f, 0.0913558379f, 0.0606490783f, -0.0178806409f, 0.21053277f, 0.159482092f,
    0.321627647f, 0.298219115f, 0.0889170691f, -0.127962187f, -0.33843112f, -0.254552782f, -0.217083365f, -0.0923254937f,
    -0.13083306f, -0.0248562489f, 0.000436635513f, 0.0390824042f, 0.0721866563f, 0.0616901182f, 0.0531135947f, -0.0674901605f,
    -0.0809547305f, -0.0662597939f, -0.0593312979f, -0.0200147331f, -0.0298389196f, -0.122084841f, -0.124265663f, 0.0341970958f,
    -0.0118670706f, 0.0647419244f, -0.0414980911f, -0.167853072f, -0.10635712f, -0.073686786f, -0.0304564387f, -0.1786367f,
    -0.145328164f, 0.0377360247f, 0.11435277f, 0.119457446f, 0.109670959f, -0.240574032f, -0.262343138f, -0.10475827f,
    0.0387187228f, -0.105449647f, -0.146206513f, -0.069367379f, -0.153767794f, 0.0132002123f, 0.096334286f, -0.0977651328f,
    -0.168874249f, -0.0249624755f, -0.123480804f, 0.0426807217f, 0.0285674948f, 0.0837933272f, -0.0211451706f, 0.0230702907f,
    -0.0234913621f, 0.0359697342f, 0.0646709502f, -0.00383885391f, 0.084682785f, 0.197492078f, 0.138291925f, -0.089892216f,
    -0.120968007f, 0.0179359727f, -0.073350355f, 0.142150775f, 0.147751078f, 0.151313901f, 0.0963449776f, 0.0592114367f,
    0.0811913386f, -0.0354417264f, -0.1559944f, 0.0104267513f, 0.0982462466f, 0.114234373f, 0.0364365056f, -0.162868679f,
    -0.141040787f, -0.218477085f, -0.177862972f, 0.0722101852f, 0.0470618978f, -0.181881979f, -0.0920133218f, 0.038272351f,
    -0.024309393f, -0.0854691714f, 0.054171484f, 0.0772520453f, 0.121741667f, 0.178108722f, 0.042815391f, -0.140172005f,
    -0.101019569f, -0.0619973317f, -0.135857165f, -0.112547301f, 0.0371930674f, -0.0999837667f, 0.128796443f, 0.104841195f,
    -0.00961556192f, -0.114622138f, -0.13214013f, -0.0228493195f, -0.0554881394f, -0.039798785f, -0.0301234554f, 0.107605062f,
    -0.0591784716f, 0.00707816239f, 6.72188908e-05f, 0.0525458828f, 0.0976176187f, 0.0687701553f, 0.0394523367f, -0.0537817702f,
    -0.0398823842f, -0.0717644915f, -0.0144467112f, -0.0394971482f, -0.0138819944f, -0.0901947394f, -0.0330739208f, 0.047115609f,
    -0.131924272f, -0.00665428489f, 0.00928600412f, -0.036036063f, 0.0483790971f, -0.0226014107f, 0.0399218574f, -0.012214506f,
    0.0833451822f, 0.00348431128f, -0.0396129452f, -0.0380968302f, -0.0119472686f, 0.041706223f, -0.235373706f, -0.128522158f,
    -0.195223629f, -0.0360658914f, -0.120028064f, -0.00824396592f, -0.0813433379f, -0.00527435634f, -0.0890498757f, -0.106657371f,
    -0.044666633f, -0.0948845074f, -0.0973361805f, -0.0441012904f, 0.227244601f, 0.307248175f, 0.199221402f, 0.304529041f,
    0.14447017f, 0.256138921f, 0.000332759198f, -0.110862836f, -0.114063665f, -0.160835207f, 0.0762699768f, -0.125339895f,
    -0.00176578702f, -0.0501712151f, -0.036181245f, 0.0364214294f, -0.0303220805f, -0.00476054521f, -0.0617211275f, 0.0652008876f,
    0.183420524f, 0.124390393f, 0.200151518f, 0.0591599867f, 0.0175710358f, -0.0486586951f, 0.0879939049f, 0.0259658825f,
    0.138599902f, 0.0577450059f, -0.0292165689f, 0.0320618525f, 0.00631451793f, -0.0619672872f, -0.0628964826f, -0.0186746083f,
    -0.0382300466f, -0.080622308f, 0.00145033863f, 0.00999563932f, -0.161601841f, -0.245943174f, -0.0339664854f, -0.0168298334f,
    -0.0750136673f, -0.0433975868f, 0.00376242492f, 0.0362367854f, 0.0970648006f, 0.156033933f, 0.11901509f, 0.0701977909f,
    0.0556603782f, -0.0973525196f, 0.0400097109f, 0.0838264972f, 0.09617915f, -0.0520979241f, 0.0115579842f, -0.0580355525f,
    -0.0641911775f, -0.118139736f, -0.0301371776f, -0.0392000861f, -0.0538569838f, 0.109201349f, 0.0700639263f, 0.135913044f,
    0.0417738445f, 0.0637658685f, 0.0699385405f, 0.0689923614f, 0.0640251935f, -0.02572334f, 0.00915832166f, -0.0419881269f,
    -0.0291686095f, -0.0635558441f, 0.00690164929f, 0.0203344543f, -0.104591914f, -0.107662745f, -0.169547379f, -0.135047093f,
    -0.129886061f, 0.0683381036f, 0.0301621221f, 0.0853688493f, -0.0538245067f, -0.209770754f, -0.247965515f, -0.0970906317f,
    -0.140130341f, -0.0336168297f, 0.0689176172f, 0.015533994f, 0.127435237f, -0.012406772f, -0.038826827f, 0.012760452f,
    -0.0227751657f, -0.031806998f, 0.00504258974f, 0.0465929136f, 0.0627040863f, 0.026354596f, -0.0110336766f, 0.0766820833f,
    -0.0338475369f, -0.0026864144f, -0.0466189347f, -0.00355769275f, -0.0208061486f, -0.0441868976f, -0.163660258f, 0.0698880106f,
    0.130006269f, 0.193552986f, 0.142208874f, 0.0196900163f, -0.140146032f, -0.121677145f, -0.12246152f, -0.146493405f,
    -0.10679391f, -0.137999177f, -0.0346220545f, 0.0435796641f, 0.0953485072f, 0.174899712f, 0.137376532f, 0.181556806f,
    0.150022015f, -0.0850240216f, -0.23504968f, -0.110822216f, -0.148311391f, 0.00821648445f, -0.0882196724f, 0.00415563351f,
    -0.101149842f, 0.0866163224f, 0.0166149028f, -0.0461224653f, 0.0372812673f, -0.0358291157f, -0.0187353473f, -0.0656827763f,
    0.0747423247f, 0.143851206f, 0.093356818f, -0.0391186625f, -0.0531927682f, 0.0665209368f, 0.0113455085f, -0.00395757798f,
    -0.038494207f, -0.0722820535f, -0.0830783993f, -0.00144537946f, -0.00740245637f, -0.119161829f, 0.0730171725f, -0.068783395f,
    -0.0730493069f, 0.0811697319f, -0.0762395412f, 0.0192394331f, -0.00679064868f, -0.0133827878f, -0.0524660125f, 0.0679962337f,
    -0.0716747046f, -0.0468482226f, -0.184136778f, -0.253461272f, -0.176027015f, -0.132927299f, -0.0992401391f, -0.0148584414f,
    -0.202371627f, -0.0808967575f, -0.0918766186f, -0.16898343f, -0.11835295f, -0.0525746942f, 0.00214936305f, -0.0102223027f,
    0.139795393f, 0.0803099945f, 0.0406818055f, 0.111199774f, 0.062476065f, -0.0170020703f, -0.14221184f, -0.189059347f,
    -0.0833065584f, 0.00440909201f, -0.0855698287f, -0.0739226341f, 0.0834294036f, -0.00373462471f, 0.0744199604f, 0.0688200742f,
    0.0591856726f, -0.0275254548f, 0.115557767f, -0.0875014886f, -0.0985941589f, -0.0880614445f, -0.0424027145f, -0.0975126773f,
    -0.303622603f, -0.298596382f, -0.217064455f, -0.0306595471f, 0.197622344f, 0.320103556f, 0.32586357f, 0.16643472f,
    0.0252367444f, -0.194783315f, -0.161071107f, -0.150746405f, 0.0242443513f, 0.0606766976f, 0.0707073733f, 0.119092174f,
    0.0389791653f, -0.0631572828f, -0.131011426f, -0.207723707f, -0.0941808447f, 0.0550097339f, 0.149802968f, 0.177428365f,
    0.313239843f, 0.0256398506f, -0.0773652419f, -0.278206497f, -0.0833514482f, -0.0424266234f, 0.112120442f, 0.164534047f,
    0.00577435968f, 0.132391617f, 0.0429429449f, -0.0238329265f, -0.0925235599f, 0.0625710487f, 0.0681133494f, 0.0450645722f,
    0.109918773f, 0.28323248f, 0.106256023f, 0.103478573f, 0.172860011f, 0.0305238049f, 0.0266351141f, 0.0992033631f,
    0.124932066f, 0.0969771594f, 0.148936749f, 0.080343388f, 0.160062477f, 0.116234422f, 0.172605172f, 0.0480067842f,
    0.0167745091f, 0.0815336034f, -0.0116776163f, 0.148497745f, 0.0327473581f, 0.103315942f, 0.18313323f, 0.00596358534f,
    0.141953334f, 0.115249895f, 0.0597394966f, 0.159298465f, 0.154645205f, 0.115419015f, -0.0883394107f, -0.105195135f,
    0.0236668885f, 0.0332904346f, 0.103362665f, -0.0411468484f, 0.117207974f, -0.0344127081f, -0.0948011354f, -0.024408577f,
    0.00608631782f, -0.038646698f, -0.0930861831f, -0.190748513f, -0.105408236f, -0.0527980141f, 0.0440936014f, 0.196675614f,
    0.0496124141f, -0.0339415073f, -0.0317983627f, 0.0439020693f, 0.0787814409f, 0.0652272478f, 0.105829626f, -0.0256817378f,
    0.100239769f, 0.0234224424f, 0.0986169577f, 0.192060232f, 0.244914114f, 0.255769551f, 0.154499277f, 0.0906055197f,
    -0.0854497924f, -0.0485634543f, -0.145699129f, -0.0382613055f, 0.0730745643f, 0.0461257398f, 0.106959447f, -0.0612744391f,
    0.0657592267f, 0.0455625542f, -0.000330308976f, -0.232020587f, -0.173221022f, 0.0525317714f, -0.0266761165f, 0.0193519238f,
    0.0249175597f, 0.0311276279f, -0.155468985f, -0.147836924f, 0.0176076796f, -0.0568848774f, -0.124613233f, -0.0155947162f,
    -0.069525063f, -0.160703287f, -0.00151193095f, -0.0157924388f, -0.0922654718f, -0.0664549544f, 0.244763479f, 0.471360594f,
    0.351991236f, 0.293673635f, 0.0713068023f, -0.0321893916f, 0.0427045822f, -0.0623191744f, -0.160964295f, -0.0965207666f,
    -0.0396095105f, -0.153464109f, -0.0588134117f, -0.128734484f, 0.0522425957f, 0.0382489897f, -0.0265997462f, -0.0978923887f,
    -0.0224244781f, 0.131500006f, 0.0752990693f, 0.263193727f, 0.133929163f, 0.0814806744f, -0.0491156057f, -0.0482391268f,
    0.0532981567f, -0.112781428f, -0.153754845f, -0.103258058f, 0.0240569562f, 0.0442570001f, 0.0401701406f, -0.0687798038f,
    -0.0268666651f, -0.00250829267f, -0.117607467f, 0.0241793394f, -0.0409308113f, 0.0218037497f, -0.0532614775f, -0.0286222938f,
    0.033782538f, 0.149210319f, 0.0644552559f, 0.0252584089f, 0.0330980793f, 0.110200882f, 0.198576853f, 0.0163768269f,
    0.0892266855f, -0.182647571f, -0.0699236542f, -0.109846875f, 0.00841074251f, -0.0543581061f, -0.0268797427f, -0.0162476394f,
    -0.0612956733f, -0.0766334534f, -0.0659559518f, -0.0359475538f, -0.0936736688f, -0.175595477f, -0.124525733f, -0.00379490526f,
    -0.110854879f, -0.166792408f, -0.147218212f, -0.171834201f, -0.281147599f, 0.0262069572f, 0.133286759f, 0.0913421363f,
    0.0627368614f, -0.00971107557f, -0.0164165162f, -0.066408433f, -0.111287564f, -0.0538220219f, -0.138406768f, -0.0416976921f,
    0.0292945765f, -0.0137625365f, -0.0569671616f, -0.117617376f, -0.158031225f, -0.134391949f, 0.0756627917f, 0.0415600128f,
    0.059653312f, 0.149511829f, 0.14989765f, 0.119564325f, -0.0143264718f, -0.0677153692f, -0.0537081026f, -0.00574294012f,
    0.127266601f, -0.0551545285f, 0.00708803348f, 0.0820752531f, -0.005802189f, -0.0784379095f, 0.0583146922f, 0.0507561676f,
    0.032630574f, -0.0699254125f, 0.111264057f, 0.115942344f, 0.098836042f, 0.0843507126f, 0.103025846f, -0.108516254f,
    -0.220542341f, -0.0532743335f, 0.0569833256f, 0.140880719f, 0.101855777f, 0.191650018f, 0.105024971f, 0.152347773f,
    -0.00116453285f, 0.0782296658f, 0.0591191575f, 0.0872869566f, 0.00347569562f, -0.0266266353f, 0.0197505429f, 0.0408843234f,
    -0.0191783067f, 0.0274641588f, 0.267323792f, 0.208920911f, 0.303108901f, 0.306184292f, 0.260790795f, 0.15052177f,
    -0.0189847182f, -0.239371464f, -0.146439403f, -0.227417171f, -0.12530598f, -0.205944166f, -0.106258318f, -0.0494605526f,
    -0.0842959061f, 0.00975599047f, -0.152013138f, -0.0992923602f, 0.0746657029f, -0.0428081416f, -0.00999125838f, -0.162412003f,
    -0.207626581f, -0.253560483f, -0.21435526f, -0.15743427f, 0.11017736f, 0.0586116947f, -0.106314383f, -0.177532747f,
    -0.178727627f, -0.246262357f, -0.115107916f, -0.0611452051f, -0.148191795f, 0.0639220998f, 0.0209458768f, -0.0169837959f,
    0.00653547281f, -0.0359735191f, -0.0202606991f, -0.0698665306f, -0.0253445338f, -0.0640510172f, -0.0232517365f, -0.203177258f,
    -0.128609285f, -0.0683626607f, 0.00371843018f, -0.206305757f, -0.104362607f, -0.0658392608f, 0.0228857081f, -0.0147656528f,
    -0.0377344377f, -0.0114665926f, -0.234497979f, -0.0967439115f, -0.0564030893f, -0.0646456704f, -0.0678057522f, 0.0414562337f,
    -0.00905146636f, -0.0293881986f, 0.0439945385f, 0.0165201835f, -0.0983771607f, 0.0798388571f, -0.0959697142f, 0.0356570482f,
    0.129397288f, 0.0849076435f, 0.128686875f, -0.0322199315f, -0.166636333f, -0.0498073176f, 0.031805981f, 0.072446458f,
    0.164167747f, 0.325731426f, 0.172347054f, 0.040701557f, 0.0681110546f, 0.187451005f, 0.182387173f, 0.190047041f,
    0.158996969f, 0.0968886018f, 0.257701665f, 0.168573886f, 0.101435684f, 0.103804961f, -0.0155923814f, 0.212847322f,
    0.0668541566f, 0.257348865f, 0.123606965f, 0.0980707258f, 0.119956061f, 0.0904940441f, 0.00895921048f, 0.00722029293f,
    -0.0131220343f, 0.14158839f, 0.113893904f, -0.0857933611f, 0.0193744395f, -0.0105154132f, -0.0195651948f, -0.0826136321f,
    0.0449504815f, 0.0639505014f, -0.0744063035f, 0.0270464718f, -0.188396737f, -0.148274794f, -0.116869673f, -0.0155760413f,
    0.047302939f, -0.0805946589f, -0.00806754176f, 0.0467804074f, 0.0645124838f, -0.0795898288f, -0.0285773296f, 0.0845865086f,
    0.0182320252f, -0.00945998635f, -0.00991067942f, -0.00906450208f, 0.0680337101f, 0.23500219f, 0.157719553f, 0.169641018f,
    0.194256097f, 0.0838116035f, -0.0581184849f, 0.0414455757f, 0.0734757259f, -0.0537553281f, -0.0635689124f, -0.0572055951f,
    0.0636530146f, -0.0799391568f, -0.10326612f, -0.0594778657f, 0.00798031129f, -0.0787008181f, -0.0874189362f, 0.0964870676f,
    -0.0179058518f, -0.0931932405f, -0.0888661742f, -0.211683542f, -0.137423456f, -0.114801548f, 0.136990041f, 0.181716621f,
    0.115747184f, 0.128551126f, 0.144714266f, 0.219237775f, 0.0445367992f, 0.0585457981f, -0.0142855849f, -0.0321626402f,
    0.016512135f, 0.0372588448f, -0.159405991f, -0.106956936f, -0.0595861971f, -0.129430473f, 0.0195815843f, -0.0717407465f,
    -0.10753835f, -0.0661574379f, 0.0406745411f, -0.0725344047f, -0.101236381f, 0.135694355f, -0.0064448081f, -0.0380156823f,
    0.00916349329f, -0.0248852186f, -0.143640041f, -0.0230898764f, -0.0407141782f, -0.128301412f, 0.0147830779f, -0.0847125873f,
    0.0513575748f, -0.012361004f, 0.0582262315f, -0.0168155897f, 0.118161008f, -0.0401301868f, -0.141314074f, -0.110156231f,
    -0.0351675786f, -0.071633935f, -0.080321081f, -0.027658049f, -0.1474877f, -0.192136422f, -0.0100430325f, 0.0349479318f,
    0.0178975314f, 0.00899811182f, -0.0595960692f, 0.0562302507f, -0.0336095244f, 0.0025042342f, -0.02832493f, 0.0509978272f,
    0.0552007481f, 0.00446547428f, -0.0672523901f, -0.127619043f, -0.0391797088f, -0.0527761355f, -0.0716478601f, -0.0592034794f,
    0.108637303f, 0.150256753f, 0.0679906085f, 0.183697134f, 0.154491335f, -0.00444693398f, 0.0860139504f, -0.00957342051f,
    -0.00198976975f, -0.0614844337f, 0.0203727018f, 0.107624792f, 0.146724179f, 0.103540972f, 0.0727455989f, 0.00463738758f,
    -0.0101547828f, -0.0947390422f, -0.00400730036f, -0.085358955f, -0.199610099f, -0.0289214142f, 0.046966508f, 0.286907345f,
    0.275288582f, 0.286407858f, -0.0114595518f, -0.184579581f, -0.191406146f, -0.0447662175f, -0.168231636f, -0.0171029903f,
    0.00201177876f, -0.00185447012f, 0.14756161f, 0.0628414601f, 0.199194849f, 0.218369395f, 0.137046486f, 0.156057641f,
    -0.00562491501f, -0.112985827f, -0.207161844f, -0.1557201f, -0.20848231f, -0.177142993f, 0.0333685055f, 0.177879915f,
    0.112720326f, -0.00104690704f, 0.00505448459f, -0.0466063172f, -0.180274665f, 0.0462372713f, 0.0705193058f, 0.137205392f,
    0.0122740148f, 0.178085789f, -0.0221111085f, -0.00467496738f, -0.0271112453f, -0.0458683819f, -0.0757634789f, -0.0301774237f,
    -0.0244435593f, -0.0256041195f, 0.0490857922f, -0.0438876338f, -0.135841385f, -0.115831144f, -0.157836199f, -0.0497027189f,
    0.00947365537f, -0.0646008179f, 0.0465401113f, 0.100325882f, 0.124944396f, 0.138794392f, 0.0250869151f, 0.149556205f,
    -0.0525502823f, -0.0397824571f, -0.00309683732f, -0.107654326f, -0.0138994912f, -0.126264423f, -0.129701555f, 0.0625983104f,
    0.0638442859f, -0.0366722904f, 0.0549107678f, 0.0520214587f, 0.114527293f, 0.125523865f, 0.0372952521f, 0.151392713f,
    -0.0257932562f, 0.0661723465f, -0.0331209563f, 0.0875425264f, 0.162157983f, 0.0406684764f, 0.100896344f, 0.0900796801f,
    0.0787168294f, 0.0559957512f, -0.0130046504f, 0.0145391328f, 0.05169411f, -0.00557266874f, -0.166477844f, -0.142525658f,
    -0.0955874771f, -0.0586327575f, -0.063561663f, 0.0704714656f, 0.0171776544f, -0.0275249574f, -0.0308358949f, 0.0166257862f,
    0.00178495469f, 0.0336302668f, -0.0740743056f, 0.0611309037f, -0.000628950715f, 0.0185574293f, -0.00724316016f, 0.00140286749f,
    0.00585545972f, -0.0338052623f, 0.107012227f, 0.0355397761f, -0.0291352198f, 0.0785295516f, -0.132228911f, 0.00743043097f,
    -0.0576317646f, -0.0820429549f, -0.123939477f, -0.0115389898f, -0.117533036f, 0.0558985621f, 0.0839164555f, 0.011729992f,
    0.0658701882f, 0.148685709f, 0.187144637f, 0.101883486f, -0.0343857557f, -0.0381044112f, -0.161368132f, -0.189091533f,
    -0.108339541f, -0.115234613f, -0.134554327f, -0.159686759f, -0.151440769f, -0.231195226f, -0.200049952f, -0.270422459f,
    -0.282428652f, -0.199817047f, -0.277363122f, -0.193012238f, -0.0809912384f, 0.247342467f, 0.278267592f, 0.261204094f,
    0.175069839f, 0.216597125f, 0.182156935f, 0.105985053f, 0.0257140528f, 0.0109317945f, 0.0700370818f, 0.022108376f,
    0.0898980945f, 0.0807641074f, 0.065300189f, 0.0792669505f, 0.046318505f, 0.0371488295f, 0.168354943f, 0.0634096563f,
    0.148773327f, 0.00509619713f, 0.0628026277f, -0.0223097429f, -0.0805310979f, -0.0521102734f, -0.147125736f, -0.0945528522f,
    -0.0660146624f, -0.124116138f, -0.01636854f, -0.0282472633f, -0.0800229311f, 0.0151871284f, -0.1787415f, -0.0821564049f,
    -0.0681005195f, -0.105617926f, -0.0514614731f, -0.175295696f, -0.155142218f, -0.0352004357f, -0.0881288201f, -0.0569115654f,
    -0.0922450796f, -0.0509493165f, 0.0728757307f, 0.053244967f, 0.0788050368f, 0.0288094282f, -0.00382128381f, 0.0245354343f,
    -0.144212797f, 0.0172256213f, 0.0147463409f, 0.0738318935f, -0.00583255105f, 0.113891467f, 0.0367239974f, 0.0797106698f,
    0.00674484763f, 0.0261195861f, -0.068468079f, -0.144018024f, -0.051688008f, -0.177955523f, -0.138491288f, -0.0128564108f,
    0.000404631486f, -0.0190006718f, -0.0201832391f, 0.0401417315f, -0.0141047817f, 0.0540219769f, 0.0521697402f, 0.023399068f,
    0.062383309f, -0.0177514423f, 0.0268050283f, -0.0530467555f, 0.0991647914f, -0.119292021f, -0.0852198228f, -0.154082596f,
    -0.102883548f, 0.00968503579f, 0.158404127f, 0.0668250173f, 0.0992567092f, -0.0259230044f, 0.0891505107f, 0.00804346148f,
    0.126597464f, 0.186150372f, 0.186051145f, 0.20818451f, 0.0166014545f, -0.0685182437f, -0.14977549f, -0.122949228f,
    -0.0767092407f, -0.11607521f, -0.173531622f, -0.160442382f, -0.10416887f, 0.00242505898f, -0.0313515887f, -0.155802667f,
    -0.218456537f, -0.0600097105f, -0.238886505f, -0.10825675f, -0.0150808897f, -0.0881263241f, -0.0860290453f, -0.0433711074f,
    -0.0289517287f, 0.151864275f, -0.0683006421f, -0.0618127473f, -0.187986106f, -0.180023879f, -0.106433146f, 0.0225578826f,
    0.152071282f, 0.108272627f, 0.13808842f, -0.0454491861f, -0.0751655847f, -0.185998574f, -0.185615927f, -0.212260216f,
    -0.180906817f, -0.143838301f, 0.00433441065f, 0.0496857762f, 0.0934411734f, 0.171057567f, 0.0595709868f, -0.000244260096f,
    -0.0399999991f, -0.212625653f, -0.226423189f, -0.0259773917f, -0.074630484f, -0.0982594341f, -0.00378121785f, 0.0259462055f,
    0.183213919f, 0.142865449f, 0.164742842f, -0.0134118646f, 0.0798058063f, 0.0268400926f, 0.0121199405f, 0.10730134f,
    -0.0147398198f, 0.182758495f, 0.12606965f, -0.00937292632f, -0.0213214364f, 0.102581687f, -0.109152317f, 0.00595921883f,
    0.0726399571f, 0.0568658374f, 0.201989904f, 0.162631214f, 0.0373272784f, -0.0176083744f, 0.0615940504f, 0.0265172459f,
    0.102883317f, 0.0669344366f, 0.160048649f, 0.12437816f, 0.12097507f, -0.0106332479f, 0.0950130373f, -0.00698459009f,
    0.049462039f, -0.0701558739f, -0.00190429238f, 0.176716968f, 0.0865796506f, -0.0372589305f, 0.03184532f, 0.051291924f,
    0.033725135f, 0.0333121866f, 0.123693891f, 0.0340091772f, -0.0189279951f, -0.269605517f, -0.112148426f, -0.0870052204f,
    0.181142181f, -0.0734321922f, -0.0537071377f, -0.0362193957f, 0.0299641937f, 0.0365491845f, 0.0255989414f, 0.0484935865f,
    0.124072991f, 0.0561308227f, 0.054382354f, 0.0357296988f, -0.144458234f, -0.179622471f, -0.209583819f, -0.173037022f,
    -0.0547124743f, -0.148079365f, -0.0832999051f, -0.0694539845f, -0.0588644408f, -0.208176792f, -0.0969810709f, -0.0127400272f,
    0.000427844207f, -0.0548259057f, 0.0209511854f, -0.0149633903f, -0.115245521f, -0.0117525505f, -0.0992710292f, -0.00230949768f,
    0.0144294593f, -0.0125251254f, 0.0320901722f, 0.0219116472f, 0.0832997486f, -0.0343164392f, -0.0263733249f, -0.0923007205f,
    -0.00136511284f, -0.0312138684f, -0.108858041f, 0.0587477684f, -0.018880643f, 0.0632500723f, 0.00894703157f, 0.151972085f,
    0.065846853f, 0.0222768839f, -0.0104144085f, -0.174278453f, 0.0675839409f, -0.0540786497f, 0.140654549f, -0.0329969712f,
    0.107149817f, -0.0329108499f, -0.156074613f, -0.0736987963f, -0.0794019997f, -0.0988761857f, -0.153523266f, -0.21336323f,
    -0.0717285797f, -0.132508919f, -0.155843005f, -0.191163182f, -0.317700118f, -0.264607906f, -0.0867954567f, -0.0783535093f,
    0.0509939268f, 0.155825555f, 0.202805474f, 0.257921845f, 0.165370598f, 0.0641442835f, 0.118196368f, 0.117143936f,
    -0.00500054331f, 0.0735600218f, 0.161738142f, 0.0340605378f, 0.187107563f, 0.168543145f, 0.207728937f, 0.0300727841f,
    0.0112306839f, 0.0965466797f, -0.019477332f, -0.0862795785f, -0.0127805304f, -0.034550786f, -0.195254877f, -0.130449861f,
    -0.261020809f, -0.0587932467f, 0.0811912492f, -0.0131328516f, 0.0632844269f, -0.0059223175f, -0.0398056507f, -0.161362112f,
    -0.0607946701f, -0.0496231131f, 0.0221125241f, -0.0876116306f, -0.104318231f, -0.0680829436f, 0.192546591f, 0.216100857f,
    0.217751294f, 0.172119245f, 0.123627879f, 0.0668152645f, 0.143133521f, 0.0121619776f, 0.142077595f, -0.0280960351f,
    0.104408666f, 0.0752888843f, 0.0150360726f, 0.187219754f, 0.0584873036f, 0.00673392136f, -0.0316517688f, 0.131551728f,
    -0.0657250732f, -0.0229993109f, 0.0546211973f, 0.0132284947f, 0.023314191f, 0.162217632f, 0.141432434f, 0.227013692f,
    0.118070297f, 0.0861732289f, 0.166527942f, 0.0994312763f, 0.0534463376f, 0.00699334452f, 0.0347955972f, 0.0888672546f,
    0.165477335f, 0.248251081f, 0.0843733847f, 0.090406768f, -0.113090418f, -0.111232318f, -0.0437176637f, -0.0865665674f,
    -0.012901186f, 0.0167475156f, -0.00359967235f, -0.0259616524f, -0.0377038084f, -0.0154357189f, -0.111413516f, 0.0981024802f,
    0.0214157477f, 0.102294318f, 0.191838026f, 0.19068855f, 0.0640266389f, 0.134733349f, 0.126216784f, 0.135538012f,
    0.0831916034f, 0.147157371f, 0.12812005f, 0.185520917f, 0.166861206f, 0.146468803f, 0.159045622f, 0.093894355f,
    -0.0142364511f, -0.100142941f, -0.0441400521f, -0.0620935373f, -0.02168997f, -0.0563490652f, -0.0258065518f, -0.0727186352f,
    0.027084142f, -0.0733431876f, -0.112964846f, -0.105386965f, -0.0805003643f, -0.139379397f, -0.026742693f, 0.0110026198f,
    0.010357663f, 0.0733920857f, -0.120985776f, -0.0329829156f, -0.0305474494f, 0.05296297f, -0.0532684214f, 0.0730422437f,
    -0.0670298114f, 0.143521488f, 0.0960904211f, 0.151191965f, 0.321726054f, 0.261782408f, 0.16400899f, -0.035621386f,
    0.0885778293f, 0.0742013901f, 0.0342789851f, 0.0158208422f, 0.109165184f, 0.0807901323f, 0.0721059665f, 0.207803175f,
    0.391801655f, 0.206714466f, 0.15372254f, -0.106862947f, -0.00561120082f, -0.189357609f, -0.113334142f, -0.0943711847f,
    -0.0495478734f, 0.023181159f, 0.0271707736f, -0.0869925618f, -0.149025768f, -0.141431466f, -0.0915866345f, -0.122721031f,
    0.0122567341f, -0.173822403f, -0.210813984f, -0.162721097f, -0.0909610689f, 0.0368399844f, 0.0331472233f, 0.072807163f,
    0.00696036685f, -0.14875406f, -0.0790786743f, -0.0582191013f, -0.107606001f, -0.0638263226f, 0.0159095768f, 0.0750075653f,
    -0.0822203457f, -0.0264096484f, 0.109743774f, -0.0165203307f, -0.0531476662f, -0.00555993058f, -0.00162271294f, -0.0118042761f,
    0.0938261375f, -0.0696566328f, -0.126988173f, -0.048511602f, -0.0822952092f, -0.169052035f, -0.04390122f, -0.13456127f,
    -0.0638440698f, 0.0360332504f, 0.054149203f, -0.134342134f, -0.17293936f, -0.112653635f, 0.129774913f, 0.0918168202f,
    0.166443497f, 0.110742904f, 0.0647742599f, 0.163837343f, 0.128996298f, 0.076385133f, 0.221505538f, 0.147066489f,
    0.0482522063f, 0.110426404f, -0.17682378f, -0.113825977f, -0.2826868f, -0.0722856596f, -0.224885732f, -0.0623472072f,
    -0.048582267f, -0.0784218833f, -0.112308085f, -0.122012094f, -0.0516158268f, -0.0639993176f, 0.0092079509f, 0.0486573577f,
    0.112920828f, -0.0160909519f, -0.0162588209f, -0.0216072742f, 0.0751521587f, 0.026119424f, 0.0526155941f, -0.0871630833f,
    -0.0524196178f, -0.160738558f, -0.0346936062f, -0.0514084846f, -0.0918472186f, -0.0858721063f, -0.0529094599f, 0.0262992438f,
    -0.0088785179f, 0.103283003f, 0.113703594f, -0.0185740348f, 0.0460852347f, -0.126645401f, 0.014304094f, -0.0141955819f,
    -0.0559609979f, 0.0540458001f, -0.0551381893f, -0.0477539375f, -0.0920273736f, -0.198503867f, -0.171567589f, 0.0343177095f,
    0.0740857869f, 0.0693707764f, 0.19863078f, 0.244718328f, 0.100190885f, -0.0706671029f, -0.294895113f, -0.199679181f,
    -0.279855818f, -0.174034521f, -0.103366561f, -0.032925602f, 0.0543404929f, -0.0451527573f, 0.164594442f, 0.24021478f,
    0.159807026f, 0.204756767f, 0.116662957f, 0.14353168f, 0.102531627f, -0.0637900904f, -0.212310031f, -0.179837927f,
    -0.23926124f, -0.0420702137f, -0.000924003252f, 0.135499373f, 0.0364762433f, 0.0535821319f, -0.0842301548f, -0.158339649f,
    -0.0683053359f, -0.107993931f, -0.013856411f, 0.0315486826f, -0.0779375806f, 0.000407029671f, -0.0593643412f, -0.053398259f,
    0.104557931f, 0.0261467043f, 0.0412933938f, -0.0505340174f, 0.0758131519f, -0.030462062f, -0.00739351241f, 0.022360133f,
    -0.132933035f, 0.0717406273f, -0.103774503f, 0.0204278007f, -0.111851469f, -0.107610464f, -0.192041993f, -0.0244673081f,
    -0.020440504f, 0.0522174612f, -0.209507152f, -0.317885756f, -0.16146116f, -0.0148310699f, 0.299066037f, 0.24171038f,
    0.227321148f, 0.20253633f, 0.198904768f, 0.0896162614f, 0.100541949f, 0.0308784619f, -0.1125101f, -0.0547535233f,
    -0.0974604338f, -0.00182554265f, -0.0839804336f, -0.0642401502f, 0.015178795f, -0.0156615525f, 0.0661475733f, 0.130016163f,
    0.161781684f, 0.157173052f, 0.15167509f, 0.105018087f, -0.0399871469f, 0.115361184f, 0.00283946609f, 0.0621158294f,
    -0.0780049115f, 0.0181012787f, 0.0934457928f, 0.179185793f, 0.0657849535f, 0.273125052f, 0.150101364f, 0.14942579f,
    0.138085946f, -0.0790747479f, -0.0325209647f, -0.00370613905f, -0.118654497f, -0.130265832f, -0.071431607f, -0.121488348f,
    -0.055692777f, -0.00413168129f, -0.0796053112f, 0.0899107754f, 0.116945378f, 0.0416128747f, 0.15833205f, 0.0611768253f,
    0.021837797f, -0.130201116f, 0.0201536901f, -0.0599388555f, 0.0199862402f, -0.0341136381f, 0.00148750923f, 0.0465761982f,
    0.11316397f, 0.144410357f, 0.226501331f, 0.114196047f, 0.181808323f, 0.168704465f, 0.0814844593f, 0.206075564f,
    0.17406708f, 0.108985692f, 0.0296834651f, -0.229533821f, -0.495378494f, -0.35811606f, -0.23559007f, -0.151974946f,
    0.0781074762f, 0.0868019164f, 0.0482981838f, 0.065944761f, 0.103424802f, -0.102932438f, -0.0270876456f, -0.0678803101f,
    -0.152617395f, -0.123284742f, -0.166311562f, -0.0100200558f, -0.0377468579f, 0.0235576816f, -0.0188368112f, -0.00828764495f,
    -0.037365254f, 0.0502863377f, 0.0140502891f, 0.0872359574f, 0.124860771f, -0.0203707479f, 0.0989004523f, 0.109489061f,
    0.12783891f, 0.1035714f, -0.000734784815f, 0.0581486672f, 0.0122232959f, 0.0585180111f, 0.0606956407f, 0.0831326023f,
    0.105856098f, 0.0395754017f, 0.0328104272f, -0.0442461185f, -0.0874981508f, -0.0382923558f, -0.0597854108f, -0.07250081f,
    0.0188330617f, -0.195782498f, -0.120456785f, -0.152737111f, -0.0905809402f, -0.208621442f, -0.0778847188f, -0.0934390575f,
    -0.175560206f, -0.169975013f, -0.108922742f, -0.0235782098f, -0.0673608556f, -0.14230223f, -0.0785559341f, 0.0458647981f,
    0.00645825639f, -0.0256183147f, -0.0673697144f, -0.0544111468f, 0.04035547f, -0.0986929536f, 0.0550442599f, -0.0928063914f,
    0.124643914f, -0.0591906905f, 0.166141316f, 0.184682503f, -0.0666435286f, -0.0368307121f, -0.123166241f, -0.248187855f,
    0.0124995634f, 0.0422955304f, -0.126917586f, -0.0705160052f, 0.135199979f, 0.181997061f, 0.157703906f, 0.0314285085f,
    0.035636384f, 0.011637521f, -0.0162849389f, -0.0587527938f, -0.135579214f, -0.265992552f, -0.170461223f, -0.200172856f,
    -0.296876848f, -0.235763893f, -0.0740800127f, 0.0486614034f, 0.0754614025f, 0.0647638887f, 0.0136152776f, 0.0563040785f,
    0.0564870052f, -0.0343842953f, -0.0973847285f, -0.0816997364f, -0.179441676f, 0.0318779275f, -0.0702098012f, 0.122092128f,
    0.191062495f, 0.179108232f, 0.115820125f, 0.118425235f, 0.0385720171f, 0.0486909412f, 0.0241991132f, -0.0137027027f,
    -0.0239742361f, -0.111462563f, -0.171942815f, -0.0653604344f, -0.0350137725f, 0.0127834808f, -0.131140083f, -0.139696404f,
    -0.233074263f, -0.148966894f, 0.0215055756f, -0.0140446108f, 0.0301548578f, 0.022258712f, -0.127995133f, -0.284252167f,
    -0.277114779f, -0.338021874f, -0.322646469f, -0.215178654f, -0.0483956859f, 0.00598974014f, 0.17906855f, 0.392947376f,
    0.558199048f, 0.499874175f, 0.410364717f, 0.152280018f, 0.0358910933f, -0.00188112783f, -0.00997353438f, 0.043452967f,
    0.0550134331f, -0.0487271436f, 0.0698683411f, 0.0235502142f, -0.0897464976f, -0.11075598f, -0.126328856f, -0.0773148313f,
    -0.032376036f, 0.0286643486f, 0.00654350361f, -0.0526859611f, -0.0133389095f, 0.0192955416f, 0.0676733851f, 0.00820443779f,
    -0.00776445819f, -0.0527838022f, 0.057202585f, 0.102975644f, 0.121134579f, 0.109273478f, 0.0280800797f, -0.0435889326f,
    -0.108578764f, 0.07733237f, 0.0312787518f, 0.00800414011f, 0.0461384021f, 0.0774978399f, 0.0608058535f, 0.0962824523f,
    0.290080041f, 0.297462583f, 0.37936756f, 0.14477329f, -0.212941512f, -0.287434578f, -0.0680740029f, -0.0225188676f,
    0.0391095243f, -0.0704462379f, -0.103829607f, -0.0875020102f, -0.115805767f, -0.0789175034f, 0.0825024992f, -0.0310763232f,
    -0.071848616f, -0.0683595911f, 0.090515092f, -0.0286520291f, -0.0885844827f, 0.0821503848f, 0.159196779f, 0.12551339f,
    -0.168454945f, -0.0670546666f, -0.19717674f, -0.177582234f, 0.00981878862f, -0.0849507228f, -0.0205646511f, 0.0766461492f,
    0.171245962f, 0.0140056359f, -0.0725045651f, -0.0962149873f, -0.0446743704f, -0.0503657609f, 0.0464747548f, 0.064965874f,
    0.00295601995f, -0.11272563f, -0.00963109359f, -0.0346169658f, 0.00591035513f, 0.100284778f, -0.132196635f, -0.0474131554f,
    -0.0309974141f, -0.0165862702f, 0.0357325114f, 0.0234219786f, -0.0609044656f, -0.0826608166f, 0.0253685247f, -0.11646986f,
    -0.180225521f, -0.24451986f, -0.210193247f, -0.0582040735f, -0.192790985f, -0.108451828f, -0.184747234f, -0.0389371589f,
    0.0248591267f, 0.250139236f, 0.482614279f, 0.554013312f, 0.350642711f, -0.10507413f, -0.147323608f, -0.293457538f,
    -0.245521829f, -0.408540726f, -0.173391372f, -0.152270257f, -0.143709064f, -0.215562299f, -0.111711301f, 0.0315136053f,
    0.0555821843f, 0.152365804f, 0.0990364701f, 0.0928010568f, 0.120056719f, 0.139434904f, 0.195418522f, 0.0255427491f,
    0.171103939f, 0.0736889243f, 0.0635001436f, 0.265960693f, 0.208693713f, 0.0842072144f, 0.0675398931f, -0.180511534f,
    -0.264267236f, -0.357733786f, -0.2558541f, -0.0451365672f, -0.0238118935f, -0.165662631f, -0.140705571f, 0.0801206529f,
    0.0732201934f, -0.0414439142f, -0.0205320045f, -0.000473652646f, 0.00976896845f, 0.116194136f, 0.189972535f, 0.126501992f,
    -0.0156670548f, -0.0579854921f, -0.0880407542f, -0.111472644f, -0.14300403f, 0.0293654967f, -0.00756230392f, 0.102398328f,
    -0.0132244276f, -0.0383622386f, 0.133764595f, 0.0637760758f, -0.0889950246f, -0.0625180975f, 0.0958910882f, -0.0565634333f,
    0.0343833826f, 0.0411175452f, -0.0670215189f, -0.0999138579f, -0.175653011f, 0.11633797f, 0.224193409f, 0.147204861f,
    0.128396198f, 0.0296794362f, 0.136359692f, 0.109914109f, 0.130356357f, 0.0136928828f, 0.141220957f, 0.0384881124f,
    -0.0623566359f, -0.149979249f, -0.194926351f, -0.310485542f, -0.338681698f, -0.369352162f, -0.161231473f, -0.0133887948f,
    0.0289106686f, 0.0383683406f, 0.0191828143f, 0.0392295383f, -0.0206294693f, -0.0228250008f, -0.0136821736f, -0.0910369977f,
    -0.0146073606f, -0.152121663f, -0.0989506468f, -0.0754619464f, 0.0351999439f, 0.0686442032f, 0.0747548863f, 0.0179893915f,
    0.00967059936f, 0.118957654f, 0.0144129526f, 0.103709921f, 0.0883972123f, 0.0431262515f, -0.0174754895f, 0.0761196017f,
    0.127532706f, -0.0121666929f, 0.0939954892f, 0.163608193f, 0.0590547994f, 0.0525321476f, 0.108175911f, 0.111852042f,
    -0.0377134271f, 0.110902362f, 0.0466208272f, -0.0175938234f, 0.0635444745f, -0.010880461f, -0.0275792368f, -0.019730527f,
    -0.0833655372f, 0.0408039242f, 0.0589643121f, 0.01453231f, 0.103452764f, 0.0536276065f, -0.0396849699f, -0.0071851043f,
    0.000724065176f, -0.0556905046f, 0.0211814865f, -0.0241920371f, 0.0128675448f, 0.0164427552f, -0.096182853f, -0.17406188f,
    -0.094887577f, -0.025106011f, 0.119860664f, 0.134695888f, 0.217056945f, 0.131286234f, 0.0496110283f, 0.0510869883f,
    -0.0412445627f, 0.0438955799f, 0.00652640266f, -0.0724947155f, -0.0365508385f, 0.0549422316f, -0.0616375022f, -0.0803893805f,
    -0.0193681307f, 0.12600556f, 0.0166451503f, 0.082642056f, 0.01382259f, 0.104602322f, 0.0632267892f, 0.0450623669f,
    0.111892581f, 0.106151193f, 0.027380541f, -0.0851399153f, -0.077863507f, 0.086186491f, 0.122649238f, 0.00912266225f,
    0.0349102132f, -0.086269401f, -0.051872883f, -0.0994877368f, -0.0011134079f, -0.0220851842f, -0.154374704f, -0.102983989f,
    0.0142447678f, 0.100558527f, 0.148823872f, 0.0321756043f, 0.0234256014f, 0.0887901559f, 0.153762013f, 0.1151058f,
    0.105031811f, 0.133657381f, 0.142904803f, 0.0338267423f, 0.00399188325f, 0.097448267f, 0.0288395602f, -0.0580542833f,
    -0.126312539f, -0.102189198f, 0.00741093699f, -0.0482116565f, -0.0843844414f, -0.18643266f, 0.00195172022f, -0.0953524783f,
    -0.282692134f, -0.190148726f, -0.285339981f, -0.133866295f, -0.115561128f, -0.166786358f, -0.181170791f, 0.00426731259f,
    -0.0803828388f, -0.135880947f, 0.0194654148f, -0.044456955f, -0.179815575f, -0.207140043f, -0.0972147956f, -0.182966933f,
    -0.13109383f, -0.025928285f, 0.129279941f, 0.161271706f, 0.152997926f, -0.00276362966f, 0.0691062286f, 0.154981241f,
    0.145571724f, 0.0451360606f, 0.107844681f, 0.117461458f, 0.153081343f, 0.139976576f, 0.177121922f, 0.0254875757f,
    0.0840898678f, 0.0669359863f, 0.133150876f, -0.0831821039f, -0.0131031927f, -0.08551085f, -0.0414188467f, 0.00786080398f,
    -0.0592708141f, -0.0134496586f, 0.0522732809f, -0.0167849585f, 0.0196002405f, -0.0497384518f, 0.0920219272f, -0.036500562f,
    -0.00525615597f, -0.0546847582f, 0.114161886f, -0.0695248321f, -0.0192001965f, -0.00391426031f, -0.0786323324f, 0.0436591767f,
    -0.00646733213f, -0.0039416044f, 0.0101361042f, 0.097107403f, 0.0743927285f, 0.0447390117f, 0.0979615897f, -0.0504105613f,
    0.0174554195f, -0.0375532694f, -0.0773375332f, 0.0323732495f, 0.018494023f, -0.0646925792f, -0.0284358282f, -0.0214136802f,
    0.0250375755f, -0.00698122522f, 0.0485905074f, 0.133133993f, 0.0474224687f, 0.105898947f, 0.114344284f, -0.0153053747f,
    -0.145650238f, -0.105289854f, 0.0523634627f, 0.00747762946f, -0.0620298982f, 0.0622492582f, -0.0532911494f, -0.0283327103f,
    -0.0249994118f, -0.00100975053f, 0.0336402543f, -0.038408421f, 0.107560031f, 0.0253100581f, 0.138609231f, 0.121962197f,
    0.188932151f, 0.0724484995f, 0.0264893956f, 0.0258528963f, 0.152715504f, 0.174061671f, -0.0398904122f, -0.0972016752f,
    -0.00388737675f, 0.0257658102f, 0.259646922f, 0.181616902f, 0.14681232f, 0.112103648f, -0.0302662458f, -0.06195217f,
    -0.0370768197f, -0.00933286548f, 0.0123124216f, 0.00221656659f, -0.178190663f, -0.123993583f, -0.234172001f, -0.197035566f,
    -0.198186666f, -0.154166341f, -0.179863259f, 0.0375591069f, 0.0239266884f, -0.120615713f, -0.0291690156f, -0.191324562f,
    -0.13812311f, -0.0260321219f, -0.203829244f, -0.152163342f, -0.0237768386f, 0.0630813614f, 0.0146608567f, -0.0688355938f,
    -0.0531539433f, -0.142689988f, 0.0546362326f, -0.0212393012f, -0.0359748676f, -0.0976548195f, 0.0873799548f, 0.114128716f,
    0.0432573743f, -0.100203365f, -0.0950816125f, -0.142594755f, -0.114551723f, 0.168055251f, 0.287522882f, 0.251698285f,
    0.0442812704f, -0.0592552684f, -0.0903133452f, -0.163104981f, -0.0347052477f, 0.0788955986f, 0.208433554f, 0.165235579f,
    0.150662571f, -0.0598732606f, -0.0502502508f, -0.10956005f, -0.03917991f, -0.123264164f, -0.0887925923f, -0.126486495f,
    -0.0772911608f, -0.0661676079f, 0.0943263844f, 0.157344922f, 0.236010775f, 0.0298631117f, -0.0353929512f, -0.233736128f,
    -0.284044236f, -0.286578536f, -0.0248489063f, 0.185704842f, 0.28299728f, 0.184158504f, 0.233051658f, 0.188827872f,
    0.0853570029f, 0.0727346465f, 0.199933887f, 0.215861171f, 0.153221354f, -0.0330341607f, 0.0403551273f, 0.00681233872f,
    -0.115055487f, -0.226537228f, -0.128301963f, -0.0929112062f, 0.0485213548f, 0.196827605f, 0.206916541f, 0.0488546081f,
    0.0577315353f, 0.0157443192f, 0.0194400288f, 0.0563103408f, 0.0620217323f, 0.0596955493f, 0.0740146413f, 0.157868683f,
    -0.07804472f, 0.0178307332f, 0.0401177444f, 0.0944459736f, 0.0255892202f, -0.0168019198f, 0.0949499756f, -0.0128512857f,
    0.0729634315f, 0.0479453169f, 0.0421821363f, 0.0233736262f, 0.022773739f, -0.0811171383f, -0.0835833102f, -0.136247158f,
    -0.0525402538f, -0.147353977f, -0.0345922858f, -0.151542872f, -0.0292943362f, 0.056360174f, 0.0039669103f, 0.0206985269f,
    0.00649936637f, -0.018151097f, 0.00419399515f, 0.00692989072f, 0.0706742853f, 0.0228774194f, -0.0195643902f, 0.0669187903f,
    0.0299740043f, -0.0843053609f, -0.156912073f, -0.155449957f, 0.0383373797f, -0.0729244202f, -0.0750900432f, -0.0408227853f,
    0.0598415583f, 0.0843328387f, 0.11080274f, 0.0526620485f, -0.210874259f, -0.225392297f, -0.0218895171f, 0.115031399f,
    0.290665597f, 0.140443966f, 0.233471677f, 0.179383323f, 0.0391119383f, -0.194091991f, 0.0802931562f, 0.0805656686f,
    -0.107953236f, 0.0451168679f, -0.132558525f, -0.0144822663f, 0.0504563302f, -0.0584026799f, -0.0450629629f, 0.0339455307f,
    -0.0112478128f, 0.194086015f, -0.0224410333f, -0.0131634399f, -0.139157504f, -0.0613774806f, 0.0786077976f, 0.0442313403f,
    0.116003975f, 0.0382773057f, -0.094996132f, -0.107741833f, 0.00208383449f, -0.138765842f, -0.036359597f, -0.100835934f,
    -0.265865088f, -0.0584192388f, 0.0421603583f, 0.187123075f, 0.169890568f, 0.0644713938f, -0.0637347624f, -0.108900368f,
    -0.093719393f, -0.172876209f, -0.152614892f, -0.165873051f, -0.0852564871f, -0.0599115528f, 0.0731805116f, 0.00707833283f,
    0.14355287f, 0.237155855f, 0.0459415503f, 0.14609687f, 0.0193438586f, 0.073433049f, 0.050495442f, 0.0782570392f,
    0.0264303666f, -0.0332009979f, 0.135717303f, 0.0548813045f, 0.0376492329f, -0.0367774442f, 0.00143304246f, 0.151443645f,
    -0.081179738f, 0.0382817239f, -0.0629731119f, -0.0110328998f, -0.0785252526f, -0.164629802f, -0.0556442961f, -0.00698676985f,
    0.112014323f, 0.0469202474f, -0.00171339675f, 0.0784406736f, 0.0205702037f, 0.0937676802f, 0.055011455f, -0.122504748f,
    -0.044464875f, 0.0134568326f, -0.00850096717f, 0.0565715507f, 0.0942957401f, 0.0100274198f, 0.0364065357f, 0.0968913138f,
    -0.0583633333f, 0.0130305532f, 0.0852324963f, -0.0203911811f, 0.0932313949f, 0.150631905f, -0.114962004f, -0.165740401f,
    -0.0558497123f, -0.0693497881f, -0.0378474146f, -0.136427164f, -0.157400638f, -0.201947182f, -0.0537317842f, -0.0396394692f,
    -0.0806587115f, -0.0695736706f, 0.0957626998f, -0.0789265633f, 0.00993629731f, -0.00778113725f, -0.0285883602f, -0.0107497107f,
    0.0475874394f, 0.189901009f, 0.261319697f, 0.214591697f, 0.207349971f, 0.246720776f, 0.176088884f, 0.132278532f,
    -0.00853885524f, -0.170732975f, -0.217577353f, -0.101830788f, -0.171705291f, -0.0515304022f, -0.17865546f, -0.0532045104f,
    -0.128033847f, -0.0693478361f, 0.0223097652f, -0.127057061f, -0.037672475f, -0.0336639471f, -0.10565152f, 0.0249324441f,
    0.0122492956f, 0.073731184f, 0.118945919f, 0.162191793f, 0.0546463989f, 0.116298586f, -0.0632763356f, -0.0480970517f,
    0.0322651863f, -0.046789594f, 0.10486789f, 0.030263694f, -0.216538683f, -0.128662288f, 0.0238171555f, 0.112520985f,
    -0.116875604f, -0.0732272565f, -0.147187769f, -0.0803712159f, -0.100616612f, 0.143054441f, 0.0481512286f, 0.00616967399f,
    0.144409478f, 0.124634318f, 0.098928906f, 0.151605487f, 0.0516477451f, -0.0457270779f, 0.0368114635f, -0.021902645f,
    -0.106885254f, -0.077981174f, 0.0609568246f, 0.0949980617f, -0.0315533839f, -0.0859130248f, -0.194120854f, -0.231576368f,
    -0.148917377f, -0.0177451801f, 0.148113728f, 0.0517449379f, -0.105562791f, -0.0158590768f, -0.0786374211f, 0.0784690082f,
    0.0208691414f, -0.0188131668f, 0.0120138135f, 0.0254151672f, 0.0143281464f, 0.0715529844f, 0.146385565f, 0.0542844608f,
    0.146689296f, 0.00820577331f, -0.0686383098f, 0.0733270124f, 0.133345589f, 0.318662226f, 0.215465605f, 0.294370085f,
    0.292629987f, 0.0293542147f, -0.0674591213f, -0.282893121f, -0.337056726f, -0.256859094f, -0.161062956f, -0.16586414f,
    -0.096036166f, -0.0566389188f, -0.0558613576f, -0.0584973283f, -0.0933934078f, 0.00124392973f, -0.0719553232f, -0.0324400291f,
    -0.0534791537f, -0.0291973744f, -0.000610815652f, -0.075298667f, -0.0058714943f, -0.14260973f, -0.225180805f, -0.227203652f,
    -0.0925949216f, -0.0931576565f, -0.0531404242f, -0.0693364739f, -0.0656269491f, -0.191288412f, -0.0570671931f, -0.0200867988f,
    0.051777605f, 0.0282471702f, 0.0989779755f, 0.0626312271f, 0.081682153f, -0.0549164228f, 0.0385544188f, -0.116972908f,
    -0.124594696f, -0.0988187417f, -0.123820223f, -0.115474619f, -0.140852109f, 0.00936757959f, 0.0753082335f, -0.00319484505f,
    0.0811618268f, 0.0239495654f, 0.0266053714f, -0.0475490876f, -0.0306035224f, 0.164947227f, 0.0348092429f, 0.0141420225f,
    0.0233351626f, 0.163188905f, 0.00983402599f, 0.146933258f, -0.0384739824f, -0.115734518f, -0.187005177f, -0.124776632f,
    -0.0494210199f, 0.0536298677f, -0.0368767977f, 0.119706854f, 0.0918154716f, 0.0945569798f, -0.0871097445f, -0.0248530488f,
    -0.0235363878f, -0.065064393f, 0.0421722271f, 0.0189300813f, 0.0340471528f, -0.0230226871f, 0.110760562f, 0.0307439715f,
    0.0686690509f, 0.168389693f, 0.0403305255f, 0.00237476407f, 0.0470193885f, 0.233902454f, 0.0920187011f, 0.0983353257f,
    -0.00732492004f, 0.0801887736f, 0.00479826145f, 0.0332051031f, 0.071040079f, 0.0641588792f, 0.0541812591f, 0.0677259564f,
    0.112404823f, 0.173257291f, 0.140787959f, 0.144904658f, 0.157451823f, 0.0475695841f, 0.189881667f, 0.0352857783f,
    0.165360078f, 0.171943247f, 0.0865809843f, 0.0781123489f, -0.2136482f, -0.383123159f, -0.277267843f, -0.0504749008f,
    -0.0476008616f, -0.173511565f, -0.093294628f, -0.317504853f, -0.471929759f, -0.319015652f, -0.0768559352f, 0.0875789821f,
    0.0980245769f, 0.100156538f, 0.00812867004f, 0.145849928f, -0.0739356428f, -0.113471963f, -0.195924088f, -0.196988329f,
    0.000626202323f, -0.0294865649f, 0.106915198f, 0.178913683f, 0.0632752851f, -0.0274609998f, 0.0577653423f, -0.0321948752f,
    0.0973069966f, 0.110395439f, 0.196782604f, 0.0594237186f, 0.0291223433f, 0.0104026329f, 0.0284283329f, -0.128071651f,
    -0.0608037934f, -0.0852910057f, -0.0426030904f, 0.0212903786f, 0.0714772269f, 0.0318660773f, 0.0835721418f, -0.0885382071f,
    -0.089999035f, -0.109209985f, 0.0156759955f, -0.0420948304f, 0.0221703835f, 0.00627039559f, 0.0939462632f, 0.0598785728f,
    0.0268166605f, 0.051405862f, -0.0250142589f, 0.1126085f, 0.0755506158f, -0.0408006907f, -0.0044699125f, -0.067654416f,
    -0.0135819102f, -0.0309904553f, 0.0764871538f, 0.170407876f, 0.165537968f, 0.0537503622f, 0.0318653025f, -0.0133339008f,
    -0.113965243f, -0.0289377682f, -0.159272686f, -0.0900831148f, -0.00403985288f, -0.0362649783f, -0.101482734f, -0.0863556787f,
    -0.0422114767f, 0.0869383216f, -0.127365544f, -0.0496657528f, 0.0235986318f, 0.0702796206f, -0.0604018122f, -0.0924340412f,
    0.00380083546f, 0.0698236004f, 0.114624418f, 0.0397566259f, 0.0507331863f, 0.00838572718f, 0.0494778864f, 0.000894840923f,
    -0.101518393f, -0.021044299f, -0.0974384323f, 0.127133936f, 0.150962219f, 0.149456352f, 0.0659466609f, 0.0820314065f,
    -0.127034381f, -0.0963657871f, -0.0890998617f, -0.137686729f, -0.106007837f, -0.0470634513f, -0.044033695f, 0.0984779894f,
    0.0404355191f, 0.0342932716f, -0.0906382799f, -0.0730740875f, 0.0286264922f, -0.0783893839f, 0.00701611442f, -0.107140921f,
    0.0244108811f, -0.019116329f, -0.092057623f, 0.015745258f, -0.0916916579f, -0.0774060786f, 0.00880880188f, 0.117431037f,
    0.0534415804f, 0.0560622998f, 0.103912137f, 0.0377891846f, -0.0772806406f, -0.253011227f, -0.0969921574f, -0.0917699784f,
    -0.0682406053f, 0.0749955475f, -0.0251092203f, -0.0303309113f, -0.0465318188f, 0.0110963946f, -0.00529251108f, -0.0472426452f,
    -0.118942991f, -0.134841174f, 0.00485960767f, 0.0015661174f, -0.0363653414f, 0.163682833f, 0.0356402136f, 0.0111846328f,
    0.000284641515f, -0.0949097648f, 0.0197512731f, -0.0951252207f, -0.0520075858f, -0.0493862666f, -0.098845847f, 0.00436563138f,
    0.0671817437f, -0.0760915801f, -0.0567563698f, 0.045245517f, -0.0239654444f, 0.00922317524f, 0.0614196584f, -0.134383708f,
    -0.0728789791f, -0.0564334318f, -0.0336417146f, -0.00707092136f, -0.0886060447f, 0.0615743995f, -0.0415386185f, -0.113617033f,
    -0.133622125f, -0.0566921905f, -0.0613179356f, 0.00709384261f, -0.138643622f, -0.0802177265f, -0.0171151794f, 0.0238219891f,
    0.0506051406f, 0.289401889f, 0.185277998f, 0.135039344f, 0.134395137f, 0.150266528f, 0.131383941f, 0.23115848f,
    0.0838316977f, 0.20399873f, 0.0592808016f, -0.0694312006f, -0.0862596929f, -0.0215856954f, 0.0547040813f, -0.0172906499f,
    0.0602214374f, 0.0796843767f, -0.126044735f, 0.0718486309f, 0.014479964f, 0.0421052873f, 0.0382010564f, 0.103731334f,
    0.0204991344f, -0.0957232639f, 0.103413559f, -0.0234342944f, 0.121519089f, 0.0307518579f, 0.0590511374f, 0.091226548f,
    0.103868611f, -0.103328258f, 0.0370619521f, 0.0996518284f, -0.0615977049f, 0.101786479f, 0.0594099127f, 0.0351155177f,
    -0.0347674116f, -0.0135722719f, 0.0733205453f, 0.0784598738f, 0.0512655787f, -0.0492300093f, 0.116879538f, -0.0622050986f,
    0.144342527f, -0.00764953019f, -0.00521560526f, 0.13224712f, 0.132581651f, 0.0945401937f, -0.0287480857f, -0.113298833f,
    -0.0081805829f, -0.0373174176f, 0.0521909967f, -0.0174377169f, -0.000784157019f, 0.0453225262f, 0.127201855f, 0.0727575719f,
    0.0858850107f, -0.0255442392f, -0.0495011397f, -0.151364148f, -0.0255440772f, -0.00988953002f, -0.0374983028f, -0.165227458f,
    -0.065040946f, 0.0431498401f, 0.0692867041f, 0.0985222533f, 0.134967536f, 0.00168954791f, 0.0236111209f, 0.0365734398f,
    0.00687329471f, 0.100218631f, -0.019411128f, -0.0426718369f, -0.0152788088f, 0.0248550754f, 0.0485244617f, -0.159012228f,
    -0.132172883f, 0.0459498726f, 0.127570122f, 0.0319499336f, 0.0870149434f, 0.0741305649f, 0.276578724f, 0.184246048f,
    0.146414831f, 0.0548575446f, -0.016026523f, 0.092417933f, 0.0584544353f, 0.228345081f, 0.213333756f, 0.155322924f,
    0.20476377f, 0.295642436f, 0.352069288f, 0.271613806f, 0.29631564f, 0.100374579f, -0.0584583282f, -0.172245428f,
    -0.265748084f, -0.0451415293f, -0.21543698f, -0.11524944f, -0.160071552f, -0.142166644f, 0.0249523502f, -0.192940339f,
    -0.177408233f, -0.116311789f, -0.0559983701f, 0.0661284328f, 0.107022077f, -0.016393397f, -0.0873357207f, -0.177161783f,
    -0.146436051f, -0.119090736f, -0.092739664f, -0.0789099112f, -0.101363517f, 0.0629695952f, 0.0828687549f, -0.114633419f,
    -0.0614339299f, -0.00119912066f, -0.0568854809f, -0.0184402056f, -0.0078387307f, 0.0634134114f, 0.0286330245f, 0.0860346183f,
    0.0382485837f, 0.00118236407f, 0.0298612565f, -0.235034466f, -0.0361745059f, -0.182391614f, -0.109555088f, -0.114496052f,
    -0.0989648923f, -0.0458374508f, 0.0130583467f, -0.00598008791f, 0.0403689481f, 0.0337572582f, -0.0162997134f, -0.0431796759f,
    -0.0481487513f, -0.233499691f, -0.0504960567f, -0.0430782922f, 0.00313709211f, 0.0678800941f, 0.0235194173f, -0.00760942232f,
    0.10877008f, 0.236364886f, 0.215100512f, 0.243699551f, 0.0907813832f, -0.016172491f, -0.056434419f, 0.0691384673f,
    -0.0558935702f, -0.0336731784f, -0.0191136859f, -0.00415235013f, 0.0614540167f, 0.0274371281f, 0.143796489f, -0.0586651899f,
    0.0374415889f, -0.0632293373f, -0.0363293849f, -0.0351772904f, -0.157070503f, -0.094998613f, -0.0444583446f, 0.0415178947f,
    -0.00125773565f, 0.0942035988f, -0.0344484672f, 0.0253843535f, 0.101821102f, -0.0227669626f, 0.135469958f, 0.0895697698f,
    0.139060006f, 0.137110293f, 0.105222329f, -0.0666390955f, 0.0112384306f, -0.0523140095f, -0.124105439f, -0.142729521f,
    -0.109631501f, 0.0140462639f, 0.0121348528f, -0.0450030454f, 0.0101390434f, -0.052922111f, -8.54913378e-05f, -0.162125409f,
    -0.0223041978f, -0.0892669335f, 0.0362659767f, -0.0346064828f, 0.0730377361f, -0.0137680955f, -0.0403042175f, 0.0316637121f,
    -0.0827987716f, -0.0663904473f, 0.0148853334f, 0.0502069704f, 0.121506743f, 0.124654718f, -0.0310209394f, 0.0311567131f,
    -0.126753002f, -0.141561255f, 0.00276908884f, -0.0502913482f, -0.0240346082f, 0.0814592689f, -0.117361821f, -0.107865512f,
    -0.0907953233f, -0.100743622f, -0.124705054f, -0.0762157366f, 0.0184874944f, 0.049494043f, 0.0213097166f, 0.0774863586f,
    0.0166681074f, -0.0895175487f, -0.0666777939f, -0.0581945255f, -0.0586254746f, -0.0807732195f, -0.0556040183f, -0.00201553665f,
    -0.0844294578f, -0.117508918f, -0.0555539355f, 0.0263996441f, -0.177576885f, -0.031512998f, -0.081802927f, -0.114398263f,
    -0.176705554f, -0.0620103702f, -0.133141279f, -0.256808043f, -0.223157287f, -0.19182308f, -0.0850090757f, 0.0259353649f,
    0.00120373094f, 0.244247958f, 0.140632719f, 0.244758829f, 0.0616279393f, 0.194613948f, 0.0782790482f, -0.0618426464f,
    0.0480663218f, 0.0258720461f, 0.205367133f, 0.186267972f, 0.0850856081f, 0.146540403f, 0.0370625518f, 0.101197518f,
    0.0538441986f, 0.105805635f, 0.178400218f, 0.0141320303f, -0.0907060653f, 0.0248555504f, 0.093054831f, -0.0604984239f,
    -0.0301181916f, 0.0550465807f, -0.157884061f, 0.0535739772f, -0.124558248f, -0.0453968905f, 0.070121333f, 0.0545082949f,
    0.017380774f, 0.0282164328f, 0.0983365104f, 0.0749769434f, 0.188540131f, 0.201656252f, 0.170744345f, 0.0413732342f,
    -0.0248523783f, -0.0505310111f, -0.0931396559f, -0.0501243621f, -0.0300366413f, -0.17382355f, -0.0986880213f, 0.0520572253f,
    0.0108365165f, 0.0630957633f, -0.0411511883f, -0.0531950966f, 0.0395590551f, 0.148801699f, -0.101021729f, -0.0164729524f,
    -0.0104087787f, -0.095189482f, -0.0101396833f, 0.138173908f, -0.00517096696f, -0.0136775337f, 0.0106539624f, -0.124368154f,
    -0.072902292f, -0.0327428915f, -0.202215806f, -0.262047082f, -0.139880061f, -0.056802582f, -0.215346828f, -0.190005422f,
    -0.15567337f, 0.024025362f, -0.14624089f, -0.0856049135f, -0.0150954388f, 0.239279702f, 0.098617442f, 0.0482828468f,
    0.0548744798f, -0.000999196549f, -0.100595422f, -0.0144933285f, 0.0697421953f, -9.88672109e-05f, 0.0992547348f, -0.0300276484f,
    -0.118776381f, -0.0639107004f, -0.0719921961f, -0.0942471176f, -0.108953886f, 0.0712014809f, -0.0631999969f, -0.135919079f,
    -0.0743537396f, -0.111255139f, -0.141368091f, -0.106868349f, -0.113062039f, -0.123719998f, -0.0623954162f, -0.177540332f,
    -0.11228092f, 0.0187925175f, 0.126062319f, -0.0655028f, -0.14070335f, 0.0371621139f, 0.0231566839f, -0.0466031842f,
    -0.0413592905f, -0.0608658753f, 0.148637101f, 0.102933235f, -0.00522671873f, 0.0803761557f, 0.0731537417f, -0.030075727f,
    -0.049773749f, -0.0746586099f, -0.0852143839f, 0.102676526f, 0.129210696f, 0.229619235f, 0.104580991f, -0.0361196324f,
    0.00993328542f, 0.101123936f, 0.039217215f, -0.116235346f, -0.198693961f, -0.0558829755f, 0.0706864744f, 0.0309933145f,
    -0.0173541307f, -0.117191061f, 0.0303306859f, -0.0208945386f, 0.0298650004f, 0.0680975094f, 0.0759550333f, -0.014564909f,
    0.158410519f, 0.142182529f, 0.240601733f, 0.184088975f, -0.236547902f, -0.0901028663f, -0.0452366918f, -0.211160704f,
    -0.187837496f, -0.0817878544f, -0.0439165942f, -0.0260535702f, -0.046585083f, -0.102442406f, -0.0313188061f, -0.0648048893f,
    -0.0113611827f, 0.0123602161f, -0.0260411501f, -0.0721298233f, -0.0939331204f, 0.00677974196f, -0.149537295f, -0.0892122835f,
    -0.129215598f, -0.121950865f, -0.155700728f, -0.010579736f, -0.00152968056f, 0.0637584999f, 0.167420164f, 0.11794728f,
    0.0576099791f, -0.0819139779f, -0.00566619961f, 0.0626641512f, 0.0334614888f, 0.0898022801f, -0.0385996625f, -0.00646562036f,
    0.122874245f, 0.060525801f, 0.106868878f, 0.0106382463f, 0.0576252677f, -0.0659426078f, 0.0798619911f, 0.0913127512f,
    0.0909036547f, 0.0911975503f, 0.0117589179f, 0.100727081f, 0.10654971f, 0.192169815f, 0.0392271839f, -0.0610274076f,
    -0.0804843307f, 0.0997635201f, 0.0328902416f, 0.188576356f, -0.00618593907f, 0.0433982424f, -0.0688419044f, -0.276951462f,
    -0.184010178f, -0.11564745f, -0.0936159939f, 0.0586907268f, -0.00113469968f, -0.112126589f, -0.0664208457f, -0.0402799062f,
    -0.0690771714f, -0.0585448965f, -0.0848496184f, -0.157802001f, -0.042429328f, -0.0842615515f, -0.0317900442f, -0.178040236f,
    -0.0181942377f, 0.037673559f, 0.201590911f, 0.201420918f, 0.390725523f, 0.276032686f, 0.390275687f, 0.396813661f,
    0.371126413f, 0.260046422f, 0.284753352f, 0.196383789f, 0.110079892f, 0.0143009089f, 0.0252305046f, -0.0772696957f,
    -0.0614439175f, 0.0381066874f, 0.065412581f, -0.0229249764f, -0.00197420153f, 0.0953996107f, 0.127512455f, -0.0846795514f,
    -0.097553052f, 0.0900194868f, 0.00368987746f, 0.0206369478f, 0.129661798f, 0.0471863672f, 0.00263599213f, 0.0794811174f,
    -0.0984865502f, -0.0249526836f, 0.0196036454f, 0.105491288f, -0.062647745f, 0.0421766862f, 0.0724195242f, 0.11439541f,
    0.0263917837f, 0.0421655364f, 0.0571539328f, 0.00660766102f, 0.00975644588f, 0.0661989152f, 0.0822094679f, 0.141635835f,
    0.079320237f, 0.0531880744f, -0.14385508f, -0.269308984f, -0.199999407f, -0.0143453116f, 0.0175309554f, 0.0514807478f,
    -0.00792795513f, -0.00760494126f, 0.0746730641f, 0.0478017405f, 0.116645873f, 0.10485106f, 0.128257632f, -0.032019712f,
    0.0123366443f, -0.0244508069f, 0.0705268383f, -0.0687995926f, -0.0427463911f, 0.020747399f, -0.0213443525f, -0.031290371f,
    -0.0763170198f, 0.0209290665f, -0.00946193188f, 0.0352964252f, 0.0341709778f, 0.0496373884f, 0.0350090936f, -0.0222164635f,
    -0.0696787611f, -0.0345985107f, 0.0465027392f, 0.134320393f, 0.0101749143f, 0.0369671993f, 0.0334688909f, 0.0326097794f,
    -0.0885964707f, -0.221763864f, -0.245923296f, -0.138210997f, -0.0704380199f, -0.079231672f, 0.0397333801f, 0.024366226f,
    0.0398172848f, -0.0919694155f, -0.112230927f, -0.129238427f, -0.0574820973f, -0.0904110149f, -0.0552840605f, -0.0728325546f,
    0.00508823851f, -0.0769543871f, -0.13322857f, 0.0117405234f, -0.0680513605f, -0.0648146346f, 0.129321724f, 0.142566592f,
    0.0223743655f, 0.133147776f, 0.132942274f, 0.0262895692f, 0.0639815554f, 0.0119017167f, -0.0196558982f, 0.012937312f,
    -0.0414578095f, 0.054932408f, -0.118993096f, -0.070469901f, 0.0339033939f, -0.0327270143f, -0.0595725216f, -0.0316602103f,
    0.0890472531f, -0.0314645134f, 0.127542615f, -0.0103944791f, 0.0751317069f, 0.111709557f, 0.00278538279f, 0.082932882f,
    0.0804623961f, -0.0792005956f, 0.0839008093f, -0.0542578697f, 0.0846183598f, 0.0251282044f, 0.0284813493f, 0.0795899034f,
    0.0832847282f, 0.0377439782f, 0.0320052877f, 0.0538326278f, -0.0590763129f, -0.0829930454f, -0.0792234391f, 0.0686233863f,
    0.0774908364f, 0.0479711927f, 0.143810362f, 0.156330183f, 0.11362008f, 0.0508721843f, -0.0339207388f, 0.0732403249f,
    -0.00951210409f, 0.140801996f, 0.0778644755f, 0.0823086649f, -0.0367065072f, 0.0577169135f, 0.0890937895f, 0.106605679f,
    0.233185306f, 0.150807112f, 0.167544171f, 0.109548569f, -0.157045633f, -0.173995465f, -0.33438623f, -0.265327901f,
    -0.214800715f, -0.235323191f, -0.264512211f, -0.178703442f, -0.102322996f, -0.153413117f, 0.0825036392f, 0.124847464f,
    -0.0283577275f, -0.108472615f, -0.111818485f, -0.0740851313f, 0.142558217f, 0.0734527931f, 0.0616516992f, 0.0116553754f,
    0.0773619637f, 0.0455810465f, 0.0265101939f, 0.117517866f, 0.0684746355f, -0.100383319f, -0.0624039471f, -0.0272953156f,
    -0.0409834534f, 0.0633593798f, 0.0684646219f, 0.0874933973f, 0.19500941f, 0.183921918f, 0.136731744f, 0.0335773081f,
    0.00349361543f, -0.0252523702f, 0.0675860494f, -0.0445066206f, 0.0221187379f, 0.0550681539f, 0.0169227943f, 0.0262264721f,
    0.0755970404f, 0.123246402f, -0.0124566611f, -0.157121345f, -0.19096379f, -0.153389871f, -0.127686396f, -0.0388638675f,
    -0.0480416305f, -0.0805813372f, -0.0722096562f, -0.0145964716f, -0.0695358738f, -0.0326095782f, -0.107284494f, -0.0773302019f,
    -0.000519627065f, -0.0872402266f, -0.0111097209f, -0.143730462f, -0.0745377317f, -0.0725639835f, -0.162530199f, -0.0486541763f,
    0.0257168543f, 0.149318978f, 0.0444057174f, 0.038613487f, 0.059400443f, 0.0558713078f, 0.0161281712f, 0.100381061f,
    0.0335544199f, 0.0418834761f, 0.0476840809f, -0.000322698528f, 0.140454993f, -0.0116352746f, -0.0440596901f, -0.0436842516f,
    -0.00206342246f, -0.0308024678f, -0.0765049085f, -0.0595736951f, 0.0265697315f, 0.0384472385f, 0.0214530416f, -0.0899668187f,
    0.0823140442f, 0.157489359f, 0.264315933f, 0.20346427f, 0.279389411f, 0.105735965f, 0.0274157673f, -0.19123596f,
    -0.148559839f, -0.159131214f, -0.129051685f, -0.131456673f, -0.10070131f, -0.118199982f, -0.0517268404f, -0.118868947f,
    0.0312417131f, 0.054272335f, -0.0337076038f, -0.0159224533f, 0.00297588506f, -0.0132668251f, 0.00610294938f, -0.100609124f,
    0.0537142418f, -0.0503819175f, -0.0673572868f, -0.150626749f, -0.0574536286f, -0.0730529577f, -0.0941495076f, -0.0257770009f,
    -0.060480617f, 0.047014568f, -0.0142478831f, -0.00331306597f, 0.028074123f, 0.158862963f, 0.165577784f, 0.175399497f,
    0.123212211f, 0.110080659f, -0.0460220613f, -0.0839986354f, -0.0960317552f, -0.127900109f, -0.0736821964f, -0.122649692f,
    -0.191060841f, -0.205742374f, 0.135279164f, 0.125804707f, 0.000458270748f, 0.161438659f, -0.0344497822f, 0.118305191f,
    0.0766861439f, 0.0292691477f, 0.047401499f, 0.0559531599f, 0.0775673166f, 0.0688603222f, 0.154382288f, 0.117970839f,
    0.0614435524f, 0.122825831f, 0.0927362218f, 0.100590363f, 0.108625814f, 0.0445439406f, -0.0246026926f, -0.0225922856f,
    0.0475091785f, 0.0511228666f, -0.0637485012f, 0.0839346945f, 0.0250761211f, 0.149974719f, 0.063957274f, 0.098001048f,
    0.0287065953f, 0.114580713f, 0.133720264f, 0.0416131392f, 0.222347543f, 0.105532221f, -0.149855599f, -0.116223559f,
    -0.114825234f, -0.105782494f, 0.055467464f, -0.0965048f, -0.0517742634f, -0.0467505418f, -0.0328636169f, 0.086580433f,
    0.0357411914f, 0.259724438f, 0.233836487f, 0.116666935f, -0.13363573f, -0.198570669f, -0.0580789037f, -0.0309123415f,
    -0.0264629219f, 0.0456612967f, 0.0121181058f, -0.0294063054f, -0.038245406f, 0.104401901f, 0.121587008f, 0.0735757798f,
    0.0589721575f, 0.0212109424f, -0.00108304713f, 0.0282035321f, 0.0359347276f, 0.00611348124f, -0.0449531004f, 0.149026364f,
    0.0270490237f, 0.0447197743f, 0.155660808f, 0.109685503f, 0.109910712f, 0.200116858f, 0.0497788563f, 0.0477587804f,
    0.224840716f, 0.121233068f, 0.252139181f, 0.20070146f, 0.404364258f, 0.142503992f, 0.0600740425f, 0.125821248f,
    -0.0354695767f, 0.0499406792f, -0.190149769f, -0.245282933f, -0.192131773f, -0.156520486f, -0.182327867f, -0.156273171f,
    0.0358806588f, -0.0694630444f, -0.268119305f, -0.0931460783f, 0.0439621024f, -0.0497772396f, -0.088920556f, 0.046449475f,
    -0.0515081845f, 0.0262102075f, -0.12196923f, 0.0340225697f, -0.163647771f, -0.15194872f, -0.0833736733f, -0.150931925f,
    -0.188374281f, -0.148654222f, -0.220733076f, -0.203867033f, -0.0813926384f, 0.040732488f, 0.077261515f, 0.134123296f,
    0.0764082223f, 0.207303926f, 0.0709740892f, -0.00291280868f, 0.026715342f, -0.149190977f, -0.134872958f, -0.192991897f,
    0.144601777f, 0.122407995f, 0.0644297227f, -0.0728704482f, -0.0571283363f, 0.000137278475f, -0.0281848479f, 0.0480151065f,
    0.0798057169f, 0.0233605467f, 0.0364621133f, 0.00278028287f, 0.0195640568f, 0.108826026f, 0.00653223088f, -0.0869320333f,
    0.0590606481f, -0.0761320442f, -0.0710539669f, 0.0591061004f, -0.0968633369f, 0.0538214035f, 0.118759938f, -0.0298203938f,
    -0.0338885114f, -0.0360202678f, 0.0208769217f, -0.0700542703f, -0.0513237342f, 0.0305235609f, -0.0674454942f, -0.0910899118f,
    -0.134474933f, -0.0581285842f, -0.142893776f, -0.0783830658f, -0.164555877f, -0.0850670859f, 0.0446239039f, 0.104018517f,
    0.0143428212f, 0.0851121992f, 0.0550461188f, 0.103123397f, -0.0657376498f, 0.0217626262f, -0.184492022f, -0.152402535f,
    -0.235449865f, -0.101064399f, -0.131183147f, -0.0288879666f, 0.0578939617f, -0.00628839154f, 0.0454129614f, -0.0358154848f,
    0.0325009301f, -0.193586141f, -0.0997150466f, -0.0485349037f, 0.0641955435f, 0.145086557f, 0.0525533967f, 0.0565298721f,
    -0.0163552295f, -0.00980152003f, -0.184894979f, -0.178280726f, -0.110924385f, -0.00333138229f, -0.216089398f, -0.0562780276f,
    -0.019876387f, -0.044294659f, 0.0437325984f, 0.010940305f, -0.0814814121f, -0.15429312f, -0.0484386608f, 0.0363461152f,
    0.0181882549f, -0.092456229f, -0.0587487705f, -0.00719602266f, -0.0368864499f, -0.0163265113f, -0.118267395f, -0.0657642409f,
    -0.068912521f, -0.0912430137f, -0.184763089f, -0.0618681349f, -0.207093552f, -0.196514964f, -0.125644147f, -0.0212251637f,
    0.147928417f, 0.205459416f, 0.278787196f, 0.234668642f, 0.253033191f, 0.212757736f, 0.158510163f, 0.172551215f,
    0.0715190768f, 0.0666500553f, 0.202700287f, 0.120164253f, 0.177866593f, 0.127943218f, 0.138835415f, 0.119823121f,
    0.179370642f, 0.0645102188f, 0.0270304512f, -0.0107617145f, 0.122223236f, 0.121660121f, 0.197182894f, 0.177341029f,
    0.0906116515f, 0.152483478f, 0.219041884f, 0.114134438f, 0.0912325382f, 0.131899908f, -0.0208691433f, 0.0123922881f,
    -0.00124234613f, 0.0207729936f, -0.0817085654f, -0.135997623f, -0.151856288f, -0.0367245302f, -0.00308151147f, -0.0959111452f,
    -0.0997093469f, 0.0567561835f, -0.0955289304f, -0.0874801129f, 0.0654859543f, 0.0390105695f, -0.0815756544f, -0.100737691f,
    0.0704319924f, 0.0889696181f, -0.0341077708f, -0.055529397f, -0.0256317109f, -0.0129922125f, -0.14532733f, -0.00245428085f,
    0.0407803319f, 0.0139544494f, 0.0530319884f, -0.124449387f, -0.0831081793f, 0.0361777171f, -0.0713955685f, -0.0834394693f,
    -0.0828919932f, 0.0246565901f, 0.165812641f, 0.0355094783f, 0.109414093f, -0.0337437764f, -0.069141984f, -0.147497341f,
    -0.122511186f, -0.110168986f, -0.184696317f, -0.210668981f, -0.0941582322f, -0.0184889287f, -0.0566498935f, -0.191820145f,
    -0.0411924645f, -0.0217390489f, -0.0696751177f, -0.0413283855f, -0.122565918f, -0.0315777957f, -0.109196588f, 0.0144876624f,
    -0.111244477f, -0.0387665667f, 0.0405289456f, -0.0357016958f, -0.0655169934f, -0.000841290574f, -0.176002488f, -0.0672586262f,
    -0.188164383f, -0.00701608555f, -0.139351398f, -0.142411262f, 0.0208346285f, 0.340475619f, 0.386800468f, 0.254072547f,
    0.359237492f, 0.15946494f, 0.225006446f, 0.0290333778f, 0.0430979505f, 0.0583261959f, -0.0104946718f, -0.00501211034f,
    -0.0263759177f, 0.0937084109f, -0.0168872923f, 0.00134174759f, 0.0271751024f, -0.0786295086f, -0.0715194792f, 0.054081507f,
    -0.00158001389f, 0.0429140553f, -0.113381505f, -0.0132596083f, -0.00581093226f, -0.174026608f, -0.145717189f, -0.0799843818f,
    -0.029755041f, 0.0728054792f, 0.00351329753f, -0.0441224463f, 0.0472938046f, 0.0222852323f, 0.157416373f, 0.110387206f,
    0.0357249714f, 0.160673037f, 0.0705917105f, 0.0878679901f, -0.0118042417f, 0.0789369121f, 0.110805824f, 0.230671987f,
    0.0716052055f, 0.0569964088f, 0.139018595f, 0.0647470504f, 0.212492451f, 0.100265644f, 0.157110021f, 0.00556980027f,
    -0.0250478908f, -0.0718957484f, -0.0349472873f, -0.0505705103f, -0.0399654135f, 0.148665503f, 0.188257158f, 0.0438908003f,
    0.0358872749f, 0.158086598f, 0.114774652f, 0.106607772f, 0.0781510547f, 0.181715176f, 0.118879192f, 0.179944918f,
    0.213520527f, 0.221555069f, 0.158438608f, 0.048597686f, 0.254526079f, 0.187887207f, 0.28090933f, 0.0919096395f,
    0.0481417142f, -0.0980978906f, -0.216284856f, -0.296697676f, -0.1466313f, -0.149350747f, -0.11570958f, -0.0988723338f,
    -0.0712982044f, -0.079379566f, 0.0181032829f, 0.0077562551f, -0.0946971923f, 0.0763228983f, -0.136052474f, -0.102253638f,
    -0.0181234591f, 0.0527065657f, -0.0619199462f, 0.0401077978f, -0.055252891f, -0.120399266f, 0.0127971312f, -0.0262877923f,
    -0.144957066f, -0.0152047956f, -0.104974493f, 0.0316914432f, -0.11603456f, 0.0118393507f, -0.00289471517f, -0.000992053887f,
    0.0357311219f, -0.0926702991f, 0.00492220977f, 0.0285556819f, 0.0100710634f, -0.117763996f, -0.0569019914f, -0.0375244319f,
    0.0353702493f, -0.0356286615f, 0.00052997109f, -0.0708249956f, 0.209603101f, 0.12500599f, 0.203916147f, -0.0161546022f,
    -0.094165571f, -0.115207054f, -0.0463765152f, -0.172734037f, -0.161705256f, -0.0373668112f, -0.0407294519f, -0.143041819f,
    -0.123341501f, -0.154237017f, -0.11413528f, -0.0815106481f, -0.0579112433f, 0.0276457239f, -0.0355224907f, -0.0398618504f,
    0.0297017079f, 0.138001621f, 0.187525377f, 0.0871698484f, 0.0178844221f, 0.115335666f, -0.10456086f, -0.0480482541f,
    -0.0861582682f, -0.0884213671f, -0.0657000542f, -0.0186210368f, -0.108679801f, -0.0699246824f, 0.0885773301f, -0.0531879626f,
    0.00539601455f, -0.0642448217f, -0.0596677773f, 0.0376501754f, -0.0710763186f, -0.123350002f, -0.0801154524f, 0.109150492f,
    -0.0391613655f, 0.10498476f, -0.0435552448f, -0.0668180585f, -0.0480356067f, 0.022205893f, 0.176786661f, 0.170131788f,
    0.0295093395f, -0.0790029094f, -0.00963816606f, 0.0660293773f, 0.0325733237f, -0.0628935173f, -0.0967675894f, -0.0317136012f,
    -0.0276403483f, 0.026669275f, 0.0460589081f, -0.0577530712f, -0.107912585f, 0.0919844955f, -0.107325681f, -0.100498825f,
    -0.0130174942f, 0.0235980339f, 0.0318918563f, -0.103555538f, -0.108454414f, -0.000710785622f, 0.00648796977f, 0.005014861f,
    0.0590452589f, -0.0702223331f, -0.0544443466f, -0.0595510751f, -0.114481866f, -0.0675075501f, -0.0985911563f, -0.00161136163f,
    -0.100738078f, -0.0649753734f, -0.0806676075f, -0.143250212f, -0.130264208f, -0.0518722013f, -0.0818817616f, -0.110918485f,
    -0.0581840649f, 0.00196605409f, -0.182418227f, -0.26757133f, -0.193339586f, -0.156665027f, -0.0532160401f, -0.123249069f,
    -0.00328205572f, -0.104811221f, 0.0779595599f, 0.0679059103f, 0.0566799864f, 0.127683401f, 0.232495576f, 0.0464102849f,
    0.148795471f, 0.107850015f, -0.0277222972f, -0.0502498373f, 0.0254191104f, 0.0267135929f, 0.0144560011f, 0.012600556f,
    -0.0444277674f, 0.0985053927f, 0.0991416201f, -0.0139791369f, 0.107243493f, -0.0403403901f, -0.034388829f, -0.0476766452f,
    -0.0780491084f, -0.0217558313f, -0.0689864904f, 0.0449052341f, 0.13506341f, 0.26910159f, 0.219444573f, 0.133424863f,
    0.0785173327f, 0.00624264032f, -0.00738151744f, 0.0021034875f, -0.0506933741f, -0.1498193f, -0.000232254606f, 0.123789243f,
    0.152086258f, 0.0320479386f, 0.156454802f, -0.0304769874f, 0.124927901f, 0.115505464f, 0.135560572f, 0.305161059f,
    0.0955497324f, 0.147413254f, -0.0640548691f, 0.0523042604f, 0.0569434166f, -0.0753491819f, -0.00827748142f, 0.0965716168f,
    0.0402334556f, -0.0565247089f, -0.0396611094f, -0.0255758241f, -0.0100967484f, -0.0528344549f, -0.048617404f, 0.0923205316f,
    -0.0839982554f, -0.00758352643f, -0.00921027083f, 0.0608952679f, -0.0599447377f, -0.123334512f, -0.105224267f, -0.0981761962f,
    -0.046634499f, 0.0787758231f, 0.190102518f, 0.051104635f, 0.175304845f, -0.0252611544f, -0.0965855718f, -0.10157387f,
    -0.046548143f, 0.00355812465f, 0.108891658f, 0.0379160531f, 0.142718345f, 0.0499118976f, 0.0874705464f, 0.110820018f,
    0.0696535334f, 0.0905385762f, -0.0525244363f, -0.075174056f, 0.0278277695f, -0.00539367832f, 0.107934222f, 0.114741512f,
    0.130758256f, 0.15323621f, 0.0802415088f, 0.136535555f, -0.0949805379f, 0.163279429f, 0.0982768238f, -0.125815064f,
    -0.0338291265f, 0.160271645f, -0.0276761577f, 0.112924129f, 0.0293906908f, 0.0160453562f, 0.120727368f, 0.0616216622f,
    -0.00777437631f, 0.0413161889f, 0.101026475f, 0.248046532f, 0.133739308f, 0.373455495f, 0.133625001f, 0.0692494139f,
    -0.0111878067f, 0.157723248f, 0.143359959f, 0.145586446f, 0.252910823f, 0.231793016f, 0.108535491f, -0.0644082054f,
    0.00113329932f, -0.0721519068f, -0.0803849995f, 0.0579271615f, 0.172073573f, 0.191692472f, 0.212629423f, 0.170608684f,
    0.0332552493f, -0.169825256f, -0.338575274f, -0.0786179602f, -0.134506688f, -0.0713935196f, -0.0845154375f, -0.0932356119f,
    -0.0313986391f, 0.114781432f, 0.0154956998f, 0.0139538003f, 0.0258331317f, -0.0305318441f, 0.0363240466f, -0.047437977f,
    -0.0674048662f, -0.0693964809f, -0.0648463592f, -0.0789959952f, -0.0155493049f, -0.013227609f, -0.0552034527f, 0.0279412381f,
    0.084194012f, 0.112230904f, 0.227307662f, 0.24001506f, 0.140930966f, 0.0290350784f, 0.0999226198f, 0.0527903438f,
    -0.178354874f, -0.00641387282f, -0.00876069348f, -0.0281336047f, -0.0829145983f, 0.0218528416f, -0.0662324429f, -0.0745831877f,
    -0.0350879431f, -0.164222747f, -0.0602886416f, -0.0982223526f, -0.0221072715f, 0.0543654487f, 0.0062564793f, 0.189550951f,
    -0.0191867296f, 0.00106422568f, -0.190480307f, -0.174289539f, -0.0431708023f, -0.00511551648f, -0.14075397f, -0.0116620129f,
    0.0109481029f, -0.000361225917f, 0.060799785f, -0.0718112737f, -0.0982904956f, -0.00611341046f, -0.156568348f, -0.0849859193f,
    -0.176382437f, -0.303804785f, -0.0112523744f, -0.0787173286f, 0.087405473f, 0.0832185f, -0.0245393608f, 0.0911748186f,
    0.0971321985f, -0.0643803328f, -0.119250886f, -0.211538419f, -0.12024685f, -0.0597562529f, 0.024210047f, 0.101793841f,
    -0.0738497004f, -0.160922959f, -0.0438203588f, -0.0535405651f, -0.135632575f, -0.0814855024f, -0.160422012f, -0.019248601f,
    0.0713493749f, -0.0582926013f, 0.128281027f, 0.0924654678f, 0.217474878f, -0.0068442286f, 0.0237979367f, 0.0414427929f,
    -0.0171398669f, 0.0856866464f, 0.207650974f, 0.214223713f, 0.0791084766f, 0.135262907f, 0.190662935f, 0.129087821f,
    -0.0573486201f, 0.0169495977f, -0.0424059629f, -0.0652281195f, -0.0146347461f, 0.116213538f, 0.188492998f, 0.00216430658f,
    -0.0463151969f, -0.0687029138f, -0.027241325f, -0.0575448163f, 0.0415711217f, -0.0419690982f, -0.0339857452f, 0.0433140174f,
    0.0802224129f, 0.199902683f, 0.112637721f, 0.195538983f, 0.204874218f, 0.178396106f, 0.147113383f, 0.052401837f,
    -0.230241537f, -0.329508454f, -0.143944234f, -0.168122098f, -0.143440366f, -0.102710254f, -0.175260127f, 0.0371913426f,
    -0.0490574464f, -0.0703335255f, -0.135423511f, -0.00216303742f, -0.181780577f, -0.08149039f, 0.019378731f, -0.109213561f,
    -0.00844648294f, -0.0378759988f, 0.0486849323f, -0.0316734202f, 0.0632515997f, 0.045428168f, -0.137588277f, -0.0841617584f,
    -0.0607754998f, -0.0458967686f, 0.0116580166f, -0.0520086996f, 0.0273877587f, 0.0644181371f, -0.0752986819f, -0.111253686f,
    -0.0700155944f, -0.0735472143f, -0.0806402117f, -0.108317018f, -0.00121809926f, -0.0578429326f, 0.0189243574f, 0.0339935534f,
    0.0147444373f, 0.0335277691f, 0.0797937214f, 0.0693532974f, -0.00305872783f, 0.00436714618f, -0.058394853f, -0.0633313209f,
    -0.0317585617f, -0.140349299f, -0.017706709f, -0.068486087f, -0.0555838495f, 0.00969047658f, -0.119220197f, -0.00222237967f,
    -0.197099f, -0.121121779f, -0.147750363f, -0.0210268907f, 0.21721372f, 0.277195483f, 0.162966117f, -0.0492616482f,
    0.0194187593f, -0.0500761569f, -0.21181725f, -0.171024889f, -0.153627336f, -0.237708941f, -0.00536143081f, 0.0210768152f,
    0.01183376f, 0.173631743f, 0.245154127f, 0.0740649179f, 0.0156536438f, -0.162826389f, -0.0312223695f, -0.0285527073f,
    -0.100913949f, 0.00461260136f, -0.0786568895f, -0.114023805f, -0.071866639f, -0.0766478181f, 0.0910561383f, 0.138306633f,
    0.0313677862f, 0.0734839216f, -0.0305135865f, 0.134750113f, -0.0164562669f, 0.180837601f, 0.0967513099f, 0.131018579f,
    0.0373833068f, -0.0296389218f, -0.035291519f, -0.0635461062f, -0.0888365135f, -0.0160891972f, 0.0465525612f, -0.0589677431f,
    0.0191994198f, -0.0576351844f, -0.119685017f, -0.129390419f, -0.0253794882f, -0.0421136655f, 0.189603254f, 0.083115235f,
    -0.0817231238f, -0.0867753997f, -0.0510072261f, -0.0675960034f, -0.0941497982f, -0.182838351f, -0.0883626789f, -0.0224608742f,
    0.0250054225f, 0.0930517241f, 0.138352916f, 0.0296344999f, -0.130960941f, 0.023217475f, -0.031635724f, -0.00913130865f,
    -0.12702629f, -0.132556945f, -0.0763295814f, -0.0930258706f, -0.120155007f, -0.110589676f, -0.031571392f, -0.0240988825f,
    -0.0505312532f, -0.179502398f, -0.00107600307f, -0.130765066f, -0.0745077208f, -0.149767444f, -0.080756478f, -0.0281012636f,
    -0.0932442918f, -0.0879610553f, -0.0979353189f, -0.0808856636f, -0.00807704311f, -0.0274975523f, -0.00762094185f, -0.0632570684f,
    -0.0937249064f, -0.131283015f, -0.179180741f, -0.227897599f, -0.247977376f, -0.209845886f, -0.00206770655f, 0.275418073f,
    0.154341176f, 0.329289645f, 0.131804198f, 0.177864999f, -0.00111712888f, -0.0401907973f, -0.0398370251f, 0.0126870871f,
    -0.0766424313f, -0.0125080459f, 0.227197126f, 0.344966054f, 0.175540835f, 0.176290721f, -0.00528297434f, -0.0425896272f,
    0.018424809f, -0.00247696997f, 0.0290991068f, -0.0187260006f, -0.0531448573f, 0.0116721662f, -0.16330409f, -0.0416831933f,
    0.00118046463f, -0.121785797f, -0.0135546168f, 0.0354841873f, 0.119630508f, 0.0791083574f, 0.103909582f, 0.062800616f,
    0.0584678911f, 0.00974671543f, -0.038398277f, -0.0127818622f, 0.0296678189f, 0.0983336493f, -0.0601718314f, 0.0692783371f,
    0.106456608f, 0.0431203209f, 0.199043483f, 0.184076071f, 0.113448642f, 0.159162089f, 0.113089159f, 0.118090235f,
    0.0859080181f, -0.0548569374f, -0.0335816778f, 0.0227331053f, 0.0328065418f, -0.151988551f, -0.0912525281f, -0.11353948f,
    0.0414441638f, -0.0606484413f, 0.0225605555f, 0.0999310538f, 0.0742592514f, 0.164936304f, 0.115576021f, 0.156484127f,
    0.105456427f, 0.108640492f, 0.0504170731f, 0.0560811758f, 4.50799089e-05f, 0.164979145f, 0.0710636675f, 0.0743989572f,
    0.129704669f, -0.0043503195f, -0.0262373872f, 0.0591913126f, 0.0914943069f, 0.110131577f, 0.050520692f, -0.0876422152f,
    0.0987816006f, 0.076555118f, -0.0125944344f, 0.128563061f, -0.0508687422f, -0.0113548981f, 0.0387996472f, 0.118017048f,
    0.106762096f, 0.00764279813f, 0.0548651032f, -0.0825381726f, -0.0762177035f, 0.0625401214f, -0.00113625138f, -0.0277910773f,
    0.0333267413f, -0.0948796198f, -0.0220601019f, -0.00752903661f, 0.0306730065f, -0.0369424522f, 0.0873976424f, -3.78729482e-07f,
    0.142530799f, 0.127835959f, 0.093081139f, 0.0953433588f, 0.169282511f, 0.122791536f, 0.0586680472f, 0.139018416f,
    0.209526539f, 0.171963662f, 0.0749966875f, 0.159544915f, 0.00806177035f, -0.00678048097f, -0.184204057f, -0.244376972f,
