// Generated by export_denoise_c.py. Do not edit by hand.
// Architecture: cw_denoise_gru_mask
// sample_rate=9600 fft_length=256 hop_length=144 band_bins=0..128

#ifndef DENOISE_MODEL_WEIGHTS_H
#define DENOISE_MODEL_WEIGHTS_H

#include "denoise_model.h"

#ifndef DENOISE_MODEL_ATTR
#define DENOISE_MODEL_ATTR
#endif

static const float DENOISE_MODEL_ATTR k_denoise_input_norm_weight[129] = {
    0.646341264f, 0.77096653f, 0.722527266f, 0.712031484f, 0.753670394f, 0.719949365f, 0.663319767f, 0.663927972f,
    0.725374281f, 0.682866037f, 0.695890546f, 0.714488208f, 0.706221282f, 0.68087244f, 0.677429616f, 0.658967674f,
    0.660946727f, 0.739757836f, 0.651672065f, 0.703810275f, 0.7325418f, 0.673091412f, 0.703200459f, 0.666925967f,
    0.608366609f, 0.603986025f, 0.666301787f, 0.608591616f, 0.628938854f, 0.669865668f, 0.597011507f, 0.65634805f,
    0.610322833f, 0.624688447f, 0.630567491f, 0.646261096f, 0.665957808f, 0.643992066f, 0.642614245f, 0.635063112f,
    0.637897849f, 0.635459423f, 0.644370437f, 0.66715014f, 0.617214918f, 0.661141992f, 0.682957828f, 0.621879876f,
    0.615955591f, 0.632963181f, 0.597180963f, 0.606993973f, 0.589501619f, 0.661545157f, 0.592457891f, 0.617037773f,
    0.619498551f, 0.624493599f, 0.611694992f, 0.623357475f, 0.611344218f, 0.593320191f, 0.623337686f, 0.6420663f,
    0.667584181f, 0.647704422f, 0.615736485f, 0.626608729f, 0.648773134f, 0.599347293f, 0.588400126f, 0.555458367f,
    0.622546434f, 0.616592526f, 0.621124864f, 0.629605293f, 0.611973763f, 0.59092468f, 0.632692099f, 0.605457306f,
    0.586326718f, 0.614009678f, 0.615664601f, 0.617874205f, 0.62952584f, 0.666982293f, 0.634999871f, 0.599379361f,
    0.608483315f, 0.635866702f, 0.615175962f, 0.647525966f, 0.625727117f, 0.643666744f, 0.610626161f, 0.586831331f,
    0.592725873f, 0.664016843f, 0.60761261f, 0.651686907f, 0.703808427f, 0.702406645f, 0.634889901f, 0.659829915f,
    0.649851561f, 0.632871866f, 0.660949647f, 0.6570912f, 0.632931471f, 0.638409555f, 0.702642143f, 0.71741277f,
    0.658405364f, 0.664562881f, 0.662216783f, 0.683922708f, 0.68005532f, 0.715141654f, 0.721425176f, 0.695755959f,
    0.79281348f, 0.655047715f, 0.673994422f, 0.688586116f, 0.71366787f, 0.750023067f, 0.794106305f, 0.714455724f,
    0.604095221f
};

static const float DENOISE_MODEL_ATTR k_denoise_input_norm_bias[129] = {
    0.0168843884f, 0.11776311f, 0.00589451706f, 0.0192223005f, 0.225888386f, -0.0465014279f, -0.0566405505f, 0.102736749f,
    0.050163649f, 0.138958171f, 0.0955320448f, 0.243064165f, 0.050330516f, 0.0717130825f, 0.175563186f, 0.146219194f,
    0.0967016518f, 0.0606508553f, 0.0181432422f, 0.00204217248f, -0.0513412096f, 0.0315156281f, 0.0409944169f, 0.0109960195f,
    0.125633001f, 0.123765513f, -0.0444122441f, 0.0886725485f, 0.0503769629f, 0.00161548716f, 0.0129390564f, 0.0882572234f,
    0.0549883209f, 0.0808477029f, -0.0359322466f, 0.0619420409f, 0.0211995542f, 0.0631781444f, -0.0393484905f, 0.126666144f,
    0.0772485062f, -0.0719507113f, 0.0449961126f, -0.00874423888f, 0.066101253f, -0.0421346053f, 0.0649488792f, 0.0835789293f,
    0.01109864f, 0.0578527376f, 0.0236433726f, 0.0183826704f, -0.0586300232f, -0.0202779975f, -0.0155031476f, -0.0995403007f,
    0.104560159f, -0.0341939069f, 0.113047048f, 0.0531100817f, 0.0556996539f, 0.0985108837f, 0.0519212335f, -0.0136091541f,
    0.0270830709f, -0.143381909f, 0.00846494455f, -0.100860372f, 0.0522341654f, 0.120034255f, -0.00413105218f, 0.201681629f,
    -0.0414025709f, -0.00214813044f, 0.027877029f, 0.0028431504f, -0.0197481718f, 0.0330583043f, 0.0604606122f, -0.0387102216f,
    0.0496396311f, 0.00844264403f, 0.106909573f, 0.10834197f, 0.0987052619f, 0.0755137727f, -0.0142280906f, 0.077731587f,
    0.0761380121f, 0.014750598f, -0.0174570829f, -0.0121889133f, 0.0689282417f, 0.00978375413f, 0.0511872023f, 0.150353253f,
    0.137262002f, 0.00185089512f, -0.0153631773f, -0.0895246193f, -0.0126112234f, 0.078247413f, 0.0338341109f, 0.199478671f,
    0.135842711f, 0.14852424f, 0.0914229453f, 0.118202761f, 0.16201292f, 0.121542402f, 0.0718590692f, 0.134364009f,
    0.169004053f, 0.219134063f, 0.0738929436f, 0.157936975f, 0.0223985612f, 0.195432156f, 0.0592238717f, 0.179663643f,
    0.0570696853f, 0.149434045f, 0.0952448174f, 0.0565827265f, 0.137674257f, 0.145505115f, 0.0184225924f, 0.0577791221f,
    0.0958499014f
};

static const float DENOISE_MODEL_ATTR k_denoise_gru_weight_ih[24768] = {
    0.192156509f, 0.312271208f, 0.167556345f, 0.277357668f, 0.509909093f, 0.154969886f, -0.129420921f, -0.311705083f,
    -0.214197069f, -0.036526449f, -0.113149792f, -0.0470068268f, 0.00263042003f, 0.00682149595f, 0.0266636014f, -0.0518716164f,
    0.0819899961f, 0.0408634692f, 0.0215373579f, 0.0671759024f, -0.00381465256f, 0.0685771331f, 0.0420264043f, 0.0617616102f,
    0.0588045307f, 0.0317130461f, -0.057079073f, 0.00752824219f, 0.0424544923f, 0.027147023f, 0.0415364243f, 0.0231369846f,
    0.0420581922f, 0.061293833f, -0.14053601f, -0.177927002f, -0.106468722f, 0.188016444f, 0.369229257f, 0.211520329f,
    0.181176171f, -0.136898771f, -0.259837329f, -0.174352154f, 0.115340114f, 0.203525275f, 0.173725754f, -0.00177069404f,
    0.116159007f, 0.284740418f, 0.114084497f, -0.229604244f, -0.507678986f, -0.472687781f, -0.222616881f, -0.0503321737f,
    -0.0783480108f, -0.144328654f, -0.0747552291f, -0.0993923172f, -0.00348727824f, 0.0963535309f, 0.091359593f, 0.11027576f,
    0.0461516604f, 0.00705008348f, 0.148396477f, 0.0704239085f, -0.00936703943f, 0.0251404736f, 0.0734352991f, 0.107566848f,
    -0.0638655201f, -0.0250927601f, -0.0382583775f, -0.203553095f, -0.104416423f, -0.0968619958f, 0.0552144572f, 0.115682334f,
    0.268761069f, 0.234091073f, 0.0264419205f, -0.106012598f, -0.224260002f, -0.124193296f, 0.0423718244f, 0.125128597f,
    0.0779413804f, 0.171864018f, 0.132594004f, 0.048669789f, -0.0170380287f, -0.0893190056f, 0.112021908f, 0.0641890392f,
    0.142105326f, 0.0507218763f, -0.0496910289f, -0.0915914625f, -0.076796934f, -0.0557115227f, -0.00299465144f, 0.0458303019f,
    0.0856018737f, 0.100537181f, 0.0958345905f, 0.174395651f, 0.0314591825f, 0.0271152947f, -0.141490266f, -0.175903082f,
    0.067683585f, 0.252439141f, 0.152758792f, -0.0510622077f, 0.0214221515f, 0.00969845429f, 0.0806659013f, -0.0576150976f,
    -0.168231815f, -0.0126886759f, 0.133535653f, -0.0861925557f, -0.218333572f, -0.091782406f, 0.0914849564f, 0.158836499f,
    0.137842119f, -0.106327169f, -0.01650423f, -0.0314093195f, -0.0719371885f, 0.0866669342f, -0.0203127805f, 0.0650116876f,
    -0.0256939512f, -0.0304686725f, -0.078137815f, -0.0373522863f, -0.0660648793f, -0.0567964427f, -0.0433353446f, -0.0770344287f,
    -0.105574287f, -0.155191824f, -0.172437504f, -0.136933208f, -0.173842236f, -0.218730018f, -0.14584294f, -0.00341512403f,
    0.236128062f, 0.18159683f, 0.125704437f, 0.0892080739f, 0.0558692962f, 0.126075029f, 0.182218492f, 0.202789292f,
    0.213642478f, 0.115600973f, 0.00082751899f, -0.131248638f, -0.00871713739f, 0.131627619f, 0.0701852366f, -0.0601212829f,
    0.0535679981f, -0.0163848065f, -0.00627904385f, -0.025753485f, -0.0224310812f, 0.0649663284f, 0.122408524f, 0.0712719113f,
    -0.00122302072f, 0.0130624035f, 0.100623779f, 0.112661362f, 0.0606977493f, 0.068252787f, -0.0187450182f, -0.0781773031f,
    -0.0863827094f, 0.00996666588f, -0.0330233239f, 0.0224286225f, 0.0866266266f, 0.102627181f, 0.144709602f, 0.16906327f,
    0.116688266f, 0.00101949624f, -0.0677663982f, 0.020512145f, 0.0534981303f, -0.0220199078f, 0.0309385173f, 0.0213045571f,
    -0.0305273179f, -0.0947393477f, -0.0539216436f, -0.0542870574f, -0.0442033038f, 0.00884361751f, -0.0288381279f, -0.045634035f,
    -0.0523823015f, -0.15284884f, -0.147979081f, -0.161711425f, -0.0522724353f, -0.0135873798f, -0.134066701f, -0.384237528f,
    -0.306281179f, -0.164332196f, -0.12415617f, 0.039349515f, 0.0357854441f, 0.112445056f, 0.161815643f, 0.161275446f,
    0.11574693f, 0.170658782f, 0.0999319628f, -0.020291673f, -0.0229960941f, 0.0351666845f, 0.0520802103f, 0.0149285523f,
    0.0891129896f, 0.15646179f, 0.212496385f, 0.187669531f, 0.144453108f, 0.0918753222f, 0.0443803072f, 0.0145895323f,
    0.102646373f, -0.0233745202f, -0.00848314539f, -0.0490663387f, 0.0113208955f, 0.00628606416f, -0.0189989954f, 0.0169829447f,
    0.0886985436f, -0.00489628315f, -0.0735684261f, -0.0900900736f, -0.0883641317f, 0.0690388232f, 0.213647902f, 0.164826885f,
    0.210386157f, 0.175627545f, -0.0326582007f, 0.000146623643f, 0.00347963511f, 0.0669578165f, 0.230338663f, 0.186451286f,
    0.202972099f, 0.132407114f, 0.129547805f, 0.168647975f, 0.163156301f, 0.0128138997f, -0.132986277f, -0.173592016f,
    -0.171293065f, -0.100419648f, -0.211383447f, -0.31351456f, -0.0859735087f, 0.153317019f, -0.0622762293f, -0.156522617f,
    -0.163366795f, -0.168985143f, -0.122567214f, -0.131054729f, -0.0429935046f, 0.0544154197f, 0.0115815308f, 0.00194277347f,
    0.0101559898f, 0.0225423314f, 0.0127758523f, 0.033335574f, 0.0258936342f, 0.0157732982f, 0.0163020883f, 0.100743361f,
    0.106228724f, 0.193699151f, 0.158768907f, 0.106429949f, -0.0753238276f, -0.153232485f, -0.066694133f, -0.162645847f,
    -0.0933709815f, -0.0483086556f, 0.0291937292f, -0.0173736904f, 0.140763298f, 0.11192961f, 0.153887823f, 0.0192945469f,
    -0.00759172626f, -0.00578351365f, 0.127889767f, 0.203185841f, 0.179885387f, 0.140235588f, 0.104886919f, 0.0882542133f,
    0.0733821318f, -0.0793785304f, -0.107358284f, -0.119570948f, -0.0459144935f, 0.00983191561f, 0.0176949147f, 0.00337206875f,
    -0.19039093f, -0.240386724f, -0.159164578f, 0.0130805289f, -0.0119532803f, 0.0470043346f, 0.110564761f, 0.0407826416f,
    0.0497053303f, 0.0774732307f, -0.0568982475f, -0.212364599f, -0.268893361f, -0.347622126f, -0.171248525f, -0.0829480514f,
    -0.11808823f, 0.0532512404f, 0.0685168877f, 0.0467185751f, 0.0458668433f, -0.178715155f, -0.295560569f, -0.0972307548f,
    0.0908204913f, 0.132900551f, 0.130144015f, 0.207171381f, 0.238047332f, -0.0416669957f, -0.200359881f, -0.254606098f,
    -0.265839159f, -0.129273519f, 0.185549349f, 0.276374608f, 0.136425346f, 0.122210056f, 0.108853623f, -0.0149502754f,
    -0.0311468299f, 0.0807964429f, 0.122715354f, 0.216758847f, 0.13322787f, 0.118999563f, 0.146957219f, 0.0846094415f,
    0.0822285786f, 0.0420409925f, -0.0895838514f, -0.00404911209f, 0.000705458515f, -0.0456477627f, 0.0169664118f, 0.274730027f,
    0.0666605309f, -0.0506944545f, 0.0452564582f, 0.194102317f, 0.13958475f, 0.122621581f, 0.321542144f, 0.465839565f,
    0.282287687f, -0.0492252558f, -0.257726669f, -0.131925285f, -0.0689875335f, -0.107658334f, -0.0763435066f, -0.0292147435f,
    0.207514748f, 0.175372377f, 0.184942484f, 0.143179744f, -0.0291641727f, -0.0903339237f, -0.127334952f, -0.176701427f,
    -0.156698138f, -0.0748664588f, 0.0928273723f, 0.288873076f, 0.351865083f, 0.290497482f, 0.00352118933f, 0.0649658963f,
    0.4828839f, 0.563386202f, 0.223606557f, -0.113728791f, -0.232110724f, -0.213576764f, -0.262385339f, -0.23475188f,
    -0.240104899f, -0.00667860592f, 0.0658204257f, 0.248816967f, 0.197762609f, 0.0684826449f, -0.165878296f, -0.115356281f,
    -0.168333694f, 0.00206973078f, 0.0295002833f, 0.00621692836f, -0.0248937886f, 0.0140646519f, 0.0308738872f, 0.0216622334f,
    -0.0234189369f, 0.0828023851f, 0.0424035341f, 0.0520568937f, 0.0135703757f, -0.0259433333f, -0.0575551875f, -0.119209059f,
    -0.0886693224f, -0.105325095f, 0.0169927794f, 0.0947225019f, -0.00137259276f, -0.109058328f, 0.0415394418f, -0.0844492167f,
    -0.149938196f, -0.0955595523f, 0.0852284878f, -0.00849906728f, -0.0924672708f, -0.100118235f, 0.00374646601f, 0.00185598142f,
    0.0266468544f, 0.0485136397f, 0.00646285061f, 0.0246320572f, -0.00921573862f, 0.0343255177f, 0.0806385502f, 0.0644597113f,
    -0.0971733034f, -0.450236499f, -0.297396004f, 0.148066208f, 0.40972513f, -0.0308915824f, -0.289606065f, -0.478563368f,
    -0.162711531f, 0.0252021719f, 0.184150293f, -0.0670117736f, -0.223052442f, -0.351234108f, -0.208162621f, -0.0510131456f,
    0.079258658f, -0.0629354715f, -0.0789015889f, -0.115239725f, 0.0305694081f, 0.0500674099f, 0.0859028175f, 0.0683575347f,
    -0.00605448103f, -0.0341809727f, -0.000691739086f, 0.0387197994f, 0.0149001554f, -0.143237859f, -0.0484444834f, -0.0340799578f,
    0.0782013759f, 0.147110045f, -0.0470348373f, -0.0779575408f, -0.144786626f, 0.0991438255f, 0.129586592f, 0.154439047f,
    0.0683013275f, 0.0326442979f, 0.0352866314f, 0.106090471f, -0.109659955f, 0.0458134301f, 0.194289401f, 0.0141705442f,
    -0.121827245f, -0.268688053f, -0.0634067878f, 0.0932577848f, -0.164784357f, -0.333423227f, -0.194091275f, 0.0343235545f,
    -0.0882427618f, -0.137718707f, -0.191173941f, -0.136516213f, -0.125570819f, -0.0866651461f, -0.0972142369f, -0.121037439f,
    -0.125180826f, -0.0984926075f, -0.221495539f, -0.218860507f, -0.237895131f, -0.261923939f, -0.145491228f, 0.0291337874f,
    0.115111314f, 0.239048675f, 0.264680773f, 0.210019812f, 0.114433177f, 0.127591848f, 0.233865261f, 0.219187856f,
    0.0952612013f, 0.0689996481f, 0.0765741542f, 0.124242425f, 0.154281303f, 0.0574689172f, 0.0511016101f, 0.0269665029f,
    0.0739056915f, 0.111580946f, 0.0993473753f, 0.0436998606f, 0.0495445058f, 0.0900674164f, 0.0868673697f, 0.0051274756f,
    -0.0396398902f, 0.00751148583f, 0.0304947104f, -0.118574373f, -0.10105978f, -0.113149107f, -0.0204068925f, -0.0154702328f,
    0.0165661294f, 0.124065526f, 0.0862576142f, 0.0205873642f, 0.0948612615f, 0.10497608f, 0.160803616f, 0.0788400993f,
    0.1799559f, 0.245486036f, 0.114190623f, 0.14482668f, 0.0239652563f, 0.00392406061f, 0.111159354f, 0.144763604f,
    0.108326055f, 0.12267977f, 0.135449067f, 0.0599155128f, 0.0735800713f, 0.143613696f, 0.0706278309f, 0.0914797634f,
    0.104333408f, 0.103891358f, 0.0547891855f, -0.0233870801f, -0.108020857f, -0.0343917571f, 0.0561211221f, 0.0131843034f,
    -0.098713845f, -0.129189998f, -0.174866274f, -0.19214946f, -0.166682854f, -0.150149733f, -0.098414734f, -0.0846071541f,
    -0.0770552233f, -0.126349717f, -0.14514637f, -0.166554406f, -0.143583372f, -0.190938994f, -0.146851957f, -0.205807611f,
    -0.153071985f, -0.131579623f, 0.0109708179f, 0.0555424802f, 0.0956531838f, 0.0346476324f, 0.035242416f, 0.00932958256f,
    0.04597174f, -0.0568634234f, -0.117943227f, -0.186330378f, -0.196953714f, -0.188692033f, -0.174516842f, -0.0165022574f,
    0.261095583f, 0.480497539f, 0.259692281f, 0.137747362f, -0.00270744227f, -0.312675685f, -0.164326787f, -0.164818317f,
    -0.118822783f, 0.217116326f, 0.408830374f, 0.348524123f, 0.0791648701f, -0.233603835f, -0.198265567f, 0.105630398f,
    0.128798798f, 0.0988175943f, 0.0525466688f, 0.0230977945f, 0.0694289133f, 0.073148191f, 0.0731767714f, -0.0259065926f,
    -0.0397819616f, -0.0816773698f, 0.00170307909f, -0.12615256f, -0.0443451852f, -0.131212741f, -0.127413332f, 0.00917613227f,
    0.175169751f, 0.196996018f, 0.205166563f, 0.0220853891f, -0.14526175f, -0.0302793011f, -0.00900451653f, 0.0368062481f,
    0.0238415524f, 0.0550467707f, 0.0194067024f, 0.0650896505f, -0.0544821657f, -0.0709935799f, -0.0628172234f, -0.0269133952f,
    -0.0438793749f, -0.0797480494f, -0.0741086006f, -0.0743446499f, -0.0772589967f, -0.00770420814f, -0.0242113471f, 0.0383813977f,
    -0.0117463525f, -0.0340202935f, 0.0395784639f, 0.113074049f, 0.101053014f, 0.130564988f, 0.0138900829f, -0.0494896583f,
    -0.0774341449f, -0.097767964f, -0.0444892161f, 0.0125315106f, 0.0680075362f, 0.0594730452f, 0.100437097f, 0.159830406f,
    0.0869402438f, 0.0606052317f, -0.00439191377f, 0.0941998139f, 0.0463996939f, 0.146210566f, 0.104505911f, 0.147353306f,
    0.0828340203f, 0.248180375f, 0.298966646f, 0.334737092f, 0.337016881f, 0.303764462f, 0.164412498f, -0.0458951481f,
    -0.168877319f, -0.0925256312f, -0.0891195089f, -0.0730639994f, -0.0693118498f, -0.103985526f, -0.142769441f, -0.0676146895f,
    -0.0380394347f, -0.0298102982f, 0.0597506687f, 0.0030887106f, -0.00236670999f, 0.0285000913f, -0.134651512f, -0.120540321f,
    -0.0132311108f, 0.0185533389f, 0.00310977595f, -0.058952596f, 0.0398366302f, 0.110261209f, 0.0198220499f, 0.262348801f,
    0.139112562f, -0.0999450982f, -0.0768572241f, 0.0347685032f, -0.004573402f, 0.0380720571f, 0.00252089836f, -0.0616879389f,
    -0.0533337854f, -0.223497421f, -0.253723562f, -0.158906981f, -0.154859364f, -0.0877578408f, 0.107818268f, 0.216629773f,
    0.0708629861f, -0.0615481399f, 0.0448749997f, 0.0228978284f, 0.00186849979f, -0.147544414f, 0.0341137573f, -0.0583307818f,
    -0.035377942f, -0.0217496082f, -0.0137235448f, -0.0189624913f, -0.0322745033f, -0.159230426f, -0.249768257f, -0.287523627f,
    -0.10951516f, -0.0512210317f, 0.00147324312f, 0.000627198373f, 0.0640149713f, -0.193866119f, -0.506077707f, -0.363334239f,
    -0.266834259f, -0.342847705f, -0.110805579f, 0.416471362f, 0.647834063f, 0.635838091f, 0.271230876f, -0.0924680606f,
    -0.0918968469f, 0.0354259871f, 0.124206096f, 0.105368905f, 0.177421704f, 0.0989692435f, 0.0584426895f, 0.0747760758f,
    0.0125565063f, -0.177377149f, -0.130483076f, -0.0426427759f, 0.043464575f, 0.105043329f, 0.139906868f, 0.201514781f,
    0.0453000851f, -0.07660532f, -0.0520407036f, -0.0623005964f, -0.0309010446f, 0.0571363755f, 0.00288340729f, 0.0421821065f,
    -0.0543547496f, -0.0127387578f, 0.00481810234f, 0.0815551803f, -0.0276480857f, 0.0154379783f, -0.0378646553f, 0.0299650133f,
    -0.0743283257f, -0.192154229f, -0.187584907f, 0.017329514f, 0.176352933f, 0.165488079f, 0.082579948f, -0.0330411941f,
    -0.102729723f, -0.144048274f, -0.0710549131f, -0.0309045594f, 0.150955692f, 0.0741369948f, 0.0899711102f, 0.059953779f,
    0.0504624657f, 0.0365251936f, 0.0607671477f, 0.0368229039f, 0.0142591754f, 0.0230347849f, 0.0609275512f, 0.135143012f,
    0.142705917f, 0.183381379f, 0.056648761f, -0.107320063f, -0.0824478939f, -0.0334945284f, -0.0101108253f, 0.0514277741f,
    0.17874679f, 0.134109244f, 0.0660628229f, -0.014124318f, -0.0309508368f, 0.0454545505f, 0.0174872298f, 0.144111142f,
    0.0531001315f, -0.016570257f, 0.0595955141f, 0.0623238906f, 0.0736359879f, 0.0124523016f, 0.113882594f, 0.199047163f,
    0.194836289f, 0.0969786122f, 0.00885831565f, 0.182355061f, 0.351863593f, 0.303851813f, -0.118820205f, -0.57478416f,
    -0.246940657f, 0.469850332f, 0.310476661f, -0.238633379f, -0.434181064f, -0.323954403f, 0.227979675f, 0.150400847f,
    -0.14688383f, -0.16621235f, -0.0150058074f, -0.0758233517f, -0.00456518633f, -0.00362136541f, -0.0399404354f, 0.0232577957f,
    0.0798420608f, -0.128434986f, -0.521012485f, -0.265299261f, -0.023895653f, 0.0143754715f, -0.248113111f, -0.625385165f,
    -0.232068196f, 0.40379563f, 0.81786418f, 0.623733997f, 0.390296698f, 0.142716497f, 0.0938168168f, 0.143080652f,
    0.150000125f, 0.0574413463f, -0.0486030318f, -0.017654717f, -0.0508026183f, -0.0536574759f, -0.0550218821f, 0.0852154419f,
    0.048407305f, 0.0853224844f, 0.0604782961f, 0.0304163713f, 0.0127635105f, 0.0225586556f, 0.0237984136f, 0.0753016621f,
    0.0161454342f, -0.0146696437f, 0.105491042f, 0.0940329954f, 0.0576812774f, 0.0439784676f, 0.10069228f, 0.0699627772f,
    0.0861750767f, 0.0475837067f, -0.0359064899f, -0.0743179545f, -0.140125588f, -0.128609672f, -0.124182306f, 0.028673863f,
    0.0426735207f, 0.266788423f, 0.17191942f, 0.138329506f, 0.200966433f, 0.168712124f, 0.231758177f, 0.163853586f,
    0.165022582f, 0.0958976448f, -0.0123696113f, -0.0569967143f, -0.109547876f, -0.0139073692f, -0.0669238344f, -0.26888594f,
    -0.142129347f, 0.17268008f, 0.154352456f, 0.0470416211f, -0.0729647204f, -0.0318847224f, 0.034184251f, 0.150712103f,
    0.188587308f, -0.100887746f, -0.134935662f, -0.0374555625f, -0.00693042623f, 0.232249573f, 0.209058002f, 0.147454619f,
    0.084898293f, 0.0824839547f, 0.0124974586f, -0.00434382772f, 0.0206046011f, -0.0539770238f, -0.000811315665f, -0.100705102f,
    -0.135036364f, -0.188677773f, -0.161177129f, 0.0131730977f, 0.112936988f, 0.342853934f, 0.199996024f, -0.13050653f,
    -0.490410775f, -0.206210718f, 0.362837017f, -0.0173942391f, -0.294072211f, -0.325339615f, 0.103436701f, 0.213041857f,
    0.254568607f, 0.192714274f, 0.183231354f, 0.205563247f, -0.0109479949f, -0.180355996f, -0.121346235f, -0.0231496934f,
    0.0275290161f, 0.0281945542f, 0.03791897f, -0.0773241445f, -0.129829869f, -0.134999812f, -0.231909052f, -0.220186323f,
    -0.102124691f, 0.132893473f, 0.150851309f, 0.0677082166f, 0.0522841215f, -0.205354929f, -0.0659796819f, 0.0292992312f,
    -0.0158048179f, -0.0856807381f, -0.0237998478f, -0.0679708496f, 0.0597222894f, 0.019420296f, -0.0148852943f, -0.109857477f,
    -0.156574935f, -0.0775632784f, -0.0473501496f, 0.0237047989f, 0.0573056787f, 0.0244804397f, 0.0285911839f, 0.0639327243f,
    0.00864895806f, 0.000591610034f, 0.0514860302f, 0.163933888f, 0.250499696f, 0.183681354f, 0.108624607f, -0.0614697486f,
    0.0165074766f, -0.0180421472f, 0.0233255252f, -0.109000608f, -0.015924789f, -0.0288990512f, 0.00149634725f, -0.053893026f,
    -0.0919419378f, -0.172053024f, -0.0741492286f, -0.0270544514f, 0.0217948314f, -0.0632564649f, -0.0282308534f, 0.0217371564f,
    0.00677897688f, -0.0296830237f, -0.115393758f, 0.0457510278f, 0.085977532f, 0.0995433629f, -0.041354049f, -0.0334723853f,
    -0.0588187352f, -0.0335510895f, 0.0746058449f, 0.223102346f, 0.0181765985f, -0.098764129f, -0.149430498f, 0.00471635396f,
    0.0818135813f, 0.0768001452f, -0.0126957158f, 0.00697739143f, -0.0355312005f, 0.00265215058f, 0.0157739706f, 0.0777203441f,
    -0.00265657902f, -0.0360183902f, -0.0294910204f, -0.0056137722f, 0.00942047127f, 0.0304785762f, 0.0109158782f, 0.051455576f,
    0.0293965042f, -0.0265290439f, -0.0682979152f, -0.0845364332f, -0.0198400822f, -0.161285013f, 0.0166651383f, 0.318162441f,
    0.493631214f, 0.523247421f, 0.632971942f, 0.45601809f, 0.0639751777f, -0.0864900276f, -0.195703596f, -0.249443814f,
    -0.301340133f, -0.281292319f, -0.279227227f, -0.223598883f, -0.144636795f, -0.109877452f, -0.149608359f, -0.11479564f,
    -0.0846589804f, -0.0390310027f, -0.0211742837f, -0.0589361712f, 0.0189459268f, -0.0852737948f, -0.0861121789f, -0.152503878f,
    -0.0620196871f, 0.0193562862f, 0.0276503433f, -0.00756855169f, -0.0768791065f, 0.0507761985f, -0.000136933377f, -0.0611600056f,
    -0.0402727313f, -0.0474599712f, -0.0515619293f, -0.0388503373f, -0.0817203969f, -0.142023981f, -0.128875494f, -0.135608688f,
    -0.332042754f, -0.226269171f, -0.0481492504f, -0.0358377472f, -0.00151493575f, -0.0539536402f, -0.164876282f, -0.161250129f,
    -0.210753173f, 0.0366296954f, 0.0113066304f, -0.0783397406f, -0.250424147f, -0.339278102f, -0.214857861f, -0.103088759f,
    -0.0169656277f, -0.089768596f, 0.0498003401f, 0.2671085f, 0.189456016f, 0.292896688f, 0.247499377f, 0.242058992f,
    0.111288682f, -0.121571362f, -0.080295004f, -0.100391135f, 0.0373596922f, 0.015386601f, 0.0930049643f, 0.0917354077f,
    0.0918022171f, 0.0217285063f, -0.0636602566f, -0.0557084046f, -0.127755672f, -0.147984833f, -0.0982952267f, -0.0892187208f,
    -0.0869368389f, -0.0426748246f, -0.0947874412f, -0.06771826f, -0.038794592f, 0.0409816355f, -0.0063055153f, -0.0443533994f,
    -0.104343779f, 0.0237980653f, 0.055556614f, 0.0365106389f, -0.0396957174f, -0.114059933f, -0.112824611f, -0.0842148066f,
    -0.0311680343f, -0.0951307341f, -0.0094368998f, -0.029426787f, -0.0223403275f, -0.108484238f, -0.0724674314f, -0.0158207323f,
    0.0470708422f, 0.0792811438f, 0.0867000893f, 0.0106260665f, 0.0773228034f, 0.00906709861f, 0.0581197403f, 0.0157058332f,
    0.100979842f, 0.0634630844f, -0.0201980639f, 0.00267601549f, 0.00211217254f, 0.0765692964f, 0.0632139742f, -0.0214265045f,
    -0.0968227014f, 0.055661045f, 0.114252269f, 0.0432649776f, 0.0215001404f, -0.00807123631f, -0.00612313719f, -0.0707113668f,
    -0.0465472937f, -0.0333383419f, -0.00589565095f, -0.0178636014f, 0.00218523084f, 0.0488660112f, 0.132015139f, 0.0821236372f,
    0.0379162543f, 0.0934791341f, 0.0248437356f, 0.12180341f, 0.12021891f, 0.174796909f, 0.0996897966f, 0.19457297f,
    0.199999899f, 0.144480392f, 0.274256438f, 0.305123657f, 0.220319897f, 0.0532439128f, -0.0241165608f, -0.15478076f,
    -0.197379395f, -0.22532323f, -0.211161971f, -0.188851431f, -0.133434385f, -0.138232738f, -0.157123432f, -0.0472024567f,
    -0.0988095179f, -0.0736964121f, 0.0156799797f, 0.0407670066f, 0.0273661427f, -0.0141638871f, -0.072837092f, -0.0383820944f,
    0.0468917899f, 0.0223545246f, 0.00239561871f, -0.00204937765f, 0.0713340864f, 0.0540008955f, 0.027217472f, -0.104540758f,
    -0.120570116f, -0.0981623158f, 0.185122088f, 0.182970315f, -0.0112965675f, -0.147694394f, -0.157237962f, -0.060673371f,
    0.099357307f, 0.127177358f, 0.196786821f, 0.090624027f, 0.0471983217f, 0.0688410252f, -0.0216433294f, 0.0452939533f,
    -0.00775393937f, -0.0825975835f, -0.0111377193f, -0.051117707f, -0.0630868599f, -0.0426278077f, -0.0683534592f, -0.0201217104f,
    0.0467530116f, -0.0666246265f, -0.039932251f, -0.0767643228f, -0.0295096468f, -0.0355480462f, 0.016829554f, 0.0350180529f,
    -0.0367328376f, -0.0926736593f, -0.207519367f, -0.237817898f, -0.274177611f, 0.0504256561f, 0.457295686f, 0.504176617f,
    0.203274652f, 0.0157591645f, 0.0639451593f, 0.177703246f, 0.22855331f, 0.153703913f, 0.0323260091f, 0.0176471565f,
    -0.0231902432f, 0.0691667348f, 0.066348888f, -0.0247869417f, -0.0616429001f, -0.0599379055f, -0.0842284039f, -0.0562357083f,
    -0.112684041f, -0.0492797978f, 0.0256351363f, 0.0929109976f, 0.104497574f, 0.00524631143f, 0.0932153836f, 0.0921299458f,
    0.291402906f, 0.301604241f, 0.169214353f, -0.0793788731f, -0.323071599f, -0.280336052f, -0.178221405f, -0.0569713414f,
    -0.0467892364f, 0.00449721422f, 0.0226801801f, 0.0742330328f, 0.0672655925f, 0.068638064f, 0.0552017875f, -0.00423971191f,
    -0.0102075357f, 0.000859786349f, -0.0148533061f, -0.0451348796f, -0.0568127148f, -0.0351838171f, 0.0154405097f, 0.0968227237f,
    0.00460088858f, 0.0432218499f, -0.100661613f, -0.27575621f, -0.10800989f, 0.0304452218f, -0.0549529195f, -0.258853227f,
    -0.200738013f, -0.0350614749f, 0.0215419438f, 0.0925843939f, 0.0435341969f, -0.290117502f, -0.341520101f, -0.110568434f,
    0.138617337f, -0.0971313417f, -0.193551153f, -0.137775198f, -0.0700283572f, 0.0110274628f, 0.0013348317f, -0.0483872518f,
    -0.0460882708f, 0.0218733959f, -0.104526095f, -0.0484363437f, 0.00324401027f, 0.0386381373f, -0.0636012331f, 0.00752322283f,
    0.0785791278f, 0.108426325f, 0.0803124979f, -0.0554082766f, 0.0804380551f, 0.181178287f, -0.00536271418f, -0.255995572f,
    -0.0965928137f, -0.0111560831f, -0.155252486f, 0.287250966f, 0.121719755f, 0.0386746302f, 0.0535361469f, 0.0783528313f,
    0.0953064486f, -0.0798709169f, -0.229859129f, -0.0172921922f, 0.243698195f, 0.178497344f, -0.109071158f, -0.258912861f,
    -0.170342252f, -0.126674905f, -0.0761637092f, 0.0880751759f, 0.0233392566f, -0.176982403f, -0.136987135f, 0.0424166247f,
    0.0666150972f, -0.0298139937f, -0.00916891918f, -0.0466695242f, 0.0637592375f, 0.122702561f, 0.0510904528f, -0.130715594f,
    -0.134742066f, -0.0294345729f, -0.0988280922f, -0.211805284f, -0.146388531f, -0.0450308956f, 0.249027595f, 0.151389316f,
    -0.102690406f, -0.183486775f, -0.0828818157f, -0.0141017232f, -0.0741280094f, -0.00937383343f, 0.00984240603f, 0.0851307288f,
    -0.00299992831f, -0.0514974482f, -0.0666950047f, -0.0427964889f, 0.0266511776f, 0.0501008704f, 0.0431679823f, -0.0378633477f,
    -0.0691730008f, -0.0493024476f, 0.0568112917f, 0.0268369801f, 0.0111481873f, -0.105368748f, -0.0999487638f, 0.0112619204f,
    -0.0208836459f, 0.00997690298f, -0.014642491f, -0.0543959998f, 0.0178027321f, -0.0101456121f, 0.0421813317f, 0.00304354331f,
    0.0493718088f, 0.0564805157f, 0.0497661121f, 0.0409407392f, 0.00519598881f, -0.000640741375f, -0.230630547f, -0.182855859f,
    -0.187156036f, -0.0256127957f, -0.0102296649f, 0.0453823023f, -0.0338196643f, -0.0218494814f, -0.0809917524f, -0.103429936f,
    -0.156532407f, -0.290421516f, -0.249404386f, -0.036743708f, 0.318713993f, 0.329011649f, 0.208826765f, 0.251662582f,
    0.1079394f, 0.223620504f, 0.0336894691f, -0.112689257f, -0.102568008f, -0.0939516574f, 0.0699665472f, -0.0169308055f,
    0.0372952372f, -0.0122860791f, -0.0634966418f, 0.0215105228f, 0.0304871555f, 0.0803691521f, 0.0190083999f, 0.12732622f,
    0.223576665f, 0.192734003f, 0.219143644f, 0.0808828622f, -0.00258622644f, -0.0519380681f, -0.0294658933f, -0.104062364f,
    -0.0508018695f, -0.070059523f, -0.013995151f, 0.0330306292f, -0.0276996307f, -0.0976158306f, -0.0775581598f, 0.000503626594f,
    -0.0104590505f, -0.0747872144f, 0.00952105038f, 0.00189372466f, -0.101145722f, -0.196147248f, -0.0857750475f, -0.0044257897f,
    -0.0180833172f, 0.0237988587f, 0.00570410443f, 0.00137425377f, 0.0712235346f, 0.147509962f, 0.135672912f, 0.108277358f,
    0.062424887f, -0.0325889401f, 0.0442876443f, 0.135491669f, 0.0816664845f, -0.172178999f, -0.138865769f, -0.0433266945f,
    -0.0238518361f, -0.146839038f, -0.177270725f, -0.0935238004f, 0.0163069516f, 0.153315231f, 0.0838206187f, 0.141711012f,
    0.0755719915f, 0.0610938109f, 0.0553153306f, 0.0579520836f, 0.0186112504f, -0.0979956463f, -0.0743732154f, -0.0556232519f,
    -0.0258564036f, -0.0255799517f, -0.0100146579f, 0.011591522f, -0.0498058014f, -0.0949554667f, -0.185543269f, -0.191418469f,
    -0.107055821f, 0.0842263997f, 0.140622988f, 0.0831953809f, -0.122432306f, -0.191209391f, -0.134288833f, -0.10280323f,
    -0.120232694f, -0.0800435096f, 0.0231354088f, 0.0420746282f, 0.0498710163f, -0.0463777892f, -0.0333845541f, 0.0174739901f,
    -0.0566959754f, -0.0602183156f, -0.0346248224f, 0.0336809047f, 0.000257066044f, -0.07755927f, -0.0830122158f, 0.0141893262f,
    0.0268127862f, 0.0179703571f, -0.00615834352f, -0.0526671261f, -0.0466727652f, -0.110520191f, -0.176071212f, -0.00250568357f,
    0.162883937f, 0.218430266f, 0.154035136f, 0.0214584973f, -0.0716023222f, -0.103980765f, -0.118415214f, -0.177565426f,
    -0.183567733f, -0.151441902f, -0.0532959774f, 0.0754832178f, 0.133973792f, 0.153317273f, 0.09909641f, 0.209860101f,
    0.146663189f, -0.125762597f, -0.214436978f, -0.0740370154f, -0.0332561061f, 0.076344423f, -0.0185205825f, -0.0363599397f,
    -0.108226024f, -0.0188265834f, -0.0257693324f, -0.0493976511f, -0.00387099269f, -0.0198252015f, 0.0205701292f, -0.0119481655f,
    0.018689625f, 0.0477798209f, 0.091656208f, 0.0472036228f, 0.0256449524f, 0.0522152185f, 0.00627581822f, -0.0203080699f,
    -0.0724499375f, -0.075633578f, -0.0876150653f, -0.0308165066f, -0.00257284427f, -0.0631745309f, 0.0455221124f, -0.0145879071f,
    -0.0231483653f, 0.0939166546f, 0.019828273f, 0.0630363449f, -0.00671065878f, -0.160578266f, -0.137505755f, 0.0222296417f,
    -0.0843386576f, -0.173814476f, -0.100298338f, -0.078571178f, -0.118393749f, -0.111007951f, 0.00726828491f, 0.0544214137f,
    -0.155742437f, -0.0993721485f, -0.155102298f, -0.209841132f, -0.174282402f, -0.10120938f, -0.17517294f, -0.168194175f,
    0.16793032f, 0.396270216f, 0.275868297f, 0.176004201f, 0.0362915061f, -0.0163579229f, -0.135168657f, -0.137915626f,
    -0.0757614523f, 0.0274021793f, 0.0416779965f, 0.0390824936f, 0.0779342279f, -0.0529269017f, -0.0941220894f, -0.101970516f,
    -0.066021435f, -0.0913280174f, -0.0207534954f, -0.134468645f, -0.121865749f, -0.0594297983f, -0.040858537f, -0.162148684f,
    -0.318586022f, -0.307432055f, -0.230675682f, 0.0677762553f, 0.360820144f, 0.431709111f, 0.394875437f, 0.34239462f,
    0.0729776993f, -0.223200232f, -0.160986885f, -0.164430708f, 0.0154066673f, 0.0859812051f, 0.0960342884f, 0.0335728042f,
    -0.0582484715f, -0.0952538326f, -0.114050888f, -0.13469696f, -0.163382202f, -0.104154989f, 0.0710654035f, 0.0737501457f,
    0.189488292f, 0.0293130316f, -0.036005199f, -0.238897219f, -0.228367686f, -0.086884886f, 0.111846842f, 0.132111669f,
    0.00667823059f, 0.0286912173f, -0.0496206619f, -0.0697021186f, -0.0477495119f, 0.039841257f, 0.022701608f, -0.0444786884f,
    -0.0418973342f, 0.109365739f, 0.0909704417f, 0.129762039f, 0.105890445f, -0.0193984397f, -0.0364821739f, 0.00810112339f,
    -0.00276446645f, -0.0481059253f, 0.000304903369f, -0.058075048f, -0.0416131131f, -0.0335433185f, 0.0533054397f, -0.0518458448f,
    -0.0197137184f, 0.0858607367f, 0.022426188f, 0.106428646f, -0.0177188236f, 0.0117481062f, 0.0681281462f, 0.0202027522f,
    0.165322125f, 0.111280784f, 0.0410126448f, 0.0943962038f, 0.168966725f, 0.118670046f, -0.131991789f, -0.217958063f,
    -0.00675648358f, 0.15777795f, 0.21992743f, 0.0562394187f, 0.0608209856f, -0.0559011921f, -0.0393779911f, 0.0901419371f,
    0.038243439f, -0.0946245044f, -0.209418193f, -0.133158773f, -0.0748232603f, -0.0088499058f, 0.10463731f, 0.216800436f,
    0.0874468163f, 0.0348946303f, -0.0149704097f, 0.0559410639f, 0.0923253298f, 0.0225465801f, 0.0388005078f, 0.0361064076f,
    0.114739358f, 0.0750083253f, 0.121155985f, 0.132675275f, 0.16379562f, 0.241388962f, 0.240508944f, 0.12295308f,
    -0.0975436121f, -0.168820277f, -0.228428453f, -0.0404288247f, 0.071796447f, 0.0432282202f, 0.0846079141f, 0.0113074044f,
    0.0434460565f, 0.0158184003f, -0.0324499048f, -0.15971227f, -0.129337594f, 0.00399799272f, -0.0363576934f, 0.0169340242f,
    0.0408134609f, 0.115850799f, 0.0683214515f, 0.0285100918f, 0.100204259f, 0.0559191145f, 0.0177597031f, 0.0609809645f,
    0.042623207f, -0.00189996022f, -0.0227508005f, -0.137269497f, -0.353830099f, -0.241846219f, 0.278336078f, 0.57670629f,
    0.558568537f, 0.264445513f, -0.0874436349f, -0.00623658579f, 0.218890682f, 0.0190294981f, -0.170250878f, -0.121079214f,
    -0.0749882609f, -0.149917468f, -0.0876734406f, -0.0902835801f, 0.0155943101f, 0.0144499522f, -0.0646162555f, -0.103743739f,
    -0.0250655878f, 0.126431286f, 0.0524905287f, 0.19284001f, 0.190395087f, 0.120970376f, 0.0426712148f, -0.0334704146f,
    -0.0400367193f, -0.10814786f, -0.132798702f, -0.212860003f, -0.125581354f, 0.0214723367f, 0.0731307045f, -0.0333232693f,
    -0.0780687332f, -0.216544971f, -0.198613808f, 0.147819728f, 0.0849431679f, -0.214335859f, -0.232713431f, -0.00976670906f,
    0.100646131f, 0.122098781f, 0.0778397322f, 0.0615554824f, 0.115834944f, 0.225335106f, 0.232109368f, -0.0346097574f,
    -0.123364761f, -0.229461566f, -0.0983482227f, -0.0842500404f, 0.0605981499f, 0.080811508f, 0.0569117069f, -0.0708623379f,
    -0.175427556f, -0.126550332f, -0.0553905629f, -0.0844235048f, -0.0404411629f, -0.120063171f, -0.0949077308f, -0.106601804f,
    -0.231869116f, -0.195450202f, -0.0536968708f, -0.167929351f, -0.287851214f, -0.0882963315f, 0.133519128f, 0.239761874f,
    0.179946154f, -0.0613009594f, -0.122658268f, 0.0039582192f, -0.0488015078f, -0.110620119f, -0.135972798f, -0.0142649952f,
    -0.0337548479f, -0.129686221f, -0.143102005f, -0.14775753f, -0.118718252f, -0.00379347545f, 0.132204771f, 0.214493856f,
    0.240398973f, 0.152284026f, 0.00546714524f, -0.0337226354f, -0.137922704f, -0.10981489f, -0.0302198175f, 0.00148466905f,
    -0.0260802861f, -0.107873768f, 0.0112926839f, 0.148088962f, 0.00853452925f, -0.0362156145f, 0.0416311547f, 0.0525650345f,
    -0.0199215598f, -0.0665702447f, -0.0213875063f, -0.00589555316f, 0.103484467f, 0.058625862f, 0.00331708533f, -0.135362536f,
    -0.223976433f, -0.0284700003f, 0.12479011f, 0.0797571316f, 0.078672938f, 0.170746222f, 0.161225975f, 0.0922789648f,
    -0.0567186922f, -0.011475184f, -0.00607719086f, 0.0100043537f, -0.0217510536f, -0.00319706439f, 0.107400194f, 0.122952044f,
    0.0251071341f, 0.0289640296f, 0.265692323f, 0.347243249f, 0.383475453f, 0.436811268f, 0.377757818f, 0.17329815f,
    -0.134029999f, -0.30573824f, -0.243922502f, -0.226416245f, -0.109950498f, -0.11260087f, -0.094824411f, -0.100532025f,
    -0.143260747f, -0.0526205935f, -0.108288072f, -0.0686397254f, 0.0459172353f, 0.0110671865f, -0.0130988024f, -0.164845631f,
    -0.190497294f, -0.209407315f, -0.198296547f, -0.153345898f, 0.0602096245f, 0.0604920462f, -0.161026523f, -0.265051156f,
    -0.193010867f, -0.147155732f, -0.118113846f, -0.19070524f, -0.28132537f, -0.0789779648f, 0.0586994253f, 0.0636741072f,
    -0.0445466787f, -0.0932204947f, -0.105955034f, -0.0991854742f, -0.046409633f, -0.0368938074f, -0.0447976068f, -0.144775108f,
    -0.0763948634f, -0.0765393376f, -0.0166514069f, -0.115204617f, -0.126601547f, -0.157923698f, -0.102512866f, -0.0274673048f,
    -0.0403797366f, -0.0124651585f, -0.119954489f, -0.0042454279f, 0.0154741257f, 0.0228905864f, -0.0170158446f, 0.0308581311f,
    0.0262342319f, 0.0542329513f, 0.0853257924f, 0.0516790263f, -0.0731429681f, 0.022551883f, -0.122870997f, 0.0247805249f,
    0.136740223f, 0.0970357284f, 0.0295457616f, -0.124537595f, -0.355592161f, -0.100104541f, 0.064957872f, 0.0798263624f,
    0.297659904f, 0.474840552f, 0.244692609f, 0.0978298709f, 0.137608156f, 0.155910447f, 0.15876919f, 0.177829385f,
    0.128103584f, 0.0667974949f, 0.20694232f, 0.211467534f, 0.103285626f, 0.0787699595f, 0.0337778032f, 0.225429833f,
    0.217305273f, 0.239310071f, 0.00849859975f, 0.0590695776f, 0.0998691171f, 0.0271845385f, 0.0553140268f, 0.0884395391f,
    -0.0440248176f, 0.0912896469f, 0.079744637f, -0.139194787f, -0.0530698448f, 0.004232754f, -0.0321238004f, -0.023502212f,
    0.0997734144f, 0.0419823602f, -0.0871580914f, -0.0238817018f, -0.165945038f, -0.109067641f, -0.0950625688f, -0.0302252229f,
    0.055740688f, 0.0300856493f, 0.0281066876f, -0.0216858294f, -0.00519829383f, 0.00152956974f, 0.00310395495f, 0.0829620659f,
    0.110969357f, 0.0871280134f, 0.0676383674f, 0.100978382f, 0.0975816101f, 0.126228973f, 0.0866963491f, 0.16606316f,
    0.165313035f, 0.0687608421f, -0.0769357011f, 0.0263194423f, 0.0970863253f, 0.0212101601f, 0.0146157481f, -0.0076941005f,
    0.0817589089f, -0.0499021932f, -0.186887026f, -0.0908952206f, 0.040104866f, 0.00367905875f, -0.0695190877f, -0.0530863553f,
    -0.0577430949f, -0.0856784359f, -0.137009963f, -0.278624266f, -0.159341976f, -0.0939652547f, 0.0661103129f, 0.0713981986f,
    0.0444680974f, 0.0606155135f, 0.0586980358f, 0.0745322257f, 0.0327669419f, 0.0564054511f, 0.0284459423f, 0.0269344877f,
    -0.0254643112f, -0.0246440973f, -0.0844363198f, -0.0428496227f, -0.145529985f, -0.16604121f, -0.0289815031f, -0.088841036f,
    -0.0898214877f, 0.00557102636f, 0.0138012851f, -0.0949938595f, -0.0713462159f, 0.18966046f, 0.0966166183f, 0.0515149869f,
    0.130458623f, 0.0842218399f, -0.0302997977f, 0.0662844181f, 0.042572666f, -0.0100859804f, 0.0589321256f, -0.0183034018f,
    0.0491935574f, -0.0594792441f, 0.0288462266f, 0.0559505001f, 0.1510638f, 0.113157682f, 0.0114882728f, 0.0126669202f,
    0.0369847007f, -0.00106119248f, -0.0656353831f, -0.0459760614f, -0.125464574f, -0.206943989f, -0.0833092257f, -0.0706668571f,
    -0.0727402121f, -0.0823269114f, -0.100555368f, 0.0413485467f, -0.0363815054f, -0.0404085927f, 0.090989165f, 0.122547828f,
    0.0445076711f, 0.0651246086f, 0.0644852072f, 0.00258766185f, -0.109384991f, -0.0563559867f, -0.114121281f, -0.0643236488f,
    0.109018825f, 0.16593942f, 0.100600153f, 0.152389184f, 0.111505389f, 0.00458340719f, 0.020999385f, -0.0146397548f,
    -0.100743562f, -0.183474317f, -0.0253042281f, 0.0414819419f, -0.0076819798f, 0.0438731946f, 0.13766925f, 0.0951345563f,
    0.0124128908f, -0.0124712391f, 0.0490507446f, -0.123278297f, -0.378426164f, -0.3454521f, -0.0777499229f, 0.487047434f,
    0.622144282f, 0.428056419f, -0.0212322306f, -0.388445914f, -0.301849842f, -0.0541729406f, -0.0713500977f, -0.0543449819f,
    0.00982670672f, -0.0082132211f, 0.0318822712f, 0.00250092545f, 0.161973521f, 0.22957103f, 0.176731125f, 0.0436444543f,
    0.0938861743f, -0.1008856f, -0.407382697f, -0.43569532f, -0.112602241f, 0.0295199156f, 0.127821892f, 0.0846824571f,
    0.0465023443f, 0.0191414375f, 0.111898527f, 0.0135599421f, -0.117319196f, -0.0314698815f, -0.0109047415f, 0.111441344f,
    0.0864802599f, 0.2323699f, -0.00124125485f, -0.118981719f, -0.109291658f, -0.0691164732f, -0.0908005163f, -0.042989824f,
    0.0205279905f, -0.0265425313f, 0.0394400433f, 0.00602110382f, -0.000533047132f, -0.0960244611f, -0.235679954f, -0.149538219f,
    -0.0913533345f, -0.0674669072f, 0.113731965f, 0.184538186f, 0.256618291f, 0.213485792f, 0.101425149f, 0.139440283f,
    0.0559768192f, 0.00974730309f, -0.0349273533f, 0.0117025943f, 0.068881698f, -0.0406893753f, -0.107921466f, -0.00644463208f,
    0.0306429323f, 0.0409284905f, 0.0704356804f, 0.0175209735f, 0.109777898f, 0.153908715f, 0.0208115298f, 0.0139456159f,
    -0.104406156f, 0.0200468544f, -0.0107045481f, 0.0880677626f, 0.0449894145f, 0.0110258199f, 0.0145461122f, 0.0641078874f,
    0.0538829528f, 0.000158762647f, -0.0112492582f, 0.113569386f, 0.17794621f, 0.00506165531f, -0.245556936f, -0.276996434f,
    -0.0909016579f, 0.0872765929f, -0.0400772728f, 0.163770005f, 0.102794968f, 0.0212734155f, 0.103609562f, 0.0364861749f,
    0.0575191155f, 0.111242615f, 0.0107308924f, 0.0903128237f, 0.0125823533f, 0.0922578797f, -0.00601494499f, -0.00608667126f,
    0.0731748343f, 0.0210265275f, 0.0801787898f, 0.0299779698f, 0.0310402196f, 0.0665217713f, -0.115385383f, 0.0225953907f,
    0.0239332691f, 0.00222494453f, 0.00425436208f, 0.0758187026f, -0.0542473122f, 0.0469548702f, 0.0320067108f, 0.00542783504f,
    0.0340737589f, 0.0995195583f, 0.112808585f, 0.0247282274f, -0.0939003378f, -0.0264517404f, -0.0760553405f, -0.0824635029f,
    -0.0967134982f, -0.0796585232f, -0.103882164f, -0.151542529f, -0.107733786f, -0.177021012f, -0.159623578f, -0.167407215f,
    -0.18349351f, -0.15100354f, -0.223998293f, -0.190973178f, -0.0243611671f, 0.252351731f, 0.314942241f, 0.314167112f,
    0.276474684f, 0.242342427f, 0.21812968f, 0.184029356f, 0.100090295f, -0.0231068004f, 0.00293209613f, 0.0339096896f,
    0.0257740505f, 0.00824867003f, 0.107813723f, 0.10413032f, 0.0373448059f, -0.0261321198f, 0.048468519f, 0.0648629814f,
    0.0772791505f, 0.0876256824f, 0.044963818f, -0.0463860817f, -0.0690673962f, -0.065802291f, -0.0561344251f, 0.00577586796f,
    -0.0673868954f, -0.159908861f, -0.0708667934f, -0.0955751315f, -0.0541952737f, 0.016270129f, -0.0634387732f, -0.0689124018f,
    -0.0739614815f, -0.0787010491f, -0.100303091f, -0.232784823f, -0.214748055f, -0.0613793619f, -0.016692061f, -0.070011802f,
    -0.0547130518f, -0.0116408449f, 0.0376352258f, 0.0724607855f, 0.0845485181f, 0.0283493251f, -0.0709568784f, 0.0129638268f,
    -0.0438092202f, 0.058975514f, 0.0106940502f, -0.02329042f, -0.0498185121f, 0.0932387337f, -0.00364018115f, -0.047729101f,
    -0.0676861256f, -0.0317845605f, -0.0669053197f, -0.0690164268f, -0.118554994f, -0.2464481f, -0.203936577f, 0.00336191128f,
    -0.00113919878f, 0.0272605345f, 0.0364637002f, 0.073361285f, 0.068693012f, 0.0938333049f, 0.0272576101f, 0.0152405389f,
    0.0556585453f, -0.0200182982f, 0.0301285665f, -0.0205261242f, 0.127329692f, -0.0296815243f, 0.0132336253f, -0.0653360337f,
    -0.0273162015f, 0.0735486224f, 0.139649749f, 0.0853885114f, 0.0518940501f, -0.108226709f, -0.0590907037f, -0.0322157703f,
    0.0866340175f, 0.0964789167f, 0.137621507f, 0.0262916833f, -0.208286211f, -0.181175366f, -0.122168921f, -0.124456681f,
    -0.0821141005f, -0.108255252f, -0.112950288f, -0.219765455f, -0.194164217f, -0.147095785f, -0.106102109f, -0.144183233f,
    -0.17470333f, -0.142654225f, -0.243397713f, -0.122345902f, 0.019210089f, 0.0208690614f, -0.0639820695f, -0.142264143f,
    -0.0840494484f, 0.0707140714f, 0.0166460015f, -0.0680077896f, -0.225569874f, -0.19096984f, -0.136097208f, -0.0712868795f,
    -0.00233019586f, 0.0437278338f, 0.0526792742f, -0.0486753806f, -0.0486521348f, -0.108158752f, -0.103245117f, -0.0849125609f,
    -0.0402913839f, -0.0933795199f, -0.0834615976f, 0.0144528281f, 0.0364753082f, 0.0479539298f, -0.00713288179f, -0.0153692057f,
    -0.0270985942f, -0.120282836f, -0.130588248f, -0.103242002f, -0.236621529f, -0.28766045f, -0.23146525f, -0.116832554f,
    0.217551023f, 0.340994447f, 0.233421743f, 0.0500757135f, 0.17469345f, 0.205895722f, 0.196203157f, 0.119529098f,
    0.0194473211f, 0.0833852813f, 0.102785133f, 0.154728934f, 0.200018108f, 0.116607293f, -0.0525563173f, -0.00253956462f,
    0.0374910347f, 0.0389514379f, 0.0665220693f, 0.0791724771f, 0.0289658904f, -0.022068562f, 0.0140417786f, 0.0742860287f,
    0.137191892f, 0.136652857f, 0.137802899f, 0.0731582493f, 0.12427666f, 0.105123088f, 0.127871528f, 0.0814746395f,
    0.182810724f, 0.142291129f, 0.181385562f, 0.12610817f, -0.0495287329f, -0.0144490357f, 0.12124072f, 0.161145136f,
    0.263079494f, 0.364379495f, 0.414504409f, 0.305971384f, 0.0998821035f, -0.388920158f, -0.243118837f, 0.0145915719f,
    0.211655945f, -0.0152724897f, 0.0355189517f, 0.0827466697f, 0.0522837713f, -0.0117007513f, 0.0146577759f, 0.0723993108f,
    0.089930661f, 0.0534938164f, 0.145884007f, 0.0985483453f, -0.274121523f, -0.158134475f, -0.114991426f, -0.0757959709f,
    0.0326555334f, -0.0621172898f, -0.0233842265f, -0.0901315808f, -0.157811612f, -0.272663832f, -0.217377603f, -0.169055998f,
    -0.0120771863f, 0.0539673194f, 0.0768036768f, -0.015139401f, -0.107969999f, -0.116174847f, -0.180818796f, -0.0104607558f,
    0.13757585f, 0.116751187f, 0.0862381682f, 0.108131707f, 0.157904774f, -0.0402742438f, -0.0542134307f, -0.0806705058f,
    0.0292319451f, -0.0367200375f, -0.17816779f, -0.0554046333f, -0.0388041735f, 0.0728113651f, 0.0689991191f, 0.137085587f,
    0.0395319574f, 0.0513823591f, 0.0833979174f, -0.0886784196f, 0.0663874522f, 0.0699706525f, 0.156223044f, -0.0291730035f,
    0.0086942073f, -0.0541278347f, -0.0584880076f, -0.0325221233f, -0.0975839272f, -0.19758372f, -0.213812843f, -0.098726429f,
    0.222718135f, 0.203891665f, -0.0434769168f, -0.30094558f, -0.410749972f, -0.424984038f, -0.217324018f, 0.170315683f,
    0.335172743f, 0.309597105f, 0.268577784f, 0.303296536f, 0.158225849f, 0.100012757f, 0.193275318f, 0.151812091f,
    0.0827817172f, 0.148520306f, 0.211031929f, 0.0207232311f, 0.118081391f, 0.0746185333f, 0.14135769f, 0.00987028237f,
    0.0115208598f, 0.0961399227f, 0.035283953f, 0.0254290197f, 0.0403113961f, -0.0114450799f, -0.18568863f, -0.110357054f,
    -0.165841788f, -0.0177971851f, 0.0781027302f, 0.0158750974f, 0.0921131447f, 0.0436077155f, -0.0311872847f, -0.18372637f,
    -0.107300147f, -0.0371089987f, 0.0131931454f, -0.0128927939f, -0.011403189f, 0.00423450395f, 0.165969983f, 0.187418431f,
    0.171110585f, 0.116887324f, 0.116490014f, 0.108975843f, 0.0667181239f, -0.101221643f, 0.026767876f, -0.0690385625f,
    0.0225465447f, 0.00323200016f, 0.036424242f, 0.213195249f, 0.138211474f, 0.0427000411f, -0.00929454528f, 0.0747220069f,
    -0.0740834624f, -0.13776353f, -0.143984541f, -0.249740377f, -0.110310517f, 0.066864945f, 0.101049505f, 0.188222617f,
    0.175656021f, 0.115468033f, 0.166124463f, 0.0555652529f, -0.0760901645f, -0.138312116f, -0.137180492f, -0.0614635237f,
    0.112140231f, 0.174440369f, -0.0152585413f, -0.0803627223f, -0.196614474f, -0.0568345487f, 0.0108531909f, -0.100931317f,
    -0.156361759f, -0.0417078808f, 0.016593419f, -0.002960691f, -0.0547453538f, -0.0152707798f, -0.0465207137f, 0.0857975632f,
    0.0233049132f, 0.110992029f, 0.110531904f, 0.0112386839f, -0.0113954116f, 0.0919035822f, 0.0741360262f, 0.0706786215f,
    -0.0321360715f, 0.0244640931f, -0.00333875045f, 0.0362959541f, 0.0345602855f, 0.0321372971f, -0.0238830354f, 0.0481025726f,
    0.0207171235f, -0.00380988931f, -0.0473671407f, -0.0863548368f, -0.096723929f, -0.0463923328f, 0.0233611502f, -0.035336744f,
    -0.00663630571f, -0.0300783981f, 0.0154051436f, 0.0600184724f, 0.0751449093f, -0.0108109061f, -0.00699557923f, -0.0704555064f,
    -0.114127643f, -0.0117245009f, -0.083837457f, -0.0146787465f, 0.0091971783f, 0.058073245f, 0.0123768561f, 0.0252663214f,
    -0.0457487367f, 0.0965273827f, 0.141210228f, 0.155224591f, 0.213039577f, 0.117117383f, -0.00896178186f, -0.0554578304f,
    0.172422007f, 0.180900231f, 0.135512426f, 0.117956549f, 0.154148906f, 0.0837522894f, 0.111681141f, 0.380306929f,
    0.652605653f, 0.328168541f, 0.0085956715f, -0.391009778f, -0.373737663f, -0.480608344f, -0.371750891f, -0.218577921f,
    -0.197088897f, -0.124621056f, -0.0406065881f, -0.0233496688f, -0.0602157451f, -0.0182503853f, 0.0281117838f, -0.0001680477f,
    -0.04870281f, -0.121906072f, -0.118280925f, -0.0588132255f, 0.0126311965f, 0.077843219f, 0.0453369431f, 0.0592439026f,
    -0.00228642486f, -0.110525422f, -0.0985258669f, -0.0760421455f, -0.0552508794f, 0.00687243044f, -0.0375552997f, -0.00238748081f,
    0.0203202721f, 0.0359264202f, 0.0821992159f, -0.132866621f, -0.182270214f, -0.0733583719f, -0.0631933361f, -0.0116573954f,
    0.0327508226f, -0.0816143677f, -0.188536838f, -0.095497936f, -0.178089187f, -0.220312625f, -0.167954311f, -0.111548774f,
    0.00328449695f, 0.0645603389f, 0.083643809f, -0.0901188701f, -0.0560705401f, -0.0764975399f, 0.160049751f, 0.151138976f,
    0.128940463f, 0.0434430987f, 0.084889248f, 0.134401873f, 0.0729293451f, 0.0937424973f, 0.257869005f, 0.240485862f,
    0.174602613f, 0.0917461365f, -0.251106381f, -0.18561399f, -0.238395989f, -0.127531976f, -0.197892949f, -0.0530817918f,
    -0.0454555936f, -0.0524422601f, -0.0785315558f, -0.0849017501f, -0.0168232936f, -0.0447311625f, -0.0474397875f, -0.0284188874f,
    0.0855510011f, 0.0586156659f, 0.0803901628f, 0.0420044921f, 0.042911347f, -0.0272725429f, 0.0025463826f, -0.100018255f,
    -0.144344568f, -0.155111372f, -0.023591144f, -0.0323658735f, -0.0964820907f, -0.141637921f, -0.068629317f, 0.0421520434f,
    -0.0176744889f, 0.0295620169f, 0.0642921478f, -0.0486599766f, -0.0714179203f, -0.117019512f, 0.0277284663f, 0.0298648756f,
    -0.0170797631f, -0.0161381029f, -0.0691306368f, -0.0339064896f, -0.0371509157f, -0.148555711f, -0.141815022f, -0.0482610911f,
    0.0301296972f, 0.107181989f, 0.181063712f, 0.260943383f, 0.0835978389f, -0.225971043f, -0.365003228f, -0.241837144f,
    -0.259059131f, -0.158142149f, -0.0779765025f, 0.040785335f, 0.118292823f, -0.0423905663f, 0.0735342652f, 0.124932013f,
    0.0979109481f, 0.0608166233f, -0.0294155665f, -0.00433424907f, -0.0247674175f, -0.0873704106f, -0.212449193f, -0.252281874f,
    -0.264853239f, -0.104205467f, -0.00368633773f, 0.0978532061f, 0.00903108623f, 0.000910303672f, -0.037915431f, -0.0310283247f,
    0.0239215009f, -0.0317312703f, -0.00637847371f, 0.0217251945f, -0.0770107806f, -0.0722888112f, -0.0800645649f, -0.0902401507f,
    -0.000541293935f, 0.0109521868f, 0.0503612347f, 0.0348961204f, 0.0968039036f, 0.0178145412f, 0.022848811f, 0.00146944099f,
    -0.0737760141f, 0.0424663723f, -0.00527268043f, 0.0856264085f, -0.0022871776f, 0.00896537304f, -0.0686075687f, -0.0896492973f,
    -0.123388521f, -0.050749816f, -0.208475649f, -0.42757839f, -0.495768696f, -0.165570572f, 0.31187731f, 0.429751128f,
    0.422242075f, 0.324318111f, 0.166066229f, 0.0369090848f, 0.085729979f, 0.0623883419f, 0.0264539607f, -0.00755908806f,
    0.00109770894f, 0.0756669715f, -0.0139620956f, 0.0366832651f, 0.0803387463f, 0.0218424741f, 0.0816905349f, 0.14280425f,
    0.111292019f, 0.0927761793f, 0.104988165f, 0.0769859403f, 0.0139329284f, 0.102987871f, -0.0223023165f, -0.0875891075f,
    -0.152059615f, 0.000725968974f, 0.12470559f, 0.211814061f, 0.152106389f, 0.163766384f, 0.147765279f, 0.134202555f,
    0.159944966f, -0.013471188f, 0.0112778237f, 0.0437983312f, -0.028940659f, -0.0567091107f, -0.057922516f, -0.0885410756f,
    -0.0125675481f, 0.043463517f, 0.0147439344f, 0.0866379365f, 0.0751881301f, 0.0133411046f, 0.0753549933f, 0.062759392f,
    0.0483550318f, -0.0142493593f, 0.035120517f, -0.00797734223f, 0.0356533043f, 0.0166303702f, 0.0734217465f, 0.0693102032f,
    0.0608905666f, 0.0836453959f, 0.171800062f, 0.112861328f, 0.127416357f, 0.147147045f, 0.191753671f, 0.275231659f,
    0.281136662f, 0.290757567f, 0.0217441041f, -0.357739478f, -0.542675316f, -0.433915049f, -0.341796905f, -0.220866233f,
    -0.024935944f, 0.0318710208f, 0.0322680809f, 0.0501215048f, 0.0362993255f, -0.109624602f, 0.0178890694f, 0.00627824385f,
    -0.0336182192f, -0.00566321285f, -0.0156929139f, 0.0325301252f, 0.0184658039f, 0.0157600529f, 0.0172556993f, -0.000320065272f,
    0.00143952353f, 0.0519571751f, 0.0856667683f, 0.136937425f, 0.104086921f, 0.0378640741f, 0.188190401f, 0.16706799f,
    0.0606818236f, -0.00843784027f, 0.00710391579f, -0.0398402885f, -0.0592037514f, 0.0657280684f, 0.156960249f, 0.144028589f,
    0.122958869f, 0.160202026f, 0.0525843911f, 0.0306559745f, 0.0725700259f, 0.0278100204f, -0.000348653586f, 0.0165555459f,
    -0.0402517729f, -0.246298298f, -0.22122401f, -0.183704525f, -0.0917501599f, -0.135733247f, -0.0669620559f, -0.0344860107f,
    -0.0172007196f, -0.0938171372f, -0.20093213f, -0.198485672f, -0.130711615f, -0.0366247073f, 0.00603819359f, -0.015075054f,
    -0.0146923149f, -0.00960521866f, -0.0258734711f, -0.0199010596f, 0.0196990445f, -0.0947857574f, 0.0621230267f, 0.012611025f,
    0.150755316f, 0.0709018558f, 0.14529191f, 0.140046746f, -0.00468075089f, -0.0396509953f, -0.0785910562f, -0.0617223233f,
    0.0615509562f, -0.015971683f, -0.128621325f, 0.0501278453f, 0.225860789f, 0.14763014f, 0.102006629f, 0.114967294f,
    0.182467327f, 0.141430631f, -0.0104613202f, -0.187125444f, -0.295884669f, -0.353500575f, -0.235176995f, -0.19304648f,
    -0.13990286f, -0.0701032579f, 0.0512700304f, 0.0818236768f, 0.0535113253f, -0.00212759082f, 0.118249521f, 0.165142223f,
    -0.0181866176f, -0.169999555f, -0.168384925f, -0.0378023349f, -0.0418155231f, 0.0862672105f, 0.0099252183f, 0.0824596807f,
    0.115978986f, 0.145692825f, 0.114433877f, 0.124489553f, 0.0809232965f, 0.00316409115f, -0.0695997253f, -0.0323319025f,
    -0.01771231f, -0.0557115376f, -0.179122731f, -0.0762569606f, 0.0381432027f, 0.0264792088f, -0.15463835f, -0.0819175988f,
    -0.0196272396f, -0.0957349911f, -0.116335966f, -0.058708977f, 0.018860627f, -0.0492612757f, -0.10039106f, -0.163896099f,
    -0.168038294f, -0.286450535f, -0.330260664f, -0.277957618f, -0.24361451f, -0.360024154f, -0.233310133f, 0.274085015f,
    0.672914326f, 0.737010896f, 0.540430367f, 0.144070059f, -0.0395086519f, -0.0591262989f, -0.00784672331f, 0.079775691f,
    0.0980668738f, -0.00937733985f, 0.0130315237f, 0.039338693f, 0.0442628004f, -0.0216831807f, -0.0786510631f, -0.0021156338f,
    -0.0231459569f, 0.000117167081f, -0.0138589684f, -0.0505933538f, -0.116628207f, -0.095967494f, 0.0486999527f, 0.080249995f,
    0.057093706f, -0.00122428697f, 0.0615199469f, 0.12694779f, 0.125028551f, -0.0149235511f, -0.113983296f, -0.077276513f,
    -0.0815194994f, 0.0659425631f, 0.0578253008f, 0.0383123308f, 0.0359883718f, -0.0351502709f, -0.0335712731f, 0.101346217f,
    0.432954073f, 0.618744433f, 0.709536076f, 0.407648474f, -0.200214311f, -0.456583023f, -0.171521664f, -0.0518402457f,
    -0.0343714654f, -0.0886177868f, -0.113415532f, -0.0804303586f, -0.0664563105f, -0.0353611633f, 0.165013403f, 0.124881737f,
    0.0312559232f, -0.11648906f, 0.120616429f, 0.0437395908f, -0.140972599f, 0.0356877893f, 0.162764117f, 0.157396764f,
    -0.138004228f, -0.172764838f, -0.181997642f, -0.0694491938f, 0.0639818907f, -0.0324546844f, -0.0110520972f, 0.0719341561f,
    0.102179833f, -0.112352081f, -0.0996550992f, -0.0908505619f, -0.0163704939f, 0.0109207109f, 0.0517429262f, 0.0480198599f,
    0.00629703654f, -0.106856711f, -0.0677200481f, -0.0658325925f, -0.0272758305f, 0.0322652534f, -0.0728136972f, 0.0045243632f,
    0.0512902737f, 0.0714591965f, -0.0194843411f, -0.206319183f, -0.260387331f, -0.116376564f, 0.00267631514f, -0.0262153428f,
    -0.0884273425f, -0.135149062f, -0.118248537f, -0.080089286f, -0.162456825f, -0.182000458f, -0.221291721f, -0.0889924616f,
    0.0271989126f, 0.265193105f, 0.57140094f, 0.837377787f, 0.604036093f, 0.0601746216f, -0.216598302f, -0.356083453f,
    -0.331887692f, -0.412594557f, -0.199720055f, -0.017048765f, -0.0507526845f, -0.293715924f, -0.374100655f, -0.266299903f,
    -0.110786736f, -0.0209851712f, 0.0306715295f, 0.0667377636f, 0.106006689f, 0.135464981f, 0.244086295f, 0.209689841f,
    0.221988291f, 0.0649702996f, 0.0952428952f, 0.193804905f, 0.192299962f, 0.163334727f, 0.171313658f, -0.0600548871f,
    -0.29619813f, -0.401406348f, -0.215668306f, 0.160450131f, 0.0388498418f, -0.313986897f, -0.273728102f, 0.0409815535f,
    0.258409619f, 0.183572501f, 0.0401209854f, -0.0204969049f, 0.0457344651f, 0.0616865456f, 0.115748122f, 0.175286591f,
    0.0568603128f, -0.0951218754f, -0.158733442f, -0.0990188643f, 0.0248789694f, 0.0926130265f, 0.037342798f, 0.15051657f,
    0.0904451385f, -0.0202047396f, 0.096142292f, 0.0182681996f, -0.072236605f, 0.0369459875f, 0.150656283f, 0.0188282728f,
    0.084439449f, 0.119945586f, 0.00965012051f, -0.166649744f, -0.244284138f, 0.106689088f, 0.325230837f, 0.24368982f,
    0.240548596f, 0.175449625f, 0.156663507f, 0.0756887719f, 0.106526762f, 0.0567076169f, 0.090124771f, 0.033902254f,
    0.00852135755f, 0.0784625039f, -0.166952744f, -0.304566205f, -0.31122613f, -0.283762246f, -0.184541285f, -0.0178294908f,
    0.0834150165f, 0.169094652f, 0.159455568f, 0.182395414f, 0.141208425f, 0.126694947f, 0.0966724232f, 0.0421697348f,
    0.0942470878f, 0.0523728542f, 0.0702729523f, 0.0550347604f, 0.0653070211f, 0.0802602097f, 0.0781022832f, 0.0487734042f,
    -0.0118498616f, 0.0695231408f, 0.020312557f, 0.0677862912f, 0.0649975762f, 0.0852715522f, 0.020958513f, 0.0412636474f,
    0.052371677f, -0.014373214f, 0.0419453084f, 0.103607804f, 0.057711646f, 0.0198416337f, 0.0430021547f, 0.0582806543f,
    -0.0386339165f, 0.0604738332f, 0.00673308223f, -0.0124917887f, 0.0614156835f, -0.028853165f, -0.00724000903f, 0.00521615148f,
    0.00919582602f, 0.0798731148f, 0.0213707946f, -0.0468665287f, 0.0155878346f, -0.0173172653f, -0.0802925602f, -0.053839758f,
    -0.0243585072f, -0.0673587993f, 0.0471653379f, -0.0773400366f, -0.0408719443f, -0.0612280741f, -0.0763865113f, -0.16046226f,
    -0.2331433f, -0.0795565769f, 0.259848267f, 0.234724194f, 0.273683161f, 0.105948582f, 0.0616328046f, 0.0586733185f,
    -0.078937158f, 0.0732151791f, -0.0209455881f, -0.0466066599f, -0.0106479349f, 0.00850221142f, -0.0641296431f, -0.0464863591f,
    0.0516373888f, 0.134824723f, 0.111366116f, 0.107858047f, 0.0779798478f, 0.154205546f, 0.100721367f, 0.0263751242f,
    0.046501562f, 0.0619637445f, 0.0129713686f, -0.134806335f, -0.132098362f, 0.030502243f, 0.159549549f, 0.0757087097f,
    0.0360175632f, -0.0717709959f, -0.0145004876f, 0.0249904338f, 0.0668584108f, -0.00616219966f, -0.0683991015f, 0.0738519281f,
    0.115907602f, 0.145560622f, 0.13058649f, 0.0580080301f, 0.0461774245f, 0.109959677f, 0.163859054f, 0.136601478f,
    0.127256364f, 0.104704417f, 0.0968606621f, 0.03583958f, -0.0204954389f, 0.0660931915f, 0.0368236527f, -0.019224599f,
    -0.181952223f, -0.150181785f, -0.0414804369f, -0.00128496671f, 0.026710039f, -0.00344792777f, 0.105841108f, -0.0202648062f,
    -0.425141096f, -0.434907258f, -0.371666729f, -0.143732414f, 0.00844405312f, -0.0960530192f, -0.0697384253f, 0.147052169f,
    -0.0429188237f, -0.0760288686f, 0.0728558823f, 0.0164350569f, -0.158804715f, -0.242718458f, -0.200286433f, -0.276818097f,
    -0.0237794649f, 0.15144527f, 0.226835221f, 0.191279963f, 0.120770708f, -0.0392886326f, 0.0440004654f, 0.145995513f,
    0.149191096f, 0.0518548377f, 0.104398899f, 0.0951140374f, 0.129016742f, 0.0582193919f, 0.0315614715f, -0.0579719059f,
    0.0648077577f, 0.0856063887f, 0.107625172f, -0.0923171937f, -0.0655639842f, -0.0675499663f, -0.00322422874f, 0.0402963385f,
    -0.00601736596f, 0.0316727012f, 0.0448886789f, -0.046579361f, -0.028832335f, -0.0621172786f, 0.0845313519f, 0.0330520011f,
    0.0681246743f, 0.0172872748f, 0.113457911f, -0.0737202764f, -0.109055281f, -0.106857315f, -0.0739403069f, 0.0946056768f,
    0.0718075484f, 0.031745363f, 0.0344908014f, 0.0408050306f, -0.020293586f, -0.048240114f, 0.0675634071f, 0.0156737734f,
    0.0823189393f, 0.0350187048f, 0.0200515315f, 0.105159901f, 0.0673916936f, -0.0849210992f, -0.165917605f, -0.170322418f,
    -0.0122365924f, 0.00326234777f, 0.0512534752f, 0.152191728f, 0.146936864f, 0.13606815f, 0.113395758f, -0.0594933406f,
    -0.207608104f, -0.103383064f, 0.0899344161f, 0.0757978559f, -0.00567630166f, 0.0131650837f, -0.113275304f, -0.0443373285f,
    0.0162729938f, -0.0308990311f, -0.0326145552f, -0.106540695f, 0.0342847258f, -0.00317409541f, 0.0700976029f, 0.0283860154f,
    0.0771831945f, 0.033277262f, 0.0157721713f, 0.040315602f, 0.0899645537f, 0.0871445239f, -0.0845856741f, -0.115870766f,
    0.0157666542f, 0.128294259f, 0.339372873f, 0.381993771f, 0.334721655f, 0.20092085f, 0.0165417325f, 0.00781837571f,
    -0.0307294428f, -0.0707925409f, -0.0213212334f, -0.00906607043f, -0.148666129f, -0.17510502f, -0.194960669f, -0.189753965f,
    -0.170560122f, -0.125237837f, -0.163914651f, -0.00537001621f, 0.0364586264f, -0.0662168041f, 0.00265556085f, -0.100927494f,
    -0.124765456f, -0.114252612f, -0.291685522f, -0.316163719f, -0.0790586397f, 0.177857086f, 0.0742943436f, -0.136042938f,
    -0.0973720178f, -0.0489830784f, 0.10778302f, 0.0427837744f, 0.0230426844f, -0.070213072f, 0.0126172286f, 0.00223351526f,
    -0.0178782009f, -0.0535987727f, 0.0107152769f, -0.00257356046f, 0.00247668289f, 0.163811699f, 0.231174588f, 0.196065456f,
    0.0480645895f, -0.110355668f, -0.239537865f, -0.228860721f, -0.0473809913f, 0.0632360727f, 0.204209819f, 0.167352617f,
    0.149392441f, 0.0801120624f, 0.106770732f, 0.0532101318f, 0.0264798291f, -0.0610501729f, -0.079247877f, -0.0558720753f,
    0.022243863f, 0.0490223132f, 0.0909862369f, 0.126940206f, 0.266991258f, 0.140603393f, -0.0702372789f, -0.288225323f,
    -0.452378422f, -0.429670423f, -0.0538528003f, 0.353216439f, 0.483971298f, 0.396294981f, 0.262178034f, 0.13020736f,
    0.111186475f, 0.173120469f, 0.198981971f, 0.164933473f, -0.017973464f, -0.0585454255f, 0.0628749058f, 0.0480016321f,
    -0.0161677636f, -0.0972934738f, -0.152554125f, -0.158857107f, 0.0150613701f, 0.171441659f, 0.164817244f, 0.0971193388f,
    0.147730827f, 0.109491907f, 0.105135195f, 0.0577871762f, 0.0666106492f, 0.0368347429f, -0.0218408629f, 0.0196024384f,
    -0.100140519f, 0.0148499217f, 0.0757755041f, 0.096477136f, 0.0437747873f, -0.046902597f, -0.0124905389f, 0.00467842538f,
    0.103527553f, 0.0723828971f, 0.061215695f, -0.0184031371f, -0.0239824932f, -0.0060073589f, 0.0748883411f, -0.0178408064f,
    -0.0824761018f, -0.192108229f, -0.0939379111f, -0.103047289f, -0.0901934355f, -0.0525341667f, -0.0540110767f, -0.029484855f,
    -0.00989425182f, 0.0124856206f, -0.0292184632f, -0.00618224591f, 0.0420689173f, 0.00110485009f, -0.00645752624f, 0.00322196493f,
    -0.0103272581f, -0.0672540516f, -0.0396055281f, -0.0747805014f, 0.025268618f, -0.0834365487f, -0.0879450142f, -0.0189806018f,
    0.0481114127f, 0.0144641874f, 0.0287752729f, 0.00224922108f, -0.200676188f, -0.301723838f, -0.0660265684f, 0.185443759f,
    0.322241515f, 0.219919041f, 0.274080336f, 0.223633498f, 0.0553666875f, -0.0322928317f, 0.0768794343f, 0.0540732071f,
    -0.0462260246f, 0.0567134432f, -0.0742417946f, -0.00696572475f, -0.0066328845f, -0.101895109f, -0.140131101f, -0.156724319f,
    -0.0204364974f, 0.374768674f, 0.0275137089f, -0.163974687f, -0.226900145f, -0.121504515f, 0.0502777137f, 0.0780159011f,
    0.102923311f, 0.0274505448f, -0.104552075f, -0.0994086862f, -0.00455514295f, -0.0782114193f, -0.0322807059f, -0.0760155618f,
    -0.258364588f, -0.0864039958f, 0.111029707f, 0.348252922f, 0.240820944f, 0.00908176508f, -0.195697471f, -0.139567077f,
    -0.0409291685f, -0.0920399278f, -0.0401825495f, -0.0682307854f, -0.0719546229f, -0.163234398f, -0.174093768f, -0.149375796f,
    0.0505015738f, 0.131381243f, 0.00397300022f, 0.0188701265f, -0.0564713255f, -0.0132361846f, -0.00356702274f, -0.0200695079f,
    -0.056636665f, -0.0679913461f, -0.0240194593f, -0.0690130219f, -0.043012917f, -0.0933169425f, 0.00202655233f, 0.157179996f,
    0.0918309093f, 0.0862486064f, -0.0159571599f, 0.0403103493f, -0.0426599607f, -0.159521043f, -0.0667898282f, -0.0133619029f,
    0.0272177514f, -0.0305036902f, -0.0151490988f, 0.0630859509f, -0.0300024487f, 0.0216616374f, -0.0100059565f, -0.0461155213f,
    0.00227859523f, -0.025148958f, -0.0114526441f, -0.0070361644f, -0.0285398308f, -0.0565497763f, 0.0427931249f, 0.0966950729f,
    -0.0059935702f, -0.0318090841f, 0.0166420601f, 0.0548295677f, 0.102277137f, 0.143156722f, -0.0465510748f, -0.164353549f,
    -0.0532678999f, -0.0192797948f, 0.0429432541f, -0.0384846888f, -0.0446915217f, -0.0607872866f, -0.0367416553f, -0.0723069161f,
    -0.0261647552f, -0.0444804616f, 0.0547869094f, 0.00163670082f, 0.0316572115f, 0.0343931913f, -0.0671840832f, -0.0899074078f,
    0.016437402f, 0.187196061f, 0.248452395f, 0.27037394f, 0.238951653f, 0.274420798f, 0.239150271f, 0.074204348f,
    -0.199157551f, -0.196594387f, -0.204595372f, -0.0930338055f, -0.102068692f, 0.00314233894f, -0.12316829f, -0.111949459f,
    -0.138390914f, -0.135271817f, -0.041788999f, -0.0522855408f, 0.0151461344f, -0.0542442575f, -0.0646269172f, 0.0595217384f,
    0.0561214797f, 0.0882126093f, 0.146607682f, 0.179771796f, 0.102021962f, 0.0907466859f, -0.068270579f, -0.0946653187f,
    -0.0720141754f, -0.0981999189f, 0.0371281728f, 0.0488397628f, -0.238546282f, -0.190140963f, -0.00538958237f, 0.340618014f,
    0.0534282215f, -0.162836999f, -0.338173747f, -0.168294966f, -0.150299966f, 0.0147562893f, -0.00624891976f, -0.0527351238f,
    0.0622110069f, 0.0760185346f, 0.0629216209f, 0.0649181902f, -0.0467074029f, -0.143188074f, -0.00876296591f, -0.0631842837f,
    -0.159760773f, -0.227038249f, -0.0858523175f, 0.186378539f, 0.0983586162f, -0.153120399f, -0.352338403f, -0.252059728f,
    -0.0560954735f, 0.0510840118f, 0.0252299067f, -0.0453588814f, -0.151538163f, -0.0547577105f, -0.04254096f, 0.0581943132f,
    0.00123164465f, -0.00397339789f, -0.0260381773f, -0.0376553349f, -0.0656447634f, 0.0485116504f, 0.0940487683f, 0.0409858041f,
    0.106482849f, -0.0186566226f, -0.167632997f, -0.0615048818f, 0.18737483f, 0.383701384f, 0.3349033f, 0.442222029f,
    0.344587564f, -0.0143431406f, -0.209986806f, -0.308705598f, -0.349655449f, -0.292449653f, -0.210341185f, -0.149452671f,
    -0.0145541877f, -0.0075902706f, -0.0425244048f, -0.0857412517f, -0.0776352137f, -0.0439832695f, -0.0831288621f, -0.00818449352f,
    -0.00240887026f, -0.00687364209f, -0.00273217773f, 0.000177081994f, 0.0320389755f, -0.0916032046f, -0.138603598f, -0.128114998f,
    -0.0447184257f, -0.0390186496f, -0.0380651765f, -0.0612557158f, -0.0798249468f, -0.152218655f, -0.0408315398f, -0.128521308f,
    -0.0509191677f, 0.0400131941f, 0.10466212f, 0.0244162939f, 0.0614346191f, 0.0187623482f, 0.00896443706f, -0.13918303f,
    -0.176120818f, -0.0471103042f, -0.0516074412f, -0.0995256677f, -0.0950089544f, -0.043381691f, 0.0128929233f, -0.112833165f,
    -0.0592342019f, 0.0387605615f, 0.0418296531f, 0.00180630328f, 0.15968211f, 0.324105322f, 0.0462282188f, -0.0479427055f,
    0.0575886779f, 0.199124247f, 0.0493785217f, 0.110129952f, 0.0270913467f, -0.0620976165f, -0.152600914f, -0.150169104f,
    0.0965475962f, 0.0947812274f, 0.0549569502f, 0.134965241f, 0.0591952354f, 0.0293964464f, -0.120238081f, -0.106449738f,
    -0.00271148095f, 0.154740602f, 0.163124412f, -0.0464445502f, -0.0919064879f, -0.0502206162f, 0.129030764f, 0.0943899378f,
    0.0368377343f, 0.0627493411f, 0.0247239433f, 0.0688711852f, 0.119983472f, 0.13463819f, 0.065397054f, 0.116871089f,
    -0.00569059048f, 0.0206141733f, -0.00465160841f, 0.0747685954f, 0.0608601384f, 0.082062006f, 0.0212172978f, -0.00221368647f,
    0.117006794f, 0.170073837f, 0.171953157f, 0.145649865f, 0.0842689052f, 0.05668661f, 0.205543831f, 0.314368874f,
    0.488808811f, 0.532243669f, 0.312621027f, 0.0268052835f, -0.463698f, -0.572663963f, -0.278706461f, 0.0266501214f,
    -0.121799514f, -0.133198977f, -0.145876572f, -0.531397581f, -0.577423751f, -0.269053996f, -0.118888393f, 0.0893856436f,
    0.115979567f, 0.106725387f, 0.0161771551f, 0.0797861293f, -0.0146395145f, -0.0331374034f, -0.189238355f, -0.285467714f,
    -0.206991479f, -0.141502023f, 0.0556574389f, 0.198201537f, 0.124821998f, 0.0258861464f, 0.113327727f, 0.114634432f,
    0.139537111f, 0.0776972622f, 0.146785498f, 0.100806572f, 0.0453424528f, 0.0144543014f, 0.0170724895f, -0.122373879f,
    -0.0637460202f, -0.0096948538f, -0.0319105461f, -0.0998480469f, -0.026716277f, 0.0503176749f, 0.087169677f, -0.067442432f,
    -0.031160662f, 0.00619225949f, 0.0354496762f, -0.04336318f, 0.0855990052f, 0.132723555f, 0.165982321f, 0.0917938203f,
    0.00904610567f, 0.0406715199f, 0.013016481f, 0.12455257f, 0.0572086647f, -0.0231594443f, -0.0391052961f, -0.0365067646f,
    0.0404178798f, -0.0057780249f, -0.0202770382f, 0.0519098975f, 0.170018718f, 0.182120666f, 0.0971012488f, -0.0244733337f,
    -0.134580463f, -0.0288635548f, -0.10260658f, -0.0846040919f, 0.00822772551f, 0.0159107596f, -0.0547421388f, -0.138378367f,
    -0.0993182734f, -0.00247279229f, -0.0262616761f, 0.0908915997f, 0.0666211471f, 0.121986382f, -0.0413483717f, -0.233605027f,
    -0.0691938102f, 0.112834752f, 0.185235187f, 0.0416364446f, 0.0474247932f, 0.00524425833f, 0.0348853208f, 0.0137126697f,
    -0.0438646637f, -0.0227935743f, -0.0585158132f, 0.0684279427f, 0.103767969f, 0.148959488f, 0.134112388f, 0.0664146468f,
    -0.157877043f, -0.173440591f, -0.119478658f, -0.152453452f, -0.0884764791f, -0.00736113451f, 0.0573336408f, 0.125811592f,
    0.0577862188f, 0.024966957f, -0.065961659f, -0.0401560515f, 0.0224502627f, -0.0949904919f, -0.0601232871f, -0.0984455794f,
    -0.0403007716f, -0.0679722577f, -0.0725026131f, 0.00822190382f, -0.041055575f, -0.00814006012f, 0.00153805129f, 0.0616945364f,
    -0.017583577f, 0.0136164576f, 0.0992581993f, 0.0910075009f, -0.0405182652f, -0.217211217f, -0.181912526f, -0.0663228482f,
    0.0213960018f, 0.0634940639f, -0.00766825629f, -0.0433022752f, -0.0979661942f, -0.123727679f, -0.122016288f, -0.104873955f,
    -0.138211951f, -0.0872758701f, 0.00777779566f, 0.000393094815f, 0.00328294211f, 0.108969197f, 0.070397906f, 0.00634872261f,
    0.0153800091f, -0.0761742517f, -0.0435928181f, -0.0990115553f, -0.0612582713f, -0.00695952773f, -0.0519866496f, -0.0400711857f,
    -0.0307910256f, -0.0538428165f, 0.0203532409f, 0.0631277412f, 0.0498985872f, 0.0448458269f, 0.0305270087f, -0.0625289008f,
    -0.0346106589f, -0.0179964378f, -0.021906672f, -0.0414571613f, -0.0654830039f, -0.00706850551f, -0.092456542f, -0.146789506f,
    -0.146511376f, -0.0951045975f, -0.14786166f, -0.2146983f, -0.284453422f, -0.183902085f, -0.169690922f, -0.108619757f,
    0.0896233544f, 0.308367372f, 0.278001606f, 0.245212629f, 0.214453042f, 0.230186522f, 0.243222311f, 0.199477971f,
    0.122316837f, 0.195380077f, 0.0500592701f, -0.0385708995f, -0.0729706287f, 0.0449143425f, 0.115942031f, 0.0551906489f,
    0.0265589785f, 0.0324337333f, -0.032468982f, 0.0449628346f, -0.00204761722f, -0.00792201888f, 0.00710708788f, 0.0974533558f,
    0.0416914262f, -0.0812691674f, -0.0203686226f, -0.0313039236f, 0.113977574f, 0.0751529932f, 0.107607268f, 0.152375758f,
    0.157672167f, -0.160051718f, -0.118019737f, -0.028185714f, -0.0566670075f, 0.094547689f, 0.0929307714f, 0.0620760955f,
    -0.0130285574f, -0.000495817105f, 0.00848561525f, -0.011242616f, -0.0506973937f, -0.0926590785f, 0.0900523365f, -0.00407134602f,
    0.0662924871f, -0.0537660979f, -0.0231039934f, -0.0309674386f, -0.0104829576f, 0.10163366f, -0.00199113158f, -0.178583652f,
    -0.0274967421f, -0.0417855233f, 0.0363002829f, 0.0711576641f, 0.0785458013f, 0.0883935541f, 0.0653344616f, 0.0114760492f,
    -0.000339678663f, -0.0114017725f, -0.00999719556f, -0.107486337f, -0.0353399105f, 0.0167113207f, 0.0552759804f, -0.0179593414f,
    0.00879044924f, 0.0758546516f, 0.107051589f, 0.15466623f, 0.0536152348f, -0.0843966976f, 0.0339830406f, 0.078339152f,
    0.0181082413f, 0.0810306296f, -0.0486803651f, -0.154461443f, -0.0583536662f, 0.0106850918f, 0.0682306215f, -0.0235949736f,
    0.0271166693f, 0.120629154f, 0.128191233f, 0.0543405861f, 0.131729215f, 0.0669059902f, 0.0660581514f, -0.0612017103f,
    -0.0671580657f, 0.0209844392f, 0.0460917167f, 0.096112743f, 0.132506266f, 0.233097389f, 0.198183149f, 0.169905424f,
    0.205580741f, 0.349387288f, 0.335736752f, 0.221097663f, 0.297914743f, 0.130430907f, -0.132950693f, -0.331160992f,
    -0.335888296f, -0.141059741f, -0.167750522f, -0.0300918072f, -0.0781192407f, -0.070742391f, 0.0206528641f, -0.136997774f,
    -0.126143694f, -0.0392894112f, 0.0122756809f, 0.14069134f, 0.143682167f, 0.0262367222f, -0.0319199227f, -0.171932131f,
    -0.0918469653f, -0.0450849012f, -0.0629926845f, -0.0643514916f, -0.0597985573f, 0.0171146877f, 0.0362346619f, -0.0749597847f,
    0.0608586818f, 0.113275811f, -0.0845415816f, -0.21475926f, -0.153618306f, 0.0304416921f, 0.111368231f, 0.103714205f,
    0.137629643f, 0.037365187f, 0.0142121604f, -0.183741719f, -0.151165679f, -0.161019325f, -0.0283682235f, -0.10401091f,
    -0.142934084f, -0.0221081451f, 0.0631262064f, 0.0517788269f, 0.0903480574f, 0.0731979832f, -0.062401019f, -0.0299978629f,
    0.0642014667f, 0.00236956216f, 0.0817987248f, 0.126618281f, 0.130745858f, 0.111689866f, -0.0776479766f, -0.030952597f,
    0.157664418f, 0.303613126f, 0.347689062f, 0.290427506f, -0.0179523602f, -0.160732076f, -0.16668351f, -0.0810154974f,
    -0.169474512f, -0.172487617f, -0.0988431275f, -0.0148692643f, 0.0559420958f, 0.0295504387f, 0.135035574f, 0.0590352081f,
    0.168269038f, 0.0575503148f, -0.168887451f, -0.283595353f, -0.220587075f, -0.0310392063f, 0.00618252112f, 0.0282627475f,
    -0.0501845591f, 0.0354279764f, -0.0217104554f, -0.0555085428f, -0.0317554958f, -0.0426645949f, 0.164637536f, 0.116649695f,
    0.0923848674f, 0.0697464794f, 0.0167546552f, -0.0878236592f, -0.0385652594f, -0.0184794776f, -0.052579619f, -0.0703494251f,
    -0.0966635868f, -0.0587210022f, -0.0205851328f, 0.0104247741f, 0.0900383368f, 0.0579120405f, 0.0637165308f, -0.064448528f,
    -0.0685190707f, -0.078305386f, 0.0272051692f, -0.0001169647f, -0.0152866645f, -0.0100279972f, -0.0340514332f, -0.0784000009f,
    -0.145320877f, -0.11151614f, -0.0155695556f, 0.087893568f, 0.121154211f, 0.0713584423f, -0.0592729561f, -0.0109364996f,
    -0.0391803235f, -0.135458738f, -0.107691959f, -0.0539914146f, -0.0057808063f, -0.0138964746f, -0.142891765f, -0.0536277965f,
    -0.0378649011f, -0.0810846612f, -0.132399186f, -0.0578634702f, -0.0109155299f, 0.0224502552f, 0.0145647125f, 0.0387114026f,
    0.0172808561f, -0.0392926596f, -0.0679141805f, -0.0572369173f, -0.0419769622f, -0.040727254f, -0.0270994715f, -0.0146639254f,
    -0.141800135f, -0.188974276f, -0.138333127f, -0.0132873775f, -0.141490474f, -0.0370676965f, -0.0955474004f, -0.141814679f,
    -0.202716261f, -0.179403484f, -0.225086853f, -0.267039448f, -0.233069107f, -0.291868031f, -0.291645169f, -0.121563487f,
    0.0779143646f, 0.338020593f, 0.301598877f, 0.344431013f, 0.24735637f, 0.283879727f, 0.174685225f, -0.00402686605f,
    0.1043332f, 0.0419497713f, 0.139443666f, 0.102506526f, 0.0559473485f, 0.132849872f, 0.0634170696f, 0.0535511598f,
    0.0714941397f, 0.0673312098f, 0.113996379f, 0.150515124f, 0.00173161726f, 0.0347791985f, 0.0251476988f, -0.128049597f,
    -0.108025685f, -0.0809685513f, -0.221051425f, -0.0523118675f, -0.11949943f, -0.0134400995f, 0.060737852f, 0.0523732565f,
    -0.00965886191f, -0.0324600786f, 0.00459322752f, 0.182158679f, 0.253937781f, 0.228583872f, 0.196518257f, 0.121869199f,
    0.00796906371f, -0.115998134f, -0.12221092f, -0.0446379632f, -0.0127244405f, -0.0831461549f, -0.00897617545f, 0.041001875f,
    -0.0948007852f, -0.012678477f, -0.0907320008f, -0.163628072f, 0.00603751419f, 0.10615252f, -0.112738155f, -0.03951516f,
    -0.0208018348f, -0.0817923024f, -0.0159647148f, 0.148712069f, 0.0946409851f, -0.0155407283f, -0.0552498773f, -0.106039152f,
    0.0308238659f, 0.0465548374f, -0.0821306854f, -0.0420772545f, 0.0580175631f, 0.0532485731f, -0.128368258f, -0.131082669f,
    -0.165911227f, -0.187410936f, -0.3008641f, -0.339556456f, -0.0191248823f, 0.241857499f, 0.172582984f, 0.0544974357f,
    -0.00499035977f, -0.0813473389f, -0.0838408172f, 0.0144899553f, 0.114220828f, 0.0433716178f, 0.0205592755f, -0.116307296f,
    -0.122477159f, -0.00499569252f, -0.0166340899f, 0.00489096669f, -0.0468597524f, 0.077215381f, -0.0424196199f, -0.172081053f,
    -0.200832948f, -0.202632129f, -0.165463284f, -0.196673706f, -0.17209278f, -0.191297278f, -0.228022441f, -0.444094867f,
    -0.272773147f, 0.228186652f, 0.484348297f, 0.0309080295f, -0.223058522f, -0.00702087162f, 0.0915688872f, -0.00459190318f,
    -0.0624163821f, -0.0747476593f, 0.0807357654f, 0.0189091451f, -0.108846903f, -0.00857053231f, 0.0516361892f, -0.118025459f,
    -0.195175558f, -0.0897539705f, 0.0401913933f, 0.277429312f, 0.273423493f, 0.136846676f, -0.0616039857f, -0.105832674f,
    0.0223918669f, 0.122390233f, 0.0505518652f, -0.113791198f, -0.271934479f, -0.174212098f, -0.100304626f, -0.0492484346f,
    -0.0777012706f, -0.103496931f, 0.0607757196f, 0.193823338f, 0.187956408f, -0.0337138176f, -0.0974003077f, -0.185084879f,
    0.0931920335f, 0.178515062f, 0.25687173f, 0.214597836f, -0.192161545f, -0.186301142f, -0.10551127f, -0.189123496f,
    -0.219400629f, -0.0638953745f, -0.0545159727f, -0.0483395383f, -0.0778352544f, -0.0309866369f, -0.0169346929f, -0.0818250477f,
    -0.138767108f, -0.163868502f, -0.194037691f, -0.122461401f, -0.0599541068f, 0.0104846861f, -0.173981413f, -0.11101073f,
    -0.085465312f, -0.0355401449f, -0.0772099793f, 0.0896749794f, 0.165146858f, 0.28129673f, 0.321851432f, 0.168394834f,
    0.104497023f, 0.0915666074f, 0.0995474011f, 0.00572463637f, -0.0620086715f, 0.0476442687f, 0.0469958484f, 0.041104693f,
    0.119369842f, 0.107792363f, 0.159748733f, -0.059090782f, -0.0490737818f, -0.0780572146f, 0.0795586184f, 0.0314900689f,
    -0.111226454f, -0.108489312f, 0.0507723056f, 0.143151015f, 0.0808013603f, 0.081640102f, 0.0267047472f, -0.014738108f,
    -0.0426080413f, -0.00605970155f, -0.0429973751f, 0.146274522f, 0.0861911625f, 0.0861867666f, -0.111181922f, -0.272725701f,
    -0.177256733f, -0.000862497895f, 0.0540241897f, 0.136480838f, 0.0521980785f, -0.0277631059f, -0.120958388f, -0.178332761f,
    -0.147788256f, -0.0636636019f, -0.0292463209f, -0.0826761797f, -0.00777850393f, -0.130241483f, -0.154624432f, -0.29251948f,
    -0.14584288f, 0.0205711927f, 0.302729547f, 0.36074391f, 0.406503588f, 0.306315333f, 0.326943099f, 0.251783639f,
    0.22387816f, 0.201638773f, 0.340372354f, 0.360035062f, 0.281604677f, 0.0938286483f, 0.0185615998f, -0.0804125518f,
    -0.0345833153f, 0.0541702248f, 0.0230714418f, -0.0534956604f, 0.0129343634f, 0.152211905f, 0.187984779f, 0.043524351f,
    -0.00250933738f, -0.0366339274f, -0.203893051f, -0.222361222f, 0.0104380641f, 0.119794875f, 0.170864508f, 0.142526537f,
    -0.0420749709f, 0.0643215925f, 0.16107437f, 0.141571656f, -0.112486012f, -0.0795609578f, 0.0443280637f, 0.109637573f,
    0.0742848292f, 0.0117121721f, 0.0264530238f, -0.0349196792f, 0.00374412281f, 0.00931221526f, 0.0590273291f, 0.135189816f,
    0.0151303941f, -0.0218682345f, -0.154276699f, -0.251634926f, -0.165452018f, -0.0162639599f, -0.0337615088f, 0.00916803442f,
    -0.0392152257f, -0.0367496796f, 0.0279162824f, 0.0154718803f, 0.114545785f, 0.204616278f, 0.205203295f, 0.0347240716f,
    0.0688084736f, 0.0823410749f, 0.158971667f, 0.000721526041f, -0.0277173705f, 0.0136705087f, -0.0147664044f, -0.00646891864f,
    -0.0397125371f, 0.00677333074f, -0.010630534f, 0.0543518625f, 0.0774275661f, 0.125439882f, 0.122781448f, 0.00202911487f,
    -0.0581238419f, 0.0154604129f, 0.0929185972f, 0.119434163f, 0.0262368675f, 0.00857783668f, 0.0512048453f, 0.0427909344f,
    -0.159350812f, -0.290059775f, -0.255414277f, -0.132429346f, -0.0513810739f, -0.0270083528f, 0.0337175988f, -0.0126791205f,
    -0.0291038565f, -0.118519336f, -0.134218261f, -0.184773356f, -0.128528178f, -0.0602878928f, -0.0492097586f, -0.0624545291f,
    -0.0414802618f, -0.0776342005f, -0.107555695f, -0.0179484189f, -0.0149866762f, 0.0349945575f, 0.0691158175f, 0.0496034361f,
    -0.0124836843f, 0.142389864f, 0.156538203f, 0.0398438312f, -0.0152930552f, -0.0752114356f, -0.104568794f, -0.0350707769f,
    -0.0546374992f, 0.0695285797f, -0.0333972611f, -0.0778629631f, -0.028985763f, -0.0859097242f, -0.0510031134f, -0.0194749534f,
    0.0714027658f, 0.00350499246f, 0.0697778612f, -0.0336691104f, 0.00350836315f, 0.0125912121f, -0.0492110774f, -0.0108214812f,
    0.00692585763f, -0.0464950725f, 0.0478017479f, -0.0285559688f, 0.0591819584f, 0.0559278615f, 0.0173899177f, 0.0490355976f,
    0.0255141743f, -0.0217051692f, -0.0314098075f, 0.0152176367f, -0.0186192244f, -0.0781979933f, -0.0331308395f, 0.0600360148f,
    0.0295588411f, 0.0947537944f, 0.180730626f, 0.222392932f, 0.0988268405f, -0.0199918263f, -0.093650803f, -0.0320609882f,
    -0.0685658827f, 0.0540552847f, 0.0374880768f, 0.0400480367f, 0.0115082003f, 0.109971642f, 0.135928035f, 0.19250229f,
    0.230950162f, 0.158046752f, 0.124263942f, 0.052681189f, -0.174036637f, -0.273235738f, -0.353265613f, -0.254017472f,
    -0.174412251f, -0.211361885f, -0.242839664f, -0.120581351f, -0.0522398315f, 0.014469347f, 0.0976243615f, 0.123459317f,
    -0.0446730703f, -0.151462927f, -0.0700230747f, 0.0251583531f, 0.218060419f, 0.150701627f, 0.0512057431f, -0.0367832966f,
    0.0791392773f, 0.14462778f, 0.151628569f, 0.145656079f, 0.0791758969f, -0.0131908609f, -0.00578183914f, 0.0137258358f,
    -0.02732113f, 0.0186564513f, 0.072191f, 0.0870897993f, 0.109166868f, 0.125189319f, 0.0822234601f, 0.00639523799f,
    -0.0209744498f, 0.00753258076f, 0.0573381037f, 0.000131384732f, -0.0429794192f, -0.0898162872f, -0.0707666799f, -0.0420294106f,
    0.0207638647f, 0.068209216f, -0.00329862745f, -0.178608879f, -0.192526311f, -0.125797167f, -0.0965668559f, -0.0731972679f,
    -0.0401428044f, -0.0248145685f, -0.033683978f, 9.43344367e-06f, -0.0515428111f, -0.0800302103f, -0.103112429f, -0.0645862296f,
    -0.120587535f, -0.199769825f, -0.126480132f, -0.067634061f, -0.0384803042f, -0.141489059f, -0.179896161f, -0.0720918253f,
    0.0481548943f, 0.131890237f, 0.0769835189f, 0.0620763265f, -0.0255759917f, -0.0420879535f, -0.00717464276f, 0.0659880415f,
    0.0694265664f, 0.0380257517f, 0.0291537493f, -0.00603467785f, 0.0235743504f, -0.00895695016f, -0.0175636224f, -0.0688526183f,
    -0.0311397109f, -0.0308209509f, -0.0953261778f, -0.0323249996f, 0.112239286f, 0.0715285987f, 0.029867433f, -0.0747635588f,
    -0.00896893907f, 0.0922297537f, 0.224877745f, 0.21714364f, 0.3271299f, 0.123164043f, -0.0548378453f, -0.223940626f,
    -0.229011372f, -0.167891979f, -0.0993303508f, -0.0650516301f, -0.0479464941f, -0.062277101f, -0.0229321215f, -0.073834233f,
    -0.0138930874f, 0.076612711f, 0.0395909958f, 0.0218250118f, -0.0251490027f, -0.0212000441f, -0.0298412889f, -0.0100682434f,
    0.0669239312f, -0.0290697981f, -0.0608594157f, -0.152486816f, -0.159346655f, -0.139244452f, -0.0940377042f, -0.0352912657f,
    -0.012635489f, 0.0375496484f, -0.0233643111f, 0.0585379936f, 0.08672373f, 0.104814462f, 0.0196389556f, 0.154639035f,
    0.247738376f, 0.246321663f, 0.0937264785f, -0.00294921757f, 0.00333836954f, 0.026902644f, 0.090288423f, -0.172714517f,
    -0.417739064f, -0.290699065f, 0.218377039f, 0.153673723f, -0.0333417244f, 0.121052913f, 0.0941086635f, 0.257011056f,
    0.228300869f, 0.0960074291f, 0.0757083371f, 0.0689517036f, 0.0707003921f, 0.0721665174f, 0.109193087f, 0.109173946f,
    0.0143014593f, 0.0333182551f, 0.0162247475f, 0.0796748549f, 0.139355823f, 0.0558735058f, -0.0407972112f, -0.0377860367f,
    0.0420309529f, 0.0752410591f, -0.022360323f, 0.0481009632f, -0.022954125f, 0.00432843389f, -0.0730693862f, -0.076870054f,
    -0.100122809f, -0.0294776037f, 0.14649117f, 0.200418279f, 0.314303577f, 0.138323307f, -0.154888228f, -0.170380637f,
    0.0151231028f, 0.0560562611f, 0.125302672f, 0.021953661f, 0.0238191597f, 0.00451365206f, -0.0702399164f, -0.0125563033f,
    0.0444937348f, 0.232186854f, 0.294957101f, 0.147004634f, -0.148159102f, -0.175798461f, 0.0287804585f, 0.16729112f,
    0.105002835f, 0.0623086765f, 0.0105857234f, -0.0148704043f, 0.00572789554f, 0.080878675f, 0.141273528f, 0.155090481f,
    0.136974216f, 0.0859254673f, 0.014317167f, -0.0348035507f, 0.0164823383f, 0.0325187482f, -0.000877893297f, 0.0728604347f,
    -0.0555491634f, -0.0478898808f, 0.111869335f, 0.159873798f, 0.209067926f, 0.209452569f, 0.0825287774f, 0.0336006358f,
    0.129168436f, 0.0755500048f, 0.224016309f, 0.24988912f, 0.420176953f, 0.286663592f, 0.328424096f, 0.278425068f,
    0.0935517102f, -0.038070824f, -0.343847245f, -0.394315511f, -0.193482772f, -0.161958128f, -0.174338549f, -0.191816866f,
    -0.0463061221f, -0.137347311f, -0.202501506f, -0.011267961f, 0.0923348144f, -0.0272543151f, -0.156928137f, -0.0607106648f,
    -0.0737257227f, 0.0456583314f, -0.0657373369f, -0.0070797205f, -0.0852095932f, -0.0610151663f, -0.107028291f, -0.136073738f,
    -0.153010622f, -0.134517089f, -0.154526189f, -0.10954456f, -0.0825746506f, 0.000730916741f, 0.0455814674f, 0.109097622f,
    0.102720991f, 0.171314463f, 0.0687492192f, 0.00968726724f, -0.0639043376f, -0.143311843f, -0.147635147f, -0.20672664f,
    0.0728546903f, 0.108475931f, 0.0756836161f, -0.0222955476f, -0.0830880702f, -0.0563828312f, -0.0478581041f, 0.048646532f,
    0.0515938886f, 0.0261191372f, 0.0427168012f, 0.0130793322f, -0.000395268231f, 0.0177340899f, -0.0360410102f, -0.0932992175f,
    -0.055444628f, -0.0637418032f, -0.0762314051f, 0.00262946473f, -0.0493710674f, 0.0546075702f, 0.0978752077f, -0.0490861833f,
    -0.0638350844f, -0.07638897f, -0.000287338597f, -0.0515102558f, -0.0434656665f, 0.00486014923f, -0.0492154509f, -0.0803708583f,
    -0.103588462f, -0.0682794526f, -0.119995952f, -0.0739227086f, -0.0456221998f, -0.0299723502f, -0.00265479088f, 0.00802521035f,
    -0.0383134857f, 0.0230214819f, 0.0115394155f, 0.0481887944f, -0.00972455554f, 0.0219940525f, -0.051458206f, -0.147829339f,
    -0.270853221f, -0.209835142f, -0.0715897232f, 0.0343907066f, 0.058757443f, -0.00835287198f, 0.0255704112f, -0.000467682228f,
    -0.000875261263f, -0.0717259571f, -0.00851953123f, -0.0925053507f, -0.0425259136f, 0.0528314933f, 0.0314616859f, 0.0350031294f,
    0.0643652678f, 0.0865443721f, -0.0377557874f, -0.0383456536f, -0.0586757995f, -0.0324291438f, -0.14276579f, -0.0521950275f,
    -0.0510022752f, -0.015303147f, 0.076874882f, 0.0288793873f, -0.00728580775f, -0.0919706896f, -0.0393948629f, 0.0176967438f,
    0.0425422825f, -0.0466886051f, -0.0865643844f, -0.0564246662f, -0.0329863131f, 0.00731383497f, -0.0443284437f, -0.0880444646f,
    -0.089693442f, -0.0445105545f, -0.109870732f, -0.115533471f, -0.214165643f, -0.325296968f, -0.275330424f, 0.0108221946f,
    0.219241485f, 0.277769089f, 0.31246087f, 0.249364212f, 0.213073626f, 0.162438348f, 0.162124962f, 0.203588009f,
    0.201626793f, 0.226637095f, 0.25802809f, 0.172054932f, 0.187106699f, 0.140563428f, 0.196831509f, 0.205217466f,
    0.233076528f, 0.13890259f, 0.122719727f, 0.122353666f, 0.124751881f, 0.0798055753f, 0.146670923f, 0.184738234f,
    0.0462890193f, 0.132671282f, 0.188383564f, 0.154279172f, 0.166227564f, 0.0971262753f, 0.0359186009f, 0.0870722681f,
    0.19087109f, 0.112106711f, 0.0736051351f, -0.00473450217f, -0.0790904984f, 0.0202243086f, 0.00988456327f, -0.160519689f,
    -0.227933526f, -0.0159968622f, -0.0621979684f, -0.00543686887f, 0.0708946884f, 0.0685532093f, 0.0540939495f, -0.0239841603f,
    0.00415679207f, 0.00877915323f, -0.00136977772f, -0.0235495586f, -0.0511596277f, -0.0851327926f, -0.170649335f, -0.0781722218f,
    -0.0485880896f, -0.0814185068f, 0.0440076664f, -0.0114833033f, 0.0210200436f, 0.0491445549f, 0.00716441264f, -0.0138039114f,
    -0.0389569812f, 0.0735427216f, 0.202419028f, 0.146027505f, 0.249557316f, 0.162430719f, 0.0438512824f, -0.167408079f,
    -0.225539505f, -0.166656539f, -0.105692796f, -0.128444165f, -0.162426636f, -0.112143867f, -0.100358866f, -0.181112736f,
    -0.0665542707f, -0.00871341117f, -0.085369423f, -0.117405705f, -0.132715195f, -0.076392293f, -0.13809441f, -0.0433269888f,
    -0.0399535485f, 0.0716315508f, 0.0714862272f, -0.00368512888f, -0.000930030423f, -0.0259161163f, -0.203392163f, -0.167429999f,
    -0.268020421f, -0.112414926f, -0.134982482f, -0.230702206f, -0.0192820821f, 0.391621947f, 0.42425099f, 0.248883873f,
    0.229039729f, 0.0952605158f, 0.133119851f, 0.102433629f, 0.0713044703f, 0.000243910981f, -0.0290911086f, 0.0433932543f,
    0.0721607506f, 0.132284075f, 0.00971476641f, 0.0179983564f, 0.105584919f, 0.0191527773f, -0.0250542983f, 0.0470803641f,
    0.012278052f, 0.0589366294f, -0.0263066534f, 0.0162668973f, 0.0153688351f, -0.148326099f, -0.153710067f, -0.0699645653f,
    0.00121063832f, 0.0585443005f, 0.0176602807f, 0.02866829f, 0.0681356788f, 0.0359484442f, 0.16807273f, 0.13016285f,
    0.0355968922f, 0.0339044221f, -0.055806838f, 0.000112460591f, -0.0291354582f, 0.0631289706f, 0.17259413f, 0.237022758f,
    0.0911615044f, 0.0385474376f, 0.124325097f, 0.113196969f, 0.211847618f, 0.134288907f, 0.169268683f, 0.00763048045f,
    -0.0400828123f, -0.0850657448f, -0.0601067655f, -0.0165706426f, 0.0565560758f, 0.198290929f, 0.146948889f, -0.0794246122f,
    -0.111653686f, 0.0650295541f, 0.212048098f, 0.249484301f, 0.221757025f, 0.167641997f, 0.119268507f, 0.142451093f,
    0.149855316f, 0.227378145f, 0.217909023f, 0.189018711f, 0.305256248f, 0.193431869f, 0.243077621f, 0.111371323f,
    0.0273855254f, -0.135395825f, -0.281237781f, -0.303497016f, -0.238537699f, -0.222549826f, -0.0897793099f, -0.036510054f,
    -0.0533858351f, -0.0805466995f, -0.0760055408f, -0.0362472832f, -0.0410397612f, 0.0108400257f, -0.108386844f, -0.00591840968f,
    0.0547154583f, 0.0910904184f, -0.0282365475f, 0.049193453f, -0.0458203591f, -0.0338290706f, 0.000534079736f, -0.0646045282f,
    -0.0999271423f, -0.0205258206f, -0.0417807959f, 0.0632674098f, -0.0500728041f, -0.0319182798f, -0.0642720461f, -0.000484492804f,
    0.0600208305f, 0.0196019206f, 0.0157209877f, 0.014665423f, -0.0131220669f, -0.0988648087f, -0.0809092969f, 0.0295697264f,
    0.0850887597f, 0.0212522652f, -0.0246692654f, -0.0706595704f, 0.145849094f, 0.26382789f, 0.276096791f, 0.0527186617f,
    -0.0987550616f, -0.155754253f, -0.146547198f, -0.111419469f, -0.0992221907f, -0.0220823009f, -0.0244030729f, -0.0958493426f,
    -0.108091913f, -0.124644123f, -0.161180064f, -0.192808717f, -0.118121535f, 0.0278840177f, 0.0165259968f, -0.0218327474f,
    -0.00669518393f, 0.0436227247f, 0.108556338f, 0.0844562575f, -0.0100899171f, -0.0306518003f, -0.107017994f, 0.0280098859f,
    0.0044279946f, -0.0180565845f, -0.0314878002f, 0.0133835459f, -0.0741702169f, -0.0490825549f, -0.0174308848f, -0.0962861553f,
    -0.0114283804f, -0.0437605456f, -0.0685320422f, -0.075078629f, -0.156013444f, -0.125807643f, -0.108750887f, 0.0161188319f,
    -0.0427351557f, 0.117845461f, -0.000713987276f, -0.0207206905f, -0.0633206964f, 0.00867783278f, 0.15213418f, 0.15385209f,
    -0.0394467711f, -0.135605007f, -0.0971820131f, -0.0271919779f, -0.027764516f, -0.0583902225f, -0.101654261f, -0.0425713211f,
    0.0125032412f, 0.0763488337f, 0.0157442819f, -0.102874592f, -0.0997881219f, 0.0565770455f, -0.0540312789f, -0.025203608f,
    -0.00990137178f, 0.00498669781f, 0.0263478961f, -0.0588210188f, -0.0994048715f, -0.050565999f, 0.0445488654f, 0.066328533f,
    -0.00784438662f, -0.172210872f, -0.101568185f, -0.0531542338f, -0.0300483126f, -0.0717300251f, -0.0778927281f, -0.0872842297f,
    -0.091318652f, -0.0778083652f, -0.144995973f, -0.184411183f, -0.108678319f, -0.0776925758f, -0.0740803406f, -0.0345111899f,
    -0.000828405435f, -0.0428694002f, -0.18669422f, -0.254694641f, -0.173554763f, -0.182535961f, -0.17504999f, -0.276310116f,
    -0.13898927f, -0.0558420569f, 0.0787325278f, 0.0475454852f, 0.0633803159f, 0.14761731f, 0.221893683f, 0.145956427f,
    0.109586544f, -0.0017688548f, -0.0399143435f, -0.052986633f, -0.015438742f, 0.0581895411f, 0.0509371608f, 0.0347202122f,
    0.000876642182f, 0.0552850477f, 0.0526262596f, -0.00121016335f, 0.0622755624f, 0.0046909349f, 0.0150401443f, -0.0776234642f,
    -0.175075844f, -0.189426541f, -0.17512469f, 0.105437897f, 0.238582045f, 0.31139946f, 0.300021797f, 0.145649031f,
    0.00807968806f, 0.0075652278f, 0.147000253f, 0.12757051f, -0.0863314047f, -0.159770474f, 0.00259975973f, 0.133215874f,
    0.11041034f, 0.0208033361f, 0.213938922f, -0.0217986628f, -0.0219634473f, 0.0123402998f, 0.116754487f, 0.166240275f,
    -0.0245587844f, -0.00925889611f, -0.0670862421f, 0.155927584f, 0.145137757f, 0.0822915062f, 0.0731083304f, 0.121258855f,
    0.0723087937f, -0.0290755052f, 0.00202454976f, 0.0429910459f, 0.0920185074f, 0.115514748f, 0.112217896f, 0.135590494f,
    -0.0215726104f, 0.0582985692f, 0.0877602026f, 0.134081885f, 0.0139271477f, -0.101780996f, -0.171501517f, -0.127411023f,
    -0.0442031883f, 0.0952593684f, 0.194302067f, 0.135150746f, 0.240758672f, 0.124723643f, -0.0188565832f, -0.139356419f,
    -0.142710492f, -0.0131781874f, 0.155880764f, 0.101980992f, 0.171313465f, 0.0387513004f, 0.128439233f, 0.167846277f,
    0.150414631f, 0.0857262164f, 0.0202625878f, 0.0184277184f, 0.0790658593f, 0.0789322257f, 0.135079488f, 0.163210556f,
    0.123736739f, 0.0911111385f, 0.0727320537f, 0.0730102211f, -0.0439901352f, 0.131528124f, 0.0850202069f, -0.0949408561f,
    -0.00841958355f, 0.120615155f, 0.0375553854f, 0.183184877f, 0.0769858509f, 0.00923801586f, 0.0253231525f, -0.0211462565f,
    -0.100837909f, -0.0223184731f, 0.130701259f, 0.238553718f, 0.0959140286f, 0.163238481f, -0.0366951823f, 0.0271143131f,
    0.0388168134f, 0.18668367f, 0.153008416f, 0.0850744173f, 0.176415741f, 0.207571223f, 0.193970665f, 0.0579278618f,
    0.0161428172f, -0.0902172402f, 0.0224407315f, 0.271706849f, 0.379549533f, 0.394622892f, 0.371301502f, 0.244141638f,
    -0.0240256507f, -0.228860572f, -0.336336404f, -0.121227004f, -0.124249652f, -0.043879617f, 0.0378791168f, 0.058312472f,
    -0.0023760763f, 0.00196616119f, -0.0873252004f, -0.052940771f, 0.00546663254f, 0.0360960141f, 0.0563834496f, 0.0146686425f,
    0.0238937419f, 0.0263909269f, 0.0497944877f, 0.0282847863f, 0.0102093918f, -0.0467585921f, -0.0565264337f, 0.0130024748f,
    0.00399688259f, -0.000121120538f, 0.0161555316f, 0.0391727462f, 0.0402931124f, 0.0388019793f, 0.028357299f, -0.00646548299f,
    -0.0599775463f, 0.02346473f, 0.0215316489f, -0.0726608038f, -0.0489207394f, 0.0434060842f, 0.0219480917f, -0.0263382047f,
    0.0139339771f, -0.0553419255f, -0.0602288879f, -0.062570706f, -0.0175098404f, 0.0306748021f, -0.031535808f, 0.0309693776f,
    -0.0555132292f, -0.0154937981f, -0.083095409f, -0.114182964f, -0.0938705429f, -0.0104456833f, -0.0565912053f, 0.027375944f,
    0.00127865851f, -0.0418400019f, -0.027238572f, -0.145410195f, -0.17834799f, -0.0422328562f, -0.116949536f, -0.0834435523f,
    -0.104388401f, -0.22291179f, -0.0478330106f, -0.0207845084f, 0.0612963326f, -0.0504166186f, -0.119485676f, -0.0490939207f,
    0.0208691787f, -0.0540418625f, -0.163440123f, -0.248040482f, -0.0720604733f, -0.073837772f, -0.0747408643f, -0.113496415f,
    -0.0987738147f, -0.0980725735f, -0.0393931828f, -0.124826856f, -0.0897690132f, -0.00098387117f, -0.0713232532f, -0.0519253835f,
    -0.0979373083f, -0.0861415491f, 0.159236521f, 0.113419637f, 0.118373267f, 0.0374657512f, 0.0851878375f, 0.0331419483f,
    0.028008122f, 0.124502085f, 0.19943133f, 0.183760032f, 0.0630294606f, 0.101064861f, 0.189889207f, 0.147000581f,
    -0.0348147117f, -0.0329712629f, -0.0440654568f, -0.0779030323f, -0.0908257887f, 0.0228115562f, 0.136697263f, 0.0806695521f,
    0.0496297404f, 0.00830749702f, 0.0191567801f, 0.00406657904f, 0.0492431372f, -0.012867759f, 0.00406186981f, 0.10515815f,
    0.0983965322f, 0.174135357f, 0.128089041f, 0.154761195f, 0.19615522f, 0.227085859f, 0.204440996f, -0.0416949168f,
    -0.301943451f, -0.310254872f, -0.138966411f, -0.114385068f, -0.069243148f, -0.0182745494f, -0.0533664599f, 0.0263784118f,
    -0.0607875623f, -0.0842847452f, -0.105321884f, -0.00514355721f, -0.0773148239f, -0.0173962265f, 0.0390833654f, -0.0150661068f,
    0.0386377126f, 0.00909631047f, 0.0257762056f, -0.0237630736f, -0.00957789179f, -0.0260823146f, -0.0806218609f, -0.0364369228f,
    -0.0104298359f, -0.00257939659f, 0.0107693113f, -0.0129401581f, -0.00316395797f, -0.000903289067f, -0.0437323898f, -0.0497731119f,
    -0.0227183588f, -0.0404079445f, -0.0388507694f, -0.0383350253f, 0.0337611698f, -0.00766162621f, -0.0345644169f, -0.0418788306f,
    -0.0767471194f, -0.0608208738f, 0.0109865507f, -0.0271285623f, -0.00910830032f, 0.0583260693f, 0.00253204303f, -0.00633411948f,
    -0.0742079541f, -0.147018164f, -0.0808696225f, -0.0353339985f, -0.0456408039f, -0.0329873934f, -0.122335777f, -0.0608293712f,
    -0.201358989f, -0.121574283f, -0.16779238f, 0.0181663893f, 0.242906898f, 0.273095369f, 0.246606082f, 0.0472445153f,
    0.00794817228f, -0.0777376518f, -0.186704263f, -0.213820666f, -0.167841718f, -0.19920519f, -0.0485170856f, -0.0097697787f,
    0.0158163812f, 0.125770897f, 0.229973525f, 0.0665770322f, -0.0889397487f, -0.240360767f, -0.103623703f, -0.0841803104f,
    -0.101394437f, -0.0670192391f, -0.0795846432f, -0.0699863359f, -0.061072696f, -0.0867481232f, 0.0322066993f, 0.0619043261f,
    -0.113351911f, -0.0571828708f, 0.0154547272f, 0.150529072f, 0.0274095666f, 0.161467806f, 0.105769619f, 0.235027298f,
    0.147128835f, -0.0431622081f, -0.0985266492f, -0.114387676f, -0.0519096144f, 0.00919851847f, 0.00637152512f, -0.0330580249f,
    -0.0210329834f, -0.141635209f, -0.222822696f, -0.0978178531f, 0.0200946387f, 0.0397660993f, 0.177051067f, 0.0088171754f,
    -0.187427223f, -0.105517291f, -0.00533132628f, -0.138202295f, -0.129863486f, -0.0666212738f, -0.0117448708f, -0.0239075273f,
    -0.0407307595f, -0.0148668429f, 0.0269300863f, 0.0112907914f, -0.092465885f, -0.0196370501f, -0.0441434197f, -0.0861965269f,
    -0.187641457f, -0.130920961f, -0.0993071049f, -0.104303069f, -0.0636215732f, -0.0719220266f, -0.111741215f, -0.096771583f,
    -0.0379364975f, -0.119708441f, -0.0984524488f, -0.185655773f, -0.103569254f, -0.122683369f, -0.0378101394f, 0.00313024176f,
    -0.0843840688f, -0.155774817f, -0.0982179567f, 0.0240349751f, 0.0718741342f, 0.0147071863f, -0.0253410544f, -0.0613990538f,
    -0.0566303469f, -0.0777521059f, -0.153499752f, -0.210888833f, -0.242793947f, -0.263928056f, -0.0243246779f, 0.332361758f,
    0.326719046f, 0.387428582f, 0.178358451f, 0.0475801118f, -0.131908387f, 0.0153112989f, 0.0150778508f, 0.0474287011f,
    -0.0904533044f, 0.0519207753f, 0.2837542f, 0.342180133f, 0.195458353f, 0.12227197f, -0.0457264856f, -0.145887494f,
    -0.0370175876f, -0.0186285898f, -0.00653382437f, 0.0165352598f, 0.0234055333f, 0.00236140098f, -0.0584580153f, -0.00709482282f,
    0.0162013732f, -0.0599292181f, -0.0366130061f, 0.00491271634f, 0.100832507f, 0.156557217f, 0.152146652f, 0.0780039281f,
    0.036331512f, -0.0185624044f, 0.00410165451f, 0.0487169996f, -0.0160803217f, -0.0408672132f, -0.125660986f, 0.0403047167f,
    0.145243958f, 0.0862616301f, 0.11377994f, 0.0829451829f, 0.0782787055f, 0.0843553096f, 0.10045366f, 0.106951617f,
    0.110595904f, 0.14260605f, 0.10559535f, 0.216066062f, 0.0240828656f, -0.182407111f, -0.207025379f, -0.119422041f,
    -0.00563906971f, -0.0333811603f, -0.0378333256f, 0.0587351061f, 0.106407776f, 0.193309903f, 0.13017343f, 0.0880318731f,
    0.00912330486f, 0.0300118662f, 0.0435441919f, 0.017678922f, 0.0185307041f, 0.109949693f, 0.0522530228f, 0.0553976335f,
    -0.0462883487f, -0.0885497704f, -0.0312707871f, 0.0291734282f, 0.0356038548f, 0.137592778f, 0.117016226f, -0.00564263435f,
    0.0418021455f, -0.00528800441f, -0.0917414129f, 0.00427464675f, -0.131690428f, -0.124873325f, -0.0267753806f, 0.0798558369f,
    0.0610717162f, -0.0362604633f, 0.00309868157f, -0.0667156801f, -0.0394993052f, 0.0730233714f, 0.0215975605f, -0.0178266224f,
    -0.00307870144f, -0.0669909343f, -0.0599332564f, -0.068815358f, -0.0382677317f, -0.0433312953f, 0.0701469183f, -0.0147738308f,
    0.108256653f, 0.0780090094f, 0.0436218865f, 0.0428281315f, 0.0584412552f, 0.0222032648f, -0.0168673825f, 0.0711300224f,
    0.163740307f, 0.189735681f, 0.127067104f, 0.188093737f, 0.139536381f, -0.0262664948f, -0.461746216f, -0.371946156f,
