// Generated by export_denoise_c.py. Do not edit by hand.
// Architecture: cw_denoise_gru_mask
// sample_rate=9600 fft_length=256 hop_length=144 band_bins=0..128

#ifndef CW_MODEL_WEIGHTS_H
#define CW_MODEL_WEIGHTS_H

#include "denoise_model.h"

#ifndef DENOISE_MODEL_ATTR
#define DENOISE_MODEL_ATTR
#endif

static const float DENOISE_MODEL_ATTR k_denoise_input_norm_weight[129] = {
    0.931093514f, 1.01495934f, 1.04281902f, 0.998133481f, 1.0147121f, 1.01893699f, 0.986312747f, 0.997972727f,
    0.986586571f, 1.00254714f, 1.01555669f, 1.02354038f, 0.994249463f, 1.02058029f, 1.02142358f, 1.01586056f,
    1.00280762f, 1.04226375f, 1.01386893f, 1.01845562f, 1.02287006f, 1.04261661f, 1.0562793f, 1.01797557f,
    1.03182805f, 1.00146914f, 1.00119555f, 0.987224102f, 0.995964527f, 0.992923915f, 1.03284037f, 0.996369064f,
    1.00279725f, 1.00495851f, 1.0278579f, 0.998910725f, 1.01641953f, 1.01084006f, 0.994807184f, 0.992317319f,
    0.992884815f, 1.01045275f, 0.975395441f, 1.00126457f, 1.00662565f, 0.997428596f, 1.01011252f, 0.973358095f,
    0.968629479f, 0.987024963f, 0.9947837f, 0.992969751f, 1.03231668f, 1.01347184f, 0.996535599f, 1.02130985f,
    1.02769089f, 1.00128293f, 0.980530918f, 0.991593838f, 0.970140994f, 0.986861289f, 0.995001316f, 1.01654208f,
    0.960898042f, 0.989745736f, 0.992417216f, 0.99620986f, 1.00684643f, 1.00245893f, 0.982730031f, 0.985112607f,
    0.974213839f, 1.0119257f, 0.982739389f, 0.994616747f, 0.985326111f, 0.997955739f, 1.01321542f, 0.994747758f,
    0.988563716f, 0.985179007f, 1.01654887f, 1.00275457f, 1.00594592f, 0.979651213f, 0.964220345f, 0.996121228f,
    1.02789438f, 1.0140599f, 1.04777253f, 1.02403843f, 1.0067836f, 0.989056289f, 0.991438925f, 0.974873602f,
    0.971500635f, 1.02621126f, 1.04163325f, 0.980413318f, 1.01426208f, 1.04672325f, 1.00687432f, 0.996166348f,
    0.978751659f, 1.03433931f, 0.99184835f, 0.985416889f, 0.9861902f, 1.01291895f, 1.00290704f, 0.992351294f,
    1.00781441f, 1.01164508f, 1.02341056f, 1.01599121f, 1.04659235f, 0.992028415f, 1.02974296f, 1.0201726f,
    1.04694593f, 1.0252341f, 1.00709915f, 0.991410315f, 0.987597823f, 0.987765312f, 1.03661823f, 0.957738221f,
    0.939827144f
};

static const float DENOISE_MODEL_ATTR k_denoise_input_norm_bias[129] = {
    -0.0768901929f, 0.04456871f, -0.0306581426f, -0.0265686139f, 0.0261942074f, -0.0623272993f, 0.0887321159f, 0.00927314349f,
    -0.0166676324f, 0.0679231137f, -0.051288832f, 0.0596848018f, 0.0274433084f, -0.0943339765f, -0.0955909416f, -0.0595320798f,
    0.0320466906f, 0.0476981178f, 0.0308862496f, 0.0183725879f, -0.0051083276f, -0.0358896255f, -0.0421988592f, 0.0285323914f,
    0.0376076996f, -0.0856489539f, -0.0246848371f, 0.0554602854f, 0.081895344f, 0.0388335921f, 0.0611765385f, 0.0592467599f,
    -0.0570265017f, 0.0942555368f, 0.0189877078f, -0.0276872031f, 0.0558052212f, -0.153251454f, -0.00337981666f, 0.0330746956f,
    -0.0467490777f, -0.00509977387f, -0.0368963815f, -0.0625429451f, 0.0145964883f, -0.065106675f, 0.101981334f, -0.0266418085f,
    0.103062868f, 0.0548790954f, 0.034527611f, -0.0233021099f, 0.0384342335f, -0.0388677493f, 0.047941383f, -0.00479755504f,
    0.0191638451f, -0.0911728218f, 0.0639456585f, -0.00856763404f, -0.037924096f, 0.0134520661f, 0.0125803463f, -0.0177586563f,
    -0.00788074639f, 0.0019785706f, 0.0418531224f, 0.0787479803f, -0.00537205441f, 0.0236368198f, 0.0108189834f, -0.0062277047f,
    0.0679758936f, 0.0146747474f, 0.034149535f, 0.00356371212f, -0.0185984802f, -0.00731121097f, 0.0561446287f, 0.0488898456f,
    -0.0730283186f, 0.0902581885f, 0.0327958539f, -0.0560072176f, -0.00349055813f, -0.0245789625f, 0.0462005995f, -0.00313394563f,
    0.026285911f, 0.0298539996f, -0.0414731428f, 0.0104463631f, 0.0537636764f, -0.042081248f, 0.00338048185f, -0.0121184206f,
    -0.074028872f, 0.0296064317f, -0.0206943303f, 0.0711906031f, 0.0821331218f, 0.0114365742f, 0.117658049f, 0.0727121085f,
    -0.0209981576f, 0.0702174604f, 0.0592120513f, 0.00121483882f, 0.0740250871f, 0.0406146459f, 0.0999412984f, -0.0342226326f,
    -0.0476912372f, 0.0247774515f, -0.0514272898f, -0.0431907363f, 0.0830843076f, 0.0189894978f, 0.0721771866f, 0.006561602f,
    0.0314857624f, 0.0734639838f, 0.0120862592f, -0.00226684706f, -0.00703353016f, -0.0791780949f, -0.0188848637f, -0.00174500817f,
    -0.0372158028f
};

static const float DENOISE_MODEL_ATTR k_denoise_gru_weight_ih[49536] = {
    0.0304845143f, 0.0436833091f, -0.0335076749f, 0.0505610704f, -0.0593332648f, -0.0740009695f, 0.00457715569f, 0.0126602184f,
    0.017858142f, 0.00310282572f, -0.0214199256f, -0.112459771f, 0.0428025052f, 0.0588293523f, 0.00293508079f, 0.0317441598f,
    0.0439281873f, -0.0763045549f, 0.00215610117f, -0.046982117f, -0.0793376416f, -0.147409558f, -0.0511590987f, -0.183041692f,
    -0.189298034f, -0.142606199f, -0.176159456f, -0.0138570694f, -0.0591830611f, 0.0541354194f, -0.0086412197f, -0.0162767358f,
    0.0191900767f, -0.0728755072f, -0.0522965528f, 0.0872775018f, -0.0498617217f, -0.0886140689f, -0.103171907f, -0.0757666156f,
    0.0100603309f, -0.107897349f, -0.0197234191f, -0.141927272f, -0.00492101163f, -0.067610994f, 0.034737803f, 0.0177393835f,
    -0.00978637859f, -0.0423919223f, 0.00945982058f, -0.0539759994f, 0.0211450718f, 0.0122777885f, -0.0701083839f, -0.0664930046f,
    -0.0203572325f, -0.0491521992f, -0.0464293957f, -0.0642446354f, -0.107593529f, -0.0838785917f, -0.102484249f, -0.0705584511f,
    -0.0277756043f, -0.111083321f, -0.0290387105f, -0.0320150889f, -0.0681532174f, -0.147127882f, -0.1511904f, 0.0167892631f,
    0.14615871f, 0.243601635f, 0.153500959f, 0.0444731154f, 0.087945804f, 0.121825308f, 0.132021502f, 0.0831847265f,
    0.172190621f, 0.191380695f, 0.0867326707f, -0.0123820156f, 0.066209577f, -0.0254548006f, -0.0318449549f, 0.0975858644f,
    0.0956837237f, -0.0286895391f, -0.014418805f, 0.0358455628f, 0.101512402f, 0.0231669694f, 0.0888668299f, 0.15534763f,
    0.153978765f, 0.192860141f, 0.040127445f, 0.166083217f, 0.147877917f, 0.00638324115f, 0.0752110854f, 0.0805420727f,
    0.0402264073f, 0.103236146f, 0.00173839054f, -0.00312854792f, -0.0157130491f, 0.100780167f, 0.0470942743f, 0.174286127f,
    0.118133597f, 0.0795526579f, 0.153725103f, 0.0931745991f, 0.0944834277f, 0.0314796865f, 0.0856651515f, 0.102527171f,
    0.106043763f, 0.0587736219f, 0.0981548801f, 0.0599607453f, 0.114489913f, 0.133241862f, 0.106734931f, 0.125688002f,
    0.110236153f, 0.00880226772f, 0.0656342134f, 0.051167801f, 0.0376357399f, 0.139730394f, 0.0295636915f, 0.035236273f,
    -0.0212297626f, 0.0790702403f, -0.0186439008f, 0.054099746f, 0.119704813f, 0.0799285546f, 0.0139848543f, 0.0697199032f,
    0.00445766654f, -0.0458864495f, 0.106302842f, 0.129203871f, 0.13816835f, 0.179344013f, 0.0579023436f, 0.00982498098f,
    0.0965739936f, 0.123321988f, 0.164954007f, 0.0300905649f, 0.0572061762f, 0.0339606367f, 0.092350699f, 0.0392466746f,
    0.0543351211f, 0.0724653453f, 0.153821126f, 0.196308866f, 0.166666836f, 0.126490518f, 0.146962196f, 0.2048143f,
    0.157937318f, 0.0444980897f, 0.0963296369f, 0.00820284057f, 0.0845710114f, 0.0713519454f, 0.070170477f, 0.04909949f,
    0.0863847286f, 0.0472849123f, 0.142876387f, 0.0869231746f, 0.168728039f, 0.0954970643f, 0.206851885f, 0.101633765f,
    0.138930976f, 0.140445322f, 0.144131109f, 0.0859226882f, 0.101120457f, 0.0687833577f, 0.0280565824f, 0.0310538467f,
    0.0601144284f, -0.00635635294f, -0.0650734976f, -0.164895102f, -0.172625616f, -0.211030737f, -0.159842178f, 0.029729683f,
    0.016621327f, -0.0171985403f, -0.0791392773f, -0.0833211914f, -0.123140849f, -0.0184681639f, -0.0886072293f, 0.0326288678f,
    -0.0212133545f, -0.101280011f, -0.061259862f, -0.00997563358f, 0.0315267332f, 0.0434990972f, 0.0840756595f, -0.0401904806f,
    -0.0680924356f, 0.015346488f, -0.108648099f, -0.0895050988f, -0.0293448735f, 0.0744231269f, -0.0129828621f, -0.0283664055f,
    0.0568275936f, -0.0288223941f, -0.107840374f, -0.0589598455f, 0.0430400781f, 0.0101139918f, -0.0685403123f, -0.0368604884f,
    0.0522726662f, 0.0128197549f, -0.0470058657f, 0.114455648f, -0.0152203469f, 0.0996354148f, -0.0112449136f, -0.12532188f,
    -0.0492817387f, -0.10613922f, -0.145686239f, -0.0473933779f, -0.0933774337f, -0.0678158924f, -0.158420831f, -0.201234907f,
    -0.0695139244f, -0.0257250722f, -0.133839831f, 0.0105996653f, -0.0238417499f, -0.0325991288f, -0.00459110737f, -0.0186834168f,
    0.0470775478f, 0.00944800861f, 0.0659198985f, 0.0855911821f, 0.2081016f, -0.0114667881f, -0.00109858473f, -0.0852548331f,
    -0.0849924386f, -0.0552409217f, 0.0173339173f, -0.0182947628f, -0.0880883187f, -0.0466498584f, -0.0583370104f, -0.0878243074f,
    -0.14982231f, -0.17300123f, -0.269804388f, -0.300783724f, -0.364898503f, -0.261591434f, -0.0685055181f, 0.0346450098f,
    0.122768365f, 0.0587911531f, 0.0577045083f, 0.0163120981f, -0.0691066831f, -0.0265607331f, 0.0377653837f, -0.0112776505f,
    -0.108385265f, -0.0598834716f, -0.113203965f, 0.07586395f, 0.0801503435f, -0.03361056f, 0.0345716029f, -0.0392021127f,
    -0.0233002827f, -0.123211369f, -0.0658288226f, -0.0960062444f, -0.0818412378f, 0.0273227245f, -0.124482825f, -0.165577635f,
    0.031474866f, 0.0419652499f, -0.000414115348f, 0.052617263f, -0.0872945413f, -0.167488188f, -0.07796067f, -0.070572257f,
    -0.134497181f, -0.103658743f, -0.113422692f, -0.0720591098f, -0.172861129f, -0.149949595f, -0.031870462f, 0.0526580773f,
    0.217018634f, 0.0986255556f, -0.0367983021f, 0.00122572621f, 0.0107392641f, -0.000814027968f, 0.04203346f, 0.115889683f,
    -0.0104967207f, 0.0670154616f, 0.00386724086f, 0.0228542872f, 0.0790864527f, 0.0857479125f, -0.0348478146f, -0.0164432712f,
    0.0989802554f, 0.0784421116f, 0.13115105f, 0.108843252f, 0.0949961916f, -0.0309338495f, -0.0623367392f, 0.0560294613f,
    0.226952255f, 0.161497667f, 0.151127025f, 0.118349969f, 0.115407549f, -0.0504860394f, -0.151590422f, 0.00439066906f,
    -0.00234058499f, 0.0844973251f, 0.0584171079f, -0.037037652f, 0.101012707f, 0.0733534768f, 0.100945339f, -0.0540882275f,
    -0.0761447474f, -0.00825097505f, 0.0116398372f, 0.0457387492f, 0.131217942f, 0.160214663f, 0.110875025f, 0.114411153f,
    0.0102962162f, -0.06127562f, -0.0637134165f, -0.00107739458f, 0.117694996f, -0.0473648272f, -0.0399227813f, -0.0420088507f,
    -0.083939828f, 0.0236211382f, -0.00600572582f, -0.0713577867f, 0.0125897117f, -0.0918668136f, 0.0898125842f, 0.0107821189f,
    0.0812319517f, 0.0635424107f, 0.00976862945f, -0.0740950182f, -0.0644071847f, -0.143562019f, -0.0602048002f, -0.0358815715f,
    -0.0846389458f, 0.0244000982f, -0.0114956321f, 0.011247036f, -0.0611882024f, -0.0650392845f, -0.0580649823f, -0.0891254842f,
    -0.138032645f, -0.100492686f, -0.0692239702f, 0.00693117967f, -0.132404f, -0.0207033604f, -0.122722283f, -0.155418545f,
    -0.141586974f, -0.0445200242f, -0.123325944f, 0.00767060742f, -0.0846121535f, -0.0822594315f, -0.0581990667f, -0.140755743f,
    -0.0701841637f, -0.113216497f, -0.207939193f, -0.144345835f, -0.151769146f, 0.0792069361f, 0.0590705313f, 0.235972539f,
    0.126810074f, 0.170885563f, 0.131983101f, 0.115223974f, 0.0820626765f, 0.12940754f, 0.100045048f, 0.120177835f,
    0.176557258f, 0.141803607f, 0.0933598876f, 0.197594881f, 0.0917788669f, -0.0453685001f, 0.0744393021f, 0.0903839245f,
    0.00101398258f, 0.0821805075f, 0.0424390323f, -0.113653421f, -0.0852519497f, 0.0325220563f, -0.0748886243f, 0.0726964399f,
    0.0691464171f, 0.0134502975f, 0.108442098f, -0.0276929252f, 0.0535469502f, 0.0632080957f, 0.0598501563f, 0.0678328723f,
    0.10375414f, 0.138918102f, 0.102928579f, -0.00544227893f, 0.0519884452f, 0.0526753478f, -0.0795569196f, 0.0353505611f,
    -0.0233391039f, -0.0141163366f, -0.0838729292f, -0.00972904637f, -0.144590273f, -0.0795990601f, -0.0316982828f, -0.000499713351f,
    0.0539150126f, -0.0121534932f, 0.0179822743f, -0.0500228293f, -0.0195935257f, -0.139502704f, -0.106413506f, -0.0113844452f,
    0.0226783324f, 0.0072584888f, 0.071815297f, 0.0269315969f, 0.0644257292f, -0.0134297954f, -0.0251601469f, 0.0304903351f,
    -0.0344968885f, 0.00160572492f, -0.0262562297f, 0.0948735178f, 0.167156771f, 0.20541133f, 0.0831319466f, 0.198374346f,
    0.0430684499f, -0.00502545666f, -0.0289570298f, -0.0526438616f, -0.0652419925f, -0.0691256002f, -0.0756265819f, 0.0218376461f,
    -0.0134660732f, -0.0826143399f, -0.00226166705f, -0.128727749f, -0.0483967513f, 0.0184566826f, 0.0727764294f, 0.0780962035f,
    0.0208110027f, 0.0685192794f, -0.0355334356f, 0.00791151915f, 0.00956916995f, 0.0990917161f, 0.0366465561f, 0.0861121863f,
    0.101355702f, 0.127160624f, 0.0846420079f, 0.119250193f, 0.044713404f, 0.0146635268f, 0.0172750205f, -0.00855319854f,
    0.139837995f, 0.133847028f, 0.0444236919f, 0.150641173f, 0.12362022f, 0.0912604481f, 0.012050977f, -0.104413413f,
    -0.0563339181f, -0.12742959f, -0.0933950022f, -0.000140690463f, -0.0385692641f, 0.00699960627f, 0.00178494118f, 0.00449015293f,
    0.0210068896f, 0.118020229f, -0.0574408248f, -0.0425399281f, 0.118298918f, 0.142029002f, 0.00907050725f, -0.0261098947f,
    -0.0688263029f, -0.139347613f, -0.0956691876f, -0.0105133848f, -0.0195940826f, -0.0279558152f, 0.062643446f, 0.0946639776f,
    0.122025579f, 0.126910061f, -0.00329773873f, 0.0846310332f, 0.0928131118f, 0.0942199528f, 0.112778932f, -0.056346532f,
    -0.00941018201f, -0.0880644023f, -0.103307389f, -0.0237351283f, -0.10285946f, -0.0411947072f, 0.00137082685f, -0.0379679948f,
    0.00948751811f, -0.0107939122f, -0.0305933151f, -0.0866458938f, -0.0312977284f, 0.00338790589f, -0.0300315451f, -0.0725763291f,
    -0.0950579047f, 0.0016426337f, -0.0442450345f, 0.0177133121f, 0.0521274582f, -0.0566654131f, -0.00107696548f, 0.03965801f,
    -0.0586727411f, -0.0474345349f, 0.0205638614f, 0.08913932f, 0.0212410707f, -0.0442733839f, 0.00254831859f, 0.0984306112f,
    0.0356201082f, 0.0616989322f, -0.0209335778f, 0.0295212008f, 0.0228389055f, -0.0432348028f, 0.0273577087f, -0.0203135163f,
    0.0719211549f, -0.100818776f, -0.0456045121f, -0.0748824254f, -0.105076291f, -0.113517784f, -0.0769050717f, -0.0190900322f,
    -0.010928358f, -0.044046253f, -0.0735601261f, 0.0527831353f, 0.031038966f, -0.0839832127f, 0.0308002345f, 0.0696303323f,
    0.0105624525f, -0.0440558642f, -0.101998292f, -0.0865947008f, -0.0883585885f, -0.038730599f, 0.0845975056f, 0.0987007618f,
    0.0237639118f, -0.0574091077f, -0.0554038994f, -0.0719687715f, -0.125161201f, 0.0100990897f, -0.0515939631f, -0.0766363963f,
    0.0915123448f, 0.00755337253f, 0.0422693938f, 0.0494684465f, 0.0321873948f, -0.169719413f, -0.0497123711f, -0.142707095f,
    -0.0254836045f, -0.0419017971f, -0.0828808546f, -0.0933188573f, -0.101566285f, -0.112335838f, 0.00607227348f, 0.0883773044f,
    0.028101299f, -0.0281739496f, -0.0250017531f, -0.105874285f, -0.151516393f, -0.122828797f, -0.0260476116f, 0.043116875f,
    -0.0761115104f, -0.0998950601f, -0.103484221f, 0.0699951053f, 0.0917226598f, 0.0122044059f, 0.0902140215f, -0.015690051f,
    -0.00768458517f, 0.0351409838f, -0.0505048595f, 0.0158807188f, 0.0295152776f, 0.106464215f, 0.0824419782f, 0.108153954f,
    -0.010398373f, 0.00166619429f, -0.0294797234f, 0.0621423833f, 0.0769467577f, 0.0825773254f, 0.0855404139f, -0.00211122166f,
    -0.0657411516f, 0.117419034f, 0.0796022564f, 0.198884621f, 0.0771523193f, 0.0479073897f, -0.00809386931f, 0.128498182f,
    0.0371518694f, -0.00874720328f, 0.0701703057f, 0.112757415f, -0.00415013311f, 0.080203943f, -0.0977976769f, 0.0222679507f,
    0.0824691951f, -0.013165608f, 0.0565295964f, 0.111131497f, 0.0188418366f, 0.104551263f, -0.0557645783f, -0.0577017665f,
    0.0136216311f, 0.0480353907f, -0.048961468f, -0.0146734165f, -0.0471045449f, -0.0548022091f, -0.156280294f, -0.0340445898f,
    -0.134313181f, -0.0799093023f, -0.122227766f, 0.0112086348f, -0.0387096293f, -0.0729236379f, 0.0310007632f, -0.00763359806f,
    0.00958718546f, -0.0461866856f, -0.0331490338f, -0.0499941371f, -0.135834485f, -0.0541932881f, -0.0199035462f, 0.0293898024f,
    -0.0599741265f, -0.0642797053f, -0.150661036f, -0.0801313668f, -0.0901293531f, -0.0678181648f, 0.125595793f, 0.182294443f,
    0.104516029f, -0.00328661618f, 0.102862492f, 0.0973832607f, 0.0508669205f, 0.0041129482f, 0.0120674847f, -0.096220918f,
    -0.0188035369f, 0.0296625495f, 0.0295035448f, -0.0139746685f, -0.0694443062f, 8.45750401e-05f, -0.0828805864f, -0.112056315f,
    -0.0525730662f, 0.0142721208f, -0.0138253877f, -0.0425225981f, -0.117265373f, -0.0119948396f, 0.129769579f, 0.257076651f,
    0.240434378f, 0.149596483f, -0.0156373531f, 0.0310844369f, 0.0048925397f, -0.00376734184f, -0.000370548631f, 0.034446042f,
    -0.140722185f, 0.0448443964f, -0.0272307042f, -0.00111736706f, -0.0203180499f, -0.135108918f, -0.12502791f, -0.00829718821f,
    -0.0168600697f, 0.00179735862f, -0.0335881189f, -0.140132934f, 0.0324931592f, 0.0136777312f, 0.0534368828f, 0.048851952f,
    0.075813815f, -0.0287935622f, -0.0684801117f, -0.062017329f, -0.0726933703f, -0.0353562087f, -0.0479938313f, 0.0257608891f,
    0.00543434871f, 0.0297694616f, -0.10224127f, -0.0121368431f, 0.00477116881f, 0.00173838763f, -0.0167487469f, -0.00807887223f,
    -0.0444699787f, -0.208132267f, -0.37203148f, -0.416762263f, -0.417405665f, -0.223339766f, -0.219734952f, -0.0760047957f,
    -0.00698351115f, 0.0781160071f, -0.0690791011f, -0.0471965633f, -0.036218252f, -0.0455033071f, -0.0080976598f, 0.0393121019f,
    -0.0825900137f, 0.0328712016f, 0.075189285f, 0.010841541f, 0.0540433712f, 0.0301747862f, -0.00947289076f, 0.0692490563f,
    0.0926868469f, 0.0708087534f, -0.00680468464f, 0.083064042f, 0.10878019f, 0.00911471341f, -0.00521332631f, 0.0169477202f,
    -0.0240118112f, -0.0111626424f, 0.045180928f, -0.0973604918f, -0.0414773934f, -0.119147129f, -0.0701574534f, -0.0183502771f,
    -0.0150476703f, 0.013717616f, -0.0592577755f, -0.0626335666f, -0.00945048407f, -0.0275081154f, -0.0487440042f, -0.0221772827f,
    0.0329350047f, 0.030018311f, -0.0555008426f, -0.0835568979f, -0.0120173907f, -0.0283667333f, 0.0475953668f, 0.0654504895f,
    -0.0632616729f, 0.105680451f, 0.197769865f, 0.121634036f, 0.0320623256f, 0.0303245783f, 0.0641230121f, -0.086431779f,
    0.0249773655f, -0.014813913f, 0.101553939f, 0.110469118f, 0.0871724635f, -0.0209508613f, -0.125580564f, -0.120289743f,
    0.015630288f, 0.0527396351f, 0.179021552f, 0.122219995f, 0.265424788f, 0.204652339f, 0.157320783f, 0.138122231f,
    0.131558076f, 0.110591628f, 0.160285562f, 0.0222713836f, 0.112490594f, 0.00933837332f, 0.0844359025f, 0.0149160475f,
    0.0502659976f, 0.135930687f, 0.0157955755f, 0.010249001f, -0.0669991001f, 0.0462424941f, 0.0201066807f, -0.0198227596f,
    0.0401933342f, 0.0199422203f, -0.0129288733f, -0.0313395113f, -0.0242730752f, -0.0282691531f, 0.0303087998f, -0.0965523943f,
    -0.0681605265f, -0.0930821225f, -0.0421710946f, -0.0393523686f, 0.0304492153f, 0.0765312538f, 0.0118443267f, -0.121691763f,
    -0.0244005546f, -0.0195309967f, 0.0201469269f, -0.0481658131f, 0.0209939349f, -0.0861808658f, 0.083573699f, -0.0314402804f,
    -0.0116951233f, 0.0320539698f, 0.00432543317f, 0.066542089f, -0.034763407f, 0.0168078057f, -0.0115018403f, 0.0141073186f,
    -0.133461237f, -0.138429374f, -0.0229567941f, -0.0710450932f, 0.0249511767f, 0.00257136743f, -0.064894326f, -0.14054054f,
    -0.10741327f, -0.0534898713f, 0.0289765466f, 0.0278824065f, 0.121693432f, 0.00346849067f, 0.0365032479f, 0.121376023f,
    0.034165971f, 0.010626195f, 0.0281331223f, 0.051203724f, 0.19101274f, 0.0674291402f, 0.161057755f, 0.170100331f,
    0.0246613622f, 0.0885020494f, -0.0509693511f, -0.0564592406f, -0.182779476f, -0.059274178f, -0.0209566932f, -0.0751814097f,
    -0.0625022426f, -0.0754861385f, -0.0691220835f, -0.0758386701f, -0.0714672506f, -0.159022525f, -0.139587685f, -0.0925893784f,
    -0.0721177906f, 0.0579035655f, -0.0125854146f, 0.0229622014f, 0.0771911964f, 0.0117444517f, -0.0758260638f, 0.00411003642f,
    -0.164139718f, -0.103660755f, -0.0114016915f, -0.000487060577f, 0.000743653567f, 0.0507817976f, 0.0694092736f, 0.0441403426f,
    0.0773860216f, 0.0629750863f, -0.053622406f, -0.0502998196f, 0.00907539856f, -0.00154521118f, -0.0908279121f, 0.0548937656f,
    -0.121951081f, -0.125123903f, -0.0491207428f, -0.118117057f, -0.0922031403f, 0.0580491871f, 0.167361662f, 0.165484086f,
    0.161954537f, 0.120005324f, 0.14134261f, 0.229802161f, 0.043850027f, -0.0243569203f, -0.122885674f, -0.0494246818f,
    -0.125340849f, -0.155436635f, -0.0818715543f, -0.0924737453f, -0.0859901831f, -0.0950214863f, -0.0117014525f, -0.00709990598f,
    0.107230715f, 0.0261371341f, 0.0794727281f, 0.087802954f, 0.148989439f, 0.14889659f, 0.0859226882f, 0.125146016f,
    -0.083209075f, -0.113326266f, -0.0386598781f, -0.136301681f, -0.073174797f, -0.146475807f, -0.137816384f, -0.0638340563f,
    -0.111410201f, -0.0401257649f, -0.0444921255f, -0.0144266421f, -0.0578853488f, -0.021292368f, -0.0807550326f, -0.0408806056f,
    -0.0978443623f, -0.0550775044f, 0.0308712646f, -0.0410591401f, -0.0643744171f, -0.062558651f, -0.0441742539f, -0.100788854f,
    -0.160583735f, -0.152756065f, -0.0424752012f, -0.0218855273f, -0.0216255933f, 0.0129220542f, -0.018537866f, -0.0132798236f,
    0.0318824649f, -0.0158175677f, -0.0945301428f, -0.167293951f, -0.0201780703f, -0.0496215187f, -0.103098646f, -0.0775740966f,
    0.0137556158f, -0.0599825457f, -0.0858659297f, -0.0939685926f, -0.0212013181f, 0.0356282517f, -0.0627126545f, -0.0880812705f,
    -0.0548926592f, -0.0755596235f, -0.131510153f, -0.179216072f, -0.113933094f, -0.0643683448f, -0.172681019f, -0.188706517f,
    -0.206250399f, -0.148428604f, -0.182160124f, -0.221476734f, -0.154578522f, -0.077958487f, 0.150486037f, 0.251241893f,
    0.178402737f, 0.195967227f, 0.13088049f, 0.0721693188f, 0.194467619f, 0.0532497652f, 0.115532473f, 0.115774162f,
    0.0545404926f, 0.086175628f, 0.0868402869f, 0.137960583f, 0.0738222376f, 0.0878134593f, -0.023511216f, 0.0636664703f,
    0.0281407647f, 0.0305289552f, 0.0664451197f, 0.0385088474f, 0.030326128f, -0.0205063038f, -0.0545623787f, 0.0751357004f,
    0.0704042166f, 0.0663135946f, -0.0291012619f, 0.050130561f, 0.0398704037f, 0.0608291551f, 0.0310390852f, -0.041551616f,
    0.0492404997f, -0.00350895338f, 0.0585813895f, 0.214169458f, 0.108754791f, 0.215808555f, 0.0950196907f, 0.123231791f,
    0.00097237376f, 0.0193673745f, 0.13696596f, 0.0597833022f, 0.0244863182f, 0.157799423f, 0.0585689694f, 0.00763459457f,
    0.072743915f, 0.0781741142f, 0.0897028074f, 0.0841115639f, 0.103169702f, 0.0286061708f, 0.0583022386f, -0.00140119647f,
    0.0770740286f, 0.0438069627f, 0.0443197675f, 0.118267894f, 0.0920329466f, 0.00995883066f, 0.0681792051f, 0.0251285788f,
    0.0152703766f, -0.123959966f, -0.00928140432f, -0.0502302498f, -0.0846948028f, 0.0246391222f, -0.012962007f, -0.0665714219f,
    -0.0997735411f, -0.0454448797f, -0.0804595947f, 0.085523054f, -0.0613088273f, 0.031590797f, -0.0589972921f, 0.00686935289f,
    -0.0801234618f, -0.0349365696f, -0.00860844459f, 0.105301127f, 0.12006706f, 0.0745864585f, -0.0883979499f, -0.0521034785f,
    -0.13077046f, -0.141056612f, -0.0474180877f, -0.0367045701f, 0.0421588235f, 0.0812100172f, -0.0278684758f, 0.00903956499f,
    0.0290328134f, -0.0167234633f, -0.0590554439f, -0.09538389f, -0.116641998f, -0.00763076358f, -0.132538915f, -0.0314932317f,
    -0.107128263f, 0.0125195272f, 0.0598466508f, 0.124854736f, -0.0121213077f, 0.0297017023f, -0.132982567f, -0.122147404f,
    -0.0383817814f, -0.00889256224f, -0.00651368545f, -0.0864859149f, 0.00367299817f, -0.0179640669f, 0.00325064454f, -0.0305144303f,
    0.0121792294f, 0.0621008053f, 0.0493861064f, 0.00958987698f, 0.0211065412f, 0.0682531893f, 0.085269019f, 0.0548004434f,
    0.14170897f, 0.0344050899f, 0.116003618f, 0.0697535872f, 0.0348143801f, 0.0293282978f, -0.0031264117f, 0.130409569f,
    0.118526354f, 0.118796475f, 0.182039693f, 0.0752877817f, -0.00819274224f, -0.0405298248f, 0.0609111264f, -0.0802939236f,
    -0.0698213279f, -0.0854273364f, -0.0583589934f, -0.0973455384f, -0.00473099062f, -0.00440413132f, -0.112000532f, -0.0829151943f,
    0.0606410354f, 0.0530348271f, 0.0390897095f, -0.010693348f, -0.0244623292f, 0.0870396197f, 0.0181188788f, -0.0659011528f,
    -0.0148847783f, -0.11196962f, -0.0503086075f, -0.0798919722f, 0.0339560583f, 0.0683059096f, -0.00268203905f, 0.0969427004f,
    0.0684309974f, 0.00205941289f, 0.0243601948f, 0.0691254139f, -0.00725020561f, 0.0682844147f, 0.0208425242f, 0.184090108f,
    0.182923764f, 0.181120649f, 0.202843338f, 0.12263307f, 0.0496931374f, 0.0476577356f, 0.0461802073f, 0.0623017661f,
    0.0922390819f, 0.0716287419f, 0.0594963729f, -0.11155615f, -0.106451146f, -0.0678260326f, 0.0341927037f, 0.0776303783f,
    0.107124075f, 0.0501374491f, -0.13913168f, -0.049819909f, -0.0713059232f, -0.194270194f, -0.0726194456f, -0.161507815f,
    -0.142830551f, -0.0885206833f, -0.119934559f, -0.0679750666f, -0.149195522f, -0.0169627145f, 0.0675789341f, 0.0794558898f,
    0.0436777398f, 0.0193188116f, 0.00574277947f, 0.0552844852f, -0.112014659f, 0.0164365228f, 0.0788959786f, -0.0461428128f,
    -0.128462315f, -0.0242244359f, -0.10913118f, -0.125642955f, -0.0321348086f, 0.0541217029f, 0.0390391573f, 0.050479982f,
    0.235340834f, 0.079756543f, 0.180438548f, 0.00610239524f, 0.065716356f, 0.0469562337f, 0.0609036572f, 0.0898035467f,
    -0.0250627566f, 0.0527564399f, -0.0940644443f, 0.00227205502f, -0.00423944974f, -0.03825102f, -0.0608562119f, -0.0471276715f,
    -0.0706949085f, 0.0642470717f, 0.0316773169f, 0.0117990794f, 0.0326781832f, 0.0369803868f, 0.0886745378f, 0.0114170276f,
    0.0678189695f, -0.00450444687f, 0.0135382647f, 0.0645416901f, 0.0573167875f, 0.109102957f, -0.0102848094f, 0.00501041953f,
    0.000536097563f, 0.0840568766f, 0.000287830189f, 0.081125401f, 0.0382431969f, 0.0697451904f, 0.0694892555f, 0.0209009536f,
    0.0841656327f, 0.109306179f, 0.032561969f, 0.074483484f, -0.00640669139f, 0.0409156308f, 0.0852740631f, 0.0442884527f,
    -0.024065569f, 0.0325739309f, -0.0236491859f, -0.0445081815f, 0.0401404835f, 0.0109605603f, -0.0278859641f, -0.0284363367f,
    -0.0756632239f, -0.00173823128f, 0.0190224163f, 0.00629271893f, -0.0345526375f, -0.0875064805f, 0.0527492985f, 0.00440086192f,
    0.0837212279f, -0.0816601887f, -0.0462242253f, -0.0916171893f, 0.00621243333f, -0.0987318456f, -0.0941146463f, -0.0095086908f,
    -0.00190779299f, -0.0578030199f, 0.0407893546f, 0.00341228419f, 0.0345886424f, 0.0801863f, 0.0603797249f, 0.0048995642f,
    0.00682619307f, 0.0916521773f, 0.0354618244f, 0.0341579318f, -0.0392361023f, 0.0420140661f, -0.0519804396f, -0.0277912766f,
    0.0651935562f, 0.0740053505f, -0.128926262f, -0.107565232f, -0.114233583f, 0.00355662475f, -0.0174847115f, -0.0565565266f,
    -0.109457709f, -0.104289725f, 0.0162800755f, -0.0230033454f, -0.0538957044f, -0.106482804f, -0.115108311f, -0.101094045f,
    -0.0549187213f, -0.00962800533f, -0.0546011403f, 0.00615787553f, 0.005736575f, -0.0778998658f, -0.0103160106f, 0.0369391106f,
    0.0136509435f, -0.030091688f, -0.0135585768f, -0.0467385724f, 0.011785375f, -0.0108559374f, 0.0930697173f, 0.0699404851f,
    0.0642254502f, -0.0172681939f, -0.0519494638f, -0.0197001938f, 0.0520255193f, -0.0508373976f, 0.0581122711f, -0.096817635f,
    -0.165657625f, -0.105631605f, 0.000747191836f, 0.0634037927f, 0.0904502124f, 0.0633687973f, 0.0613751821f, -0.00183008274f,
    0.0394108817f, 0.0433085486f, -0.0689883009f, -0.021731602f, -0.0241213217f, 0.0255868025f, 0.194072366f, 0.16380997f,
    0.127414107f, 0.00771072833f, -0.0749843046f, -0.136462688f, -0.00446325867f, 0.0546496324f, 0.0467735641f, -0.0767757148f,
    -0.0586614832f, -0.0677039549f, -0.059789326f, 0.0288341716f, 0.0544416085f, 0.0189887304f, -0.0209782142f, -0.0778209791f,
    -0.0488933846f, 0.0604579933f, 0.0256652124f, 0.0909740999f, 0.0539678857f, 0.0620884039f, 0.13772881f, 0.0845556781f,
    0.170257986f, -0.0387558192f, -0.0674763545f, 0.0510561801f, 0.0283562541f, 0.096602574f, 0.0833622143f, 0.0314545296f,
    0.0187193528f, -0.059435986f, -0.0341279171f, 0.0959966555f, 0.0309809893f, -0.0149535928f, -0.233149678f, -0.180825025f,
    -0.0507069267f, 0.0396625474f, 0.0886803493f, 0.000421431498f, -0.139811411f, -0.181628525f, -0.160453841f, -0.175615817f,
    -0.0995456427f, -0.0679026842f, -0.0165079832f, -0.0507750139f, -0.0196768474f, -0.0423374772f, -0.0515650623f, 0.0153362406f,
    0.0352332368f, 0.0424067453f, 0.0921368524f, 0.0529839173f, 0.0360219367f, -0.00424421905f, 0.04858521f, 0.014542006f,
    -0.0197669044f, 0.0212722607f, -0.00800589565f, -0.149147019f, -0.143554866f, -0.171218485f, -0.0144151738f, -0.0772146434f,
    0.017131947f, -0.0107542537f, 0.00264571304f, -0.108153425f, -0.131044611f, -0.100665741f, -0.0433638133f, 0.0109342188f,
    -0.00937784091f, -0.000852272613f, 0.0309944749f, -0.0405243039f, -0.0610586852f, -0.0729694366f, 0.0483409427f, -0.0116860624f,
    -0.0592375025f, 0.010113284f, 0.0244829934f, -0.0358233266f, 0.0540968552f, -0.0153926257f, 0.0998865068f, -0.034283299f,
    0.0466989465f, -0.0944791213f, -0.0620542392f, -0.0610093549f, 0.143504679f, 0.0533165112f, 0.053938739f, 0.136025131f,
    -0.019989714f, 0.0785919875f, 0.0511708222f, 0.0219035037f, -0.0509419292f, 0.0679508969f, -0.0424757227f, 0.0133432085f,
    -0.0411375575f, 0.0532562584f, 0.0580506958f, -0.034635216f, 0.0157940481f, -0.0689044148f, 0.0310139582f, -0.0308389813f,
    -0.027792193f, -0.00168481213f, 0.123313904f, 0.0981797129f, 0.000348980131f, -0.0288678817f, 0.0643400103f, 0.0303502306f,
    0.0249000117f, -0.0287202355f, -0.128681898f, -0.0772654116f, -0.0997506604f, 0.050234057f, 0.0671370029f, 0.139867544f,
    0.103116706f, 0.0342817828f, 0.0944343954f, 0.0421423689f, 0.101904683f, 0.0606815368f, 0.0698989779f, -0.0267964844f,
    0.0101310937f, 0.0241147f, 0.106173001f, 0.118492357f, 0.0433092155f, 0.024103608f, 0.0715665147f, 0.0491675958f,
    -0.00954775512f, -0.0174137112f, -0.160016194f, -0.195407361f, -0.228880808f, -0.0224597622f, 0.00889382139f, -0.0144459f,
    -0.104286715f, -0.00803499296f, -0.0829807371f, -0.0297433604f, -0.157682627f, -0.0433380008f, -0.0108374702f, 0.00215267017f,
    -0.0764554143f, -0.0426494218f, 0.0285619833f, -0.00501703704f, -0.0798107237f, -0.0205110777f, 0.0308204666f, -0.0994638652f,
    -0.0963108242f, -0.166997835f, -0.0273922943f, -0.0115829613f, -0.030180417f, -0.119491786f, -0.117100202f, -0.0495605245f,
    0.0229058824f, 0.107674107f, 0.0417843945f, -0.0132248355f, 0.0394604653f, 0.014819961f, 0.117902882f, 0.0495336205f,
    -0.143923178f, -0.066108793f, -0.0153769106f, 0.0449260809f, 0.0391121544f, -0.0808444917f, -0.0403800495f, -0.0265519638f,
    -0.0333122984f, -0.0217349194f, -0.128390491f, -0.0666913614f, -0.122162357f, -0.134243622f, -0.076885134f, -0.0078553427f,
    -0.0496584326f, -0.0565507635f, -0.0997294188f, -0.109654725f, -0.143485725f, 0.141248882f, 0.0532869436f, 0.101536311f,
    0.202515006f, 0.0844137371f, 0.0933240727f, 0.0542535819f, 0.0804253593f, 0.0844130144f, -0.0581927598f, -0.0129136303f,
    0.0334143117f, 0.168128103f, 0.138902873f, 0.159375489f, 0.136835575f, 0.0800810829f, 0.153062865f, -0.0521920472f,
    -0.0369695202f, 0.0269978773f, 0.0748496726f, 0.00140241045f, 0.294943303f, 0.252357632f, 0.1504087f, 0.0706686005f,
    0.0337636136f, -0.109152071f, 0.0168428719f, -0.0598681904f, 0.0323370397f, -0.0732859001f, -0.151015893f, -0.185361907f,
    -0.0760647431f, -0.0455900691f, -0.0166474525f, 0.125411555f, 0.037099842f, -0.000800582871f, -0.0494548157f, -0.164715618f,
    -0.219314575f, -0.170780316f, -0.182139903f, -0.0873386189f, -0.0755918398f, -0.101753891f, -0.0185986441f, 0.0106429933f,
    -0.0599573292f, -0.0657959804f, -0.0619939901f, -0.0760933459f, 0.0533496998f, -0.0271499082f, 0.0732305795f, 0.116145991f,
    0.11955706f, 0.0967131928f, 0.0874077529f, 0.0743515044f, 0.0614989325f, 0.074484542f, 0.0122592291f, 0.0174247734f,
    -0.0110436417f, -0.00466037495f, -0.0629007742f, -0.0455618091f, -0.0911404788f, -0.0191465169f, 0.0958185568f, -0.0342395864f,
    -0.0670488775f, -0.0388838015f, -0.136265025f, -0.204323575f, -0.166830525f, -0.0455600098f, -0.106557623f, -0.120172746f,
    -0.0984271318f, 0.0710427389f, -0.0517844446f, -0.0506189503f, -0.0656604469f, -0.0825430974f, 0.00394440256f, 0.0574463606f,
    -0.0684573725f, -0.012948093f, -0.0564029217f, -0.0916775763f, 0.0618956722f, -0.0975011885f, -0.00408104574f, 0.0164180323f,
    -0.0437993594f, 0.0863399878f, 0.0935127288f, -0.00732301688f, 0.0916199163f, 0.0183329694f, 0.00768118817f, 0.109668888f,
    -0.0267764255f, 0.0183979962f, -0.038059704f, -0.065384008f, -0.0912087932f, -0.0950440615f, -0.103991643f, -0.108665757f,
    0.00135285803f, 0.0465777181f, -0.0374580584f, -0.0289993919f, -0.0550227165f, -0.0314944498f, -0.020620212f, -0.0459695533f,
    0.0660671219f, 0.114804767f, 0.0965039879f, 0.114003636f, -0.0207654219f, 0.0244546421f, 0.0775262117f, 0.0406242162f,
    -0.0389287136f, -0.0521051474f, -0.0957735628f, -0.0483241901f, 0.0450144485f, 0.0104319509f, -0.0230115224f, 0.0527835302f,
    -0.0684320331f, 0.00118563732f, 0.0351651758f, -0.0202999897f, 0.0620219857f, -0.0970057175f, -0.0936823189f, -0.0577764474f,
    -0.0280769914f, -0.101449296f, 0.00275311759f, 0.00766105531f, -0.0361777507f, -0.16269514f, -0.13026993f, -0.0358450301f,
    -0.0142527483f, -0.0227218252f, -0.00123915006f, -0.070495598f, 0.0462856889f, -0.0619285181f, 0.128021494f, 0.114801504f,
    -0.0121538062f, -0.0577583648f, 0.0900804996f, 0.0965180248f, -0.0495116636f, -0.0625108853f, -0.0503690466f, 0.0677293539f,
    0.0626292825f, -0.0570524745f, -0.0565368682f, 0.0163732748f, -0.0431247093f, 0.00605860166f, 0.103314467f, 0.066329211f,
    0.0757500827f, 0.0493177436f, -0.0282808654f, -0.0864831358f, -0.0691445693f, 0.0148986038f, -0.099714525f, -0.114872187f,
    0.00963887013f, 0.0294567756f, -0.00499732234f, 0.0617268085f, -0.011893197f, 0.0124689583f, -0.00470683584f, -0.101775371f,
    -0.199970067f, -0.223060325f, -0.101398349f, -0.0706473142f, 0.0580252595f, -0.0450238101f, -0.0721845031f, -0.219681889f,
    -0.137654871f, -0.108970366f, -0.0127161527f, 0.103293702f, 0.24125497f, 0.149204656f, 0.141886398f, 0.20980598f,
    0.0476058647f, 0.0697263479f, 0.127758756f, 0.0910416096f, 0.120085806f, 0.232855812f, 0.235409424f, 0.258010358f,
    0.100889206f, 0.0231483318f, -0.0264773928f, -0.0918555856f, -0.0184260532f, -0.0392722078f, 0.0347230546f, 0.0561756007f,
    0.0349242911f, 0.109766155f, 0.0168547146f, 0.108113207f, 0.0978971645f, 0.00677308207f, 0.0883892924f, 0.044312831f,
    0.0206606872f, -0.0157561749f, -0.0451364964f, -0.0286917873f, 0.0233798232f, 0.0692114383f, 0.0567807108f, 0.00174074329f,
    0.0882322714f, 0.0402887911f, 0.13688001f, -0.00313260662f, 0.0805691406f, 0.0115247611f, 0.049876079f, 0.0222962834f,
    0.0433994681f, 0.135990351f, 0.0305065513f, 0.00844498351f, 0.124595717f, 0.126379594f, 0.0610895567f, -0.0261789151f,
    0.0786159411f, -0.0153747648f, 0.101232283f, 0.0721739158f, 0.0843459219f, -0.0325631015f, 0.0498802029f, 0.0654229149f,
    -0.0206139125f, -0.0144553324f, -0.0749037787f, -0.040735282f, 0.0535093434f, 0.0618748665f, 0.109283745f, -0.0313997045f,
    -0.090635322f, 0.0512397438f, -0.00369090703f, -0.0295655988f, 0.0863347203f, 0.0993025005f, -0.00924042426f, 0.0442689098f,
    -0.04578894f, -0.0538557693f, 0.0110368701f, 0.0348077081f, -0.0233946163f, -0.0604696609f, -0.0834074318f, 0.0306428559f,
    -0.101675674f, -0.0870867074f, -0.0978431329f, -0.0595748499f, -0.0868583098f, -0.112270087f, -0.0574176051f, -0.0546643101f,
    -0.074277766f, -0.0814859122f, -0.0291039869f, 0.0322772749f, -0.0189191587f, -0.0436793454f, -0.0762752518f, -0.0324228257f,
    -0.0786232352f, -0.0955437049f, 0.0111299623f, -0.0338204242f, 0.0517229065f, -0.0503671765f, -0.0494999364f, -0.0272800904f,
    -0.0553210825f, -0.021302836f, 0.130270988f, 0.148414299f, 0.149166912f, 0.222593293f, 0.126124278f, 0.0750041083f,
    -0.0609667487f, -0.021425603f, -0.0163212195f, -0.00840996113f, -0.0195741411f, -0.0826927349f, -0.0706477389f, -0.0891353264f,
    -0.0828623995f, 0.0385508426f, -0.057578668f, 0.100725353f, 0.0460931249f, -0.0355613194f, -0.109230205f, -0.168733552f,
    -0.147344038f, 0.0383579507f, 0.0136674587f, -0.0752459392f, 0.0221824162f, 0.010304804f, -0.0613232814f, -0.0779666901f,
    -0.0992421806f, -0.0264013726f, 0.0416312777f, 0.0159785524f, -0.0353106558f, -0.141151696f, -0.112198539f, -0.101602145f,
    -0.0325460173f, 0.0449286252f, 0.0416551419f, 0.110134631f, -0.0213927533f, -0.113439128f, -0.0980844423f, -0.0857676938f,
    -0.00162750878f, -0.0221562423f, 0.137288898f, 0.145062089f, 0.0691135824f, -0.00570715917f, 0.00509602204f, -0.0918189138f,
    0.0693414658f, 0.118015766f, 0.140532419f, 0.0608596243f, 0.132663548f, 0.0607792325f, 0.0409045629f, 0.0161182173f,
    -0.129399151f, -0.136607766f, -0.0891371742f, -0.123328984f, -0.145907f, -0.153711408f, -0.11214909f, -0.0203173812f,
    0.0240381286f, 0.0382052772f, 0.0636575669f, 0.0985305235f, 0.101841889f, 0.0690294281f, 0.0917966217f, 0.0987092257f,
    0.165290371f, 0.133180112f, 0.158726931f, 0.159352854f, 0.139264345f, 0.103767276f, 0.163046837f, 0.238939553f,
    0.175860956f, 0.22694622f, 0.245428652f, 0.284433097f, 0.196471542f, 0.0696447045f, 0.0408211872f, 0.0284848083f,
    -0.076706402f, -0.0987271219f, 0.0206147153f, -0.00893691089f, -0.0245171078f, -0.00534043647f, 0.0303182974f, -0.0305468887f,
    0.0333883837f, 0.0145697528f, 0.0627729222f, 0.126180828f, 0.120084718f, 0.0753630698f, 0.0609381683f, -0.0271646641f,
    0.00755187217f, 0.0390374437f, -0.0287541784f, -0.0575464852f, -0.0374382101f, 0.00945185125f, 0.0360949934f, 0.134228989f,
    0.142244056f, 0.0640668571f, 0.0775724426f, 0.12952967f, 0.127870649f, 0.151778504f, 0.109329835f, 0.0454907976f,
    0.0299085826f, 0.102206849f, -0.017628815f, -0.0417662188f, -0.148852199f, -0.141037852f, -0.0818540081f, -0.108791582f,
    -0.0826911703f, -0.0588138886f, -0.0734883472f, -0.0323807374f, 0.0552111082f, -0.124891952f, -0.156892627f, -0.284767658f,
    -0.255984366f, -0.21078749f, -0.103375405f, 0.0288863219f, 0.0183615759f, -0.040920686f, 0.108839229f, -0.00846272334f,
    0.0173121151f, 0.132734135f, 0.0244810879f, -0.0242626835f, 0.00628959714f, -0.0218897481f, -0.0649378449f, 0.0163841024f,
    -0.00213180273f, -0.0330896787f, 0.00845322292f, -0.00739101274f, -0.041496627f, -0.0419337004f, 0.0674384832f, 0.05004308f,
    0.0568999723f, 0.0240868852f, -0.123112611f, -0.0300586149f, 0.0963053256f, 0.0769665018f, 0.0132253459f, 0.0406331085f,
    0.0755925104f, 0.0129619027f, -0.0614404604f, -0.0432159603f, 0.00747434841f, 0.0325649753f, -0.0518189445f, -0.0611849464f,
    -0.133879423f, -0.135405734f, -0.202115312f, -0.0307317376f, -0.0779496282f, -0.0871682316f, -0.0892397463f, 0.00154524413f,
    0.0780632123f, 0.229002893f, 0.0449629501f, 0.0165109783f, 0.019252684f, 0.0787604451f, 0.0955303088f, -0.0249807015f,
    -0.12292935f, -0.0312786102f, -0.0569787212f, -0.103387088f, 0.0406078324f, -0.00434317114f, -0.0792886466f, -0.0834270865f,
    0.00905775093f, -0.0536333881f, 0.00856256671f, -0.0398833416f, -0.00737065403f, 0.0432258956f, 0.0178263206f, 0.0835989639f,
    0.086003527f, 0.00565969525f, 0.0947598293f, -0.0291675515f, 0.0880875736f, -0.0476540625f, 0.0249324478f, -0.0207950119f,
    -0.085100092f, 0.0850876644f, 0.0947738141f, 0.026411593f, -0.0462217927f, -0.0590757616f, 0.0292908121f, -0.0258458685f,
    0.0520001426f, 0.0388246067f, 0.0693794116f, 0.141691744f, -0.00689762877f, -0.0473629758f, 0.0380307622f, -0.0198576525f,
    -0.0354362987f, -0.0224901866f, -0.015397694f, -0.04957553f, -0.128062248f, -0.17175594f, -0.19785741f, -0.171695948f,
    -0.24956046f, -0.195990115f, -0.104891084f, -0.0840457231f, -0.115521349f, -0.164989933f, -0.114498742f, -0.162323505f,
    -0.0944379196f, -0.118459076f, -0.0620223694f, -0.0526858047f, -0.110730439f, -0.0223188289f, -0.0589263849f, 0.08590886f,
    -0.009347599f, -0.00132619869f, -0.00305099227f, -0.023610387f, -0.0503399558f, -0.0539651439f, -0.0149491243f, 0.0102770552f,
    -0.0111939693f, -0.0913787782f, -0.00585914124f, 0.0186152998f, -0.0573979281f, 0.0308429562f, -0.062622346f, -0.121312506f,
    -0.184744939f, -0.14204137f, -0.136663735f, -0.253537357f, -0.243869886f, -0.0371353664f, -0.0529510379f, -0.0137212593f,
    0.143201098f, 0.0826370642f, 0.0798793584f, 0.115521498f, 0.113479614f, 0.198877424f, 0.14152059f, 0.0789364055f,
    0.169837296f, 0.0607830994f, 0.0573981851f, 0.0931059048f, 0.095358856f, 0.218730301f, 0.0170847457f, -0.00647606049f,
    0.143601f, 0.0889438242f, 0.00817436818f, 0.167182356f, 0.0116405077f, 0.0430383421f, 0.066494301f, 0.0556543134f,
    0.0881153271f, 0.0319651812f, 0.145308807f, 0.0437642485f, 0.0716477334f, 0.118890792f, 0.0872366726f, -0.00632221019f,
    0.11848902f, -0.0234527159f, 0.0250157602f, -0.0469565168f, 0.0690537617f, 0.0203667581f, 0.0257696565f, -0.0270770695f,
    -0.0226250533f, 0.0336018726f, -0.0270714629f, -0.086577408f, -0.0635433719f, -0.180919513f, -0.152700439f, -0.028062854f,
    -0.0691588297f, -0.128748924f, -0.0927461088f, -0.110097244f, -0.0701470822f, -0.102275215f, -0.0799708515f, -0.0898870677f,
    -0.0663822889f, -0.114028938f, 0.0221969634f, -0.0478172638f, -0.0984731466f, -0.113281392f, -0.0787013471f, -0.137006745f,
    -0.0569282472f, -0.0462619476f, -0.0403211191f, -0.0147200488f, -0.0474935994f, 0.00859920774f, -0.0502994508f, -0.0241803639f,
    -0.114046074f, -0.0927186385f, -0.0200822968f, -0.157540619f, -0.0368257537f, -0.0753650889f, -0.190223694f, -0.089301914f,
    -0.155252457f, -0.198507845f, -0.158314481f, -0.175050065f, -0.168082282f, -0.20116128f, -0.242685571f, -0.108299248f,
    -0.0244443249f, -0.0619233884f, -0.157016262f, -0.0810755715f, -0.0357825458f, 0.0562937409f, 0.0967625156f, -0.0178769827f,
    -0.0389584601f, -0.0178045817f, 0.0937997177f, 0.0997120962f, 0.144101903f, 0.119583197f, 0.135538846f, 0.0470286086f,
    0.124732286f, 0.115454189f, 0.00563405827f, 0.0429618508f, 0.0781259835f, 0.0792410597f, 0.112477936f, -0.0218353979f,
    0.0237411074f, 0.0580187999f, -0.132365361f, -0.108944885f, 0.00607744046f, -0.0738503784f, -0.037067391f, 0.0907252431f,
    0.112779498f, 0.0502673835f, 0.00345937489f, -0.0638558567f, 0.0614246577f, -0.0237223618f, -0.00376659678f, 0.0620859414f,
    0.122487351f, 0.162143439f, 0.175441489f, 0.0500777513f, 0.105854914f, 0.189858049f, 0.0518356897f, 0.0658047795f,
    -0.0716287047f, -0.0124503924f, -0.0265271962f, -0.0669067875f, -0.00102169276f, 0.102914095f, 0.123605549f, 0.198630497f,
    0.109882027f, 0.114329502f, -0.0287123788f, 0.0832736194f, 0.061964158f, -0.0608835556f, -0.0743375346f, -0.133519188f,
    0.0269279685f, 0.0502583683f, 0.0575198606f, 0.0489018932f, 0.0926957652f, 0.283047736f, 0.274654269f, 0.14379029f,
    0.125859633f, 0.0836148262f, 0.102635682f, 0.0624573231f, 0.0811329484f, 0.0888219699f, 0.0884098113f, 0.033993233f,
    0.040930219f, 0.0865329355f, 0.109345451f, -0.0565942042f, 0.0922804102f, 0.0335973315f, 0.0644435585f, -0.00806913245f,
    -0.0634520799f, 0.0209356844f, -0.0184497852f, 0.00457104808f, 0.0585418604f, 0.0324155167f, 0.0152950175f, 0.0888350978f,
    0.0765367746f, -0.0195124727f, -0.0616721027f, -0.0134674991f, 0.036497768f, 0.0181560311f, 0.060903497f, -0.0586947165f,
    -0.138776258f, -0.121230736f, -0.155165046f, 0.0896262601f, -0.0346773565f, -0.112006292f, -0.0186834931f, 0.173976183f,
    0.106808491f, 0.100816198f, 0.00253942306f, -0.156488806f, -0.0377619117f, -0.0430982783f, -0.145993769f, 0.0514702313f,
    -0.0123678222f, 0.0423930362f, 0.0954356119f, 0.0225324593f, -0.0929714367f, 0.0103010163f, 0.0474806689f, 0.0750018656f,
    -0.011524329f, 0.0333161354f, -0.0180790629f, -0.038482029f, 0.039020773f, -0.0397228859f, -0.114196986f, 0.00710368296f,
    -0.0666842908f, -0.0676707178f, -0.133125857f, -0.185638934f, -0.0838039294f, 0.0377089828f, 0.0241492931f, -0.0402824543f,
    0.0542307347f, -0.118221156f, -0.164405867f, -0.221084222f, -0.107828073f, 0.000140310061f, -0.00465010898f, 0.0961431637f,
    0.0822668746f, 0.124838926f, -0.042362798f, -0.0334989093f, -0.0130543681f, -0.031805478f, 0.067888923f, 0.0812034383f,
    -0.0138580445f, 0.118148752f, 0.0562606566f, 0.113212936f, 0.0185830053f, 0.0518004522f, -0.0276666209f, -0.0902232602f,
    0.0352784544f, 0.0639625192f, 0.188537002f, 0.102877341f, 0.145422563f, 0.0398628749f, -0.0416395403f, 0.0247521959f,
    -0.128370792f, -0.0457934029f, 0.0527636148f, 0.0331877097f, 0.0286371205f, 0.0826030299f, -0.0225953944f, -0.0337083973f,
    0.0397928692f, 0.0338124186f, -0.0714424029f, -0.0391501524f, -0.0562523864f, 0.0607872419f, 0.035079442f, 0.0502966866f,
    0.0365137309f, 0.113896266f, 0.0697599798f, 0.0433242284f, 0.0522995032f, 0.0812427923f, 0.100032456f, -0.00490771933f,
    0.0773798376f, 0.00130036462f, -0.0462120324f, -0.0514787324f, -0.0213201623f, -0.0070998962f, 0.0284490138f, -0.0387598574f,
    -0.0447058044f, 0.0999883562f, -0.00459431391f, 0.0259577669f, -0.0278179627f, -0.0582738183f, -0.130568609f, -0.224931374f,
    -0.215315685f, -0.0652577206f, -0.0206078254f, 0.058652591f, 0.0350697972f, 0.124066025f, -0.0922623277f, -0.0745265633f,
    -0.0667261258f, -0.0404475108f, -0.0357345827f, -0.00767185353f, -0.0241817739f, -0.0157060158f, -0.122551069f, -0.0693442151f,
    -0.0499507785f, -0.0590943359f, -0.112115562f, 0.0211281814f, -0.0719072074f, 0.0691779554f, -0.0802856684f, 0.000510693702f,
    0.0952202678f, 0.0321497433f, 0.00763387f, 0.0458375253f, -0.023237573f, 0.0248863958f, 0.0500830822f, 0.05286685f,
    0.0437103771f, 0.0137268528f, 0.0267979633f, 0.00329396524f, -0.0787043497f, -0.0633480996f, -0.0310633071f, -0.123930298f,
    -0.119787619f, -0.105013393f, -0.0411080755f, -0.00302976393f, 0.0292929858f, 0.057852868f, 0.0953775495f, 0.173065841f,
    0.0803705156f, 0.036381226f, 0.0363904908f, 0.06698706f, 0.108540639f, -0.0398883224f, -0.0184885561f, -0.141747266f,
    -0.14041169f, -0.101312734f, -0.134426966f, -0.244406402f, -0.21949403f, -0.215654209f, -0.0837685689f, -0.0324226618f,
    0.00804634765f, 0.0243535917f, -0.0469692238f, -0.0441035628f, -0.145353168f, -0.122432217f, -0.121661834f, -0.163943037f,
    -0.191635281f, -0.216930524f, -0.114605889f, -0.138285473f, -0.100937895f, -0.0315092057f, 0.102524206f, 0.104928426f,
    0.0975623354f, 0.0835864916f, 0.0139926169f, 0.0269822124f, -0.0967689008f, -0.05974387f, -0.184694856f, 0.0294003021f,
    0.0175230857f, 0.0792901516f, 0.162979484f, 0.202194661f, 0.125482976f, 0.0911585614f, 0.0990889743f, 0.108116649f,
    0.0849325061f, 0.122874625f, 0.093801178f, 0.139950171f, 0.0780475959f, 0.227529541f, 0.105966114f, 0.10162428f,
    0.0292906836f, 0.0933050439f, 0.0697350577f, 0.103601597f, 0.010572548f, 0.0618424639f, 0.0804938003f, 0.0564731956f,
    0.110431127f, 0.134974211f, 0.0681464225f, -0.0677590892f, -0.0193459708f, -0.0189304221f, 0.0647938028f, -0.000447224127f,
    0.0950325802f, -0.0217091516f, -0.0607568473f, -0.0320025496f, -0.0511284992f, 0.0963793546f, 0.00179883419f, 0.113909647f,
    0.0048691472f, -0.062207181f, -0.0274724979f, 0.000760794675f, -0.0501356572f, -0.0199360326f, -0.0390442759f, 0.0734784678f,
    -0.0588378124f, -0.0608428717f, 0.0304695312f, 0.0517389402f, -0.0214146823f, -0.0102123814f, -0.0886764973f, 0.0624990351f,
    0.0348679647f, -0.0710022971f, -0.112024896f, -0.0836808458f, -0.0389353782f, -0.0671559274f, -0.0854220837f, -0.0956426859f,
    -0.0179355238f, 0.051372733f, 0.0567469597f, -0.0175099466f, -0.0145201646f, 0.0659691617f, -0.0716962069f, -0.0729169399f,
    0.00105467672f, -0.1301267f, -0.0306776818f, -0.074263148f, -0.012050068f, -0.106785081f, -0.0895792916f, -0.0858129412f,
    0.00267266715f, -0.106315963f, -0.013327322f, -0.064090237f, -0.00559626985f, 0.034240488f, 0.08750543f, 0.00546572963f,
    0.0068490915f, -0.100079097f, -0.144928217f, -0.0944901779f, -0.0178971663f, -0.140666798f, -0.0586238019f, -0.159273416f,
    -0.133244976f, -0.0919143334f, -0.0364946239f, -0.12819092f, -0.177081868f, -0.156580344f, -0.188395068f, -0.199871033f,
    -0.0927285254f, -0.107456297f, -0.215724975f, -0.175258905f, -0.0722508803f, -0.259046197f, -0.126834303f, -0.0311380532f,
    0.160273343f, 0.24291715f, 0.322616011f, 0.227887496f, 0.0905712619f, 0.206579342f, 0.170734897f, 0.166610494f,
    0.137599215f, 0.161167294f, 0.158194155f, 0.175312459f, 0.192073673f, 0.0798887014f, -0.0293951705f, 0.0313402414f,
    0.0689198673f, 0.01738609f, 0.0585429296f, 0.09148404f, -0.0418285839f, 0.00614769105f, 0.0306268502f, 0.041395504f,
    -0.012355051f, -0.0536144488f, 0.0634773597f, 0.0242411587f, 0.0613193437f, 0.000554291124f, 0.0529955849f, 0.00856632181f,
    -0.0426769182f, 0.0181508549f, 0.0761472657f, 0.079138115f, 0.207250774f, 0.12042018f, -0.0508397296f, 0.0265149344f,
    -0.058137238f, 0.0220295582f, 0.0433744267f, 0.038158223f, -0.037922807f, -0.0658999309f, -0.0364825912f, -0.0105535612f,
    0.0699757263f, 0.0666707158f, -0.0357161388f, -0.0193675626f, 0.0632886812f, 0.044266738f, -0.0527750328f, -0.10965573f,
    -0.117044091f, -0.0894375518f, 0.00685595814f, -0.112924777f, -0.0885634646f, -0.151396394f, -0.104925424f, -0.0661426708f,
    -0.15747419f, -0.117517702f, -0.0805934742f, -0.039953433f, -0.113585591f, -0.0333994068f, -0.0354686566f, -0.0768048391f,
    -0.180073947f, -0.0719511956f, -0.0919008851f, -0.0441507436f, 0.00892070215f, 0.049929481f, 0.0379761346f, 0.00706121651f,
    0.0508240759f, -0.109216802f, -0.0427669138f, 0.0637490302f, -0.0579654686f, 0.0597885512f, -0.0483943708f, -0.0177970529f,
    0.0393446349f, -0.00610802881f, 0.0519687906f, 0.0252866428f, 0.142829657f, 0.0678841472f, 0.00950654596f, -0.058688011f,
    -0.132458642f, -0.010968986f, 0.0249754041f, -0.0283175018f, 0.0487550311f, -0.0760212094f, -0.0501342043f, -0.0873261914f,
    -0.0993842259f, -0.08225324f, -0.0424516574f, 0.0127241118f, -0.020277828f, -0.0394036993f, -0.0541274436f, 0.0225416627f,
    -0.02585572f, -0.0655286014f, -0.0813246593f, -0.11250104f, -0.104028031f, -0.166694507f, -0.0679592937f, 0.00843292661f,
    0.0177972782f, 0.00320702f, 0.0551821925f, -0.0381675735f, -0.0564943999f, -0.110772066f, -0.0842747018f, -0.0506591126f,
    -0.22298108f, -0.0313067809f, -0.0932509303f, -0.133587494f, -0.130570695f, 0.0070283534f, 0.0640392229f, 0.138078809f,
    0.151174977f, 0.246498197f, 0.242500603f, 0.138740569f, 0.132007867f, 0.0580915473f, 0.175484389f, 0.102051683f,
    0.0236762669f, 0.0228783712f, 0.0205092076f, 0.0766704604f, 0.103825405f, 0.153632015f, 0.0674111247f, 0.227135584f,
    0.0666501597f, 0.126263633f, 0.0838010609f, 0.159367606f, 0.0105413906f, 0.0928137079f, 0.118518993f, 0.0677044168f,
    -0.0336722471f, 0.111832134f, 0.144795924f, 0.127625525f, 0.104781777f, 0.137501612f, 0.0407785214f, 0.0922760293f,
    0.132305548f, 0.0405947119f, 0.0722345859f, -0.0131914886f, 0.100807458f, 0.0835508481f, 0.0489084572f, -0.00898815598f,
    0.0315299854f, -0.0532511808f, 0.0807464942f, 0.0598470569f, 0.122387961f, 0.0100650657f, 0.105163388f, -0.0263140891f,
    -0.15819557f, -0.100088239f, -0.035951294f, -0.0388000533f, -0.0406754725f, -0.119457968f, -0.0232468415f, 0.02503445f,
    0.0100514954f, 0.011482873f, -0.109773628f, 0.0559278354f, 0.0066604903f, -0.0823247507f, -0.0157244802f, -0.0183831304f,
    -0.0295153968f, -0.0582655892f, -0.19506003f, -0.0635297969f, -0.00693783304f, -0.0665763319f, 0.00255363993f, -0.00964020845f,
    -0.0805018246f, -0.00885410327f, -0.0584002919f, -0.0727855116f, 0.0513348505f, -0.0265526101f, -0.0135323415f, -0.0100011174f,
    -0.0200187936f, -0.022316521f, -0.0629684702f, -0.0815470889f, -0.0680843815f, -0.039663747f, 0.036919307f, -0.0576321036f,
    -0.0390312485f, -0.00988517329f, -0.0054231477f, 0.00539777707f, 0.0259264465f, -0.0314625837f, -0.0278323647f, -0.154887408f,
    -0.0657218918f, -0.113349743f, -0.125768989f, 0.0256479345f, -0.0329117626f, -0.142120555f, 0.0185180847f, -0.0534231663f,
    -0.0325486884f, -0.0910714716f, -0.102694593f, -0.0743640587f, -0.0115102641f, 0.0166751668f, 0.0186502691f, 0.136220396f,
    0.0683877766f, 0.0710259527f, -0.0400760546f, 0.0832020342f, 0.0793223679f, -0.00172174373f, 0.0271887332f, 0.0375807285f,
    0.0569195785f, 0.0745070651f, 0.0272028875f, 0.0645867735f, 0.0455736704f, 0.0173558313f, -0.0234824196f, -0.131791979f,
    -0.0991546661f, -0.100634009f, -0.0955914333f, 0.045782052f, 0.0099231489f, -0.0745117962f, 0.0263637844f, 0.0528768972f,
    -0.0237563252f, -0.0982051566f, -0.0628927723f, -0.123379871f, 0.0206121039f, -0.0630962476f, 0.0387340374f, 0.0440131351f,
    0.0491153412f, 0.00875456352f, -0.080925554f, 0.0760510936f, 0.0983217806f, 0.160483554f, 0.204413682f, 0.171977922f,
    0.259704471f, 0.0919117257f, 0.0970477909f, 0.191473663f, 0.109979577f, 0.0499129482f, 0.0166495536f, 0.133928686f,
    0.179822415f, 0.0663232431f, 0.0293393563f, 0.0402146652f, 0.0725492537f, 0.121273473f, 0.0436281487f, 0.168922201f,
    0.0595070124f, 0.160841778f, 0.0968518779f, 0.103858463f, 0.100471929f, 0.0817889273f, 0.114322379f, 0.0574779622f,
    -0.104366608f, 0.046654176f, 0.00931019429f, -0.0344184972f, -0.0896434337f, -0.0655459687f, -0.0441586971f, -0.0834295079f,
    -0.164198652f, -0.05737672f, -0.014343624f, 0.0913266391f, -0.0794481039f, -0.172311589f, -0.106022052f, -0.0112561295f,
    0.0749034807f, 0.075751476f, 0.0884058848f, 0.0589785278f, 0.0743481293f, 0.0950850546f, -0.00193813164f, 0.00286607165f,
    -0.0193081424f, 0.0695358962f, 0.0474916138f, 0.0395741574f, -0.0016500185f, -0.00853929482f, 0.0254766494f, 0.0587721206f,
    0.0519492514f, 0.00490865158f, 0.110025145f, 0.0389172323f, -0.0168461185f, 0.0535657927f, 0.145799503f, -0.019816542f,
    -0.0344500914f, 0.0220346227f, -0.0709577352f, -0.00330120069f, 0.0169657599f, 0.0401439294f, 0.110350549f, 0.025161786f,
    0.118697233f, 0.100950815f, -0.0719411522f, -0.124250129f, -0.0577104092f, -0.140207246f, -0.0911046043f, -0.106891602f,
    -0.0453523062f, -0.102603696f, -0.00179663801f, -0.11525178f, -0.0565314442f, -0.0158342235f, -0.000863115012f, -0.0271593612f,
    -0.0851982683f, -0.0502043106f, -0.0926390588f, -0.0827398002f, -0.0266816951f, -0.044065997f, -0.0533343256f, -0.0510194302f,
    0.0576878935f, 0.060661979f, -0.00565753784f, 0.0323158689f, 0.0301368497f, -0.0664382651f, 0.0426963456f, 0.0375770852f,
    0.0688011944f, 0.198267713f, 0.0898472741f, 0.0287279766f, -0.0193195157f, 0.0251369327f, 0.0143267307f, 0.072526142f,
    0.218822628f, 0.0181884952f, 9.67760025e-06f, 0.0819096714f, 0.159995213f, 0.08567103f, 0.0363021903f, -0.0725399926f,
    -0.088153109f, -0.0875993669f, -0.167502716f, -0.0576045811f, -0.0525017157f, -0.15896067f, -0.0825512335f, -0.0509307683f,
    -0.0953022465f, 0.00116351899f, 0.0978345349f, 0.0669850782f, 0.1544258f, 0.0632848591f, -0.00102222292f, -0.0204743724f,
    -0.0177293476f, 0.0832572505f, 0.0221562702f, 0.126972586f, 0.0726166219f, 0.0702392235f, 0.0450147986f, 0.0752009153f,
    0.0785122886f, 0.107876897f, 0.0679191723f, -0.0717300326f, -0.0948063284f, -0.0654224902f, 0.00671446975f, -0.0126955369f,
    -0.0413529314f, 0.00270881737f, 0.0321579129f, 0.0314401239f, 0.166056708f, 0.179425105f, 0.232126772f, 0.105310798f,
    0.0683817491f, -0.011132624f, -0.0469418578f, -0.0992623344f, -0.0420311987f, -0.000919016369f, -0.0869768411f, 0.00948775187f,
    0.0921225771f, 0.0531993434f, 0.00364578934f, 0.0225161072f, -0.00673440844f, -0.0651771352f, -0.0611242466f, -0.023002075f,
    -0.00199331553f, -0.0362087637f, 0.0324905962f, 0.060304381f, 0.0290040113f, 0.0943770185f, -0.0706909746f, -0.059342999f,
    0.0221611559f, -0.053527344f, -0.0244666617f, 0.06872008f, 0.0252005775f, 0.0816208422f, 0.0839080065f, -0.0280613601f,
    -0.051257398f, -0.180194288f, -0.149333775f, -0.173072606f, -0.0907705128f, -0.0418983996f, 0.0378416255f, 0.000260601839f,
    0.0502463281f, 0.00611526566f, 0.0895742625f, -0.0290256366f, 0.03396957f, 0.0896085501f, -0.0558538586f, -0.0338636003f,
    -0.119919866f, -0.0293310843f, -0.18115586f, -0.139185563f, -0.141889378f, -0.0557906069f, -0.0812593624f, -0.00414947746f,
    -0.0823737606f, -0.0432435274f, -0.0982998535f, -0.0816853344f, 0.0416648872f, 0.0356648006f, -0.0314037278f, -0.0886773318f,
    -0.0731926858f, -0.152617648f, -0.255066991f, -0.0840114951f, -0.0450192615f, -0.107480548f, -0.0303008407f, 0.00893362891f,
    0.0631245822f, 0.0691435933f, 0.179397851f, 0.200947046f, 0.0889724642f, 0.0969822928f, 0.102349974f, 0.0531676859f,
    0.139287651f, 0.00566597795f, 0.0751804858f, 0.151899382f, 0.122383863f, 0.0269624162f, 0.0506438687f, 0.0765075535f,
    0.0240935013f, 0.107623227f, 0.109433152f, 0.0988604426f, 0.12693882f, 0.0667489246f, -0.000398152129f, 0.0346432179f,
    0.105774149f, 0.0524955317f, -0.0378916226f, 0.0763272047f, 0.0788134634f, 0.0838418528f, 0.00335085834f, 0.0268985126f,
    -0.0192799866f, -0.0257512443f, 0.0525639951f, 0.0602069721f, -0.0665030777f, -0.0742558464f, 0.028851971f, -0.0820061117f,
    -0.0516258255f, -0.0468480177f, -0.0628715754f, 0.0779467002f, -0.0104929525f, -0.0396965295f, 0.0250198636f, 0.0520265698f,
    -0.0923055708f, -0.0021699525f, -0.0224728025f, -0.109939843f, 0.00421285816f, 0.0381976925f, -0.0576222315f, 0.0102991574f,
    -0.0429538973f, -0.0518245995f, 0.0872913599f, 0.116044357f, 0.0375617705f, -0.0631987602f, 0.0484988354f, 0.096518591f,
    0.0390933305f, 0.08887586f, 0.0736471415f, 0.00755550619f, 0.0719185621f, 0.0477575734f, 0.0588621236f, -0.0703345314f,
    0.0357570015f, 0.0755288154f, 0.107950777f, 0.214731961f, 0.130542248f, 0.0700109079f, 0.0113398293f, -0.0302302372f,
    0.0276223924f, 0.0212372374f, -0.00573270395f, -0.02837063f, 0.0586986579f, 0.0599360429f, 0.0284970589f, 0.0690198019f,
    0.0145831611f, -0.0122275539f, 0.0065530804f, -0.1066439f, -0.0603872389f, 0.00720010465f, -0.0231524967f, 0.00223468547f,
    -0.0795890987f, -0.0488830581f, -0.00604517292f, 0.050599549f, 0.0973271057f, 0.00211349479f, -0.0259511638f, -0.043089401f,
    0.00825187098f, -0.0183173511f, 0.0115131438f, -0.0503616035f, -0.0256930403f, 0.0615235046f, 0.0965467095f, 0.0495573469f,
    0.0272287671f, -0.101059817f, -0.165219873f, 0.0392037518f, 0.125095248f, 0.267057598f, 0.22860837f, 0.213730618f,
    0.13140367f, -0.0905452594f, -0.014683065f, -0.068623744f, -0.0414303951f, -0.122277528f, -0.0587122068f, -0.0739475265f,
    -0.194163129f, -0.184917271f, -0.197716117f, -0.0547118708f, -0.0686828196f, -0.132060513f, 0.0244088098f, -0.0432862379f,
    -0.107631125f, -0.0255076978f, -0.107747786f, -0.0748905763f, -0.00275578001f, -0.00872571394f, -0.033461608f, -0.0889314115f,
    -0.0723273084f, -0.0831500143f, -0.0452985764f, -0.0739092752f, 0.00282403012f, -0.0128625324f, 0.0364690311f, 0.0151631245f,
    0.0224977154f, 0.00162410329f, -0.0163051039f, 0.0347695835f, -0.082157515f, -0.0872188434f, 0.048207283f, -0.00886646938f,
    -0.105735011f, -0.143340886f, -0.0613697767f, -0.0389163457f, -0.026237106f, 0.00679601356f, -0.0460048839f, -0.0500955954f,
    -0.0434659831f, -0.12798591f, -0.0782243311f, -0.0910146683f, -0.0796672925f, -0.0284614861f, -0.0773147196f, -0.0986259282f,
    0.000801579503f, -0.0761311427f, -0.110676244f, -0.134205237f, 0.0395532027f, 0.0335593f, -0.0527327694f, -0.0139554245f,
    -0.0679506287f, 0.0171145033f, -0.046454519f, -0.0365126021f, 0.00515061431f, -0.0854044184f, -0.120285809f, -0.0158098973f,
    -0.0849049762f, -0.064568989f, -0.088568002f, -0.074373953f, -0.0798879936f, 0.0394261293f, -0.00291166361f, -0.0821615085f,
    -0.0511276387f, -0.12080016f, 0.022667015f, 0.170890883f, 0.266747206f, 0.0793545172f, -0.00620439369f, 0.00212180358f,
    0.0974001437f, 0.149486795f, 0.0688726678f, 0.0951915756f, 0.0880152956f, 0.050168626f, -0.0844875872f, -0.112890102f,
    0.045704972f, 0.0482286513f, 0.0273274854f, 0.122125857f, 0.0441303477f, -0.0244591963f, -0.0922750756f, -0.0307944175f,
    -0.0429690965f, -0.0399940088f, -0.0183122773f, -0.0191247612f, 0.0771392956f, -0.0499452427f, -0.0284390487f, -0.018631313f,
    -0.152273104f, -0.0286754295f, -0.136358634f, -0.0330526046f, -0.0442383066f, 0.0891800746f, 0.0285920575f, 0.0840066373f,
    -0.0362372324f, 0.0615195259f, -0.00823300332f, 0.090166308f, 0.156886041f, 0.145089805f, 0.138163388f, 0.0406479165f,
    -0.0182704125f, 0.0654800758f, 0.0160741135f, 0.0178739987f, -0.0574726611f, 0.100728065f, -0.0163321923f, 0.0447664931f,
    0.0362042002f, 0.0126171112f, -0.0854891762f, 0.0615115128f, 0.0897391066f, -0.0484052598f, 0.103145182f, -0.0739279166f,
    -0.125921339f, -0.145056009f, -0.12636736f, -0.14782013f, -0.0616942458f, -0.0320059471f, 0.0127503546f, 0.0333107002f,
    0.11286217f, -0.071137026f, -0.115256384f, -0.0264582634f, -0.0571324341f, -0.0365846567f, -0.0250853673f, 0.0873770639f,
    0.116183266f, 0.136000305f, 0.0346117169f, -0.0362945646f, -0.0405428819f, -0.0992541537f, -0.0930228308f, 0.0730813369f,
    0.114613898f, 0.171659485f, 0.112660199f, 0.0703301877f, -0.0279252641f, -0.0358020812f, 0.0195725337f, -0.070507355f,
    -0.0927046537f, -0.079306446f, 0.0449239127f, 0.0598487444f, 0.0502914749f, 0.0285571776f, 0.0635628477f, -0.0394387692f,
    0.00934975222f, -0.0302709267f, 0.0508072712f, -0.0157838538f, -0.0347914509f, -0.11996156f, -0.153829023f, -0.155545473f,
    -0.0567408018f, -0.127195299f, -0.09421473f, -0.000439154537f, -0.0237953141f, 0.00125908048f, 0.0415256247f, -0.0712179691f,
    0.0878982842f, -0.0215574838f, 0.073854439f, -0.0667451993f, -0.0795381144f, -0.0590405688f, 0.0113531779f, 0.00115775259f,
    -0.0397019237f, -0.0399564132f, -0.135516867f, -0.040145468f, 0.0251221526f, -0.0381693579f, -0.0629200563f, -0.0621544831f,
    -0.102143556f, -0.110962391f, -0.0778519139f, -0.0331270993f, -0.0203349162f, -0.0737790018f, -0.108993486f, -0.0980793983f,
    -0.0224309005f, -0.0899342522f, 0.0394982286f, -1.16334959e-05f, -0.121608041f, -0.0616466701f, -0.0607351884f, -0.099713929f,
    0.00935968198f, -0.11459329f, -0.108909607f, -0.107759997f, -0.191763759f, -0.0662706122f, -0.0893356204f, -0.0570462346f,
    -0.127855852f, -0.0964563861f, -0.115795426f, 0.011252543f, 0.0602636971f, 0.0684540495f, -0.0266151875f, 0.102106176f,
    0.209425315f, 0.167798579f, 0.118819356f, 0.0769885853f, 0.168082505f, 0.0398388691f, -0.0168036819f, 0.0126368199f,
    0.0664215833f, 0.189532235f, 0.179588154f, 0.181000039f, 0.0718575642f, 0.13294369f, 0.0478069223f, -0.0921330824f,
    -0.137327999f, -0.0312605165f, -0.057581611f, -0.0401420221f, -0.0109352116f, -0.0430851169f, 0.0286008567f, 0.137711063f,
    0.0461936034f, 0.171178311f, 0.158245429f, 0.0764687955f, 0.192479402f, 0.1506107f, 0.129341617f, 0.112759851f,
    0.103978857f, 0.0487029552f, 0.0866698846f, -0.0383251198f, 0.0268223044f, 0.0166648719f, 0.0686765388f, -0.0174224768f,
    0.0587718263f, 0.0459630489f, 0.14586316f, 0.101920523f, 0.122266032f, 0.097817421f, 0.081694968f, 0.153692842f,
    0.0757110491f, 0.0405235589f, 0.143250093f, 0.0955552384f, 0.139734268f, 0.0970310196f, 0.153400585f, 0.0390515551f,
    0.089486666f, 0.0961619467f, 0.0842260271f, 0.0852778256f, -0.0820748284f, -0.0848053694f, 0.00128608034f, -0.0730192736f,
    0.0360789038f, -0.0914303586f, -0.127037823f, -0.132384539f, -0.0468537211f, 0.0890400782f, 0.0586917698f, 0.0927354842f,
    0.116352834f, 0.241386741f, 0.248687893f, 0.183168232f, 0.169850141f, 0.114383362f, -0.0467972681f, 0.0733503327f,
    -0.0426160395f, 0.0545519926f, -0.0110963657f, -0.0789031163f, -0.152946949f, -0.150831074f, -0.0913999304f, -0.00801167823f,
    -0.0810519978f, -0.109516211f, -0.0697786659f, -0.0150716687f, -0.0888426155f, 0.0567978285f, 0.00715814671f, 0.0292071886f,
    -0.00423640292f, -0.0864106342f, -0.00314625143f, -0.092166841f, -0.0456263311f, 0.00796086714f, -0.000692739733f, 0.0485689044f,
    0.0535998717f, -0.0464873686f, 0.0606044568f, 0.0588751622f, 0.094841592f, -0.00262164813f, 0.0362763442f, 0.0018455903f,
    0.0283660479f, -0.00112460926f, 0.0060854461f, 0.096086286f, 0.0422106124f, -0.039966926f, 0.0214840341f, -0.0462903902f,
    -0.110232539f, -0.0330362804f, -0.0328355618f, 0.00517558074f, 0.0584708042f, 0.0316991322f, -0.0579264164f, 0.0121845584f,
    -0.0386079997f, -0.0536193512f, -0.106428064f, -0.106760524f, -0.0402449071f, -0.0398894139f, 0.0885400549f, 0.0731593072f,
    0.00912152324f, -0.057940308f, -0.00460625673f, -0.0729095563f, -0.0611651875f, 0.00842912029f, -0.0157955009f, -0.0385022685f,
    0.021642819f, 0.0569180734f, 0.0854521245f, 0.0597313121f, 0.0361385494f, 0.0883492455f, 0.100985214f, 0.0417603701f,
    -0.021214176f, -0.0425218493f, -0.080624871f, -0.0637305826f, 0.0224179532f, -0.133785933f, -0.0952505171f, 0.0486200191f,
    -0.0497455299f, -0.0163249299f, -0.0191830918f, 0.0384469628f, -0.0394189134f, -0.0436074622f, -0.0447361544f, -0.0455264412f,
    -0.0607513934f, -0.0833056867f, -0.080179669f, -0.0903742686f, -0.100538999f, -0.0491814166f, 0.121618532f, 0.0496280007f,
    0.104560658f, 0.0644278601f, -0.041172035f, -0.0801926106f, -0.100711666f, -0.115355499f, 0.0162158832f, 0.0154735371f,
    -0.012995013f, 0.0222943034f, -0.113711685f, -0.0310851391f, -0.0373127237f, -0.000609648181f, -0.151296705f, -0.114142701f,
    -0.114075892f, -0.202002287f, -0.0808889344f, -0.0658850893f, -0.101423495f, -0.12496639f, 0.0127061531f, 0.0684883818f,
    0.0755015388f, 0.00846415199f, 0.0129873231f, -0.0289639011f, 0.051625032f, -0.133232504f, -0.19075869f, -0.042013213f,
    -0.151354164f, -0.0783405825f, -0.0892384052f, -0.119637281f, -0.0800283998f, -0.0633915067f, -0.0216876231f, 0.0317720659f,
    -0.0668297708f, -0.0134336278f, 0.0602449365f, -0.0393906124f, -0.0848806128f, 0.0495954864f, -0.0513366386f, -0.024792837f,
    0.0111632841f, -0.00799344108f, -0.0429533496f, -0.0459694564f, 0.000552356709f, -0.0727490932f, -0.0529471263f, -0.0692067519f,
    -0.000694906223f, 0.100839414f, 0.0842858106f, 0.037810903f, -0.0614309683f, 0.0586755425f, 0.0427300781f, 0.0541373268f,
    0.0761151165f, -0.048798874f, 0.0297912098f, 0.0384285897f, 0.0519886799f, 0.0946236551f, 0.0677658692f, 0.0323863551f,
    0.104178689f, 0.0965140015f, 0.0817677006f, 0.125034824f, 0.108128302f, 0.155198559f, -0.00484811561f, -0.101640463f,
    -0.039615687f, 0.0698044598f, 0.126547158f, 0.044397939f, -0.047270827f, 0.150862098f, 0.237142488f, 0.24071987f,
    0.279085636f, 0.192190126f, -0.114447311f, -0.161262691f, -0.20981288f, -0.17745626f, -0.0500699393f, -0.00143696892f,
    -0.148238525f, 0.0116482219f, -0.110597387f, -0.102930956f, -0.0969006866f, -0.0432469361f, -0.0112456363f, 0.0565912686f,
    0.0444855504f, 0.0651175305f, 0.0269971602f, -0.0300443005f, -0.0166674051f, -0.0136281289f, 0.0757894665f, 0.0132465381f,
    -0.074877657f, 0.0508363582f, 0.0397208147f, 0.00523426989f, -0.000684723433f, -0.0546687767f, -0.0245363917f, -0.0189091116f,
    0.0404683985f, -0.0420816839f, -0.102568999f, -0.139351264f, -0.143906489f, -0.0403745733f, 0.040396817f, -0.0148430793f,
    -0.0147815775f, -0.137803748f, -0.0596142113f, -0.0608795695f, 0.0393792875f, 0.0127786575f, -0.137481853f, -0.113261163f,
    -0.107501112f, 0.0392245688f, 0.105655715f, 0.0690835342f, 0.245172903f, 0.246403769f, 0.0455652662f, 0.0447645746f,
    0.0250315461f, 0.144821063f, 0.13716267f, 0.0986334011f, 0.0835026801f, 0.0662457868f, -0.0320055746f, 0.0542318933f,
    -0.0596338771f, -0.0448691472f, 0.0305480249f, 0.106938593f, 0.106872723f, 0.128924012f, 0.0540816635f, 0.169510543f,
    0.220977262f, 0.112334698f, 0.152985349f, 0.122202404f, 0.139132857f, 0.000599843683f, 0.0566241741f, 0.0409613475f,
    0.0094260145f, 0.0697646588f, 0.00313661364f, 0.0418000408f, 0.0460408516f, 0.0372476317f, 0.00498195365f, 0.0367599614f,
    0.06191466f, 0.151800096f, 0.222682342f, 0.225604281f, 0.0530319028f, 0.0402889401f, -0.0882833153f, -0.115556449f,
    -0.00405030651f, 0.0628242567f, 0.0003232288f, 0.0405735411f, 0.0257252939f, -0.0173588675f, -0.0295553189f, -0.00551901711f,
    0.0644419119f, -0.0716625452f, -0.0688183233f, 0.0155055812f, 0.0640910789f, -0.000701011915f, 0.0685455352f, 0.0582222901f,
    0.0124257337f, 0.0563163273f, 0.0476858169f, 0.021343153f, 0.0549535491f, 0.0943439528f, 0.176294744f, 0.0216907673f,
    -0.0884337574f, -0.0722068474f, -0.117578134f, 0.0587325953f, 0.0130353738f, -0.0431618318f, -0.0618661977f, -0.0771823153f,
    -0.0991816968f, -0.025365375f, -0.0529987104f, -0.127905518f, -0.0588378944f, -0.0809968561f, -0.0192630813f, 0.032195352f,
    0.0569491833f, -0.0125256702f, -0.0349981375f, -0.188749909f, -0.0538148209f, -0.0298609082f, -0.175514579f, -0.0121130934f,
    -0.0288932212f, 0.080961138f, -0.0973990485f, -0.0830913708f, -0.0306218602f, -0.0385828316f, 0.0180698726f, 0.0324315205f,
    -0.0387524404f, 0.0716145486f, -0.034818124f, 0.0493115745f, -0.0185848624f, 0.0490891598f, -0.0154674584f, -0.00481028808f,
    -0.0446743071f, -0.0360053517f, -0.033274658f, 0.0122105554f, 0.00431524962f, -0.0147238784f, 0.0489055887f, -0.0264561418f,
    -0.0359768085f, -0.0952898785f, 0.00323206605f, -0.083015874f, -0.0729137138f, -0.091965273f, -0.101227082f, -0.0213307962f,
    -0.0580882952f, -0.0565296412f, 0.0362249315f, -0.0392504074f, -0.0155597366f, -0.128793359f, -0.0321626924f, -0.019633865f,
    0.031471394f, 0.0427129716f, -0.0357516408f, -0.0921139866f, -0.083317481f, -0.0330951065f, 0.0260929037f, -0.0497368723f,
    -0.00865140557f, 0.102081262f, 0.111168623f, 0.0926781446f, 0.0982546061f, 0.0685487464f, 0.0223042723f, 0.120857663f,
    0.0146456026f, 0.0386824273f, -0.0913643539f, -0.0803477541f, -0.0352178365f, -0.0341711938f, 0.0458459705f, 0.0611638092f,
    0.0915201977f, 0.0550693125f, -0.0574283414f, -0.0477155112f, -0.113090314f, -0.048777543f, 0.030376846f, 0.0197616462f,
    0.0989467427f, 0.0582069457f, -0.0157535542f, -0.115499735f, -0.14678292f, -0.107454851f, -0.123752356f, -0.0660548657f,
    -0.0522527695f, -0.0807801336f, -0.156802088f, -0.0632252842f, 0.0605368763f, 0.0973788574f, 0.0584242195f, 0.0364836566f,
    0.150158361f, 0.0381226651f, 0.107668377f, -0.0120280711f, 0.111098051f, 0.130131319f, 0.114365883f, 0.134448037f,
    0.161357954f, 0.120828062f, 0.0472663194f, 0.0856316835f, -0.0210452471f, -0.069911316f, -0.136172518f, -0.211720169f,
    -0.195189387f, -0.107545555f, 0.00227258657f, 0.0872987136f, -0.026954649f, -0.0927032977f, -0.141163364f, -0.0705799758f,
    0.00604020664f, 0.0516082905f, 0.0955478847f, 0.0957957581f, -0.048876211f, -0.144943252f, -0.129933402f, 0.0404997803f,
    -0.0429575443f, 0.0291331578f, 0.0255827643f, -0.0425363146f, -0.17792365f, -0.152950138f, -0.0871380642f, 0.0549735427f,
    0.0715571418f, 0.0299526788f, 0.00396302715f, -0.0674724206f, 0.0638090447f, 0.0512009822f, 0.0250760298f, -0.0897703022f,
    -0.0382105f, -0.0712855309f, -0.0854286626f, -0.0623784773f, 0.177562967f, 0.235293731f, 0.205419481f, 0.147973835f,
    -0.0184115414f, -0.0447646454f, -0.0912220925f, -0.0098331729f, -0.170415863f, -0.0889433846f, -0.0713354796f, -0.21986948f,
    -0.131289244f, -0.0479717553f, -0.00983280409f, -0.0765745863f, -0.0479684845f, 0.0266708545f, -0.104752474f, -0.0392385982f,
    -0.0591267906f, -0.17039156f, -0.0110196536f, 0.064468272f, 0.0224581528f, -0.0604234524f, 0.0681303814f, 0.0324614942f,
    -0.0151847238f, 0.0506558195f, -0.0433803499f, -0.0639533177f, 0.0330855511f, -0.0331333876f, 0.0123317614f, 0.122388616f,
    0.026552517f, 0.118596889f, 0.122346163f, 0.192320034f, 0.0736780986f, 0.126186773f, 0.153757811f, -0.000778942776f,
    0.0438936539f, -0.0034499825f, -0.0261070319f, 0.0536493436f, -0.0461143404f, 0.0412740298f, 0.103245169f, -0.0233446136f,
    -0.0379525349f, -0.110246167f, 0.0356645361f, -0.06361375f, -0.170754373f, -0.0362135544f, -0.101439036f, 0.0390949287f,
    -0.0268283617f, 0.0101980437f, 0.0239734296f, -0.0600335449f, -0.0663690642f, -0.0106700081f, 0.0410113037f, -0.0487352349f,
    -0.0103152674f, 0.0528739914f, 0.0627525672f, 0.0392701849f, 0.0974287316f, 0.0957218185f, 0.0183110666f, 0.0756429061f,
    0.0673779026f, 0.169127598f, 0.0892005861f, 0.12748386f, 0.107645318f, 0.124854222f, 0.0923023298f, 0.107057437f,
    0.0882175788f, 0.0429232121f, 0.0585906357f, 0.0385782532f, -0.0640170127f, 0.0114990361f, -0.0996096432f, -0.183897823f,
    -0.0732355863f, -0.00346471067f, -0.0601210371f, -0.0727196559f, -0.0135486377f, -0.102727629f, 0.0366920456f, -0.0167402942f,
    0.0287884828f, -0.00513514969f, 0.0952921137f, 0.0928438306f, -0.0528183952f, -0.00111013593f, 0.0403516665f, 0.00684503699f,
    -0.0524481907f, 0.0335060768f, -0.00899048336f, -0.0417237319f, 0.0894423649f, 0.126608476f, -0.000780168339f, -0.0213816855f,
    -0.0453150682f, 0.00774539355f, -0.0277639609f, -0.0165721234f, -0.0681525394f, -0.151332915f, -0.101828746f, -0.0811907798f,
    -0.101458915f, 0.0152732069f, 0.00598545838f, -0.0483338088f, 0.0395112559f, -0.0612981655f, 0.0167448055f, 0.0429825932f,
    -0.0509970523f, -0.097498633f, 0.0160905719f, 0.0576165766f, 0.0693996176f, 0.0356418453f, 0.0641237721f, 0.024973331f,
    -0.100561351f, 0.012646025f, -0.0104181627f, -0.0616434067f, -0.0905442834f, -0.0915168077f, -0.0439454541f, -0.145923764f,
    -0.142206118f, -0.151226312f, -0.0141915437f, -0.0482245274f, -0.164802775f, -0.0808643028f, -0.0348435864f, -0.00435497519f,
    -0.0530274138f, -0.0301233716f, -0.098830089f, 0.0718436167f, 0.135930225f, 0.198784798f, 0.234483495f, 0.216706321f,
    0.18620263f, 0.153186575f, 0.0314388052f, -0.0667077303f, 0.0210059416f, 0.107357718f, -0.0701905638f, -0.0240989942f,
    -0.0319537409f, 0.068783924f, 0.0286064316f, 0.0844521672f, 0.131449759f, 0.12536563f, 0.12920399f, -0.0181941912f,
    0.0669675916f, 0.0295657646f, -0.0305682197f, -0.11011292f, -0.0242491942f, 0.0249301363f, -0.0805813596f, -0.0018061219f,
    -0.00181056932f, -0.0917378217f, 0.00402545696f, -0.101599529f, 0.0627556592f, -0.108643778f, -0.0474676974f, -0.109953314f,
    -0.0485698059f, 0.0511773005f, -0.010414388f, -0.0682777539f, -0.0643305629f, -0.109741867f, -0.0198533796f, -0.00799673889f,
    -0.0365283899f, 0.0162776653f, 0.018498525f, -0.187344685f, -0.0758051425f, -0.030559523f, -0.0760384798f, -0.0156413857f,
    -0.060783796f, 0.0153433876f, -0.0104805892f, 0.0762830824f, 0.029607933f, -0.00786710065f, -0.0365275964f, -0.235788062f,
    -0.0518600568f, -0.0305979364f, -0.0169140957f, 0.0248144735f, 0.0880084112f, 0.0221451018f, 0.0544762611f, -0.0510421433f,
    -0.102116801f, -0.0809128433f, -0.0846718028f, -0.0695034489f, -0.0618727058f, -0.101237163f, 0.0287029389f, -0.0058752927f,
    -0.0270161424f, 0.0553367622f, 0.101601779f, 0.175327286f, 0.0310917255f, 0.0707184747f, -0.0265999231f, -0.022035785f,
    -0.0873754248f, -0.103420548f, -0.0791301727f, -0.0443544164f, -0.172339395f, -0.0755893886f, -0.0673236176f, -0.0733674616f,
    -0.0879839882f, -0.0297736898f, 0.0531753264f, 0.271983594f, 0.274277091f, 0.167795926f, 0.0714119375f, -0.0950083956f,
    -0.0280262139f, -0.0937907696f, -0.0769889951f, 0.00692851143f, -0.0421542563f, -0.0365249924f, -0.0331285819f, -0.178483784f,
    -0.0687851384f, -0.0898064077f, 0.0646389127f, 0.143678546f, 0.0947773829f, -0.00141154695f, 0.0831682459f, 0.076462023f,
    0.136460871f, 0.0404044017f, 0.0542013012f, 0.104160808f, 0.0894594714f, -0.00396310678f, 0.0479891002f, 0.0266108587f,
    0.0406019837f, 0.0748592988f, -0.00362735614f, 0.0263281818f, 0.0146731595f, 0.115741566f, 0.0986859649f, 0.00662449375f,
    0.00181000715f, 0.0266951304f, 0.134115726f, 0.0644961521f, -0.00994393416f, -0.0284034535f, 0.0488791615f, -0.137005463f,
    -0.0849389285f, -0.0455916263f, -0.0311933085f, -0.0255917646f, -0.0365245529f, 0.0525754467f, 0.0152963214f, -0.0371028259f,
    -0.0285770111f, -0.0289518237f, -0.0772824511f, -0.117580138f, -0.107679702f, -0.183775738f, 0.0524976104f, 0.230312958f,
    0.280678272f, 0.123831771f, 0.137213126f, -0.0453261063f, -0.050337702f, 0.0251292009f, -0.0590365343f, -0.0829999596f,
    -0.0533961877f, -0.0692450479f, -0.155878484f, -0.0875066593f, -0.129352912f, -0.120367505f, -0.242907733f, -0.145729601f,
    -0.217457086f, -0.0402169861f, 0.0386475958f, 0.157385558f, 0.065905273f, 0.136484802f, 0.104498021f, 0.142101213f,
    0.119412474f, 0.10761752f, 0.131790608f, 0.0585172214f, -0.0781776085f, -0.0539182685f, -0.0682731941f, -0.0870015919f,
    0.0462693386f, 0.0857496932f, 0.00363068562f, -0.0324842073f, 0.0299220849f, -0.0302323811f, 0.0298578627f, 0.0418950021f,
    0.083856836f, 0.039091371f, 0.073320359f, 0.010691653f, -0.0158111267f, 0.0339576639f, -0.109613635f, -0.0869657621f,
    -0.0496034585f, 0.0181259625f, -0.0522726141f, -0.0477921218f, 0.104417965f, -0.0335147493f, -0.000285192393f, 0.00946640782f,
    0.0381449685f, -0.073564589f, -0.00882789399f, -0.0285552908f, 0.0269066989f, 0.0164178349f, -0.0207553059f, 0.0114361811f,
    0.137712702f, 0.0632388815f, -0.0173870251f, 0.0203940179f, -0.0232704896f, 0.0125409933f, 0.0523284934f, -0.0297798309f,
    0.0491056964f, 0.044781331f, -0.0379113816f, -0.0456942692f, 0.0483129695f, 0.00717719179f, -0.0454575382f, -0.100222908f,
    -0.0188647527f, 0.0500075184f, 0.0657454059f, 0.148289129f, 0.162204057f, 0.0873476341f, -0.0548795424f, 0.0104750255f,
    -0.0646986365f, -0.0264096837f, -0.123444781f, 0.0162794683f, 0.0544242859f, -0.0846118852f, 0.0101946322f, -0.104572557f,
    -0.0889892355f, 0.0593248494f, -0.0115885995f, -0.0487359576f, 0.026112698f, -0.0201346967f, -0.0982962996f, 0.00724404491f,
    -0.00962385815f, -0.0769723207f, 0.0239970628f, -0.00123819977f, 0.120121263f, 0.123622127f, -0.00487130228f, -0.0404105932f,
    -0.151008695f, -0.0777927861f, -0.0992438793f, -0.0434320495f, -0.0716705099f, 0.0306126159f, -0.0393012911f, -0.0241658706f,
    0.116040222f, 0.149713621f, 0.0319998339f, -0.054779809f, 0.0300633982f, -0.0930590406f, -0.0068138917f, -0.018907072f,
    -0.0353570357f, 0.0205426831f, 0.0242597871f, 0.0289527532f, 0.0397083499f, 0.00919995643f, 0.0986529291f, 0.111559309f,
    -0.0214728862f, 0.0468855053f, -0.116427265f, -0.0444962569f, -0.0418790095f, -0.00617108587f, -0.0540860072f, -0.056662865f,
    -0.000426198938f, 0.0768946931f, 0.0109797195f, 0.0617399476f, -0.0293067582f, -0.0490761548f, -0.0799784511f, -0.122703671f,
    -0.0285963807f, 0.00815082807f, -0.0628120899f, -0.170270488f, -0.141709268f, -0.0730255991f, -0.0845786408f, -0.129465044f,
    -0.0994099975f, -0.132308334f, -0.0621830486f, 0.0595314875f, -0.0813567415f, -0.0437651649f, 0.090068005f, -0.011481978f,
    0.113359757f, 0.0508896038f, 0.0794639066f, -0.0359837003f, -0.081615679f, 0.057860408f, -0.0485996418f, 0.0709329993f,
    0.0449120328f, 0.0471189767f, 0.0120513849f, 0.0355454646f, -0.018762948f, 0.124204732f, -0.0121149272f, -0.019406721f,
    -0.0705432147f, -0.00832282193f, 0.07212051f, -0.0174171254f, 0.0318006761f, 0.0772653222f, 0.0692368299f, -0.0494278371f,
    0.00135581731f, -0.113789029f, -0.0124596851f, -0.0103440769f, -0.0127131799f, -0.0976650715f, -0.0171230603f, -0.106586151f,
    -0.135401785f, -0.0741675794f, -0.000837273081f, -0.00616298057f, -0.0370574966f, -0.100589186f, -0.155151054f, -0.0276766885f,
    -0.0758782625f, 0.0181093477f, -0.00690235896f, -0.077011019f, -0.0434099808f, -0.0792637318f, -0.19651635f, -0.10531196f,
    -0.0801074505f, -0.141367853f, -0.00907666329f, 0.105750635f, 0.202008501f, 0.160131395f, 0.116509452f, 0.153101504f,
    0.116071679f, 0.130038515f, 0.180319056f, 0.14532654f, 0.134608969f, 0.193056807f, 0.273105353f, 0.276227802f,
    0.269218981f, 0.157058477f, 0.199338913f, 0.138911396f, 0.151789874f, -0.121493593f, 0.0153208869f, 0.044312045f,
    0.0508658327f, 0.0500941463f, 0.0599369705f, -0.0580135807f, 0.0103638293f, 0.0288468804f, 0.0842978358f, 0.0274913274f,
    -0.144863352f, -0.0863343477f, -0.103696242f, -0.120354719f, -0.0362773314f, -0.0395785719f, -0.0880073011f, 0.0532463975f,
    -0.00871181488f, -0.0991560891f, -0.131224483f, -0.0735745952f, -0.0962635279f, -0.0711752549f, -0.0905650631f, -0.0282081775f,
    0.0443251133f, 0.0653098971f, 0.115835428f, -0.0378043056f, 0.0603491515f, 0.143137783f, 0.0930069089f, 0.0219320729f,
    0.0794188008f, 0.0086286189f, 0.042007938f, 0.118161857f, -0.00181649602f, 0.0560591146f, -0.140427336f, -0.0400322899f,
    -0.0931977853f, -0.0650775358f, -0.134361371f, -0.00130378664f, -0.0735437945f, 0.0991844088f, 0.0806550086f, 0.0568820089f,
    0.0540781319f, 0.0968388095f, 0.0239609685f, 0.0224334933f, 0.0538810641f, -0.0170722306f, 0.00849533174f, 0.00778730959f,
    0.0466128923f, 0.052973967f, -0.028800372f, 0.0451305136f, -0.0249434728f, 0.0286623687f, -0.044576101f, -0.0187843796f,
    0.0265998635f, -0.0220483691f, -0.00820277631f, -0.00575428642f, -0.0458947346f, 0.00665334892f, 0.0220366064f, -0.0166526772f,
    -0.0428542122f, -0.0308666378f, -0.0364752635f, 0.0339900777f, 0.0556820184f, 0.0338256098f, 0.0192174241f, 0.0198443141f,
    0.130437359f, 0.0546639338f, 0.103014171f, 0.068092443f, -0.0159075893f, -0.0289222822f, -0.0186110325f, 0.0162832849f,
    0.131669119f, -0.00334510533f, 0.0720103309f, 0.0754645243f, 0.0766641572f, 0.0123947561f, -0.0326851383f, 0.0614980124f,
    0.00415950362f, -0.0421405099f, 0.0333227403f, -0.0298579f, 0.0678566471f, -0.0493183509f, -0.0263049752f, 0.0318766497f,
    0.0487402678f, 0.0296875611f, -0.0214038529f, 0.0341730118f, -0.0403884463f, -0.107044302f, 0.0176930018f, -0.0133330021f,
    -0.05514073f, -0.0610786602f, 0.0302797202f, 0.0392441526f, 0.10671027f, 0.0420144424f, 0.059949711f, 0.121810645f,
    0.0396796279f, 0.0163566247f, 0.0216985699f, -0.142190903f, -0.0910422057f, -0.0945405886f, -0.0211960375f, -0.0615448318f,
    0.00413593929f, -0.0684764087f, -0.129373163f, -0.117579833f, -0.0530460663f, -0.0376543105f, 0.0870666802f, -0.0310451332f,
    -0.0188086852f, 0.0261815246f, 0.0211785175f, -0.0593593642f, -0.0452862233f, 0.0179140903f, -0.0790437162f, -0.0174489692f,
    -0.0186423864f, 0.024161052f, -0.131508335f, 0.0109876134f, 0.0571784526f, 0.00667548412f, 0.089378126f, -0.0385574549f,
    -0.110749125f, -0.0960768685f, 0.0695109963f, 0.00883176271f, 0.027932737f, -0.0250668824f, 0.0431455374f, 0.0175371543f,
    -0.033143688f, 0.0615744181f, 0.0335123539f, -0.0190189406f, 0.017361464f, -0.012164739f, -0.0339000113f, 0.0420747846f,
    -0.00700560585f, -0.0148224374f, 0.00647186814f, -0.154609308f, -0.126013204f, -0.090967156f, -0.0817486122f, 0.00564962905f,
    -0.108902015f, -0.147685766f, -0.198054016f, -0.0131594241f, -0.0129781952f, 0.102252454f, 0.0989712626f, 0.00923987105f,
    0.0171469003f, -0.135587022f, -0.0399212427f, -0.157174483f, -0.128414541f, -0.0475261807f, -0.139571533f, -0.175501034f,
    -0.000843882968f, 0.0904168263f, 0.0252589975f, 0.0919846073f, 0.119389057f, 0.0613340661f, 0.100743853f, 0.109992415f,
    0.0402329825f, -0.0794915929f, 0.0313151814f, 0.0137486607f, 0.0198589209f, 0.00962964073f, -0.00963884778f, 0.104123689f,
    0.0340259634f, -0.040415898f, 0.0725574568f, 0.0378015637f, -0.0914057195f, -0.0335377976f, -0.11814896f, -0.00764327822f,
    -0.100784481f, -0.211995691f, -0.0706362277f, -0.0434621647f, 0.0490273796f, 0.0597862713f, 0.09763363f, 0.116420105f,
    0.0132700149f, 0.0202186201f, 0.099026382f, 0.0502806753f, 0.0661618561f, 0.0521192476f, 0.142656982f, 0.0384663157f,
    0.0700989515f, 0.0450427644f, 0.046084065f, 0.0396564119f, 0.128083855f, 0.107488163f, 0.0625974312f, 0.0548863336f,
    0.0213187709f, -0.037499994f, -0.0518113822f, 0.00702953059f, 0.0321238488f, 0.117849611f, 0.170682192f, 0.144796267f,
    -0.00639004167f, 0.0345892385f, -0.0422275327f, 0.0945743695f, 0.133089736f, 0.0442103967f, 0.0613799132f, 0.103588432f,
    0.0407050215f, 0.014786778f, -0.0114969658f, -0.0385065638f, -0.0831361935f, 0.0406028554f, 0.0123595037f, 0.0523435436f,
    0.0844885483f, 0.118769661f, 0.00814224035f, 0.0224606823f, 0.0490018912f, 0.0902106762f, 0.157782853f, 0.0272314455f,
    0.11783509f, 0.18164511f, 0.048217576f, 0.0205477048f, -0.0152134988f, -0.062640287f, -0.0883354843f, -0.0743150637f,
    0.00506453495f, 0.0380405076f, 0.113424562f, 0.0335696675f, 0.0249840841f, -0.0811597705f, -0.00134400884f, -0.0202580038f,
    0.100220613f, 0.0152981225f, 0.10471341f, 0.127918765f, -0.0183553584f, 0.0201805085f, -0.0715979785f, -0.0254139844f,
    -0.142758593f, -0.188674971f, -0.157520011f, 0.00358754676f, -0.0943218544f, -0.0298199523f, -0.0927081928f, -0.0579575896f,
    -0.135103777f, -0.110046789f, -0.145345286f, -0.113286503f, -0.0768812895f, 0.00260967924f, 0.0805636793f, 0.12420541f,
    0.172519758f, 0.115110248f, 0.0792229995f, -0.00674321083f, -0.0408012159f, 0.0177446064f, 0.124946676f, 0.0571036413f,
    0.0939070731f, -0.0365517884f, 0.0527387783f, 0.00395590719f, 0.061160218f, 0.14572902f, 0.0239408463f, -0.0682860762f,
    -0.0800764784f, -0.0902314186f, 0.0130301248f, -0.106287062f, -0.0217369944f, 0.0512339845f, 0.0385550596f, 0.0497874133f,
    -0.121985674f, -0.143614307f, -0.169512615f, -0.101504505f, -0.135214686f, -0.00453431671f, -0.0221806373f, -0.0319679677f,
    -0.0159087032f, -0.0663118288f, 0.0714009926f, -0.067451641f, -0.0698176399f, -0.100148022f, -0.0584743842f, -0.0207333826f,
    0.0237916708f, -0.0676245019f, -0.0418297723f, 0.0587716326f, -0.0824473947f, 0.0609647334f, -0.0330482833f, 0.106373668f,
    0.0184610542f, 0.0803709552f, 0.18729569f, 0.0991933793f, 0.0696660951f, 0.0466614105f, -0.0218296517f, -0.000569611671f,
    -0.00558107253f, -0.0214127097f, -0.0141452281f, -0.138949171f, -0.112604737f, -0.101514049f, 0.0414733365f, 0.0511948541f,
    -0.0287197214f, -0.0559343882f, -0.0609347187f, -0.00582750933f, 0.00484879734f, 0.00369684747f, 0.0239523165f, -0.0126292687f,
    0.100410298f, 0.110148184f, 0.0730546415f, -0.00895266514f, -0.0201135054f, 0.0694206357f, -0.0655159652f, -0.00231977669f,
    0.0302475132f, -0.00690770475f, 0.0581929311f, -0.00480848551f, 0.101043165f, 0.0111225527f, -0.0243575051f, 0.0543933697f,
    0.0275773481f, 0.0321801826f, -0.0421007797f, 0.0491247438f, 0.0238121804f, -0.0372488312f, 0.0309982821f, 0.115628533f,
    0.0263170991f, -0.00473948335f, 0.0840966403f, -0.0180405583f, -0.0244584326f, 0.0258744434f, -0.0561807454f, 0.078510873f,
    0.0662711263f, 0.101699241f, 0.0653226823f, -0.0898831189f, -0.0551982746f, -0.00461675366f, 0.00291591324f, 0.0320009515f,
    -0.0315591879f, 0.00502927322f, 0.0291590299f, 0.122716777f, -0.00652231555f, -0.09950082f, -0.0196577702f, -0.0744475722f,
    -0.0250747949f, -0.0267657936f, 0.00390757388f, 0.0247782934f, -0.0238996875f, -0.120807581f, -0.068041496f, -0.147168741f,
    -0.0619075187f, -0.0137400478f, -0.00655020447f, 0.0724908486f, 0.195352778f, 0.142124355f, 0.123552799f, 0.200096413f,
    0.0401873216f, -0.0657141507f, -0.0451223627f, 0.00301467068f, 0.0113272564f, -0.00373890251f, -0.0891485214f, -0.121895194f,
    -0.0657256991f, -0.0198197886f, -0.111608766f, 0.0594490245f, -0.0869353339f, -0.000233680548f, -0.00187666528f, 0.031716045f,
    0.0605059043f, -0.00150744594f, -0.0316149928f, -0.0258846208f, -0.0283427648f, 0.0273416378f, 0.08378122f, 0.0206990056f,
    -0.0623268001f, 0.0440368392f, -0.0366857573f, -0.0937102512f, -0.0986830369f, 0.0144259268f, 0.0507969782f, 0.0617584921f,
    0.0820283145f, 0.0804814696f, 0.164834082f, 0.0402062163f, 0.0251248218f, -0.139516518f, -0.135355979f, -0.0833248794f,
    -0.0682025105f, 0.103677943f, 0.0234494619f, 0.0193141606f, 0.0876628533f, 0.0448141322f, -0.0422352888f, -0.0383127891f,
    0.0425032675f, 0.0508971028f, 0.0716950223f, 0.0119778542f, -0.025986189f, -0.0506865792f, 0.0911519006f, 0.0760046393f,
    0.0703053623f, 0.0521238595f, 0.0122171212f, -0.0685214922f, -0.0974150971f, -0.0460089445f, -0.0956895947f, -0.00359383412f,
    -0.117731951f, 0.00898879115f, -0.0249438826f, -0.0281937718f, -0.0261174943f, 0.015535431f, 0.153546184f, 0.125725508f,
    0.0556184128f, 0.063132517f, 0.0433709435f, 0.0902577937f, 0.0211910158f, 0.13332288f, 0.0864487886f, 0.0799513832f,
    0.0926420763f, 0.0560751408f, 0.135096371f, 0.0419650488f, -0.0866002962f, 0.138347611f, 0.118995048f, -0.0989395231f,
    0.153098151f, 0.12999098f, 0.164388746f, 0.0222806092f, 0.038585484f, 0.0305146724f, 0.0714290664f, 0.149503931f,
    0.153429985f, 0.062958844f, 0.109803215f, 0.0376444496f, 0.106235586f, 0.0985833704f, 0.0936276615f, 0.118977904f,
    0.153004944f, -0.0755707547f, -0.0702473447f, -0.150530413f, -0.0202293471f, -0.0286187604f, -0.109548114f, -0.193647653f,
    -0.0754246041f, 0.00611911109f, 0.0556269176f, 0.0452636294f, 0.0228348952f, -0.0342755616f, -0.0779099166f, -0.0653374046f,
    -0.00706154713f, -0.0457549617f, -0.0183314662f, -0.0202061925f, -0.13233839f, -0.0707964525f, -0.0644663647f, 0.0837669f,
    0.103252545f, 0.0454437435f, 0.0811837986f, 0.0933051705f, -0.0291343462f, -0.0622960553f, -0.056610208f, 0.0722492784f,
    0.017587075f, -0.0107597196f, -0.00610488653f, -0.074314177f, -0.0743585527f, 0.00286070094f, 0.0876017883f, -0.0305045806f,
    0.120100357f, 0.0861356109f, 0.043032635f, 0.0141759226f, -0.154374599f, -0.10067261f, 0.0574013479f, 0.0265961308f,
    -0.0451665223f, -0.132892519f, -0.0156931262f, -0.0337862074f, -0.0278429501f, 0.0464606546f, 0.10700421f, 0.0253685527f,
    -0.0934483707f, -0.0874786749f, 0.0278679654f, 0.127324969f, 0.00638561323f, -0.013344368f, -0.117238842f, -0.175101966f,
    -0.118502773f, 0.0411498882f, -0.0727224126f, 0.0683771819f, 0.00876259804f, 0.0111396704f, -0.0889780372f, -0.154581532f,
    -0.161485612f, -0.125613868f, -0.0363944173f, -0.0425616764f, -0.0253607053f, -0.0680379122f, 0.0154226739f, -0.0348071232f,
    -0.0377556942f, 0.0149982022f, 0.0481448583f, -0.0594731942f, -0.0886499956f, -0.120164409f, 0.0189386029f, 0.0865033492f,
    0.107902572f, 0.0989490673f, 0.0297360197f, 0.0809962004f, 0.00815896038f, 0.00472744694f, 0.0158881377f, 0.0364291631f,
    0.119076878f, 0.0369442068f, 0.0288852733f, 0.076536797f, -0.0397109315f, -0.123092115f, -0.0931755751f, -0.165881395f,
    -0.248295352f, -0.192965597f, -0.0246120244f, 0.0532495826f, -0.0527257733f, -0.0677644536f, -0.135134906f, -0.0411237292f,
    -0.126719028f, -0.0828183591f, -0.133732647f, -0.161098763f, -0.21467796f, -0.143150494f, -0.0706510097f, -0.109462321f,
    0.0216255374f, 0.0229148958f, 0.0606072098f, 0.0348790698f, -0.0339118503f, 0.0369641781f, 0.115974337f, 0.100451522f,
    0.0108375428f, 0.0488181189f, -0.0179324299f, -0.0647976995f, 0.00218502153f, 0.0659260228f, 0.107177317f, 0.130691737f,
    0.227561057f, 0.0344240516f, -0.107448414f, -0.0357531682f, 0.0213357937f, 0.0960707515f, 0.12866503f, 0.0652906001f,
    0.0567592569f, -0.0381509662f, -0.00847587548f, -0.00450760638f, 0.133904859f, 0.061444439f, 0.0414658822f, -0.00269796327f,
    0.0456287637f, -0.00377698033f, 0.10430897f, 0.0904169232f, 0.196729451f, 0.142451793f, 0.060009677f, 0.0338157266f,
    -0.00645153644f, -0.187150523f, -0.119980477f, -0.0376206711f, -0.140273347f, -0.0823916495f, 0.037278574f, 0.0658950061f,
    -0.0625014156f, 0.0310872626f, -0.0977674425f, -0.137908384f, -0.0425184071f, -0.0398471355f, 0.028899394f, -0.0766434744f,
    -0.0338532254f, -0.0971890986f, -0.0655701309f, 0.0423987471f, -0.0484032184f, 0.0797583386f, 0.00930744875f, 0.0109219234f,
    0.0110088419f, 0.00504970411f, 0.0258987714f, -0.0471150205f, 0.0163753014f, -0.0143301552f, 0.0770803243f, 0.0276708975f,
    -0.0509459488f, -0.0922639817f, -0.10253986f, -0.0393934995f, 0.0842674524f, -0.0348023623f, 0.00860916544f, 0.0732353255f,
    0.0949315727f, 0.0603896677f, 0.0584437922f, 0.0542289168f, 0.0186911318f, 0.0149752265f, -0.0931747928f, 0.012426693f,
    -0.0708798021f, -0.0859427303f, -0.136919618f, -0.111139014f, -0.0562733337f, -0.0460552834f, 0.0781260282f, 0.0702965185f,
    0.139242396f, 0.0012564772f, 0.0874857977f, -0.109015234f, -0.17404899f, -0.20674637f, -0.136043206f, -0.0963747352f,
    0.0183070023f, -2.39329238e-05f, 0.0514113717f, -0.0200849995f, 0.0842670947f, -0.0278356299f, 0.0389783345f, -0.137718767f,
    -0.201985478f, -0.0521327145f, -0.0940546244f, 0.0382201225f, -0.0397211909f, -0.0978332907f, -0.116420351f, -0.0333938226f,
    -0.0286219474f, -0.072555691f, -0.0457451418f, 0.0189273283f, 0.0901483521f, 0.0381587967f, -0.0148381889f, -0.0249350797f,
    -0.0423268005f, 0.0849374831f, -0.070792146f, -0.0140274931f, -0.0968785584f, -0.0975452438f, -0.194661975f, 0.0110904099f,
    0.0623342171f, 0.0997545943f, 0.0378578492f, 0.0535450503f, 0.0780565813f, 0.0282666739f, 0.027908776f, 0.079445757f,
    0.0272277538f, -0.00250113197f, 0.0167156849f, 0.134573251f, 0.156659991f, 0.012602469f, 0.105612889f, 0.0814016536f,
    0.0613803044f, 0.182872832f, 0.116919458f, 0.166961595f, 0.219370171f, 0.143191695f, 0.211726248f, 0.0583945215f,
    0.066020146f, 0.0944391191f, 0.0901224017f, 0.111198843f, 0.0230786912f, -0.0681686401f, -0.0658449009f, -0.0251246803f,
    0.0344453715f, 0.0933810771f, 0.127445087f, 0.129878551f, 0.0789289773f, 0.0737205297f, 0.155695498f, 0.101492926f,
    0.079633683f, 0.0640234724f, 0.0703528747f, 0.128726348f, 0.0879529119f, -0.0607624166f, -0.00434036925f, -0.0543716736f,
    -0.00827418454f, 0.117893428f, 0.0616969727f, 0.159247264f, 0.117282309f, -0.0103363367f, 0.0147284679f, -0.119243853f,
    -0.0484146141f, -0.187129438f, -0.0362191834f, -0.0148911169f, 0.0575385578f, 0.137179673f, 0.111372247f, 0.0514008924f,
    -0.13782607f, -0.0945677608f, -0.114351638f, -0.176590547f, -0.0242080912f, -0.0241025072f, 0.0786629468f, -0.0900033936f,
    0.0167881548f, -0.0891939923f, -0.0422561467f, -0.0247229505f, -0.0817138255f, -0.0835674256f, -0.0253053717f, -0.065177463f,
    -0.113501191f, -0.074534744f, 0.0350950658f, 0.00253403955f, -0.0615998469f, -0.172469318f, -0.0290814079f, -0.00441928394f,
    0.088319771f, 0.00952971075f, -0.0386769027f, -0.0498607643f, -0.116893642f, 0.0257753059f, -0.026882546f, 0.0162334125f,
    0.0330482088f, 0.0120771751f, -0.086428836f, 0.0273935944f, -0.00710637821f, 0.0168060996f, -0.10884887f, -0.0876509622f,
    -0.0739342272f, -0.0636205524f, -0.0798410848f, -0.0427879244f, -0.0703944415f, -0.0363877304f, -0.132747412f, -0.0715875775f,
    -0.0319246612f, 0.0510898009f, -0.0302015841f, -0.0315345079f, -0.0482613295f, 0.0265293457f, 0.00856926292f, -0.0873843059f,
    -0.0516973771f, -0.0857357755f, -0.135043368f, 0.0391543061f, -0.0236693341f, -0.113340616f, -0.0263303369f, -0.00252503599f,
    -0.050496906f, -0.100230522f, -0.0539682321f, -0.169721112f, 0.0218138751f, -0.0834940672f, -0.0648766384f, -0.139316529f,
    -0.133234426f, -0.0936043113f, -0.161775753f, -0.120068587f, -0.114322074f, -0.177719697f, -0.115647703f, -0.0596976765f,
    -0.075105682f, -0.0300679803f, -0.031162994f, 0.132915288f, 0.118326344f, 0.232940748f, 0.223042935f, 0.160644934f,
    0.1718833f, 0.192465693f, 0.220754743f, 0.215248495f, 0.0895564258f, 0.10448838f, 0.0249615852f, -0.0451840051f,
    -0.0149264671f, 0.0305179451f, 0.0837552622f, 0.0227467846f, -0.00981308147f, -0.0313580744f, -0.0647276565f, 0.0962357596f,
    0.0463060699f, 0.00680166809f, 0.0375754386f, -0.0184410512f, 0.0857074708f, -0.0561246835f, -0.0462778583f, 0.0083271293f,
    -0.046355471f, 0.0121242385f, 0.00325777731f, -0.00518934894f, -0.0273784418f, -0.00445809821f, -0.0336997509f, 0.0727433935f,
    0.104711279f, 0.0352794416f, 0.106383078f, 0.0253348164f, 0.0392119922f, 0.0831717551f, 0.0210170187f, 0.0569243394f,
    0.0510967225f, 0.0232527554f, 0.129828304f, 0.00107332761f, 0.0569757707f, -0.0312483609f, 0.074838914f, -0.0221800953f,
    0.0482598431f, -0.00479938695f, -0.0610293709f, -0.1191165f, -0.00771915121f, 0.0959471166f, 0.0203973148f, -0.0581739582f,
    -0.135110617f, -0.0974048525f, -0.0454818569f, -0.0447516628f, 0.0158744194f, -0.093065083f, -0.0933089331f, -0.0485248528f,
    -0.0460530221f, -0.0474578664f, 0.040742591f, -0.0536675118f, -0.0492689498f, -0.115350872f, -0.0530038998f, 0.0154016269f,
    -0.127075106f, -0.0703287199f, -0.0210095588f, -0.0464658663f, -0.000237515385f, -0.0695298091f, 0.00343236164f, -0.112694606f,
    -0.0231370311f, -0.0405288227f, -0.00137978583f, -0.0730269253f, -0.0435063653f, -0.00607356103f, -0.017478874f, -0.0562003627f,
    -0.00755866198f, -0.0528375953f, -0.0255114809f, 0.0533745587f, 0.00059433101f, -0.120478086f, -0.147168726f, -0.0357133113f,
    -0.0934294015f, -0.0596808307f, -0.0983733982f, -0.0634324253f, -0.0348575786f, -0.0379921757f, 0.0207339395f, 0.0154258041f,
    0.0950912088f, 0.0440793671f, 0.0187942181f, 0.0451352894f, 0.0516834781f, 0.0240723472f, 0.0592382401f, 0.0671313778f,
    -0.0852256715f, 0.0131990779f, -0.0358340889f, 0.0202330723f, 0.0905160308f, 0.19703643f, 0.0991422832f, 0.0796339884f,
    -0.0695168003f, -0.066857934f, -0.0185498372f, -0.126552492f, -0.0143029289f, 0.0793695673f, 0.0479946956f, 0.0751761645f,
    0.00842155889f, -0.0820903629f, -0.120525397f, -0.0564405397f, 0.0264722742f, 0.0373742767f, 0.059802562f, 0.0405507647f,
    0.0449481867f, 0.126832843f, 0.0236679222f, -0.0341633148f, -0.146798596f, -0.0826307237f, -0.103880227f, -0.0937846676f,
    -0.0143959448f, -0.0915306509f, -0.13845782f, -0.0826458782f, -0.0969649032f, -0.0114704715f, 0.0913027227f, -0.0762882978f,
    -0.0903362408f, -0.0834994838f, 0.0273148715f, 0.0741730332f, 0.117651649f, -0.0491214804f, 0.0110209296f, -0.0670121387f,
    -0.0203085709f, 0.106267974f, 0.150119647f, 0.0210847482f, 0.0800266638f, 0.0798839331f, 0.052673623f, 0.100574605f,
    0.135987163f, 0.0478986539f, 0.0337205566f, 0.0978102908f, 0.168052271f, -0.00259748125f, 0.00857639685f, 0.00483605405f,
    0.00536664296f, 0.0971685722f, 0.0829113945f, 0.0688114986f, -0.058867868f, -0.18381916f, -0.0658213943f, 0.0733426884f,
    0.128839284f, 0.0266334601f, 0.0100591173f, 0.11679256f, 0.114353508f, 0.0614674091f, 0.0940505415f, 0.0440398827f,
    0.0680229515f, 0.0967744663f, 0.0393132977f, 0.0534892306f, 0.100862198f, -0.0282182992f, 0.00721861189f, -0.0267730709f,
    0.0170406029f, -0.0424551666f, 0.0345124565f, 0.0564588606f, 0.0345537066f, 0.0252450518f, 0.0378178284f, -0.0285033081f,
    -0.0807606801f, -0.0777010247f, -0.0395332761f, -0.0369729288f, 0.00587439677f, -0.0450969264f, 0.0352087803f, -0.0476250686f,
    -0.0321786031f, -0.0189673174f, -0.0425699241f, 0.0741631091f, 0.0412497371f, -0.0200526454f, -0.0267753024f, -0.105168268f,
    -0.0156640336f, -0.077312164f, -0.143328011f, -0.046807427f, -0.0675837249f, -0.000167686594f, 0.00500690192f, 0.0477999114f,
    0.0219928659f, -0.0319404975f, -0.0353951976f, -0.0187807214f, -0.144906774f, -0.152810544f, -0.000474639179f, -0.0226876494f,
    0.0322161093f, -0.037867777f, -0.123014234f, -0.108751379f, 0.0696611553f, 0.00986626931f, -0.0767615065f, -0.0723252147f,
    -0.00785062648f, -0.0174075756f, 0.0345745645f, -0.0954679996f, -0.0344634466f, -0.108221717f, -0.114475362f, -0.0486715846f,
    0.0167375412f, -0.0160799939f, -0.024828421f, 0.00971363578f, -0.111510143f, -0.0797864348f, -0.0291426536f, -0.0105743045f,
    0.0278424174f, 0.00626770779f, -0.0521692671f, -0.049702365f, -0.140401855f, -0.12328247f, -0.166886792f, -0.225886196f,
    -0.083785817f, 0.0645658448f, 0.187345684f, 0.187762901f, 0.0940999091f, 0.0450947806f, 0.0560731329f, 0.0129950708f,
    -0.05366439f, 0.0211377982f, -0.00142497884f, 0.0597396791f, 0.0530355573f, 0.138163403f, 0.083332479f, 0.104083747f,
    -0.00334340171f, 0.00872899592f, 0.0235487912f, -0.0546255782f, -0.0438476689f, -0.023894107f, -0.0225733817f, 0.0532938242f,
    0.0759347528f, 0.105850033f, 0.147949651f, 0.0331065841f, 0.0762456432f, -0.00195254432f, 0.0313402787f, 0.119282894f,
    0.0954037681f, 0.0754312798f, 0.14706935f, -0.0724260062f, -0.0469967984f, 0.0257066041f, 0.0492316261f, 0.0553757809f,
    -0.00711207557f, 0.0727079511f, 0.041179616f, 0.0957453772f, -0.00248457189f, -0.00476763304f, 0.0797913298f, 0.104839131f,
    0.0920385569f, 0.139636368f, 0.091885224f, -0.0413348638f, -0.0444909185f, -0.0652647614f, -0.131012142f, -0.17435579f,
