// Generated by voice_reduction/export_voice_reduction_c.py. Do not edit by hand.
// Architecture: cw_denoise_gru_mask
// sample_rate=9600 fft_length=256 hop_length=144 band_bins=0..128

#ifndef VOICE_REDUCTION_MODEL_WEIGHTS_H
#define VOICE_REDUCTION_MODEL_WEIGHTS_H

#include "denoise_model.h"

#ifndef DENOISE_MODEL_ATTR
#define DENOISE_MODEL_ATTR
#endif

static const float DENOISE_MODEL_ATTR k_voice_reduction_input_norm_weight[129] = {
    0.75856787f, 0.650639772f, 0.745736063f, 0.891327262f, 0.928068638f, 0.94632405f, 0.959116042f, 1.06077266f,
    1.00017452f, 1.08552957f, 1.05014145f, 1.02950311f, 0.96935904f, 1.04184461f, 1.08280766f, 1.03082776f,
    1.01314712f, 1.01894009f, 1.02636445f, 0.994272292f, 1.05740774f, 1.00126088f, 0.953652859f, 0.938227177f,
    0.93149215f, 0.973891377f, 0.905087888f, 0.950297654f, 0.956298411f, 0.900997818f, 0.854089439f, 0.879371941f,
    0.896527886f, 0.908457398f, 0.904033899f, 0.951912224f, 0.890546083f, 0.807215452f, 0.810746491f, 0.923700869f,
    0.841672897f, 0.769636691f, 0.742736876f, 0.72661829f, 0.825229168f, 0.826865911f, 0.817370296f, 0.83588618f,
    0.774920166f, 0.798060358f, 0.830090463f, 0.854050338f, 0.86187613f, 0.833174765f, 0.734049559f, 0.754735947f,
    0.82561177f, 0.80509603f, 0.761706591f, 0.824340165f, 0.747100174f, 0.781354666f, 0.798821628f, 0.778303802f,
    0.798233092f, 0.763240397f, 0.621661305f, 0.652337968f, 0.595101655f, 0.568167448f, 0.621448636f, 0.61121428f,
    0.504936337f, 0.607186794f, 0.674360156f, 0.683591604f, 0.643554032f, 0.496844143f, 0.527937949f, 0.601838112f,
    0.667909861f, 0.564939797f, 0.42222181f, 0.411758304f, 0.537471354f, 0.474024266f, 0.577521145f, 0.652550042f,
    0.62175113f, 0.652272642f, 0.698145628f, 0.502879798f, 0.689833879f, 0.710581005f, 0.685560226f, 0.574796677f,
    0.708546638f, 0.585547268f, 0.647722006f, 0.613222182f, 0.64314276f, 0.632310867f, 0.625435948f, 0.727979839f,
    0.709869504f, 0.732470214f, 0.827820599f, 0.778055429f, 0.757981896f, 0.607537687f, 0.761652827f, 0.761274099f,
    0.701070368f, 0.804576933f, 0.816311419f, 0.780131042f, 0.759913981f, 0.81162864f, 0.837082982f, 0.787508249f,
    0.794813216f, 0.833134651f, 0.742179573f, 0.83943516f, 0.821681201f, 0.839811862f, 0.791718543f, 0.815226674f,
    0.790606141f
};

static const float DENOISE_MODEL_ATTR k_voice_reduction_input_norm_bias[129] = {
    0.141563401f, 0.270777881f, 0.127751067f, 0.157608405f, 0.0751904473f, -0.035531491f, -0.0647908375f, -0.071994476f,
    -0.0937786996f, -0.0737782419f, -0.0866168514f, -0.149511412f, -0.0991981104f, -0.144121781f, -0.076431945f, -0.158216715f,
    -0.11415904f, -0.0356652588f, -0.0486732945f, -0.0653684735f, -0.058828719f, -0.0805041119f, -0.193638459f, -0.174787402f,
    -0.13620916f, -0.117001273f, -0.0949972868f, -0.0623266734f, -0.0613219403f, -0.0704564527f, -0.115765564f, -0.0451481231f,
    -0.0554500744f, -0.0392654426f, -0.0470797829f, -0.0306623373f, -0.0403707027f, -0.154731408f, -0.100546472f, -0.13602443f,
    -0.0977185071f, -0.188917845f, -0.184922218f, -0.180058733f, -0.0472638719f, -0.125606537f, -0.135745183f, -0.121128932f,
    -0.147332609f, -0.094424136f, -0.0422521122f, -0.149441794f, -0.120898493f, -0.122205414f, -0.099680163f, -0.0907244757f,
    -0.103767343f, -0.00127835386f, -0.132513255f, -0.0670424327f, -0.0879089311f, -0.084701702f, -0.0528499149f, -0.0813447908f,
    -0.0898409784f, -0.0489315987f, -0.106715031f, -0.0673075765f, -0.010078039f, -0.0480219349f, 0.014035387f, -0.00218397961f,
    0.0275815669f, 0.0421840139f, 0.0756836608f, 0.08649569f, 0.114118703f, 0.0844181627f, 0.123429649f, 0.141124874f,
    0.141661823f, 0.0690458119f, 0.109480366f, 0.251222938f, 0.291212827f, 0.130627468f, 0.166743502f, 0.183732167f,
    0.0837736353f, 0.128103092f, 0.0557017326f, 0.193388492f, 0.116394177f, 0.150661126f, 0.13376087f, 0.201819032f,
    0.162275016f, 0.194153517f, 0.150158197f, 0.248000473f, 0.225758836f, 0.0789395943f, 0.201184094f, 0.183677644f,
    0.0632636175f, 0.101997331f, 0.0386576205f, 0.123960003f, 0.0908471569f, 0.270949662f, 0.146602005f, 0.0697837919f,
    0.169789404f, 0.149539813f, 0.0683541968f, 0.156813785f, 0.092488572f, 0.124962986f, -0.00257356185f, 0.201479763f,
    0.08867874f, 0.0279047117f, 0.152241901f, 0.0443225913f, 0.115033045f, 0.0781741813f, 0.0692335591f, 0.100411765f,
    0.113339938f
};

static const float DENOISE_MODEL_ATTR k_voice_reduction_gru_weight_ih[24768] = {
    -0.0659530386f, -0.0147017324f, 0.171351254f, 0.164515674f, 0.105513297f, 0.0083157653f, -0.151314437f, -0.116534397f,
    -0.0223421548f, 0.230123937f, 0.40838322f, 0.351590037f, 0.0870806798f, -0.144800082f, -0.240341604f, -0.16081655f,
    0.192247704f, 0.135136202f, -0.0452348255f, -0.0554155707f, -0.20989491f, -0.191209227f, -0.045101352f, -0.129155934f,
    -0.0054868497f, 0.131194398f, -0.0404981785f, 0.0824304447f, 0.0469110161f, 0.00254101236f, -0.0234922245f, 0.0996507183f,
    -0.103769325f, -0.0835416541f, -0.0430857651f, 0.0378619432f, -0.106740788f, -0.0317615643f, 0.0411163121f, 0.0514393263f,
    0.0925437659f, -0.00272172154f, -0.0208315495f, 0.158751741f, 0.108654797f, 0.0453882813f, 0.0823920444f, 0.0501808785f,
    0.0968689248f, -0.0602463782f, 0.0536991842f, -0.0576130599f, 0.00478748279f, -0.0391894281f, -0.126974598f, -0.0367561877f,
    -0.0240938459f, 0.0108587435f, 0.0357733294f, 0.0701206401f, 0.078297466f, -0.0227203351f, 0.074005723f, 0.0137656359f,
    0.0983191878f, 0.0159293264f, 0.157319546f, 0.130004972f, -0.113404505f, 0.0338705964f, 0.0197026413f, 0.100088477f,
    -0.0726585165f, 0.0974822268f, -0.0831238702f, 0.00459260587f, -0.0338496082f, -0.0785548836f, 0.0532496236f, -0.00833346136f,
    -0.0400056764f, -0.0993796289f, 0.0940843746f, 0.0724618211f, -0.0950417444f, 0.0346063748f, -0.0198678691f, 0.0115845604f,
    0.0667471439f, -0.0247035269f, -0.0673113987f, -0.101287879f, -0.0213843603f, 0.07185404f, -0.070011504f, -0.0192379281f,
    -0.0562290922f, 0.0747018233f, -0.0690130517f, -0.0622402914f, 0.0817082152f, -0.0589731447f, -0.0080940146f, 0.0302921757f,
    0.00891219825f, -0.0400237702f, 0.00902862288f, -0.106950916f, -0.0897412002f, 0.0104702041f, -0.101692624f, -0.104383588f,
    0.0645116568f, 0.0837261155f, 0.0595493317f, 0.0513243489f, 0.0141577637f, -0.0908969939f, -0.00521378592f, -0.101958409f,
    -0.0434211642f, -0.0588077828f, -0.104403012f, -0.090845108f, -0.0536678098f, -0.112728052f, 0.0854678825f, -0.0680506304f,
    -0.0647119358f, -0.0284307245f, 0.00335356197f, -0.0122398091f, 0.0648770481f, 0.071514219f, -0.115162477f, 0.0351736844f,
    0.0232931972f, 0.0335787386f, 0.137176707f, -0.0777022094f, -0.0453009196f, 0.0362853259f, 0.13011916f, -0.0504375622f,
    0.103644855f, -0.146020398f, -0.3047131f, -0.044862058f, -0.00511618936f, -0.0184714943f, 0.00817989558f, -0.0177363344f,
    -0.0361402109f, 0.0390853137f, 0.0860041156f, 0.0455808751f, 0.107132688f, -0.0100018391f, 0.0723488703f, 0.147586226f,
    0.137156382f, 0.194756955f, 0.108970277f, -0.148974717f, -0.00298494706f, 0.0685760602f, 0.0540357418f, 0.159714282f,
    -0.0187458135f, 0.0620194152f, -0.0262215137f, 0.0044300044f, 0.0502960756f, -0.0247882642f, 0.111679949f, 0.0265353676f,
    0.0190285165f, -0.0567705855f, -0.0683163255f, 0.0815553069f, 0.0799226165f, 0.0513223633f, 0.104855999f, 0.00840394478f,
    0.0676506609f, -0.0738091096f, -0.033375971f, 0.135716528f, 0.151885152f, 0.173078924f, 0.169413626f, 0.0503374897f,
    0.036443647f, -0.0839852542f, -0.0071702092f, -0.0177741423f, -0.0149029028f, 0.0724429563f, 0.0182636268f, -0.069567956f,
    -0.0157294087f, 0.00177565543f, 0.0632465035f, -0.0899923369f, 0.0622098111f, -0.119072966f, 0.0795174614f, -0.0715120584f,
    0.0876954272f, 0.0368731655f, 0.120107874f, -0.0240867939f, 0.110015959f, 0.00275955372f, -0.113833331f, 0.0737407804f,
    0.0556353815f, 0.10070508f, -0.0245775934f, -0.0563676395f, -0.0106214555f, -0.10518308f, -0.00412063394f, 0.0409661531f,
    -0.0814631581f, 0.00749670994f, 0.0511116832f, 0.0952452868f, -0.0785622969f, 0.100012764f, -0.0795696154f, 0.0875921696f,
    -0.0793097541f, 0.102339387f, 0.0756978989f, 0.0548058227f, -0.105067916f, 0.0598299876f, 0.0368685424f, -0.0456935577f,
    0.0764639229f, -0.0564363562f, -0.0511156581f, -0.0303888395f, 0.0855911821f, -0.0765004233f, -0.03423585f, -0.112323262f,
    -0.097432062f, 0.0175218638f, -0.016184682f, -0.13214232f, -0.0377988517f, -0.06803184f, -0.107352242f, -0.0229619928f,
    -0.0966904089f, 0.0609087087f, -0.0748147666f, 0.0024055338f, -0.161006048f, -0.185453162f, -0.11150489f, -0.266192108f,
    -0.260727137f, 0.0761775151f, 0.112477258f, 0.125458822f, 0.170980975f, 0.194959313f, 0.0835287571f, 0.296402693f,
    0.146630675f, 0.190820202f, 0.235983685f, 0.133125916f, 0.0805410668f, 0.270545244f, 0.0827522874f, -0.042811282f,
    -0.0744111612f, -0.01530929f, 0.00740111852f, -0.0376896746f, 0.0401761793f, 0.0221385043f, -0.08419469f, 0.0402937718f,
    -0.0407548212f, 0.0955518782f, 0.0212379228f, -0.00673005031f, 0.102534547f, -0.0121743446f, 0.0130508291f, 0.0372883864f,
    0.00366974669f, -0.0547034927f, 0.0918356106f, -0.00650513219f, 0.0874549672f, -0.117343679f, 0.0193999801f, -0.0258972384f,
    -0.12433292f, -0.0860374793f, 0.0518742166f, 0.0224772245f, -0.178384379f, -0.0732982084f, -0.0708750784f, -0.0793337747f,
    -0.0735267103f, -0.147800818f, -0.0912144482f, -0.0660653263f, -0.0694779754f, -0.117818452f, 0.0153543511f, -0.128333777f,
    -0.214503646f, -0.160837263f, -0.129080221f, -0.199521467f, -0.0942697152f, -0.0147307906f, -0.0586358681f, -0.046149157f,
    -0.0101555493f, 0.0168496352f, -0.0557299294f, -0.025912052f, 0.134096459f, 0.0559335835f, -0.0180084761f, 0.0930491239f,
    -0.129678994f, -0.0212979373f, -0.0548194982f, 0.115899272f, 0.0169575866f, 0.0544500165f, -0.0899519697f, -0.0406544209f,
    -0.0584971197f, 0.0052848747f, -0.039758794f, 0.103810571f, 0.0862848759f, 0.0815356597f, 0.101783022f, 0.0338435471f,
    0.0995243415f, 0.0699489266f, 0.0800566152f, -0.0732513517f, -0.0766403154f, -0.0267145447f, 0.0480381064f, -0.0833755061f,
    -0.0617001653f, 0.111651331f, 0.0360741243f, 0.0146609386f, -0.0270055309f, 0.0611853264f, -0.0888203532f, 0.0396939963f,
    -0.0693764836f, -0.050278239f, -0.0458153971f, 0.100439779f, -0.0354208536f, -0.0286134463f, 0.079361923f, 0.0557608865f,
    -0.0408221073f, -0.0410675108f, -0.0926386788f, -0.0907196179f, 0.0517436191f, 0.0343203768f, -0.0060445522f, -0.0827406272f,
    0.0949932262f, -0.109577753f, 0.0705381483f, -0.110590823f, -0.0112274354f, 0.0154271834f, 0.0258912966f, -0.0140613103f,
    0.0464090854f, -0.0188313592f, -0.017101774f, 0.0652563944f, 0.0659069568f, 0.0183712523f, 0.0830449536f, -0.266264707f,
    -0.0169463642f, -0.0550042167f, -0.174469322f, -0.0445933193f, -0.0703207925f, -0.00500513893f, 0.0897474885f, 0.0820839927f,
    0.21768944f, 0.0999836102f, -0.0302783083f, -0.0847065076f, -0.066992946f, -0.119179718f, -0.0337788537f, -0.0142618818f,
    -0.00644175475f, -0.0504935794f, -0.128442734f, 0.0971175358f, 0.0161409117f, 0.147352174f, 0.0386099815f, 0.116171695f,
    -0.0730918199f, 0.0342667699f, -0.140289605f, 0.0786210075f, 0.0774637684f, 0.0714480504f, -0.0210067425f, 0.0816834122f,
    0.0343699194f, -0.183143348f, -0.0524396114f, 0.103599377f, 0.0318093412f, -0.0522591993f, -0.0373493433f, 0.0603151098f,
    -0.0789618939f, 0.0594325773f, -0.0392511636f, 0.0608042777f, 0.0467870831f, 0.125555634f, 0.19684197f, 0.42548278f,
    0.245203927f, -0.00340013462f, -0.118749313f, -0.070027642f, -0.00659205811f, 0.0794332623f, 0.0312111322f, 0.168702558f,
    -0.140038654f, -0.0177541859f, 0.0999301523f, 0.0724194944f, -0.0375961773f, 0.0361660384f, -0.0385315157f, -0.00602498977f,
    -0.109430879f, -0.131246209f, -0.140667468f, -0.0720083117f, -0.000750591164f, 0.0363222547f, -0.103748649f, -0.116435409f,
    -0.164060295f, -0.169030651f, -0.0826730728f, -0.0206709169f, -0.00285158888f, -0.0498532355f, -0.0715467036f, -0.0408395529f,
    0.0104874233f, -0.115358278f, -0.0761652216f, -0.122349724f, -0.0782624856f, 0.0466201678f, -0.124389581f, -0.0986161157f,
    -0.0587521158f, -0.0925828069f, -0.093399249f, -0.071977593f, -0.00351039856f, -0.138768673f, -0.117599756f, -0.0869781077f,
    -0.0851983204f, -0.0495465957f, 0.0259200055f, -0.0932248831f, 0.0310018733f, -0.0043671676f, -0.0239863656f, 0.0304537583f,
    0.0431721509f, -0.0482260734f, 0.0543727688f, 0.0858975351f, -0.00796273351f, -0.0481567159f, 0.08867082f, -0.0748932883f,
    0.0565214977f, 0.0147077767f, -0.0207770187f, 0.0535096563f, 0.123183154f, -0.0386291146f, -0.00550738582f, -0.0292047597f,
    0.0242231302f, -0.0727715641f, -0.0849025026f, -0.198854327f, -0.194196492f, -0.174243405f, -0.235220388f, -0.304439127f,
    -0.266679496f, -0.162980601f, -0.035331089f, -0.0834442526f, -0.0832872763f, 0.000635540404f, 0.137857661f, 0.168570071f,
    0.0495929718f, -0.00500440923f, 0.0436236858f, 0.0542983972f, -0.0639431551f, -0.121261336f, -0.0851058066f, -0.115033112f,
    -0.143623143f, -0.105385713f, -0.0954458639f, 0.0548033342f, 0.049941998f, -0.0455676727f, -0.0726975203f, -0.109664522f,
    -0.0944142044f, -0.178033203f, -0.086045675f, -0.112658635f, -0.209976226f, -0.141800717f, -0.196903318f, -0.195095792f,
    -0.102823623f, -0.104103848f, -0.197631285f, -0.194095805f, -0.308578253f, -0.242645636f, -0.155428022f, -0.0592363551f,
    0.00208253693f, 0.0732957199f, 0.191999853f, 0.193069726f, 0.295164436f, 0.151319936f, 0.130057693f, 0.207775563f,
    0.222727507f, 0.00920144934f, 0.132169485f, 0.0653379336f, 0.221951842f, 0.130291864f, -0.0863793641f, 0.0141308689f,
    -0.0840877369f, -0.0906478465f, -0.102707222f, -0.068505615f, 0.0190308895f, -0.0455397479f, 0.0141263949f, 0.0363806486f,
    0.124553025f, -0.00703057367f, 0.0665906519f, 0.032744512f, -0.0164722204f, -0.0119830072f, 0.0296338107f, 0.0575036518f,
    0.13700062f, 0.0923444331f, 0.0271496531f, -0.0842110068f, -0.0655935556f, -0.0274300352f, 0.0331950337f, 0.0478708893f,
    -0.0413221717f, -0.083700493f, 0.0202497654f, -0.0302498955f, -0.0548508242f, 0.0194272548f, -0.0775814727f, -0.0308588073f,
    -0.0259237792f, 0.0988944173f, 0.00930903852f, -0.00534352567f, -0.0412150994f, 0.0261877477f, -0.0390383862f, 0.128043771f,
    0.0330470018f, -0.0262072068f, -0.0281872135f, 0.0223753881f, 0.115734421f, -0.00251990603f, 0.119499266f, -0.0132539086f,
    -0.0612194464f, 0.140423506f, -0.0654349029f, 0.0637985989f, -0.0179814342f, 0.111354187f, 0.150568366f, 0.118688926f,
    -0.0349411145f, 0.0832188651f, 0.0558909588f, 0.0280063022f, -0.0319539756f, -0.089178212f, -0.0989414528f, 0.0379190631f,
    0.00673067523f, -0.128168732f, -0.0300692096f, -0.0808830559f, -0.0275197756f, -0.012021794f, 0.0857780799f, 0.0597296469f,
    0.0157067701f, 0.0121268248f, -0.104846798f, -0.0108520566f, -0.0718988627f, -0.0818905756f, -0.0708842725f, 0.0272242092f,
    -0.0688501224f, -0.0782419369f, -0.0215187334f, 0.0665436536f, 0.0254909061f, 0.029935522f, 0.0657650903f, 0.0415625311f,
    0.115705289f, 0.168975353f, 0.196677312f, 0.151533976f, 0.164013952f, 0.149739608f, 0.105840534f, 0.143193111f,
    0.14175716f, 0.198823392f, 0.116672091f, -0.0130144339f, 0.117137007f, -0.0413569435f, 0.154307842f, 0.0539400466f,
    0.11167939f, 0.149601832f, 0.141186386f, 0.138024509f, 0.226961687f, 0.0252106991f, -0.0395958573f, -0.0770543218f,
    0.00637494121f, 0.0339734219f, -0.0322868824f, 0.0448211581f, 0.0487725213f, 0.0116095934f, 0.112246275f, 0.0962859392f,
    -0.0333733931f, 0.025561111f, -0.0356612839f, -0.0720248818f, 0.00177817361f, 0.0318697989f, 0.0422417559f, 0.0440333225f,
    0.0311232284f, -0.0078220861f, -0.0141724302f, 0.0222874843f, 0.100135282f, 0.0844761133f, 0.0967166573f, 0.0462010652f,
    0.0137107773f, -0.00612057233f, -0.152442515f, 0.0403190702f, -0.0838197097f, 0.120224737f, 0.0463947803f, -0.0147974435f,
    0.0249747597f, -0.0436723307f, -0.0112258792f, 0.0662947148f, -0.019858649f, 0.0914710686f, 0.0242496468f, 0.0629255697f,
    0.111547835f, 0.124255702f, 0.166571528f, 0.0496808365f, 0.020799879f, 0.00402257638f, -0.108957097f, -0.0323236957f,
    -0.102576688f, -0.117783658f, -0.11249277f, -0.00279740873f, 0.00345731922f, -0.0578650348f, -0.0420002937f, 0.0127931619f,
    -0.0665962398f, -0.1413268f, -0.107234225f, -0.0913469791f, 0.0265408717f, -0.0752279609f, -0.0198412593f, 0.0252867676f,
    0.0434206352f, 0.0275952406f, 0.00223059929f, 0.04034115f, -0.0881369933f, -0.0741016492f, -0.0745890141f, 0.0561594293f,
    -0.0298675559f, -0.0617596358f, -0.126214907f, -0.116316065f, -0.0859126002f, -0.0268056374f, -0.0739910454f, -0.0321692862f,
    -0.0176365487f, 0.247039214f, 0.240573704f, 0.00748762768f, -0.0338018984f, -0.183049485f, -0.0927329957f, 0.202552944f,
    -0.0127955675f, 0.0627864152f, 0.188790008f, 0.219941974f, -0.00692665717f, 0.0265448354f, 0.181372434f, -0.012878295f,
    0.00282550906f, -0.0723738f, -0.0621937141f, -0.147026166f, -0.0887690336f, 0.0271598157f, -0.0346431434f, 0.0266933553f,
    -0.0456058569f, 0.0521272905f, 0.0486745648f, 0.192598298f, 0.203957587f, 0.0846290886f, 0.0941878185f, 0.0127894804f,
    0.0337052271f, -0.0228269845f, 0.00238737417f, -0.0386433564f, -0.0861296579f, 0.103396662f, 0.142330617f, 0.107402541f,
    -0.0111848498f, 0.0278010946f, -0.0110948114f, -0.0282351095f, -0.0113254366f, -0.1715094f, -0.0191320833f, -0.0689186379f,
    -0.048133146f, -0.142136633f, -0.160864115f, -0.217521727f, -0.0991167277f, -0.207719296f, -0.220215768f, -0.314769715f,
    -0.197945356f, -0.105065636f, -0.0829084367f, -0.143886045f, -0.0416196212f, -0.000288516603f, -7.45931493e-06f, 0.00448167417f,
    -0.0547984317f, -0.0310848765f, -0.098574467f, -0.029383203f, -0.0466876365f, 0.123123974f, 0.00337026687f, -0.104637064f,
    -0.0467394739f, -0.0105579337f, 0.0410307087f, 0.00321564567f, -0.108489171f, -0.0542403981f, -0.110954098f, -0.00399033772f,
    -0.00763471844f, 0.0140052214f, -0.128875315f, -0.0331450999f, 0.0218734369f, -0.0915779769f, 0.019243544f, -0.0199589599f,
    -0.0113758408f, -0.153914556f, -0.0749637932f, -0.0371774286f, -0.00648257835f, 0.0418779217f, 0.0144305229f, -0.156848937f,
    0.0411201343f, 0.0506959893f, -0.0598645397f, -0.0518887267f, -0.00801687781f, -0.0607870445f, -0.0305116363f, -0.0986331701f,
    0.0300009716f, -0.0132571151f, -0.0888436958f, -0.0331808329f, 0.0330416225f, -0.0841762573f, -0.121228121f, 0.0295500979f,
    -0.0541224778f, 0.0198945906f, -0.000154434514f, -0.102132805f, 0.0878081173f, -0.107279718f, 0.00219054823f, 0.0863982365f,
    -0.0210212562f, -0.101141028f, -0.0183370374f, -0.0118320435f, -0.041625198f, -0.0753844902f, -0.0776687711f, -0.033721555f,
    0.115372695f, 0.0734142214f, -0.132743627f, -0.138701454f, 0.0268965345f, -0.110024706f, 0.152507633f, 0.050146345f,
    0.230839729f, -0.011265981f, 0.068570748f, -0.0327924863f, -0.0614662059f, 0.0902598724f, 0.0856531188f, -0.0445902012f,
    0.143756911f, 0.0114900051f, -0.00714666117f, 0.147537902f, -0.0667348877f, -0.0156027982f, 0.00603329763f, -0.0317333601f,
    0.0416356772f, -0.169226557f, 0.156682283f, 0.181951597f, 0.375762284f, 0.191101834f, 0.193665981f, -0.0723050311f,
    0.0142359799f, -0.0651028603f, 0.113312766f, -0.0320436768f, 0.0176775269f, 0.103581123f, 0.242780626f, 0.243112162f,
    0.0709390491f, -0.00999072473f, -0.170733497f, 0.000950535061f, -0.0920848027f, 0.159469858f, 0.150897548f, 0.119841285f,
    0.110193618f, 0.104608953f, 0.00505283894f, 0.0495187379f, -0.0357800461f, 0.0663088486f, -0.0283537507f, 0.051159218f,
    0.129313871f, 0.0249830801f, 0.132737607f, 0.179531813f, 0.268064857f, 0.00956158061f, 0.0423548631f, 0.0855219513f,
    0.0100729587f, 0.149395525f, 0.0703124553f, -0.00196810905f, 0.0266668536f, -0.0193218663f, 0.094018653f, 0.0956618115f,
    0.0244836863f, 0.114173673f, -0.0260546599f, 0.121258222f, 0.0819824859f, 0.0788070485f, 0.0607800074f, 0.197034851f,
    -0.0549153909f, -0.0408306494f, 0.0337659493f, 0.0513467006f, -0.0295359287f, 0.103506014f, 0.0533482656f, 0.0391467251f,
    -0.00327859633f, 0.0318174437f, -0.0791245848f, 0.0870779231f, -0.025499478f, -0.013713398f, 0.0389229879f, -0.0383322984f,
    -0.11204122f, -0.00273028878f, -0.104766928f, -0.107113108f, -0.101501316f, -0.0883938521f, -0.0326067246f, 0.0657077208f,
    -0.0541684851f, -0.00520241121f, -0.0292535741f, -0.051869411f, -0.117230907f, -0.11003112f, -0.0033659935f, 0.00665343972f,
    -0.0820823014f, -0.00174536486f, -0.0772872418f, 0.0130340047f, 0.0910422727f, 0.0384929776f, -0.112395599f, -0.0888892189f,
    0.0835378617f, 0.027673956f, 0.00902151596f, 0.0479472019f, 0.069806993f, 0.041391205f, 0.0807693899f, 0.0415301807f,
    0.0135355201f, 0.00847476069f, 0.147371545f, 0.0657637417f, -0.070809938f, -0.220329568f, 0.0341417976f, 0.0687754452f,
    0.172792584f, 0.0237222258f, -0.109198853f, 0.347760707f, -0.0913603008f, 0.290930063f, 0.302073002f, -0.087697424f,
    0.105130553f, 0.0812752843f, 0.137127519f, 0.0790069178f, 0.0111648049f, 0.162565112f, 0.0402308442f, -0.00790256821f,
    0.0431396626f, 0.0420496464f, 0.1745639f, 0.053251002f, 0.0729920715f, -0.0361157581f, -0.129796535f, -0.0992618501f,
    0.0741654634f, 0.0164750349f, -0.0176649038f, -0.138688177f, -0.0888326392f, 0.0707309619f, -0.0343728885f, -0.0552447177f,
    0.0336350054f, 0.0130114947f, -0.0307720136f, 0.114092372f, -0.089022845f, -0.0203101244f, -0.146115661f, -0.0570720546f,
    -0.0364847481f, -0.0528711602f, 0.0282623544f, -0.149636835f, -0.0116912369f, -0.0936544538f, -0.110278621f, 0.142631263f,
    0.0641425624f, -0.0019930962f, 0.062062528f, -0.0285060834f, -0.0865366533f, -0.0870506018f, 0.114423975f, -0.048175469f,
    -0.0256054159f, -0.0228656624f, -0.124499463f, -0.0824543312f, -0.010016934f, 0.0387180112f, -0.0611904226f, -0.0281728022f,
    0.0417167693f, 0.01223116f, 0.0427609049f, 0.00334740174f, 0.0387736484f, -0.0228668768f, -0.120400123f, -0.0652735755f,
    -0.023434151f, -0.0376333408f, 0.0725608915f, 0.0645178109f, 0.0136485342f, -0.0129620116f, -0.0494997539f, -0.00520600704f,
    0.0569580048f, -0.0300540216f, -0.0082691256f, -0.00267572049f, -0.0367400311f, -0.0301524028f, 0.0387528054f, -0.0234088674f,
    0.00364817167f, -0.0819773898f, -0.00267377915f, 0.0778092295f, -0.0964376852f, -0.0794409588f, -0.0754645988f, -0.0450906418f,
    -0.0447643809f, 0.0172318574f, -0.0458677746f, 0.0204188917f, 0.0487365723f, -0.156599924f, 0.0600033067f, -0.0303992722f,
    -0.0796180889f, -0.04458379f, -0.00208598631f, -0.0107362177f, -0.109749772f, -0.038584061f, -0.0434263386f, 0.0473177694f,
    -0.0781302154f, 0.0498879068f, -0.0957498103f, 0.0014025002f, -0.0790531337f, -0.0720873103f, 0.00821909122f, 0.00502430368f,
    -0.115397207f, -0.0215150956f, -0.0758640915f, 0.0426532179f, 0.156003505f, 0.0643055439f, -0.000741207972f, -0.0645137578f,
    0.106568024f, -0.0633633137f, 0.0682997108f, -0.121122599f, 0.27069214f, -0.060073372f, -0.162148044f, -0.0416440517f,
    -0.248129919f, -0.016261505f, -0.0795080811f, -0.123597071f, -3.51994204e-05f, 0.0564819574f, 0.0897574574f, 0.00906042848f,
    -0.0346903875f, -0.0311914012f, 0.0491902456f, 0.0983650759f, 0.0184057485f, 0.125783816f, 0.015619141f, 0.0262841247f,
    -0.110423759f, -0.13359423f, -0.132693067f, 0.0878024846f, -0.0305865519f, -0.00843632221f, 0.0452587567f, 0.160989076f,
    0.23369348f, -0.0138401473f, 0.0725286976f, 0.146679521f, -0.041639857f, -0.0295975152f, -0.00192510767f, 0.0211645346f,
    0.159181342f, 0.092752777f, 0.0751771033f, 0.163266927f, 0.0416325331f, 0.0941752344f, -0.0885907337f, 0.0303126704f,
    0.00665211119f, 0.187853992f, 0.180562362f, 0.0720836595f, 0.15243569f, 0.0685232356f, 0.021999795f, -0.0335974582f,
    0.0290312096f, -0.04246727f, 0.155243903f, 0.121883608f, 0.0747066066f, 0.123480909f, 0.0147818448f, 0.059611965f,
    -0.163584903f, -0.163250491f, -0.0759438351f, -0.0254833773f, 0.0787702575f, 0.0127443662f, -0.113751978f, 0.126498953f,
    0.0881333873f, 0.0376651511f, -0.0513403937f, 0.0531802252f, 0.0809229091f, -0.0197678246f, -0.0638372079f, 0.0381308012f,
    0.0977842063f, -0.0807004496f, -0.0147812366f, -0.0461848527f, 0.0926121175f, 0.0421513207f, 0.0698817745f, 0.0234706793f,
    -0.111159742f, 0.109026976f, 0.03686928f, 0.0341073982f, 0.0196355563f, 0.0140103577f, -0.0471117236f, 0.0610745884f,
    -0.13345246f, -0.119587801f, 0.00608052732f, -0.0172750223f, -0.0498937555f, -0.158166617f, -0.156512037f, -0.139624044f,
    -0.145459801f, -0.118258603f, -0.161110982f, 0.00689990819f, -0.08299914f, -0.018787995f, -0.0706630051f, -0.0171412192f,
    -0.125447735f, -0.149872869f, 0.0566744246f, -0.00403993251f, -0.0273444336f, -0.0513990857f, -0.105546534f, -0.0907062292f,
    -0.133194f, -0.109671362f, -0.0782463998f, -0.0943636f, 0.0224859118f, 0.043590948f, 0.0724499077f, 0.00546439411f,
    -0.0364274494f, -0.00491316942f, 0.0618554316f, -0.0253813025f, -0.0317252055f, 0.0118074184f, 0.133810028f, 0.115593262f,
    -0.106878914f, 0.0828321055f, 0.182704359f, 0.102659233f, 0.0616575703f, -0.10799858f, -0.0133035164f, 0.0433996283f,
    -0.0774597153f, -0.02777596f, -0.0776398405f, 0.0287731159f, 0.0160660315f, 0.0569254011f, 0.0254418701f, 0.059231516f,
    0.139419928f, -0.0330043472f, 0.115728818f, 0.132568926f, 0.24322696f, 0.0958425626f, 0.0814863294f, -0.0855742767f,
    -0.00650124066f, 0.280933887f, 0.198211804f, 0.0944747776f, 0.0376058966f, -0.0380284749f, -0.0821759626f, -0.124249943f,
    -0.0648692325f, -0.0575020649f, -0.0136879683f, -0.156247199f, -0.00654646428f, 0.0294238534f, 0.13451317f, 0.0214350726f,
    0.0275541525f, 0.00133458944f, 0.0496149734f, -0.0251622815f, -0.0842053592f, 0.0719593614f, 0.169501886f, 0.0967251435f,
    0.218458414f, 0.197609186f, 0.0497726202f, 0.102878906f, 0.112307616f, 0.042928502f, -0.10631001f, -0.146436632f,
    -0.334385991f, -0.114197105f, -0.154941693f, -0.425469756f, -0.546029747f, -0.413794547f, -0.431898415f, -0.476513326f,
    -0.358754039f, -0.199591309f, -0.222596362f, -0.168076441f, -0.172672257f, -0.204990149f, -0.206243679f, -0.0497703925f,
    -0.0276243556f, 0.0989342481f, -0.0849185586f, 0.0782353431f, -0.0483968556f, 0.167838931f, 0.124495775f, 0.0192061123f,
    0.080298543f, 0.111856498f, -0.04030139f, -0.0539963171f, -0.0447481349f, -0.0405155793f, -0.0923427641f, -0.0422772057f,
    -0.0719736218f, -0.00918395631f, 0.113217376f, 0.108154267f, 0.100926772f, -0.0558106564f, 0.0761778206f, 0.0515974872f,
    0.0203838423f, 0.0744980946f, -0.093218267f, 0.0212285779f, -0.0278718565f, -0.0251580123f, -0.0282168798f, 0.0376280136f,
    0.0786438137f, 0.0724609196f, 0.0191815738f, -0.0851015598f, 0.0782974139f, -0.00365747791f, -0.0101031885f, 0.0949174687f,
    -0.0742755458f, -0.095261775f, -0.0733521804f, 0.0722498521f, -0.0274648219f, -0.00618101563f, 0.0942310393f, -0.125995129f,
    -0.0188574623f, -0.00635972619f, -0.0394497886f, -0.0975125805f, -0.00827969611f, 0.121438563f, -0.0677922964f, 0.119302884f,
    0.0816934481f, -0.108563349f, -0.0652740076f, 0.0669562668f, -0.0738253295f, -0.0271572024f, 0.0220999923f, 0.0334606543f,
    -0.16705133f, -0.0945632234f, -0.0629226342f, 0.115039878f, 0.197595716f, -0.0294600371f, 0.0354369879f, 0.0502470098f,
    0.0819520578f, 0.132155284f, 0.0257814154f, 0.195691198f, 0.137214437f, -0.0479403995f, 0.0786816701f, 0.0760492906f,
    -0.183797553f, 0.156434938f, 0.0790685117f, -0.0793994963f, 0.115823828f, 0.0632975027f, -0.118678227f, -0.147981301f,
    -0.0365151688f, 0.0374378897f, 0.0370469131f, -0.0814928412f, 0.0091406703f, 0.124456391f, -0.0267306138f, -0.00172354991f,
    -0.0411760174f, -0.0707277358f, 0.0339580849f, 0.0970468596f, -0.0103473533f, 0.0152170584f, 0.194409445f, 0.15958035f,
    0.169501007f, -0.0555137992f, 0.067299284f, -0.00717486721f, -0.130040869f, -0.111707084f, -0.209263951f, -0.0836367309f,
    -0.0631625354f, -0.0784406438f, -0.073729001f, -0.100701019f, -0.153605729f, -0.0375337005f, -0.099092558f, -0.103581429f,
    -0.127837032f, -0.0951862484f, -0.0597859621f, -0.121997938f, -0.00184688682f, -0.113193125f, -0.0374447554f, -0.168240204f,
    -0.0281362701f, 0.0499917679f, 0.0934697539f, 0.100234523f, -0.0489382222f, -0.0908768699f, -0.123693801f, 0.0180337224f,
    -0.0503805615f, 0.0701826066f, 0.012263448f, -0.0916406959f, 0.023102887f, 0.0320881754f, 0.0787765533f, -0.0865053162f,
    -0.056088198f, -0.0383139029f, -0.0360247754f, 0.00892759487f, 0.0154500585f, 0.0127710178f, 0.0784869269f, -0.0503553115f,
    -0.096429117f, -0.0279074572f, 0.0688640401f, -0.121645771f, 0.0891064182f, -0.0323226526f, 0.0672480166f, 0.0977529809f,
    -0.026640119f, 0.0284586716f, -0.0862634405f, 0.0157154966f, 0.0176241156f, 0.00905780215f, -0.105822578f, -0.0707269087f,
    -0.0202604998f, -0.00268963142f, -0.0739124566f, -0.015371195f, -0.0381876379f, 0.0621290207f, -0.100906909f, -0.100125067f,
    -0.0217725541f, 0.0525942631f, -0.0466183499f, -0.0458897576f, 0.114250265f, 0.013293473f, -0.0358259566f, 0.0878970474f,
    0.123783484f, 0.242204398f, 0.0400862023f, 0.0445242152f, 0.0461195633f, -0.0868610516f, -0.154654399f, -0.297978222f,
    -0.0100129731f, -0.0647254065f, -0.0612457395f, 0.0439225063f, 0.0471705161f, -0.0314803272f, 0.0205339193f, 0.103767596f,
    0.104399405f, 0.0878562182f, 0.172026411f, 0.123399608f, 0.246430382f, -0.0512959287f, -0.149025947f, -0.206164226f,
    -0.175705805f, -0.121375933f, -0.255506247f, -0.425598562f, -0.285085022f, -0.290004432f, -0.319539607f, -0.218668833f,
    -0.297712743f, -0.0775884986f, 0.0596830361f, 0.048707664f, 0.175076544f, 0.242259741f, 0.336244553f, 0.26168102f,
    0.426824838f, 0.239969134f, 0.255928874f, 0.163515106f, 0.0424326733f, -0.00368037168f, 0.062743701f, 0.0754980966f,
    -0.0142811714f, -0.119770728f, -0.0294124335f, 0.00576828886f, -0.0663911253f, 0.0417219847f, 0.0329230018f, 0.165118814f,
    0.0829990655f, 0.0753707886f, -0.00936852861f, 0.0118451165f, 0.00422791578f, 0.0118588926f, 0.11244414f, 0.0637443289f,
    0.173035249f, 0.0195613224f, 0.0666377172f, -0.00646350812f, -0.02530827f, -0.0722215548f, 0.0831976905f, 0.0280952808f,
    0.00210834458f, 0.00255213026f, 0.0176978372f, 0.0815234855f, -0.0379165821f, -0.0403420068f, 0.00573311327f, 0.0536763445f,
    0.0898633003f, 0.0809732974f, -0.0430869497f, 0.0124990307f, 0.0514900796f, 0.102685854f, -0.0422496535f, 0.114634328f,
    -0.0387046412f, 0.0394129977f, 0.00731264707f, -0.0153322676f, 0.000411603338f, -0.0113657573f, -0.0690957159f, -0.0537223928f,
    -0.0771033913f, -0.0335134193f, -0.104767643f, 0.0508610234f, -0.0819776952f, -0.108652294f, -0.0878438205f, -0.00305400719f,
    -0.0897027552f, -0.0881009698f, -0.0936163962f, -0.0938897803f, -0.0116714835f, -0.0500001498f, -0.0753858015f, 0.0677650943f,
    -0.10129495f, -0.0470687114f, 0.0346997418f, -0.122147679f, 0.0347918607f, -0.0661747083f, 0.0728679299f, 0.0736468062f,
    0.0186373238f, 0.116456099f, 0.0444463901f, 0.0896777287f, 0.345546901f, 0.314064682f, 0.122586884f, 0.135565683f,
    -0.00402246369f, 0.128064096f, -0.1913414f, -0.0317958295f, -0.111673392f, -0.122392878f, -0.0993077159f, -0.118823633f,
    -0.155917689f, -0.0628492385f, -0.0814030096f, 0.00909035839f, -0.0436359197f, 0.105381377f, 0.0500684232f, -0.0118324226f,
    0.0395453312f, 0.150109708f, 0.0944145992f, 0.240073726f, 0.0314054303f, 0.0519204699f, -0.0514253937f, 0.132497951f,
    0.0522423871f, 0.0338810198f, 0.201349527f, 0.0536677502f, 0.0165777113f, -0.0494234338f, -0.0800401196f, 0.0938137695f,
    0.0211083665f, -0.093619138f, 0.0907583833f, -0.115456447f, 0.0318983719f, -0.0473694578f, -0.0522287376f, -0.0724925846f,
    -0.177615002f, 0.102464803f, 0.0285938121f, 0.139563203f, 0.0914941803f, 0.11481674f, 0.199232593f, 0.148976013f,
    -0.0708047822f, -0.0852612406f, 0.124677919f, -0.172222167f, -0.0639305264f, -0.0722429752f, -0.00168685801f, -0.130711928f,
    -0.0890354812f, -0.0143535575f, -0.105532236f, -0.0596873909f, -0.120901443f, 0.0209153611f, -0.0556722097f, -0.0342893116f,
    -0.00561669655f, 0.0590240248f, -0.0850529522f, -0.075532034f, -0.0833541229f, -0.0562834702f, -0.0986301303f, -0.0282256082f,
    -0.192125767f, 0.0341393985f, -0.0125914617f, -0.054652065f, 0.00789690111f, -0.0797446817f, 0.1124302f, -0.080198437f,
    -0.0580106713f, 0.0187524091f, -0.0280329753f, 0.0421234518f, 0.080818601f, 0.0242987201f, -0.0666858777f, -0.109690718f,
    0.0919913054f, -0.0968985558f, -0.045775827f, -0.0525680557f, 0.0664940625f, -0.0632209852f, 0.0446506441f, -0.101393536f,
    0.0904783159f, -0.00728709903f, -0.0689043254f, -0.0462884344f, 0.00166879967f, -0.0268553831f, -0.000521814334f, -0.0570311286f,
    -0.0849070922f, 0.0171751957f, 0.082410574f, 0.00714908727f, -0.0865222812f, 0.0798058733f, -0.111176752f, -0.00928216707f,
    -0.0271353293f, -0.0338649713f, 0.0278910231f, 0.0748899132f, -0.00678595295f, 0.0255230013f, -0.0552937798f, 0.0883650631f,
    0.090648748f, -0.0673002228f, -0.068816185f, -0.227726668f, -0.148759529f, -0.00828289334f, -0.0791088939f, -0.0111495964f,
    -0.0424465761f, 0.0601346046f, 0.228810713f, 0.204870656f, 0.235001951f, 0.178394854f, -0.0206215829f, 0.0657957345f,
    0.0805674642f, 0.241870567f, 0.146754995f, 0.0384535231f, 0.0960706472f, 0.0972328708f, 0.00329939369f, 0.0334615149f,
    0.188610807f, 0.0177423805f, -0.0243837796f, -0.114018999f, 0.0756190196f, -0.0481482707f, 0.0650224835f, -0.138746634f,
    -0.0448707528f, -0.103569344f, -0.214185372f, -0.115599483f, -0.242562518f, -0.155533969f, 0.0483251214f, -0.0195436049f,
    0.0447458774f, -0.0356360301f, -0.0974745527f, -0.00543786073f, -0.135129213f, 0.00840985775f, 0.0323224664f, -0.0742663145f,
    -0.101208344f, -0.119456455f, 0.0441974439f, 0.0293710437f, 0.123742916f, 0.0244960226f, 0.0488190763f, 0.0527329743f,
    0.0388657935f, -0.0417785682f, 0.0539032668f, 0.192565188f, 0.00355292624f, -0.0702816173f, -0.136625767f, 0.0372074805f,
    0.0106641743f, -0.105176412f, -0.124508493f, -0.0139848106f, -0.0239984281f, 0.0748634189f, -0.0101008369f, 0.0329911374f,
    -0.0643022358f, 0.0217141286f, -0.109187096f, -0.156284422f, -0.0800879374f, 0.0635539517f, 0.0791806802f, -0.0685358271f,
    -0.0355200246f, -0.00130692089f, -0.0626279414f, -0.014602771f, -0.12122912f, -0.0979933068f, -0.0838788003f, 0.0288821924f,
    -0.0313062929f, 0.041132044f, 0.090116635f, 0.0923460945f, 0.0957469717f, -0.135343343f, 0.00349861872f, -0.0758040696f,
    -0.0636363775f, 0.0363432765f, 0.0419250056f, -0.0386009328f, -0.041706834f, 0.00492526032f, 0.0843194872f, -0.0820162967f,
    -0.108136505f, -0.0995895267f, 0.0712991729f, -0.042633146f, -0.0704713389f, -0.00406206353f, 0.0444218777f, -0.102064736f,
    -0.0207371917f, 0.0847647637f, -0.0738113001f, -0.10963954f, -0.0825819001f, -0.0602083243f, 0.0037909525f, 0.0926163569f,
    0.0850352049f, -0.104355358f, -0.0447220504f, -0.0830623582f, -0.0996764898f, -0.116716318f, 0.0629767254f, -0.161603659f,
    0.0384754613f, 0.0774645954f, -0.00488504162f, -0.215769261f, 0.0338346176f, 0.079614684f, 0.0122474963f, -0.093072392f,
    -0.0890120789f, -0.221944451f, 0.0565836802f, 0.18242532f, -0.162760243f, -0.154993147f, -0.13000907f, -0.162860155f,
    -0.0795818269f, 0.1431683f, -0.0428916104f, -0.185825944f, 0.0290905982f, 0.241694525f, 0.156678334f, 0.136811659f,
    0.00120057736f, -0.0205120295f, 0.127958074f, 0.0257110149f, 0.0308970883f, -0.109266832f, -0.0464256965f, -0.0180498119f,
    -0.0859193876f, 0.0563436076f, 0.104048029f, 0.115632795f, 0.160011336f, 0.0490230881f, 0.164442405f, 0.0407380313f,
    0.0437503271f, 0.102158725f, 0.0261714179f, 0.091394715f, 0.0940491632f, 0.149263218f, 0.175032854f, 0.147762686f,
    0.0815108642f, 0.0527164489f, 0.096051693f, 0.0462951772f, 0.0800538957f, 0.116879135f, 0.0919699147f, 0.0957320854f,
    0.0435312986f, -0.0597844943f, 0.0746115297f, 0.0246280208f, 0.0867808908f, 0.0902891755f, 0.0377383754f, -0.00793133676f,
    0.041175548f, 0.176981255f, 0.166705146f, 0.103017114f, 0.0761203989f, 0.14665778f, 0.00435409881f, -0.0504770279f,
    0.0325823911f, 0.0268142316f, -0.0887924433f, -0.00471217558f, -0.100759022f, -0.0136529291f, 0.05077748f, 0.0336424299f,
    -0.0269661993f, 0.00722697377f, 0.0970477015f, 0.0447422899f, 0.109200902f, 0.137770295f, -0.0539974831f, 0.0219861139f,
    0.0417027287f, -0.0359833203f, 0.0884427652f, 0.0196596943f, 0.119883798f, -0.00911999866f, 0.0330526046f, -0.0525253378f,
    0.0770527571f, 0.0273184013f, -0.015047418f, 0.0603473932f, -0.0594248399f, -0.0379150622f, 0.103348501f, 0.0640566126f,
    -0.0592741854f, -0.0117714703f, 0.0245121997f, -0.0541655682f, -0.0263391454f, -0.100733429f, -0.0431712046f, -0.0406785831f,
    -0.076301001f, -0.114464052f, -0.0502788723f, -0.13826026f, -0.0822086334f, -0.0986528173f, -0.0344930328f, -0.0342846476f,
    -0.117398143f, -0.0486613885f, 0.00494477991f, 0.00904983934f, -0.0401036963f, -0.168756619f, -0.161307275f, 0.034487471f,
    0.0734238997f, -0.12085215f, -0.178745419f, -0.134182677f, 0.0658469647f, 0.137956068f, 0.0395369157f, -0.0188365448f,
    0.0586994924f, 0.0571633652f, -0.102163009f, -0.2415535f, 0.026690701f, 0.0983124599f, -0.117860593f, 0.0418037511f,
    0.0349253304f, 0.0936491415f, -0.0574933514f, -0.217047244f, 0.0864115357f, 0.210059971f, 0.127655104f, -0.14912954f,
    -0.108100645f, 0.141826093f, 0.202566117f, 0.251558065f, 0.138902977f, -0.0694703832f, -0.0548156388f, 0.155766726f,
    0.220191926f, -0.0301053897f, 0.0283055753f, 0.0624120496f, 0.0338134393f, 0.0587408915f, -0.0596904866f, 0.0370674096f,
    0.224138901f, 0.0369113646f, -0.00754614174f, 0.0717391446f, -0.0818990171f, -0.0775884315f, 0.0185005236f, -0.121421516f,
    0.081141673f, 0.000497022993f, -0.0140647944f, -0.181024864f, -0.0236567762f, -0.123626612f, 0.0311637614f, -0.0654371828f,
    -0.182555005f, -0.131211057f, 0.0320716724f, 0.038950555f, -0.0104956049f, 0.0082144374f, 0.117525212f, 0.00123357354f,
    0.117965102f, 0.0755517036f, 0.066128321f, 0.0398039445f, -0.0566487648f, 0.0794144943f, 0.0796897933f, -0.0356024615f,
    0.0874833539f, 0.00518905185f, -0.0733669773f, -0.0849470273f, -0.0828040764f, -0.0369558893f, -0.00731627597f, -1.89693164e-05f,
    0.057339631f, 0.0825475827f, -0.0690425858f, 0.0766858682f, -0.0276555233f, -0.0615404621f, 0.0692733303f, -0.068094708f,
    0.124379329f, 0.0241972543f, -0.0771014318f, 0.0440389104f, 0.0722723454f, 0.013342334f, 0.0425535887f, 0.0381645001f,
    0.0261999164f, -0.126255557f, -0.0437576175f, 0.0140671935f, 0.0805377215f, -0.106931709f, 0.0236858558f, 0.0601913072f,
    -0.0529266372f, 0.0109312888f, -0.103711925f, -0.115521364f, 0.07548742f, 0.0866576061f, -0.0621750392f, -0.125295311f,
    -0.10542506f, -0.0519860387f, 0.0333367735f, -0.113838643f, -0.029528752f, 0.0469087064f, -0.116006665f, -0.118261516f,
    -0.0352382995f, 0.0812210664f, -0.0329830572f, 0.0615489259f, 0.0324480683f, 0.0433726572f, -0.0986463577f, -0.0933896303f,
    -0.0608706288f, -0.136661336f, 0.0469397977f, -0.0788384303f, 0.0391560718f, -0.0191295501f, 0.022780899f, 0.0986048952f,
    0.189688772f, 0.0324713439f, -0.0391897075f, 0.154400334f, 0.0356073454f, 0.125725314f, 0.0926543176f, -0.0894892663f,
    -0.0906748846f, -0.00988239888f, -0.0815737024f, -0.12158712f, 0.141148344f, 0.0332211293f, -0.162756234f, -0.275595576f,
    -0.307414234f, -0.0359014235f, -0.0665142462f, -0.0603716448f, 0.0823245868f, 0.0176772662f, 0.0660509244f, -0.135347813f,
    -0.0683172047f, -0.0856550857f, 0.0142705562f, 0.0651514754f, -0.0875578001f, -0.0391513817f, -0.0528880134f, -0.11437124f,
    0.0342940986f, -0.00145462214f, 0.0492176451f, -0.0854333788f, -0.0507837683f, 0.00725647295f, -0.0274285059f, 0.102906644f,
    0.163244352f, -0.00935502909f, 0.203764915f, 0.184343934f, 0.124989897f, 0.032536149f, -0.00285003264f, 0.0693002716f,
    0.0272309538f, 0.00887432322f, 0.0319310427f, 0.120147683f, 0.186254755f, 0.207393482f, 0.147488102f, 0.109770365f,
    0.104078755f, 0.0558318682f, 0.112672172f, -0.188384637f, -0.0780196413f, -0.133460224f, -0.0386064909f, 0.0655980706f,
    0.0693197846f, 0.0487359874f, 0.00980431121f, -0.0106619578f, 0.0107818609f, 0.0115280217f, -0.0180470198f, 0.128944606f,
    0.105534956f, 0.112813346f, -0.0676220283f, -0.0300880503f, 0.0827452466f, 0.0667105392f, 0.0527899712f, 0.0221243016f,
    0.0378746018f, 0.0209182501f, -0.0492688082f, -0.00798483193f, 0.0925379544f, 0.0213071462f, 0.0971738696f, 0.0791273713f,
    0.0299352165f, 0.0762067363f, 0.0176688768f, -0.100984484f, 0.0290112831f, 0.0693555623f, -0.0887339339f, 0.0854896531f,
    -0.112250254f, -0.108512476f, -0.111493535f, 0.0309141297f, -0.0783280656f, 0.0567136034f, 0.0752680749f, -0.116717331f,
    -0.0432632752f, 0.068190679f, 0.0122799482f, -0.105816856f, -0.0540078096f, 0.0350129269f, -0.0722962841f, -0.103917092f,
    -0.0678695217f, 0.00682574743f, 0.0388214551f, 0.00341903768f, 0.00025909004f, 0.0385933816f, -0.113618419f, -0.102616556f,
    -0.0517321341f, -0.135457575f, 0.0228414703f, 0.0564798638f, -0.173038617f, -0.196010739f, -0.136598513f, -0.103732795f,
    -0.146880686f, -0.347908407f, -0.13137354f, 0.0713383183f, 0.0382214151f, -0.119830713f, -0.0627522841f, -0.186060175f,
    -0.199023709f, 0.0436281636f, 0.0823425651f, 0.0599930547f, 0.144350767f, 0.0418033637f, 0.0867587924f, 0.104701988f,
    0.0864998922f, -0.0926113427f, 0.0676465631f, 0.121749058f, 0.0878680497f, 0.0393024087f, -0.0532308593f, -0.00949871074f,
    0.0318088755f, 0.0339167342f, -0.0803135633f, -0.0909428373f, -0.0996027067f, 0.00209996407f, 0.0783642903f, 0.106045634f,
    0.120210253f, -0.0632829815f, 0.0589998625f, 0.00101801113f, 0.0678146929f, 0.0890542492f, 0.00822323374f, -0.0306718461f,
    -0.0647515655f, -0.0563471951f, 0.0452051386f, 0.0510852113f, 0.0267916527f, -0.0159687437f, 0.0169512965f, 0.0481296219f,
    -0.0322174728f, -0.0667624325f, 0.019079553f, 0.049274873f, -0.0275084879f, 0.0162826516f, -0.0182368997f, 0.0170105621f,
    0.0312631577f, -0.0297360364f, 0.0645904392f, 0.0218619015f, 0.0636742711f, 0.144075528f, 0.0587913282f, 0.14486073f,
    0.0584802888f, 0.0275498051f, -0.103284404f, 0.0701833367f, -0.0730438828f, 0.00720725907f, -0.0790331811f, -0.0066593173f,
    -0.0171120279f, 0.106985994f, 0.101581611f, -0.0638792962f, -0.0500067957f, 0.0371424407f, 0.0207155086f, 0.0621972978f,
    0.0537377112f, 0.159506902f, 0.097691454f, 0.0935752541f, -0.0485612527f, 0.1309136f, -0.0672637001f, 0.0325165279f,
    0.00831196457f, 0.0937301293f, -0.0284997281f, -0.00349214487f, -0.0393316112f, -0.0599980168f, 0.055019971f, -0.0797074512f,
    0.0198977944f, 0.00871985685f, 0.0613004789f, -0.096060589f, -0.0706700236f, 0.0589283518f, 0.0410965309f, -0.0314610451f,
    -0.0343833901f, -0.111382402f, -0.0335932411f, -0.00421360601f, -0.105049439f, 0.0924516097f, 0.0655573681f, 0.0216763765f,
    0.0889036134f, 0.0790882483f, -0.0557767935f, -0.0465766378f, 0.0988436565f, -0.0997434184f, 0.0516837649f, 0.0825113058f,
    0.0654996932f, -0.0981913358f, -0.0990975499f, -0.0697950199f, -0.0736236274f, 0.0605672225f, -0.109154902f, 0.0414817743f,
    -0.0072565903f, -0.0591687672f, 0.0202145278f, 0.0549449213f, 0.0201561972f, -0.0561417304f, -0.00922515709f, -0.00284380186f,
    0.0274723526f, 0.141891688f, 0.0157297812f, 0.0796336383f, 0.064815186f, -0.113297008f, -0.0922835916f, -0.0830507278f,
    -0.0287524443f, -0.123027004f, -0.00432044966f, -0.0217959862f, 0.0746844411f, 0.0741178691f, -0.0192114357f, 0.0988180041f,
    -0.0603520609f, 0.0426140949f, 0.0151277957f, -0.0159080178f, 0.0692724735f, 0.10249047f, 0.236601248f, 0.191422641f,
    0.187442735f, 0.142834514f, 0.177443802f, 0.167704493f, 0.0311025511f, 0.0252536889f, 0.0524303317f, -0.00451146765f,
    -0.0352463908f, -0.135360047f, -0.157532498f, -0.154435515f, -0.0624249689f, -0.173334882f, -0.313032478f, -0.187616006f,
    -0.167490453f, -0.14153032f, -0.0557161383f, -0.0673370063f, -0.0858174041f, -0.0996744409f, -0.0729721785f, -0.0326096453f,
    -0.0135937799f, -0.0909742713f, -0.0207539145f, 0.00815955456f, 0.0396839865f, -0.104536794f, -0.0901269019f, 0.00497242436f,
    -0.0871307626f, -0.0167161115f, -0.0537150577f, 0.139456794f, -0.025402816f, 0.0387743302f, 0.00662523881f, 0.00752625242f,
    -0.0424886979f, -0.00322770956f, 0.0459329039f, -0.00758076785f, 0.0272103362f, 0.00650026929f, 0.127429962f, 0.0744640604f,
    -0.057774581f, -0.0370391235f, 0.132159427f, -0.00249762996f, -0.0373031572f, -0.0642880425f, -0.00624329271f, -0.0248315744f,
    -0.0921538621f, -0.0539402589f, 0.0370201766f, -0.0512412526f, -5.59378932e-05f, 0.075768441f, -0.0678990111f, -0.0475633852f,
    0.107422926f, -0.010311719f, 0.0786883533f, -0.084095858f, 0.00785556249f, 0.0967761353f, -0.0199935306f, -0.01190669f,
    0.0294401255f, -0.0817101672f, -0.0862461329f, 0.0255696271f, -0.0827099234f, 0.099067986f, -0.0047028102f, -0.0354779921f,
    -0.0213566255f, 0.0263531934f, 0.0134391515f, -0.0628390908f, 0.0466008857f, 0.0502139553f, 0.0200890526f, 0.0329488404f,
    0.0917806849f, -0.00445699412f, 0.0495397113f, 0.121917762f, -0.085806109f, -0.0961090475f, 0.111834593f, -0.0476888977f,
    -0.0328250639f, 0.079309158f, 0.17323415f, -0.0184008032f, -0.00473186281f, 0.250816554f, -0.0229393207f, -0.292060792f,
    0.0847123787f, -0.016081512f, -0.109326571f, 0.107032426f, -0.210428998f, -0.116604619f, 0.352270216f, 0.258463174f,
    -0.0124183791f, -0.0824943408f, 0.11108125f, 0.0118011776f, -0.065725334f, 0.00432328042f, -0.0207462441f, -0.000911381503f,
    0.10804756f, 0.0817074925f, 0.0748605877f, 0.0321434736f, 0.0435874835f, -0.00625082385f, -0.0151538057f, 0.0145657631f,
    0.0889811665f, 0.151839241f, 0.103373639f, 0.0397935212f, 0.0153277554f, 0.100254051f, -0.00891713239f, -0.00535435323f,
    0.00242345803f, -0.0884552151f, -0.0648967028f, -0.120713621f, -0.127002478f, -0.133654743f, -0.205046579f, -0.224681601f,
    -0.233088985f, -0.225111291f, -0.193101391f, -0.00241369521f, -0.107224569f, -0.0331411697f, -0.110421032f, -0.0662460104f,
    -0.0986603349f, -0.142046243f, -0.0636214465f, -0.0801382959f, -0.0295566302f, -0.00922602508f, -0.0433805175f, -0.00403999863f,
    0.077214852f, -0.034787152f, 0.0307140183f, -0.137184739f, 0.0103840344f, -0.0686683506f, 0.0100712422f, -0.00798048358f,
    -0.0372797996f, 0.0193539672f, 0.00729061011f, -0.0925717875f, -0.0016291982f, 0.0584681034f, -0.0794597268f, -0.023704851f,
    -0.0514641069f, -0.136893123f, -0.0297966991f, -0.0804521963f, -0.0723172575f, -0.0423687585f, 0.0418988504f, -0.0921480954f,
    0.117190205f, -0.0664270967f, -0.0185818616f, -0.0650123581f, 0.0405254029f, 0.0349313729f, 0.0747291967f, 0.0536197685f,
    0.000750612875f, -0.0406383425f, -0.0987004861f, -0.0934426785f, -0.0493050218f, 0.0270608198f, 0.0310255475f, 0.0999558643f,
    0.0991623178f, -0.072168231f, -0.101021096f, -0.043466419f, 0.0129964063f, 0.0615719557f, 0.0386754535f, -0.0102401571f,
    0.0835387707f, 0.11576739f, 0.0910596475f, -0.0545715466f, 0.0861992761f, 0.0783011094f, -0.0593647696f, 0.0248663425f,
    0.00429326994f, 0.0973671079f, 0.0588769466f, 0.00752832415f, -0.0572036467f, 0.0516207926f, -0.0806648284f, -0.0257886425f,
    0.195817918f, 0.0763150528f, 0.0425123237f, -0.0591436587f, 0.127705321f, 0.162425056f, 0.21360594f, 0.00746434415f,
    0.0343218036f, -0.0230658017f, 0.035576202f, 0.23794505f, 0.039824333f, -0.0801821351f, 0.0265729968f, 0.0466721579f,
    -0.0829446539f, 0.0440844074f, -0.00663850969f, -0.0268111415f, 0.167000905f, 0.0577167943f, 0.0647005439f, 0.0144500928f,
    0.0117351841f, 0.0212090295f, -0.142783985f, -0.0650362149f, -0.0541619472f, 0.0414899625f, 0.060696166f, 0.228329048f,
    0.238696158f, 0.0272496324f, -0.178340256f, -0.0200247038f, 0.0433454141f, 0.0192585904f, -0.103598222f, -0.0745451078f,
    -0.072691597f, -0.147226572f, -0.0912380517f, -0.186358929f, -0.177087605f, -0.172188088f, -0.138599411f, -0.14416638f,
    0.0247120969f, -0.00909037329f, -0.0089845378f, -0.106010318f, 0.0261047874f, 0.0381984338f, -0.0413683355f, -0.00996294059f,
    0.00465707015f, -0.0745119378f, -0.135151938f, -0.145667568f, -0.149984673f, -0.14624624f, -0.0536641032f, -0.0875267908f,
    0.0297416784f, -0.027894903f, -0.0501444787f, -0.0562398434f, 0.0679878891f, 0.119796425f, -0.0765573233f, -0.016312344f,
    0.12575601f, 0.129604161f, 0.105878785f, 0.0175444055f, 0.0683553666f, 0.0474597923f, -0.0238632225f, 0.0698457956f,
    0.0311297681f, -0.16010201f, -0.0660920516f, -0.0146881808f, -0.130338669f, 0.00103519438f, -0.0347877443f, 0.0219689198f,
    -0.0186344013f, -0.0114443079f, -0.140179053f, -0.0488891415f, -0.106269307f, -0.0193377584f, -0.00527134072f, 0.0126082655f,
    -0.133455828f, -0.0439655893f, -0.053845413f, -0.110233203f, -0.0298975129f, -0.042162139f, -0.0556601584f, -0.0792823136f,
    -0.0660609379f, 0.103981093f, -0.0173265953f, 0.0572537668f, 0.0771907046f, -0.0736931935f, 0.0260137152f, 0.0344406329f,
    -0.0778629854f, 0.0351804346f, 0.0783866569f, 0.075320594f, 0.0203721318f, 0.0901040882f, -0.0750933886f, 0.0711080506f,
    0.0572291128f, -0.0811961368f, 0.0272890925f, 0.0495495684f, 0.0435516275f, 0.0144985262f, 0.097612381f, 0.123011328f,
    -0.0545342863f, 0.037831232f, 0.18558307f, 0.0400760621f, 0.00774342148f, 0.0809940398f, 0.206798092f, 0.107546046f,
    0.0780879855f, 0.041886162f, 0.059607029f, 0.0232174788f, 0.0250378344f, 0.238593668f, 0.331252605f, 0.0944551304f,
    -0.0811294243f, -0.158848539f, 0.0106348898f, -0.00485800393f, -0.0577713549f, -0.145615265f, -0.159176782f, -0.00996237993f,
    -0.0725482851f, -0.130743206f, -0.151348755f, -0.0076287142f, 0.0183970612f, -0.0803743228f, 0.0984714702f, -0.0320336595f,
    0.0594474189f, 0.00504467683f, -0.183254793f, -0.113513328f, -0.129116192f, -0.0793392211f, -0.118328884f, -0.12187425f,
    0.0224621352f, 0.0657729134f, -0.0196067989f, -0.078154467f, 0.0407080613f, 0.0196842905f, -0.120531641f, -0.0868775249f,
    0.0666062832f, 0.0443017595f, 0.076245375f, 0.0964557528f, 0.0696034506f, 0.0677943081f, 0.0442495123f, 0.132049844f,
    -0.132155523f, 0.045692306f, 0.0325969346f, -0.0273647346f, 0.0374847911f, -0.137214735f, -0.136306256f, -0.147261217f,
    -0.139010936f, -0.0952956751f, 0.0517174825f, -0.0270647928f, -0.0495782457f, -0.0182204936f, -0.163960084f, 0.142288417f,
    -0.0215612017f, 0.0337600894f, -0.00700027356f, 0.0273831729f, 0.0614182241f, 0.00838217232f, 0.106699608f, -0.00684474688f,
    -0.147243604f, 0.016809376f, -0.107426398f, -0.0961381495f, 0.077487357f, 0.0783337504f, -0.0342570171f, 0.0916647762f,
    0.0272774678f, 0.0525552481f, -0.142525628f, 0.0520389304f, 0.0665446818f, -0.0390911773f, -0.0269649066f, 0.029087523f,
    0.0235453025f, 0.0367092118f, -0.0271899235f, 0.0832582638f, -0.0947851315f, 0.0536068156f, 0.108750969f, -0.092071943f,
    -0.0727149174f, -0.0367699414f, 0.034751974f, -0.0750969052f, 0.0828715339f, 0.0493766107f, 0.0890183523f, -0.0159865562f,
    -0.00982286222f, 0.0138278957f, -0.0150378207f, 0.000860693399f, -0.0113120647f, -0.0122424504f, 0.0138270417f, 0.0794637203f,
    0.128884092f, 0.0257896446f, 0.0616445802f, -0.0377378836f, -0.0400882661f, 0.0187813211f, 0.111672647f, -0.0337032862f,
    0.105548888f, 0.111485906f, -0.0352617353f, -0.130942881f, -0.00207621488f, -0.0711478516f, -0.0693768263f, -0.0807090476f,
    -0.00653628586f, -0.140973091f, -0.0722722262f, -0.0685219988f, -0.18011041f, -0.066667676f, -0.19060573f, -0.160252362f,
    -0.0234764498f, 0.0350562185f, -0.0296494048f, 0.086201787f, 0.00390747422f, -0.097710669f, -0.122425176f, -0.109966375f,
    -0.0531385429f, -0.116394714f, -0.0587914214f, -0.0371525772f, 0.062669687f, 0.107100956f, 0.0581913777f, 0.132399768f,
    0.0957551599f, 0.0446481258f, 0.127485648f, 0.25505209f, 0.150261372f, 0.0895581692f, 0.155808896f, 0.0477313846f,
    -0.0183531083f, 0.0717648417f, -0.0047876155f, 0.0390437618f, -0.055306714f, -0.00294593023f, 0.055868227f, 0.0306432974f,
    -0.0158056542f, 0.040201243f, -0.0681210831f, 0.0218031425f, 0.0842772722f, 0.140714169f, -0.0188396387f, 0.0143002225f,
    -0.0682618394f, -0.0350737497f, 0.0119025959f, 0.03425318f, 0.0177013725f, 0.0351804718f, -0.035005983f, 0.0605023503f,
    -0.0489322469f, 0.0523061976f, 0.105022013f, 0.163542181f, 0.00967389904f, 0.0749825686f, -0.0131115299f, 0.0948142335f,
    0.0521585345f, 0.065420039f, 0.0194554292f, 0.102328926f, 0.039529305f, -0.0587046705f, -0.0567766316f, 0.0856797025f,
    0.0547495484f, -0.080896087f, 0.0351439528f, 0.124410771f, 0.0753450915f, 0.0297634099f, 0.0880558938f, -0.0411987603f,
    0.0308360346f, -0.00396892661f, 0.0446402878f, 0.0843210146f, 0.0847192109f, 0.0753028318f, 0.0607183054f, 0.0206223447f,
    -0.0361731686f, -0.07346306f, 0.00424424838f, -0.0533448942f, 0.0717783049f, -0.0363270305f, 0.0593140982f, 0.00387687562f,
    -0.0841696113f, -0.0337346308f, -0.0053165257f, -0.0199261066f, 0.0794788599f, 0.00874908548f, 0.00143144326f, 0.124663882f,
    -0.0414693058f, -0.0476788953f, -0.0385286398f, -0.0240024179f, -0.036650721f, -0.0989380553f, 0.116064236f, -0.0771814287f,
    0.0847912952f, -0.0355669893f, -0.0772191435f, 0.0983192176f, 0.0149471704f, -0.032274127f, -0.0850997865f, 0.105109327f,
    -0.14084962f, -0.0711469725f, -0.10228806f, -0.135605216f, -0.116476327f, 0.180011556f, 0.0773893669f, 0.0829547271f,
    0.000801060465f, 0.0190463029f, -0.0165379178f, 0.104902551f, 0.0787506327f, 0.223936394f, -0.0252624676f, 0.0471156128f,
    -0.0364715382f, 0.0545395948f, -0.116610907f, -0.150016755f, -0.00360423978f, -0.00229513412f, 0.101158522f, 0.13443163f,
    0.0287042502f, -0.0473341011f, -0.158658087f, -0.139681906f, -0.0353643857f, 0.123019122f, 0.191472203f, -0.0229641609f,
    -0.164302602f, -0.128994599f, 0.102700524f, 0.161980405f, -0.0431564972f, -0.15781866f, -0.0674865693f, -0.0120866969f,
    0.103035502f, 0.0225917511f, -0.0584251024f, -0.0848938823f, -0.0602467582f, -0.0482053086f, -0.00582128717f, 0.0520806313f,
    0.0784106106f, -0.0186270103f, 0.143778592f, 0.0911795273f, 0.185962707f, 0.11362724f, 0.105701648f, 0.174965277f,
    -0.00129940058f, 0.0541322492f, 0.139401346f, 0.126157045f, 0.155305132f, 0.193165064f, 0.196549371f, 0.150341824f,
    0.134895846f, 0.106439285f, -0.0933277011f, -0.00400228333f, -0.0262836721f, 0.0247961115f, 0.110210359f, 0.180244222f,
    -0.0107335458f, -0.0242257025f, 0.0718900785f, 0.0427812748f, 0.0204940867f, -0.00181535364f, 0.143115625f, 0.12509349f,
    0.139777333f, -0.0815107897f, 0.13891305f, -0.0419187211f, 0.0624964274f, -0.0691647977f, -0.0386078581f, 0.0725034326f,
    -0.0332172289f, -0.00386883458f, -0.0943212584f, -0.0787226111f, -0.0903106853f, -0.0909727365f, -0.0100945542f, 0.0716502145f,
    -0.0243950188f, -0.095542416f, 0.0572739914f, 0.0151962172f, 0.0239495095f, 0.0188748948f, -0.0977513045f, -0.0486665107f,
    0.052508641f, -0.0543691181f, 0.00761683704f, 0.0539419018f, 0.0507492684f, 0.0582221337f, -0.0896121934f, 0.0666380525f,
    -0.137405097f, -0.104302354f, -0.141374528f, -0.0430681221f, -0.12508969f, -0.133001998f, 0.0415997356f, -0.0360857099f,
    -0.000835790357f, -0.017350968f, 0.0241880361f, 0.0434700921f, -0.0178426821f, -0.023297755f, -0.102201015f, -0.0847856849f,
    -0.00744257262f, -0.0237803552f, 0.00310340035f, 0.0273427423f, -0.169320166f, -0.216981366f, -0.00870072469f, 0.00280634221f,
    -0.0792692155f, -0.0985018089f, 0.0176101923f, -0.042668689f, 0.0287432745f, 0.136930153f, -0.00541455345f, -0.0859364569f,
    -0.211372718f, -0.104862377f, -0.107713461f, 0.0210571047f, -0.0581392497f, 0.0661087707f, 0.102131553f, -0.181003079f,
    -0.0535606332f, 0.0638775602f, 0.0426406227f, 0.0801260173f, 0.0551213138f, 0.230103999f, 0.0433051884f, 0.0207928251f,
    -0.135663971f, -0.141391441f, 0.0195760373f, 0.0442567281f, 0.105830759f, -0.00640593655f, 0.13978456f, 0.219976574f,
    0.332862675f, 0.270850569f, 0.149116367f, 0.154135302f, -0.0357511081f, -0.0418567806f, -0.105651774f, 0.0560852475f,
    0.0670614317f, 0.106562786f, 0.0903168768f, 0.11109329f, 0.138338327f, 0.0922748223f, -0.049603045f, 0.00562325539f,
    -0.116123781f, -0.134454638f, -0.0540775098f, -0.0381639488f, -0.179615989f, -0.13202551f, -0.0974904746f, -0.161272526f,
    -0.198088631f, 0.00636513066f, 0.0401966497f, -0.0472909883f, -0.0137440721f, -0.110909782f, -0.0670857579f, -0.10510423f,
    0.124962524f, 0.117784575f, 0.0439505726f, 0.105103657f, 0.0585369617f, 0.115649201f, -0.00230095023f, 0.0971170813f,
    0.223090068f, 0.0948999971f, -0.0285069887f, 0.0926908031f, 0.012983609f, 0.0396380723f, -0.0233731344f, -0.0566887185f,
    0.0758984983f, 0.0457498804f, 0.0177802201f, -0.0819407776f, -0.103314333f, 0.0711700097f, 0.128476948f, -0.0484514348f,
    -0.0362963937f, -0.00780050736f, 0.0474218391f, -0.0073122601f, 0.113290995f, 0.0965747982f, -0.0186079368f, 0.0865504891f,
    0.0536179729f, -0.0965047553f, 0.0320276693f, 0.0860830992f, -0.0630627424f, -0.0492751822f, -0.034523312f, 0.0841760337f,
    0.0151592605f, 0.0292292759f, -0.0446173251f, -0.0342455469f, 0.0394387208f, -0.113182075f, -0.0842000321f, -0.00997813698f,
    -0.0539717712f, -0.0409885757f, -0.056877967f, -0.0182515681f, -0.0643337369f, -0.0292025842f, -0.0291439686f, 0.0385369919f,
    -0.120035179f, 0.0137129761f, -0.0231734216f, 0.0617708005f, -0.0991050079f, -0.133374378f, -0.123048536f, 0.00482587283f,
    -0.125813231f, 0.145657346f, 0.119769379f, 0.0882703513f, 0.129174426f, 0.0264067445f, 0.0920113474f, -0.0204125624f,
    -0.138574302f, -0.131952479f, -0.0182778761f, 0.114575222f, 0.142500386f, -0.0128744571f, -0.0626550391f, -0.0649882481f,
    -0.00534121646f, -0.0592521057f, -0.0446236022f, 0.00268828357f, 0.0990791544f, 0.139532954f, -0.0967373773f, -0.10250368f,
    -0.06518621f, 0.0487260446f, 0.118369028f, -0.028297523f, 0.115254477f, 0.18516396f, -0.00691611739f, 0.0989347249f,
    -0.0875059888f, -0.0153116658f, 0.0263899472f, 0.00280675059f, -0.0896426663f, -0.112616226f, -0.0521990471f, -0.0292678755f,
    -0.102131195f, -0.129206672f, -0.00187066966f, 0.044433333f, 0.0507433452f, 0.0237939153f, -0.0757552311f, 0.0491389222f,
    -0.0588319041f, -0.265673816f, 0.00916296709f, -0.0275153331f, -0.0709291846f, 0.00757677946f, 0.059880998f, 0.117451966f,
    0.0707506761f, 0.174716875f, 0.0816443563f, 0.12434908f, 0.0140150422f, 0.0312543176f, 0.0819445997f, -0.105244093f,
    0.0386287756f, 0.00267967815f, -0.0158095043f, -0.0818969086f, 0.046430897f, 0.0164545327f, -0.0489641391f, -0.0355163924f,
    0.0999281183f, 0.112738043f, 0.124541253f, -0.0442979112f, -0.0502968058f, -0.0458530821f, 0.191133693f, 0.037734922f,
    0.0725045502f, 0.0487091318f, 0.128631875f, 0.0995553359f, 0.0284246542f, -0.0163234025f, -0.0465455018f, 0.0975450501f,
    0.100600474f, 0.0395935439f, -0.0619073622f, 0.00874173455f, 0.138423666f, 0.0482608117f, -0.0414514393f, -0.0680707619f,
    -0.00774986669f, 0.0672026351f, -0.118422292f, -0.0683927089f, 0.0692840144f, 0.087962918f, 0.073759228f, 0.0415429175f,
    -0.0598967858f, 0.0349927843f, 0.0850493759f, 0.0425014161f, -0.00983436964f, -0.0112723159f, -0.0108632073f, -0.022640001f,
    -0.0747027844f, -0.107622899f, -0.0662273765f, 0.0809709132f, -0.0137980292f, 0.0635484383f, 0.0480402596f, -0.0261627957f,
    -0.0181917623f, -0.0776418075f, 0.0733055547f, -0.0510313734f, -0.0198717546f, -0.102368765f, -0.0247723907f, 0.0891420618f,
    0.0688237101f, -0.080959931f, 0.0789457187f, 0.022545835f, 0.050057251f, 0.0878529698f, 0.0219239686f, 0.0232429281f,
    0.0836975127f, 0.230153203f, 0.154858053f, 0.08966434f, 0.0536722578f, 0.0611214042f, 0.0117778936f, -0.0140785789f,
    -0.0533909276f, 0.0220912751f, 0.17560944f, 0.017734291f, 0.0451926775f, 0.135689378f, 0.110497005f, -0.154029176f,
    -0.0137411002f, -0.026460465f, -0.03538559f, -0.0263789073f, -0.0147096226f, 0.0612945147f, 0.0541706905f, 0.0694198012f,
    0.0662760437f, -0.0924947485f, -0.0295579396f, -0.037458837f, 0.0408189707f, 0.0488569364f, 0.070048362f, 0.0757491514f,
    0.121683523f, 0.0179120488f, -0.00247000507f, 0.0303642955f, 0.0361898281f, -0.145037785f, -0.0875756741f, 0.0763146207f,
    0.0816157237f, 0.0676112771f, -0.0279399753f, -0.0715393797f, -0.0878113434f, -0.0574315637f, 0.0875632614f, 0.0617047586f,
    -0.0304070022f, -0.0606883019f, -0.127586171f, -0.15190722f, -0.0796130002f, -0.0262385495f, -0.0314399637f, -0.138835728f,
    -0.0303148851f, -0.0447100066f, 0.0470728837f, 0.0465877987f, 0.163010776f, 0.075945504f, -0.0178565141f, -0.00323604257f,
    -0.0652935803f, 0.00923526101f, 0.0245166644f, 0.0425411984f, 0.0273164771f, -0.0171364285f, -0.0578282513f, 0.099995099f,
    -0.0092444038f, -0.0542703383f, -0.0688946843f, -0.0492713191f, 0.00612249924f, 0.10823372f, -0.0597850829f, 0.0254769009f,
    0.029886784f, -0.0831757262f, 0.00248818379f, 0.0140441842f, -0.00400228892f, -0.060374219f, -0.0165683739f, -0.101609945f,
    -0.0828298479f, -0.00913405605f, -0.0345877558f, -0.124636151f, 0.0205999687f, -0.00500632497f, -0.12744236f, 0.00192338938f,
    0.0565492362f, -0.0950792432f, 0.0631423295f, -0.10210105f, 0.000610618154f, -0.0322532393f, 0.0744264871f, -0.0891545638f,
    0.0594184436f, -0.00907440577f, -0.134300753f, 0.0442958288f, -0.0787244588f, 0.0633172914f, -0.114469588f, 0.040437527f,
    -0.0516559705f, -0.0332450494f, -0.0503438488f, 0.000506842101f, 0.0665773898f, -0.10527315f, -0.0844701678f, -0.00928528421f,
    -0.0447860137f, 0.0863005668f, 0.0403476208f, 0.0453717895f, -0.109222844f, 0.00264928374f, -0.0286538787f, -0.0953659192f,
    0.155471981f, 0.0752339661f, 0.130233601f, 0.125690967f, 0.296132654f, 0.198789969f, 0.101169027f, -0.0537254065f,
    -0.164476693f, -0.103693694f, -0.177829772f, -0.0813397095f, -0.0695253089f, -0.00958750583f, -0.000406759209f, -0.00962892547f,
    -0.0528443865f, 0.147102073f, 0.142318755f, 0.159634501f, 0.271418303f, 0.116400547f, 0.0930435285f, -0.0537711047f,
    -0.03476182f, 0.0378548503f, 0.0172884073f, 0.203373954f, 0.15018326f, 0.174708351f, 0.176624671f, 0.160023287f,
    0.0505742989f, -0.0149605721f, -0.00332933781f, -0.0914575309f, -0.0512845106f, 0.00261051953f, 0.0990052149f, 0.103388526f,
    0.0175800044f, 0.123100132f, 0.323541343f, 0.353031695f, 0.304186195f, 0.2166605f, 0.252654672f, 0.194893807f,
    0.0530778207f, 0.0648951083f, 0.184830204f, 0.285161763f, 0.234411463f, 0.145547941f, 0.241012707f, 0.168395475f,
    0.0698582381f, -0.0912091881f, -0.00913312938f, -0.0879068524f, 0.0575140007f, 0.0662452057f, -0.0461487547f, 0.0589337125f,
    0.00704936264f, 0.0286287013f, -0.0519323945f, -0.0328689963f, -0.029531898f, 0.0414631441f, -0.0205832496f, 0.0800578371f,
    0.0892546251f, -0.0335657373f, -0.0600900725f, -0.0385395922f, -0.0415850617f, -0.0757981315f, -0.047304295f, -0.158252642f,
    -0.0537650771f, -0.0718184337f, -0.0332718864f, -0.169796139f, -0.0710742548f, 0.0430317447f, -0.122062631f, 0.0499403179f,
    -0.154997259f, -0.121200427f, -0.0295856353f, -0.107354127f, -0.0288580712f, -0.181746781f, -0.1362032f, -0.0151159409f,
    -0.0955801234f, 0.0266556609f, -0.0705555156f, -0.0258290153f, -0.0777128339f, -0.101828896f, 0.0440256447f, -0.0203501452f,
    -0.126221284f, 0.0341301933f, 0.0566717647f, -0.082477279f, 0.0724059269f, -0.0084669888f, -0.0262066945f, 0.0330191366f,
    0.0100073721f, 0.059748318f, 0.0658705682f, 0.00859623123f, -0.00179753813f, -0.0298504047f, -0.132972836f, 0.0878558308f,
    0.0970804468f, -0.0974729881f, -0.0260285139f, -0.0154773556f, 0.128852397f, -0.0231454819f, 0.000500426802f, 0.0307234693f,
    -0.093675226f, 0.0248473659f, 0.102047645f, 0.104663193f, -0.00897921529f, 0.0409732051f, 0.139471233f, 0.0684253201f,
    -0.0233824439f, 0.0939586088f, 0.0784163177f, -0.148151144f, 0.0404988416f, -0.116295829f, 0.106423989f, -0.104285412f,
    -0.0856403783f, 0.0266600866f, 0.123582274f, 0.0468586311f, -0.0427773967f, -0.00333791901f, -0.081142202f, -0.119246013f,
    0.0654308349f, 0.141922995f, 0.0441150367f, -0.0308160707f, 0.123109862f, 0.0809812173f, -0.04027896f, -0.103862882f,
    -0.0480152033f, -0.0419117808f, 0.0471534096f, -0.103730351f, -0.0245097764f, 0.072228305f, 0.082151182f, -0.0277243927f,
    0.0191489905f, -0.0343570374f, 0.14609763f, 0.171195015f, 0.150307536f, 0.0403281115f, 0.0264231469f, 0.0259497985f,
    -0.0189426243f, -0.150015354f, -0.0407644026f, 0.0643840134f, 0.159805179f, 0.0852467269f, 0.00886014849f, -0.00828553922f,
    -0.087007381f, -0.124707952f, -0.118907534f, 0.0405875407f, -0.0511904061f, -0.102509163f, -0.0945461541f, -0.0638512149f,
    -0.0371034518f, -0.0463347062f, -0.0868407935f, 0.0667376816f, -0.00848118123f, -0.0789781734f, 0.000269431534f, 0.049528949f,
    -0.0678874031f, 0.00589869451f, 0.0645219609f, -0.00168340048f, -0.121137157f, -0.00552774873f, 0.102225155f, -0.0946191922f,
    -0.0843472257f, 0.0732389167f, 0.00107222702f, 0.00115471869f, 0.0942766443f, 0.0794406533f, -0.00199434697f, 0.0410526842f,
    -0.060255982f, -0.0441035405f, -0.0456507243f, -0.0257533193f, -0.0270590577f, 0.00608428335f, 0.0499258898f, 0.0224384014f,
    0.0503913686f, -0.00160141289f, -0.0264210198f, 0.0430133156f, 0.00868130848f, 0.0483655892f, -0.0666969195f, 0.00734762056f,
    -0.0846609622f, -0.00380266318f, 0.0657179728f, -0.00129714364f, -0.0566988029f, 0.0486051813f, 0.0398125201f, 0.0415546447f,
    -0.0648595616f, 0.042392347f, 0.0140074845f, -0.0990717709f, 0.0247516744f, -0.000333739736f, -0.125852779f, -0.0621443354f,
    0.091344282f, -0.0784374326f, 0.00997056998f, 0.0416755937f, -0.00950675923f, -0.0494727865f, 0.0193332583f, -0.0637240186f,
    0.0942744762f, 0.140718699f, 0.214561209f, -0.0343373418f, -0.0615347512f, 0.056033209f, 0.00123845809f, 0.0343026519f,
    0.049086988f, 0.0366215669f, -0.16596368f, 0.0103421416f, 0.146178678f, 0.150617957f, 0.268903166f, 0.124817699f,
    0.130854532f, -0.22651504f, -0.213682607f, -0.0715699568f, -0.0618867241f, -0.0284135658f, -0.0472699627f, -0.0658348575f,
    -0.0635358319f, -0.0300807562f, -0.0951907113f, -0.00153459003f, 0.153594896f, 0.196367338f, 0.173482567f, -0.0611231066f,
    0.194173038f, 0.130755842f, 0.0683117062f, 0.0192973148f, 0.116693214f, 0.232152477f, 0.0394605994f, 0.0523804836f,
    0.0373411328f, 0.102113463f, 0.301773995f, 0.295173824f, 0.419799209f, 0.435198992f, 0.418384403f, 0.198356047f,
    0.373410851f, 0.423369706f, 0.306625366f, 0.407027632f, 0.201066762f, 0.256523699f, 0.205572069f, 0.084167257f,
    0.172358394f, 0.0702731684f, 0.179973736f, 0.14018926f, 0.234247401f, 0.144220963f, 0.14610149f, 0.142302722f,
    0.156716928f, 0.105256267f, 0.0507265516f, 0.141826704f, 0.00999426842f, 0.113902524f, 0.112436935f, 0.0702213421f,
    -0.00798001979f, 0.0761780217f, 0.284920484f, -0.0103712464f, -0.0837395638f, 0.0786863789f, -0.101289511f, -0.0659735277f,
    -0.11021053f, -0.0134075861f, -0.142734438f, -0.121456414f, -0.0337528363f, -0.152526826f, -0.0785534978f, -0.0441946797f,
    -0.0133098783f, -0.0949617624f, -0.0345307626f, -0.116308935f, -0.0992239639f, -0.202373058f, -0.09703812f, -0.0771851465f,
    -0.175301701f, -0.141790465f, -0.00372246304f, -0.156728268f, -0.0834320188f, -0.0181978662f, -0.154873714f, -0.0992947891f,
    -0.0663003623f, -0.145782858f, -0.0827799663f, -0.149285033f, -0.171723232f, -0.206148505f, -0.0719186068f, -0.0187733062f,
    -0.0933501646f, -0.119537674f, -0.0559205823f, -0.0599872433f, -0.150948182f, -0.0503806919f, -0.187874123f, -0.0134717496f,
    -0.0192823764f, 0.0480405204f, -0.158817098f, -0.0865832344f, 0.00586653734f, 0.00722536491f, 0.155493096f, -0.0447632857f,
    -0.0565652661f, 0.0143287983f, 3.93350419e-05f, 0.0138223674f, -0.0761171207f, 0.05782561f, -0.0993712991f, 0.0387858339f,
    -0.172755256f, -0.433535159f, -0.318268478f, -0.125098467f, 0.148083866f, 0.258713186f, 0.122006409f, 0.0914590135f,
    0.0337038301f, 0.0687148273f, 0.00871020742f, 0.0974910632f, 0.0707532316f, 0.0156480987f, 0.05668718f, 0.0422810242f,
    -0.0118948836f, 0.0313417949f, 0.115540668f, 0.130477011f, 0.0464239791f, 0.249763638f, 0.0165516641f, 0.11864765f,
    -0.0219906196f, 0.074961625f, 0.138966545f, 0.0735783055f, 0.151913285f, 0.0961646661f, 0.0743400604f, -0.0289629605f,
    -0.137868285f, -0.0570748076f, -0.0658238679f, -0.0545446128f, -0.0643837377f, -0.0545794666f, 0.00778144551f, -0.0215805247f,
    -0.00641920371f, 0.0451049358f, -0.0406342633f, -0.0314931422f, -0.0961425155f, -0.0367809609f, 0.0338705257f, 0.0118964389f,
    0.0610098019f, -0.0889795497f, 0.0157470461f, -0.0459045656f, -0.0130998539f, 0.0686558858f, -0.0141729675f, -0.0137083195f,
    0.0130726872f, -0.0118708573f, 0.0827282816f, -0.0610505044f, 0.0777398944f, 0.0234304946f, -0.139162764f, 0.02936038f,
    0.0785483792f, -0.0208622012f, 0.0742795467f, -0.00365053071f, -0.0685632005f, -0.0155048659f, -0.0739227533f, 0.0381593406f,
    0.0450293347f, 0.0156052681f, 0.0631550327f, 0.0276747625f, 0.0515047759f, -0.0416933484f, -0.0140050491f, -0.0263089463f,
    -0.101912424f, -0.0305577125f, -0.0271529965f, 0.0407890417f, 0.0130813941f, -0.121135414f, 0.0775262043f, 0.0148526579f,
    0.0716573447f, -0.0668239668f, 0.0672465637f, -0.0122474404f, 0.024912579f, -0.0853355974f, 0.0371071212f, 0.0185744669f,
    -0.124744594f, -0.115957804f, 0.00802479777f, -0.129630685f, -0.0428662524f, 0.0185968988f, -0.0225707982f, 0.0735255703f,
    -0.0382597819f, -0.133209631f, -0.0929560438f, 0.0248694047f, -0.085150741f, -0.0972267836f, -0.0946654081f, 0.0268322919f,
    0.0325723663f, 0.0262418464f, -0.146386623f, 0.140021101f, 0.0678882673f, 0.0248287581f, -0.160252124f, 0.0144214621f,
    0.195905313f, 0.0258090943f, -0.113529533f, 0.0672183931f, -0.07082434f, -0.21475558f, -0.217533663f, 0.0203426257f,
    0.20264402f, 0.0499002971f, 0.0858238712f, 0.22273922f, 0.186406657f, -0.028053306f, -0.0176267289f, -0.00835318957f,
    0.00272571179f, 0.0164651014f, 0.0719489083f, 0.0550785214f, -0.0298188236f, 0.0154913915f, 0.0769197196f, 0.00480826478f,
    0.215326458f, 0.00828412268f, -0.0132944034f, 0.11089737f, 0.219183311f, 0.146951109f, -0.0108065885f, 0.0643505082f,
    -0.028115524f, 0.195511207f, 0.137512475f, -0.0110630831f, -0.0111220693f, 0.00419964502f, 0.102849439f, 0.0195458066f,
    0.163728163f, 0.0423311181f, -0.0208873656f, 0.0186008606f, 0.061330907f, 0.141156733f, -0.00983916223f, -0.0460868068f,
    -0.100023173f, -0.10920909f, -0.136599675f, -0.0544533879f, -0.0790012777f, -0.0571317859f, -0.0610470884f, -0.0276781842f,
    0.00171766896f, -0.0239992049f, -0.130206496f, 0.0270243008f, 0.116993442f, -0.0752898529f, 0.00242159679f, -0.0562638678f,
    0.0299236625f, 0.107483067f, 0.0994169414f, 0.0383614078f, 0.121761195f, 0.067294471f, -0.0209713653f, 0.0801397562f,
    0.0509989262f, -0.0335420445f, 0.0324100554f, -0.047589995f, -0.0737123191f, -0.132383585f, 0.0597006641f, -0.0239123572f,
    -0.0275326744f, -0.0682681873f, 0.104950242f, 0.0698319152f, 0.121024869f, 0.0325446054f, 0.0490899421f, 0.0833774582f,
    -0.0395932458f, -0.0894877687f, 0.0724706203f, 0.0332444981f, 0.0616476685f, 0.0109752677f, -0.110369511f, -0.0974923f,
    -0.0675644279f, 0.0609247088f, 0.0260109976f, 0.0400127769f, -0.0181396231f, -0.0213010423f, 0.0288179982f, 0.0328215435f,
    -0.0484314673f, -0.0622926392f, -0.058549311f, -0.114901938f, -0.121755034f, 0.020738069f, 0.0267854184f, -0.0502070114f,
    0.0614360869f, 0.0268406477f, -0.101272814f, -0.0889688581f, -0.0213959552f, -0.00957596209f, -0.0751522109f, -0.139852762f,
    -0.0927396715f, -0.121551059f, -0.0931032896f, 0.111899056f, 0.163214684f, -0.0817310363f, 0.0819578692f, 0.165534198f,
    0.122030839f, 0.0143067697f, -0.0940560251f, -0.00810522679f, 0.055613488f, -0.0432242677f, -0.0969653279f, -0.063846536f,
    0.0372223854f, 0.0213025995f, 0.0842896327f, 0.0426399969f, -0.0545325242f, 0.133990809f, 0.192307875f, 0.181887046f,
    0.218607947f, 0.223683864f, 0.13174054f, 0.136973903f, 0.116316833f, 0.222499892f, 0.129440024f, 0.0995559767f,
    0.102261268f, 0.0934313759f, -0.0476152562f, -0.0773100406f, -0.0990685821f, -0.0674503371f, 0.0809664056f, -0.0603649691f,
    0.0441502742f, -0.114949949f, 0.0143297529f, 0.0538275018f, -0.0167008489f, -0.0210796092f, 0.00678715017f, -0.0239540264f,
    -0.0338988975f, -0.0154178338f, -0.0917087421f, -0.125980288f, 0.0166683309f, 0.0280378889f, 0.0282122064f, -0.0635705888f,
    -0.0910793021f, -0.331984103f, -0.221633941f, -0.228684247f, -0.162839606f, -0.285205752f, -0.328499883f, -0.227688476f,
    -0.168516219f, -0.0199835263f, -0.013774544f, -0.117884345f, 0.105628245f, -0.132631153f, 0.0264355522f, 0.00617097644f,
    0.0123031782f, -0.00730663352f, 0.035594929f, 0.0071475287f, 0.0288735647f, -0.0321809761f, 0.0721174926f, -0.0708527341f,
    0.0546462536f, -0.0158043038f, 0.0635160357f, 0.0872477889f, -0.0469936654f, -0.0257044192f, -0.046472054f, 0.0813323781f,
    -0.0269584432f, 0.0156635139f, -0.0975011438f, 0.0162457787f, 0.0520426892f, 0.0373950973f, 0.0348154455f, 0.0167798251f,
    0.0146120805f, -0.0513673127f, -0.046149645f, 0.00960076507f, 0.0770059079f, 0.0736696497f, 0.030852627f, 0.0922925249f,
    0.0353653394f, 0.071574159f, 0.0912528262f, 0.0415702648f, -0.0872882158f, 0.0192198623f, 0.0131834699f, 0.0930050164f,
    -0.0103416229f, 0.0228243098f, -0.031300772f, 0.00123037794f, -0.0968686268f, 0.0622611493f, -0.0524232797f, -0.0956215262f,
    -0.0215285365f, 0.0551238954f, 0.0605223142f, 0.0376229398f, 0.0216975976f, -0.143109545f, 0.0229247697f, -0.0105606113f,
    -0.144549027f, -0.016861815f, -0.0921448544f, -0.0185235441f, -0.0240082443f, 0.0576069839f, 0.122885503f, 0.228610113f,
    0.250858337f, 0.194359094f, 0.153491929f, 0.215709552f, 0.141722962f, 0.088313438f, 0.207021728f, 0.0707933456f,
    0.206348717f, 0.103551373f, 0.212039441f, 0.20152083f, 0.179493472f, 0.1802883f, 0.0812044963f, 0.0563983247f,
    0.172019079f, 0.0685422868f, 0.0515828729f, 0.0319685228f, -0.0792558715f, -0.0287070423f, 0.0729392245f, 0.0119318934f,
    0.0028492501f, -0.0400811322f, -0.123149566f, -0.165933982f, -0.10283149f, -0.0304451305f, -0.143931076f, -0.13705264f,
    -0.0605007261f, 0.10585779f, 0.103514403f, 0.0376307853f, -0.0680930838f, -0.112031199f, -0.0219440702f, -0.131968111f,
    0.0113999872f, -0.0154895373f, -0.0269734412f, 0.0194317345f, 0.0821332559f, 0.0126172649f, -0.0245715622f, -0.115636915f,
    -0.0749854147f, 0.0599608198f, 0.0869014785f, -0.0167218372f, 0.0496208593f, -0.030489156f, 0.0268609915f, 0.0678483322f,
    -0.0835659057f, 0.017555438f, -0.135338366f, -0.156564698f, -0.110323898f, -0.192592978f, -0.109206818f, -0.101341158f,
    -0.0458023436f, -0.124092966f, -0.0183544103f, -0.04735348f, -0.16500172f, -0.07201612f, 0.0665229335f, -0.141979173f,
    0.086755611f, -0.0343667045f, -0.031161854f, -0.0266779345f, -0.0501958169f, -0.0755561069f, 0.0615562275f, 0.0720363334f,
    -0.101776868f, -0.15514794f, -0.0372207053f, 0.0441888124f, -0.0756834969f, -0.0673721656f, 0.0429914854f, 0.0233220272f,
    -0.0844954327f, -0.0797797516f, -0.0341720022f, -0.0541967191f, 0.0764945224f, -0.123035967f, -0.0401077121f, -0.0132355392f,
    -7.76753805e-05f, -0.0529428646f, -0.10221187f, -0.0965211987f, -0.0263516642f, -0.119296074f, -0.0104052462f, 0.016254371f,
    -0.0731431693f, 0.046602767f, -0.0238795821f, -0.0903383642f, -0.0169197675f, -0.0302995425f, -0.00864401739f, -0.0531630814f,
    -0.115366481f, -0.00932367612f, 0.0240560528f, -0.147393838f, -0.00414817268f, 0.0324079171f, 0.0202091746f, -0.0711813569f,
    -0.0794855878f, -0.123627707f, -0.085816212f, 0.039761357f, -0.133297056f, 0.0381910801f, -0.0437617004f, 0.0758412629f,
    0.0823800564f, 0.0290686153f, -0.0123431506f, 0.162398264f, 0.06634482f, 0.126763493f, 0.102914669f, 0.114019431f,
    -0.00111712958f, 0.00475440547f, 0.0678495914f, 0.00638017291f, -0.0461261012f, -0.0436261296f, -0.0801164731f, -0.134177804f,
    -0.164913356f, -0.102358483f, -0.0102868397f, 0.164115623f, 0.0901220292f, -0.0347511917f, -0.28463459f, -0.306520581f,
    -0.136311531f, 0.0949798003f, -0.0911826268f, -0.340074003f, -0.151135951f, 0.0338721313f, 0.143323615f, -0.0272635631f,
    -0.0955419019f, 0.0157790594f, 0.167720109f, 0.09707807f, 0.16961123f, -0.0373141021f, 0.0974149033f, 0.160706267f,
    0.136208355f, 0.116947673f, 0.17749396f, 0.149889082f, 0.193882436f, 0.142287865f, 0.118435457f, 0.0746314675f,
    0.0993930548f, 0.279115289f, 0.369803131f, 0.363467157f, 0.304424405f, 0.303900093f, 0.446550637f, 0.343604922f,
    0.324290276f, 0.343484044f, 0.185704753f, 0.240893096f, 0.307533473f, 0.185491577f, 0.0894294381f, -0.0363061279f,
    0.0945683494f, 0.0453381203f, 0.172756836f, 0.105258547f, 0.0910103247f, 0.0520247221f, 0.0787068009f, -0.010039187f,
    0.00131469814f, 0.0233083237f, 0.0672316775f, 0.0599883422f, 0.0643861145f, 0.0727923289f, -0.0673918724f, -0.00862115249f,
    0.012559779f, 0.0759884566f, -0.0562067553f, 0.118148275f, -0.0240655225f, 0.0339539498f, -0.0600325204f, -0.0360921249f,
    0.0837845057f, 0.092231594f, -0.0666502863f, -0.0285118036f, 0.0692310557f, 0.0174812488f, 0.0102555053f, -0.00649362244f,
    0.0593067221f, -0.0413009338f, -0.038445238f, -0.0715236738f, -0.0462275967f, -0.0979425311f, -0.0598667413f, -0.0647845343f,
    -0.0919694901f, 0.0249116775f, -0.0914896652f, -0.140161723f, -0.0388010219f, -0.00803283509f, -0.117706656f, -0.0134103922f,
    -0.119626902f, -0.152160361f, -0.00658513419f, -0.0208429173f, -0.0933741331f, -0.124691427f, 0.00536607858f, 0.0184435155f,
    0.0353626087f, -0.0275326446f, -0.0937152877f, -0.0794005841f, 0.0249242596f, 0.0430196226f, -0.11213275f, -0.0762670562f,
    0.00338213542f, 0.0109677445f, 0.056852743f, 0.0833541155f, 0.163737491f, -0.00762393512f, 0.0524478033f, -0.145051509f,
    -0.357971251f, -0.0508944727f, -0.392849118f, -0.205113575f, 0.265890479f, 0.112749778f, -0.173313081f, -0.103811629f,
    -0.0445137285f, 0.0274159852f, 0.118886925f, 0.112341493f, 0.0965574309f, 0.111698262f, 0.197611004f, 0.0937226713f,
    0.10697335f, 0.0183346774f, -0.109841473f, -0.052946128f, 0.0478825346f, -0.0500610992f, 0.0415381677f, 0.162293166f,
    0.00112208456f, 0.0693827718f, -0.0321461856f, -0.0376314893f, 0.0342964604f, -0.028541442f, 0.0468457267f, 0.103043966f,
    0.0945534408f, 0.0604355335f, 0.127988324f, -0.0747188181f, 0.0065824897f, 0.0282361861f, 0.132137284f, 0.0850889385f,
    0.218560949f, 0.165564343f, 0.178694606f, 0.0620019324f, 0.0201818757f, 0.0487482585f, 0.152957022f, 0.110329889f,
    0.142715901f, 0.119198397f, 0.171072856f, 0.0962565467f, -0.000551059493f, 0.175920025f, 0.174811378f, 0.0480643511f,
    0.101375215f, 0.139873669f, 0.0950342268f, -0.0747363418f, -0.0579898022f, -0.01242973f, 0.11851944f, -0.0676629096f,
    0.125683099f, -0.0161104649f, 0.0493668392f, 0.0817299113f, 0.0146829672f, 0.0554563701f, 0.0816055164f, 0.10077209f,
    0.100146212f, -0.0288234595f, 0.0214850251f, -0.0101424688f, -0.00898260903f, 0.00194666628f, 0.137422502f, -0.0127838291f,
    0.0211342443f, 0.0257804021f, 0.107405871f, 0.0145783862f, -0.0715989321f, 0.0931473598f, 0.127388671f, 0.0318667665f,
    -0.130392551f, 0.0209404621f, -0.123548523f, -0.0381054245f, 0.00527798384f, 0.0194672551f, -0.0855710506f, 0.0356108248f,
    -0.0846539438f, -0.0646746755f, -0.0425421782f, 0.0646852627f, 0.0657467172f, -0.037135195f, -0.0189905036f, -0.0910293311f,
    0.0272528939f, -0.0979394987f, -0.018948976f, 0.0445591547f, -0.00983695593f, 0.0256293863f, -0.0525649488f, 0.0597007871f,
    -0.0598108098f, -0.0378400236f, -0.107310876f, -0.148938403f, 0.0231951084f, 0.0182088055f, -0.0169155076f, -0.00543045159f,
    0.0876452997f, 0.0243345182f, -0.141735479f, 0.0470592193f, 0.0187380128f, 0.0241886992f, -0.053486824f, -0.104438066f,
    0.0426923707f, 0.0227629039f, 0.142542884f, 0.0151701914f, -0.0798591971f, -0.0554713942f, 0.0788731501f, 0.214791194f,
    0.0320945121f, -0.186878771f, -0.205406114f, -0.0737263635f, -0.0338603184f, -0.187851682f, -0.179000214f, -0.0445340313f,
    0.116704799f, 0.116283759f, 0.00167796016f, -0.222892791f, -0.0429158434f, 0.0141430432f, 0.0373580828f, 0.0221769139f,
    0.172656178f, 0.0291679446f, 0.0637744963f, -0.0601001345f, 0.00446635904f, 0.0883300155f, 0.0847266018f, 0.245604232f,
    0.17774497f, 0.130103335f, -0.0736170337f, 0.0489157811f, 0.0584638156f, 0.105945125f, 0.17779097f, 0.0347436219f,
    0.0417965353f, -0.0327661522f, 0.212060437f, 0.037891522f, -0.0616016127f, 0.083064653f, -0.0722499862f, 0.0421568155f,
    0.109584011f, -0.115757696f, 0.0229054466f, -0.0725901946f, 0.0651425719f, 0.185212314f, 0.15165174f, 0.0689745396f,
    -0.000986541156f, 0.106463701f, 0.143575594f, 0.0922589898f, -0.00954014715f, 0.120965891f, 0.0863106027f, -0.0540640391f,
    0.118663818f, 0.0280523058f, -0.0316452794f, -0.052646257f, -0.111002333f, 0.0613385141f, 0.0704374462f, 0.0816893727f,
    0.0695210099f, -0.0228861291f, 0.0930837616f, -0.0132134398f, 0.0848092213f, 0.0138611672f, -0.0664775521f, 0.132595226f,
    0.0596731119f, -0.0382747613f, 0.102978878f, -0.0771461576f, -0.0152497543f, -0.0354338139f, 0.0952451453f, -0.00705256779f,
    -0.0823545679f, -0.095096685f, -0.03900861f, -0.0187731739f, -0.0354750529f, 0.00751719717f, -0.0659338981f, 0.0702399388f,
    -0.0405290239f, 0.0403798558f, 0.026512716f, 0.0284289587f, 0.0537350215f, -0.0150952963f, -0.0825236291f, -0.0399835072f,
    -0.0943113267f, -0.0572218597f, -0.0715477243f, -0.00182827201f, -0.0384253934f, -0.163594767f, -0.0414172783f, -0.080413647f,
    -0.102005824f, -0.104323432f, -0.00263025775f, -0.0420022793f, 0.0253988858f, 0.0442531891f, -0.0864507854f, 0.118820362f,
    0.0583085977f, -0.0116160344f, 0.0564446375f, 0.0480685942f, -0.0478958711f, 0.0553138331f, 0.0874454975f, -0.0487374738f,
    0.140760005f, -0.104923092f, -0.122344449f, 0.0498522297f, -0.00966881961f, 0.0786816627f, 0.158061922f, -0.0933970138f,
    0.00735947536f, -0.0276471991f, -0.135490462f, -0.126463652f, -0.0782841668f, 0.10321641f, 0.0624068007f, 0.0815037638f,
    -0.0318541452f, 0.0227310918f, -0.0272291768f, -0.133590698f, -0.00214204355f, -0.0100781787f, 0.0360297337f, 0.045337256f,
    -7.65241348e-05f, 0.287526459f, 0.166513264f, 0.108628556f, 0.00946451351f, 0.0123320855f, 0.11382553f, 0.024402352f,
    0.093254365f, 0.0685709119f, 0.123797156f, 0.110691898f, -0.0490285121f, -0.134308994f, -0.0913008973f, -0.144947007f,
    -0.14341183f, -0.226667032f, -0.152046949f, -0.16104205f, 0.00101196498f, 0.0834603906f, -0.0669451505f, 0.0466766916f,
    0.0923946798f, -0.0611675158f, -0.0882398635f, -0.00752922567f, 0.0414215662f, -0.0362202935f, -0.011712946f, 0.0061140121f,
    0.10358309f, 0.101143241f, 0.0596369691f, 0.0245414097f, 0.0225662868f, -0.0834750757f, 0.112246424f, -0.0256201923f,
    -0.00251119467f, -0.0349817239f, 0.0784903318f, -0.0806019604f, -0.00511687994f, -0.0693506151f, 0.0826696977f, 0.0558085628f,
    0.0452252626f, 0.159470305f, 0.108236641f, -0.109582551f, -0.115682155f, 0.0071488074f, 0.0672359914f, -0.0641146153f,
    -0.00805553142f, 0.0189212263f, -0.0639820099f, 0.113289349f, 0.0493896827f, -0.0873528495f, -0.0839871615f, -0.0722431391f,
    -0.0514805615f, 0.0373352207f, -0.0822863728f, -0.0848632604f, 0.0935153365f, 0.00276703387f, 0.0674550757f, 0.0199515186f,
    -0.0774382055f, 0.0811183825f, -0.0391848609f, 0.0563752986f, 0.0543256626f, 0.0908110961f, 0.0566239618f, 0.0928274244f,
    0.0766738504f, 0.0480971262f, 0.090289712f, 0.0859096274f, -0.0687590092f, 0.102709733f, -0.0669860914f, 0.0827272534f,
    -0.0258717816f, 0.0675139502f, -0.0467459187f, -0.116226435f, 0.0222302806f, -0.0772579312f, -0.111593403f, 0.0413586609f,
    0.0721204057f, -0.0279461965f, 0.14471513f, -0.0378046073f, -0.223879814f, 0.0258717779f, 0.243330315f, 0.133473262f,
    0.219999194f, 0.0747824013f, 0.0146320974f, 0.029619202f, -0.0637655482f, -0.195620328f, -0.12466754f, -0.0819319859f,
    -0.0448529311f, -0.149048761f, -0.0947540477f, -0.106005251f, -0.0412180237f, -0.047209911f, -0.143388778f, -0.0544695109f,
    0.0613739677f, 0.0233537741f, -0.0382873453f, -0.0579535738f, 0.0548405498f, 0.0455173105f, -0.0107574705f, -0.0256411694f,
    -0.105677858f, 0.133181036f, 0.124714173f, 0.103093028f, 0.0330571756f, 0.025471231f, -0.0360953137f, -0.0457461998f,
    0.0418478735f, 0.00934138149f, 0.0711716861f, -0.0635566339f, -0.0529165044f, -0.00663160393f, 0.0923572332f, -0.031223977f,
    0.0106909247f, 0.0163370706f, 0.0577351153f, -0.019550899f, 0.152561128f, 0.211475417f, 0.124491729f, -0.0471218936f,
    -0.0482491218f, -0.125169754f, 0.0157167707f, 0.0203276891f, 0.0859712735f, 0.021567883f, 0.108349785f, 0.0233605728f,
    0.05336399f, -0.0278815422f, 0.0566913299f, -0.0368049964f, -0.0587839335f, -0.0108228624f, 0.106351681f, -0.0439959206f,
    -0.00385397649f, -0.0557569191f, 0.0440290868f, -0.0230973549f, 0.0116454465f, -0.0643334463f, 0.0155027397f, -0.00538323959f,
    0.0257071275f, 0.07627327f, 0.104604766f, 0.0113688307f, -0.0866256729f, 0.00543269049f, -0.00373989437f, -0.0456405133f,
    0.044837065f, 0.0283682812f, 0.110942282f, 0.0432792976f, 0.0108604506f, 0.12813659f, -0.0105173066f, -0.0262250789f,
    0.00393546745f, -0.0342151001f, 0.0261881445f, 0.0212058593f, -0.070384793f, -0.072090514f, 0.030199185f, 0.0213044994f,
    -0.0427819453f, 0.114510417f, 0.0181735847f, -0.0455391891f, -0.0362292528f, 0.0879523382f, 0.0279358681f, -0.0313249789f,
    -0.0697320029f, -0.0819623396f, 0.0938764811f, 0.0981683508f, 0.0626998916f, -0.0577993169f, -0.0497102067f, -0.0744718835f,
    -0.0806152448f, -0.106109589f, -0.0425429754f, -0.0885524973f, -0.0351211652f, 0.0297296569f, -0.103195593f, -0.023541104f,
    0.0138746323f, -0.13764973f, 0.0216601696f, 0.0454349853f, 0.0465889797f, 0.114482164f, 0.0757886171f, 0.154566452f,
    0.162677482f, -0.00233371137f, 0.106090687f, 0.10027083f, 0.109722607f, 0.160163149f, 0.092710197f, 0.0981014296f,
    0.0663966388f, 0.108200148f, -0.0493091792f, 1.76053563e-05f, -0.0244713631f, 0.0534669682f, 0.0798030272f, 0.187326267f,
    0.143875852f, 0.220091492f, 0.0660344213f, 0.292441636f, 0.13202621f, 0.0377256833f, 0.0967031568f, -0.135667294f,
    -0.0659909248f, 0.0939898193f, 0.0380640924f, 0.0921534821f, -0.0578664504f, -0.00470651407f, -0.0182717666f, -0.0581050888f,
    0.0562130772f, -0.00924353488f, 0.0786499903f, -0.001900843f, 0.0599596202f, 0.00217980356f, -0.0245655496f, 0.0753903165f,
    0.0691528916f, -0.0167433936f, -0.160262659f, -0.120783031f, -0.149519578f, -0.0912128463f, -0.109760135f, -0.0755899549f,
    -0.296980411f, -0.191706762f, 0.0738775358f, -0.163466215f, -0.125818148f, -0.0849442184f, 0.0346437544f, -0.0676027015f,
    0.0231895298f, 0.139086828f, 0.0216436274f, -0.00165219442f, -0.0389380567f, -0.0897482857f, -0.0171498973f, 0.00121751416f,
    0.0300845802f, -0.0861668959f, -0.0373758674f, 0.0297782291f, 0.0257413927f, 0.0967842489f, -0.0519856364f, 0.037222147f,
    0.0139817819f, -0.0719697475f, -0.0104050701f, 0.104643658f, -0.100913286f, -0.00693375943f, -0.114888303f, -0.0393257402f,
    0.0979861096f, 0.0280725006f, 0.0175047517f, -0.0389510356f, -0.0204330347f, 0.00257247128f, 0.036098469f, 0.0730432495f,
    0.0715065673f, -0.131694376f, -0.0969460905f, -0.0452749319f, -0.0663060918f, -0.0828086808f, 0.020943528f, -0.00207074638f,
    -0.0233086143f, -0.0742468834f, -0.134658068f, 0.0290646106f, 0.0486347824f, 0.0390053838f, 0.059910953f, 0.014475273f,
    0.0231658649f, -0.0362432897f, -0.0657882616f, 0.0140296202f, -0.14402999f, -0.131981313f, 0.00533041358f, -0.0394910984f,
    -0.0387138687f, -0.104499072f, -0.004442479f, -0.106558442f, -0.0253503863f, -0.00736547913f, -0.118815921f, -0.0242957845f,
    0.0542416014f, -0.0843394548f, 0.00398210529f, 0.0657501221f, -0.146378204f, -0.178031236f, -0.0066312761f, -0.0588351563f,
    -0.0352137163f, -0.0813131705f, -0.00947629847f, -0.055904299f, -0.00630890531f, -0.128408387f, 0.00089779892f, 0.155560642f,
    0.0606361143f, 0.0802857727f, 0.0115611795f, 0.0862391293f, 0.00792375393f, -0.0409258343f, 0.0167702846f, -0.0165715311f,
    0.0330057442f, 0.00743349968f, 0.0934589803f, -0.0119212735f, 0.0575706065f, 0.0061948956f, 0.0155007653f, -0.205980539f,
    -0.0799708813f, -0.161390439f, -0.182903811f, -0.0889425352f, -0.0951762423f, 0.0613125451f, 0.00951842126f, 0.0670224205f,
    -0.0769365355f, 1.06728967e-05f, -0.0205373988f, -0.10248521f, -0.0365797319f, 0.0833908021f, 0.0327381976f, 0.213812843f,
    0.189037099f, 0.243229777f, 0.0523073487f, 0.109047063f, 0.0419869572f, -0.0531659201f, 0.083950296f, 0.0363320075f,
    0.0909852162f, 0.121969134f, 0.0811587125f, 0.0341021046f, -0.0190498661f, -0.129406258f, 0.00209726975f, -0.0939792842f,
    0.0111111095f, -0.0505394712f, 0.0271760505f, 0.0190524068f, -0.0473148338f, 0.154601321f, 0.0188415237f, 0.161540926f,
    0.0473111197f, 0.101524793f, -0.0413654633f, 0.0464592986f, -0.050700739f, 0.0701458603f, 0.0270131174f, 0.0290332753f,
    0.116347134f, -0.0158203654f, -0.0111742653f, 0.134015322f, -0.0158278588f, 0.18303448f, 0.15637356f, -0.0178567637f,
    -0.0168486573f, -0.00428466685f, 0.0806080177f, -0.0271929819f, 0.0983308181f, 0.0319134779f, -0.0582718588f, -0.0565062277f,
    0.054393582f, -0.0234865248f, 0.0576354302f, -0.0410363898f, 0.0410277769f, 0.0899962559f, 0.0458179787f, 0.0501649827f,
    0.100104474f, -0.122074313f, -0.111325912f, -0.05498638f, 0.0918724984f, -0.0677214339f, -0.0581383705f, -0.0499936342f,
    0.0732797906f, 0.0414864086f, -0.0683083385f, 0.0463324226f, 0.0620882064f, 0.0491965823f, 0.0884022713f, 0.0131196873f,
    -0.0665533394f, -0.0234216042f, -0.011577894f, 0.0249341335f, -0.0712396279f, -0.0934309363f, 0.0873107463f, -0.0157107413f,
    0.0641250759f, -0.0834745243f, -0.133905903f, -0.177324817f, -0.152083248f, 0.0457563139f, -0.0525622033f, -0.0569626838f,
    0.0403300934f, -0.0413042232f, -0.13576062f, -0.0789283589f, -0.130427048f, -0.0832977295f, -0.21145536f, 0.0912968889f,
    -0.124243312f, -0.0587225147f, 0.0751627684f, 0.0681107268f, 0.272929281f, 0.234206513f, 0.134955496f, 0.0132393017f,
    0.00866976008f, -0.130403176f, -0.0284929201f, 0.061511036f, -0.0624588169f, -0.0957867205f, -0.0823585615f, 0.0482391082f,
    0.0927476659f, 0.145724282f, 0.0907515213f, -0.0113077294f, 0.113503307f, 0.136551812f, 0.202919617f, 0.130612284f,
    0.156384945f, 0.174723908f, 0.120031387f, 0.214537993f, 0.118156217f, 0.100261472f, 0.0690075159f, 0.180542707f,
    0.0237379298f, 0.0532968715f, 0.0205593463f, -0.010236172f, 0.0479057245f, -0.014869188f, -0.0184140839f, 0.0173353795f,
    0.0396985076f, 0.0917957574f, 0.0404458307f, -0.0314456262f, -0.0194513593f, 0.0918401927f, 0.127929911f, 0.0514578149f,
    0.0108295074f, 0.0458588116f, 0.104537822f, 0.00937138125f, 0.0171745364f, -0.0553791039f, -0.00584643381f, -0.0541632883f,
    -0.0289706755f, -0.0477649346f, 0.0488838665f, 0.00279589416f, -0.0397748649f, 0.0774311423f, -0.0114256237f, -0.0247364361f,
    0.0155234495f, 0.0596072115f, 0.0207334757f, 0.0936023742f, 0.0847166479f, 0.0493154749f, -0.0638075918f, -0.00481812004f,
    0.0155933443f, -0.0445732735f, -0.0180490762f, 0.0721342713f, 0.00316665019f, 0.101491526f, 0.0346382707f, 0.0523700155f,
    -0.0260854512f, 0.0653658658f, 0.022034904f, -0.0114787752f, 0.143835649f, 0.113131166f, 0.145405635f, -0.00690319529f,
    0.078653276f, -0.0659231842f, 0.0671732426f, 0.0213310122f, -0.0420808904f, -0.0957547575f, 0.00544163724f, -0.0127507998f,
    0.0648272634f, -0.0755068883f, -0.0858263746f, -0.0400796533f, -0.0823674127f, -0.131879583f, -0.0849320889f, -0.150015607f,
    -0.0300978776f, -0.120498277f, -0.18920444f, -0.0582502671f, 0.0249838885f, -0.146105126f, -0.184562504f, -0.129313499f,
    -0.063146092f, -0.111778922f, -0.00161953876f, 0.0887262896f, -0.0649925321f, 0.0131563684f, -0.00401099538f, 0.0180816557f,
    -0.0323703922f, -0.108856171f, 0.0164762847f, -0.0680270791f, -0.0776651502f, -0.041661609f, -0.076183036f, 0.0351107605f,
    -0.104467586f, -0.0403309241f, -0.0462402366f, 0.0163392425f, -0.0666396469f, -0.0201708321f, -0.0840866119f, -0.0821316391f,
    -0.0325817876f, -0.0844497904f, -0.0634116307f, -0.0344772935f, -0.0192169175f, -0.0777227655f, -0.00722448016f, 0.0262050498f,
    -0.0408306755f, -0.104477264f, 0.0506321788f, 0.0527307428f, -0.00399293331f, 0.00509502785f, -0.0276613068f, -0.0397534817f,
    0.00143216166f, -0.0250650868f, -0.0121280691f, -0.0973124504f, -0.0175432079f, -0.0821885914f, -0.161117151f, -0.0183546785f,
    -0.105189219f, -0.0787396654f, -0.199378863f, -0.258171409f, -0.0638388246f, -0.0594808087f, 0.0328342281f, 0.023010375f,
    -0.0159117244f, 0.100531615f, 0.163006932f, 0.140805691f, 0.193235323f, 0.278110594f, 0.134908631f, 0.226278916f,
    0.200506806f, 0.165441081f, 0.152137592f, 0.187661871f, 0.151370481f, 0.123439059f, 0.180936709f, 0.0745344609f,
    0.0888066739f, 0.19946678f, 0.238914177f, 0.248851642f, 0.140297607f, 0.0636345074f, 0.0424526185f, 0.049438972f,
    0.168111205f, 0.0962926522f, 0.0208600201f, 0.0928173512f, 0.0590011887f, 0.117755502f, 0.0675839782f, 0.0846795067f,
    0.0661657304f, 0.0198404305f, 0.0201199856f, -0.0125990212f, -0.028645644f, -0.127779737f, 0.0333810672f, -0.0488123596f,
    -0.0283723194f, -0.12015485f, 0.0249784961f, 0.0212641787f, 0.0364080258f, 0.0790439025f, 0.0487635285f, 0.0775214508f,
    0.0385376327f, -0.0942022577f, 0.0560635626f, 0.0128419073f, 0.0331187584f, -0.0393552929f, -0.00105137413f, 0.0684569776f,
    -0.00296963542f, 0.0268868785f, -0.0410696194f, -0.0164181031f, 0.061394278f, -0.0954563394f, 0.121990338f, 0.0411473252f,
    -0.0281148516f, -0.00762768555f, 0.128915325f, 0.112685584f, 0.0889683068f, -0.0610067882f, 0.12248303f, 0.0613729954f,
    0.0872048736f, 0.117264092f, -0.0384117514f, 0.0506001078f, 0.0492209978f, -0.0326183625f, -0.0371670164f, -0.0931012109f,
    -0.00371784135f, 0.00160284818f, -0.0569986105f, -0.0179183558f, -0.0595022328f, 0.0173030682f, -0.0294425543f, -0.0147640789f,
    0.0199003518f, 0.00580505515f, -0.0825463533f, -0.139042765f, 0.153512344f, 0.25154826f, 0.15132454f, 0.123981819f,
    0.133003324f, 0.0887561962f, -0.0400534868f, -0.019457452f, 0.0452664532f, 0.0038785215f, 0.10900715f, 0.100574501f,
    0.0230780784f, -0.00291456585f, -0.0784512758f, -0.0797523484f, -0.135932207f, 0.0103460168f, 0.0162612889f, -0.0656084642f,
    -0.118943527f, 0.119564824f, -0.0146681331f, 0.102632336f, 0.0834323987f, 0.0387630574f, -0.0978265107f, 0.0114708599f,
    0.0642707646f, -0.127538756f, 0.015223667f, -0.0635319203f, -0.0306223184f, -0.00221578311f, 0.222005725f, -0.0113750426f,
    0.143987939f, 0.0160944499f, -0.129465818f, -0.130753055f, -0.134035319f, 0.0679944381f, -0.0854094476f, -0.097287789f,
    0.152840167f, -0.0287948903f, -0.0626197383f, 0.00152676529f, 0.10233625f, 0.109741546f, 0.117922209f, -0.0339270048f,
    0.0623439439f, 0.0641578138f, 0.00741322525f, -0.0901978463f, 0.0973001942f, -0.12757507f, -0.0287248883f, -0.0834457874f,
    0.00487628486f, 0.0721038207f, 0.0349529013f, 0.116587065f, -0.0135331023f, -0.0279421508f, 0.00426992914f, 0.117884003f,
    -0.000151639251f, -0.00519890012f, 0.0917791054f, -0.0545701273f, 0.0531695746f, 0.0190609824f, -0.0894131735f, -0.0970960781f,
    0.0781664103f, 0.00843766518f, -0.0791030154f, 0.0382682271f, 0.024751192f, -0.0736502036f, -0.0593082197f, 0.0732676014f,
    -0.0972708985f, 0.0612114556f, -0.120805539f, -0.00359140011f, -0.106591575f, 0.0107413679f, 0.0490233973f, 0.0261526052f,
    0.0304928049f, 0.0108099673f, -0.0757644624f, -0.01870168f, -0.0472536832f, -0.057162676f, -0.097387284f, 0.00849520694f,
    -0.0846284181f, 0.0510699935f, -0.0143057248f, 0.0181852989f, -0.093578577f, -0.0870278329f, 0.0271648485f, -0.119977333f,
    -0.132115319f, -0.0137651935f, -0.0904094726f, -0.0947661474f, -0.0308698341f, -0.118109375f, 0.0585265718f, 0.11039675f,
    -0.00576276286f, -0.0566192642f, 0.233481973f, 0.0901074335f, 0.0673944205f, -0.147518739f, -0.0341520309f, 0.209163517f,
    0.22421369f, 0.00667200657f, -0.277000338f, -0.204211056f, 0.00412720069f, 0.214288712f, 0.096511133f, -0.0203160085f,
    -0.158857793f, -0.102201961f, -0.0119686984f, -0.0989130288f, 0.00616006786f, 0.116665632f, 0.101057433f, 0.0776901916f,
    0.100863643f, 0.00388444681f, -0.033965975f, -0.0223229285f, 0.149723813f, 0.0333596058f, 0.000436114555f, -0.0207837634f,
    -0.100003712f, 0.0033233217f, 0.0554646403f, 0.0487045944f, 0.149680585f, 0.0914448947f, 0.0698035806f, 0.0603936315f,
    0.0309103932f, -0.0200548042f, 0.0411753319f, -0.0643301234f, -0.0758298934f, -0.0350552015f, 8.33821687e-05f, 0.0575776063f,
    0.0174385495f, 0.0976963043f, 0.00205052528f, 0.0698253214f, 0.139078617f, -0.0440871157f, -0.0974506512f, -0.135371745f,
    -0.128173381f, -0.0998070687f, -0.0137708979f, 0.0167595576f, -0.116684116f, -0.029629793f, 0.0479508191f, 0.080497615f,
    0.0590127409f, 0.163389131f, 0.076533623f, 0.116039537f, 0.0435980856f, 0.0360802412f, 0.0952412114f, 0.0543206669f,
    -0.111291423f, 0.102714531f, -0.00410122657f, -0.0734975636f, -0.0194969699f, -0.0346023962f, -0.0359620117f, 0.0913820192f,
    0.110977061f, 0.0493242592f, -0.000776184956f, -0.000596913684f, 0.0816452801f, -0.0604186617f, 0.0980883017f, 0.125941381f,
    0.0850269869f, 0.054786101f, 0.0717473924f, 0.0478860363f, -0.0195834897f, -0.0181138329f, 0.0955392346f, -0.0695472732f,
    0.0732330456f, -0.0321403593f, -0.0720624104f, 0.0176279452f, -0.0897931382f, 0.0496365875f, -0.0047932216f, 0.0335254706f,
    -0.096390821f, 0.0332339481f, 0.0222173333f, -0.0166978501f, -0.0550960563f, -0.0248683766f, -0.0725898966f, 0.076503925f,
    -0.0189866386f, -0.114128657f, -0.0606221706f, 0.0671183243f, -0.111307219f, -0.122353658f, -0.0927740186f, -0.101262487f,
    -0.0715998262f, 0.0206104368f, -0.106853426f, -0.130144626f, -0.000194494904f, 0.05172427f, 0.0835750252f, -0.0820172131f,
    -0.0121642053f, 0.0280770175f, 0.100144044f, -0.0863760337f, 0.0471005216f, 0.028761765f, -0.0261589978f, -0.0162387472f,
    0.0232656468f, 0.0757738501f, 0.048294045f, 0.163335621f, 0.0140977614f, 0.0383507833f, 0.0337365754f, 0.0961149111f,
    0.0990543291f, 0.0857493058f, 0.00199541356f, -0.0045959875f, 0.04027633f, -0.0239577033f, -0.0939912125f, -0.0724499151f,
    0.0119901588f, 0.0335649587f, 0.0101736542f, 0.0189613663f, -0.0227098726f, 0.147846967f, 0.134925485f, 0.216536969f,
    0.044057969f, -0.134426504f, -0.10547296f, -0.0761256814f, -0.00865290593f, 0.0250325911f, -0.0314409882f, 0.0829281211f,
    -0.0694200546f, -0.056528613f, -0.106181495f, 0.0211880263f, -0.209979653f, -0.210795432f, -0.08234936f, -0.0690706745f,
    -0.0717144683f, -0.248754501f, -0.0499828421f, -0.0640983656f, -0.0439712144f, -0.213845044f, -0.144952759f, -0.113113403f,
    -0.188069761f, -0.072533451f, 0.0377897397f, -0.0806668103f, -0.142659485f, -0.267543972f, -0.229241252f, -0.210185856f,
    -0.213482141f, -0.0576758757f, -0.0633574426f, -0.207915589f, -0.10354691f, -0.134542152f, -0.231975064f, -0.025594607f,
    0.000425200124f, 0.0937885419f, -0.0703251362f, 0.0914335847f, -0.0172840096f, 0.159006223f, -0.0408573337f, 0.047288429f,
    0.00287409686f, -0.0832950398f, -0.0402662531f, 9.08611619e-05f, 0.0586852618f, -0.0577444136f, 0.0318107195f, -0.0805057734f,
    0.0461530462f, 0.0192587059f, -0.0888051316f, 0.0281611737f, -0.0327141844f, 0.0377207063f, -0.105488077f, -0.120913275f,
    -0.0170239378f, 0.0229539108f, 0.0787323937f, -0.0931052789f, -0.0970814079f, -0.0227886438f, 0.0433426015f, 0.075676024f,
    0.0566105172f, 0.111629963f, -0.00273710699f, 0.0096602384f, -0.0106206704f, -0.0870877951f, -0.0804903209f, -0.0302902441f,
    -0.0825175196f, 0.0442012995f, 0.0979889482f, 0.0200110618f, 0.101319052f, -0.106966093f, -0.02413789f, 0.0317021981f,
    0.0772457942f, 0.0485514067f, 0.0287603196f, -0.0806803331f, 0.0335080884f, -0.106600434f, 0.102870464f, -0.0378387682f,
    0.00538368244f, 0.0192498919f, -0.043780826f, -0.0680613667f, -0.0968611836f, 0.023623744f, 0.00972360373f, -0.00551179284f,
    -0.0600688867f, 0.011980921f, -0.0855886862f, -0.00201581372f, -0.0389299728f, -0.0202546641f, 0.0490145236f, -0.0666422695f,
