// Generated by voice_reduction/export_voice_reduction_c.py. Do not edit by hand.
// Architecture: cw_denoise_gru_mask
// sample_rate=9600 fft_length=256 hop_length=144 band_bins=0..128

#ifndef VOICE_REDUCTION_MODEL_WEIGHTS_H
#define VOICE_REDUCTION_MODEL_WEIGHTS_H

#include "denoise_model.h"

#ifndef DENOISE_MODEL_ATTR
#define DENOISE_MODEL_ATTR
#endif

static const float DENOISE_MODEL_ATTR k_voice_reduction_input_norm_weight[129] = {
    0.854720056f, 0.804922044f, 0.716186404f, 0.818435133f, 0.913800657f, 0.914452493f, 0.903233945f, 1.00366545f,
    1.02641213f, 1.0707376f, 1.10385692f, 1.0300709f, 1.03730285f, 1.04355645f, 1.01982045f, 1.04082716f,
    0.991714299f, 1.08983457f, 1.11237288f, 1.04534888f, 1.09237671f, 1.05892575f, 1.09520996f, 0.94738555f,
    0.931416988f, 0.842939019f, 0.911831319f, 0.923243046f, 0.808425963f, 0.794009268f, 0.757822335f, 0.751742899f,
    0.831525862f, 0.782294691f, 0.798229814f, 0.731930733f, 0.801843166f, 0.767224967f, 0.809647679f, 0.81685847f,
    0.833116949f, 0.76874131f, 0.817052484f, 0.767292857f, 0.784842908f, 0.788196862f, 0.787751973f, 0.840421081f,
    0.764781237f, 0.817800045f, 0.772764087f, 0.814772248f, 0.743047714f, 0.756918371f, 0.70765841f, 0.782277405f,
    0.857687473f, 0.733892977f, 0.830565214f, 0.726460993f, 0.80294627f, 0.677549899f, 0.783822358f, 0.760933936f,
    0.778375208f, 0.753744125f, 0.62684679f, 0.548474908f, 0.664569259f, 0.582734764f, 0.5361678f, 0.640983939f,
    0.489234269f, 0.391061187f, 0.428421408f, 0.397799402f, 0.474530101f, 0.401619673f, 0.416315079f, 0.490785003f,
    0.567948937f, 0.411844999f, 0.437565684f, 0.373296797f, 0.446597397f, 0.446862906f, 0.47690624f, 0.518627048f,
    0.525938928f, 0.47092998f, 0.540294409f, 0.579158723f, 0.476402521f, 0.5299564f, 0.625311673f, 0.612288356f,
    0.557852626f, 0.644937634f, 0.719822109f, 0.588213325f, 0.576779723f, 0.639937818f, 0.590576649f, 0.654268026f,
    0.619166434f, 0.639774442f, 0.583934605f, 0.613942087f, 0.694139719f, 0.694955349f, 0.728518486f, 0.677686691f,
    0.791700482f, 0.742985725f, 0.646948755f, 0.752376437f, 0.757720947f, 0.760669172f, 0.818059921f, 0.773218155f,
    0.737423301f, 0.7097736f, 0.809249282f, 0.851851583f, 0.780857086f, 0.765054464f, 0.757247329f, 0.842111349f,
    0.814912796f
};

static const float DENOISE_MODEL_ATTR k_voice_reduction_input_norm_bias[129] = {
    0.159481138f, 0.121917732f, 0.171998024f, 0.0880917832f, 0.0602172166f, -0.079700999f, -0.119135112f, -0.0838988274f,
    -0.207340568f, -0.0984392092f, -0.146429807f, -0.201412573f, -0.19504638f, -0.317307621f, -0.137815058f, -0.24923864f,
    -0.17289193f, -0.151291594f, -0.136410609f, -0.167113155f, -0.15603587f, -0.150269777f, -0.110451967f, -0.154062122f,
    -0.263945311f, -0.216226354f, -0.113437966f, -0.124579825f, -0.117344163f, -0.0420606025f, -0.108662739f, -0.0587445162f,
    -0.0674137548f, -0.0673248172f, -0.0486203358f, -0.0982744545f, -0.0858209431f, -0.198399693f, -0.0741963461f, -0.189222664f,
    -0.0680345967f, -0.220219672f, -0.188423485f, -0.173071653f, -0.117639214f, -0.118865468f, -0.15300186f, -0.0488279685f,
    -0.106525153f, -0.109891266f, -0.0655909106f, -0.155669555f, -0.0166786332f, -0.0809945613f, -0.173341885f, -0.0643433854f,
    -0.0811845139f, -0.0415216014f, -0.0518733338f, -0.08803045f, -0.000878079038f, -0.0237442292f, -0.0202583838f, -0.0515098833f,
    -0.00503328769f, 0.0445793346f, -0.0857890248f, 0.00914683379f, 0.0749940723f, 0.0480615012f, 0.0763950795f, 0.0024535202f,
    0.111068733f, 0.167282224f, 0.17805995f, 0.114199601f, 0.175394207f, 0.187958524f, 0.124948859f, 0.0871324018f,
    0.13544108f, 0.176558688f, 0.28383562f, 0.109428167f, 0.311133236f, 0.13330321f, 0.201528534f, 0.190868318f,
    0.230547473f, 0.130736738f, 0.225781813f, 0.192932546f, 0.214147434f, 0.296764463f, 0.0407712236f, 0.202363789f,
    0.213741466f, 0.169027045f, 0.0894199833f, 0.140428916f, 0.195818692f, 0.141319796f, 0.192136049f, 0.135865137f,
    0.269811571f, 0.270813406f, 0.290504158f, 0.237356231f, 0.206282169f, 0.16205442f, 0.19501628f, 0.280072778f,
    0.1173696f, 0.0871149004f, 0.197067887f, 0.0721355975f, 0.15728876f, 0.222188041f, 0.0533735752f, 0.09873873f,
    0.0701960251f, 0.031338919f, 0.153364643f, 0.116674669f, 0.181733921f, 0.16375792f, 0.211963892f, 0.0102686202f,
    0.0335674547f
};

static const float DENOISE_MODEL_ATTR k_voice_reduction_gru_weight_ih[24768] = {
    0.0753316209f, 0.107226707f, 0.0216365363f, 0.0395578034f, 0.138765797f, -0.0886993855f, -0.0313708708f, 0.148432046f,
    0.075071238f, -0.0625336021f, -0.0857870057f, 0.0674042776f, 0.0942141712f, 0.366260469f, 0.182323173f, -0.0610672459f,
    0.0745648965f, 0.0619201362f, -0.240613177f, -0.169039875f, 0.0665271133f, 0.0645664781f, -0.0522571914f, -0.101482034f,
    -0.0912040472f, -0.12433175f, 0.00782262441f, 0.184627518f, 0.214509338f, 0.223951966f, 0.0594453402f, 0.0115690902f,
    0.0609359331f, 0.273812711f, 0.146032661f, -0.119104899f, -0.0161684025f, -0.0325683765f, 0.201058313f, 0.118369326f,
    0.0449891947f, -0.0851283669f, 0.0689260811f, 0.0812091455f, 0.153191522f, 0.108394153f, 0.048903551f, 0.0975614935f,
    -0.0376817212f, -0.13838324f, -0.156002015f, -0.13963525f, -0.221081123f, -0.142955989f, -0.193484619f, -0.113605909f,
    -0.248765051f, 0.113485441f, 0.0353987589f, -0.18317017f, -0.152621493f, -0.138297781f, -0.0966151431f, 0.0210624747f,
    0.00419287942f, -0.110531293f, -0.012291518f, 0.00351075456f, 0.0459121056f, -0.0177085176f, 0.00247256109f, 0.0248339716f,
    0.0324724466f, -0.113099083f, 0.1032281f, 0.0529652126f, -0.0988751203f, -0.0187126491f, -0.0894164294f, 0.094283171f,
    -0.0075432132f, 0.0822426975f, -0.0079212077f, -0.0493309386f, -0.0502396338f, 0.035936784f, 0.00586515944f, 0.016295908f,
    -0.0191299878f, 0.0493935011f, 0.0885555446f, -0.121652968f, -0.126973301f, 0.0256138928f, -0.0433666781f, -0.00903674215f,
    0.0492151566f, -0.0584211834f, 0.0949162766f, 0.0938983485f, -0.0323689729f, -0.0209788587f, 0.0554575026f, -0.086928539f,
    0.00800677761f, 0.0303253587f, 0.101330176f, -0.1040975f, 0.0671695769f, 0.0760614574f, 0.000642275612f, -0.0973885953f,
    0.0455031618f, 0.0310241375f, -0.00645561004f, 0.022842098f, -0.0302767549f, -0.0145000611f, 0.072077632f, 0.0719755888f,
    0.0975603089f, -0.086729385f, 0.071109578f, -0.0704708174f, 0.0292757191f, -0.0622105747f, -0.0495767072f, -0.00534361228f,
    -0.0445884839f, -0.00120905379f, -0.133715376f, -0.00761428894f, 0.00165900355f, -0.107412532f, 0.0684635639f, 0.0321604609f,
    -0.134231284f, -0.0806077197f, -0.0936526656f, -0.209424436f, -0.248099998f, 0.0424774699f, 0.0292393398f, 0.0495692678f,
    -0.0330342911f, 0.0901332498f, 0.0798651353f, 0.170109108f, 0.262367427f, 0.103037514f, 0.0453309864f, 0.0351618193f,
    -0.0938594639f, -0.0363070741f, -0.031235259f, 0.0098639736f, 0.0707872286f, 0.0775976256f, -0.00371437008f, 0.0883188024f,
    0.0787730291f, 0.0906159058f, 0.041523993f, 0.0392429084f, -0.037162438f, 0.100885816f, -0.00305328425f, 0.0502764545f,
    0.0429945067f, 0.056306608f, 0.059724763f, 0.0933361053f, 0.144457549f, 0.0777548254f, 0.217744827f, 0.218144998f,
    0.193232268f, 0.341444135f, 0.400710881f, 0.41279313f, 0.346295953f, 0.371521354f, 0.322270006f, 0.292723984f,
    0.243173048f, 0.10257192f, 0.129956961f, 0.178992629f, 0.295933694f, 0.208532497f, 0.201844305f, 0.10556642f,
    0.0947720855f, 0.208174124f, 0.138801649f, 0.144026205f, 0.0976580381f, 0.00565924449f, -0.0145434691f, 0.00237595406f,
    0.166992769f, -0.0357254259f, -0.061091505f, -0.135955349f, -0.0615207292f, 0.0161392167f, -0.0245056115f, -0.172590375f,
    -0.0110629676f, -0.134094656f, -0.0500977263f, -0.094950594f, -0.0217634793f, -0.0609087683f, 0.00390866213f, 0.00148711063f,
    -0.115255363f, -0.160435498f, -0.0267982595f, -0.0981129557f, -0.0377551615f, -0.147546381f, -0.0870760977f, -0.0935120732f,
    -0.000380679907f, -0.163182274f, -0.041413743f, -0.111021608f, -0.0580390617f, -0.063120909f, -0.0132610649f, -0.0430039987f,
    -0.111118026f, -0.00196607085f, -0.0570039824f, -0.152811036f, -0.138728574f, -0.0699030235f, -0.0243858509f, -0.104128636f,
    -0.0381350927f, -0.0422293656f, -0.022128487f, -0.135635987f, -0.0573547184f, -0.0963534415f, -0.0113931019f, -0.098728992f,
    -0.191913381f, -0.00970052276f, -0.184976295f, -0.163625017f, -0.0871111453f, -0.174848199f, -0.101717375f, -0.0716932714f,
    -0.104959987f, -0.0381817259f, -0.10191188f, 0.0145510482f, 0.0247704275f, 0.0134455869f, 0.0957655236f, -0.0588334277f,
    0.0412586257f, 0.00819144305f, 0.139348447f, 0.0149326287f, -0.0332298987f, 0.0582491197f, -0.00581430783f, -0.0285360254f,
    0.00627118023f, 0.120531537f, 0.0389201418f, 0.0696305782f, 0.0540077016f, 0.0148992809f, 0.0912776291f, 0.0411000401f,
    0.0140778059f, -0.0256541446f, -0.00810795091f, -0.0597010218f, 0.022494046f, -0.0774644092f, 0.0167248901f, 0.0281989463f,
    -0.0638523474f, -0.00507973228f, -0.106032364f, 0.00651508523f, -0.0631363541f, -0.00734840799f, -0.104953431f, -0.0815442428f,
    -0.00967636611f, -0.142275885f, -0.135796577f, 0.0575370044f, 0.0717405453f, -0.0552425571f, -0.0687233135f, -0.130957693f,
    -0.162292421f, -0.0962338299f, 0.0239464082f, -0.118961722f, 0.176333562f, 0.0542325564f, -0.0460863151f, 0.0190619826f,
    0.155038834f, 0.20285432f, 0.288441062f, 0.338334084f, 0.397663265f, 0.303484142f, 0.311288953f, 0.270467907f,
    0.179031134f, 0.0920023397f, 0.0536018461f, 0.0848344117f, 0.0464998037f, -0.00377636519f, 0.0271471255f, 0.0535657182f,
    0.00551677262f, 0.0423804037f, 0.00791940931f, 0.0168229658f, 0.047612723f, 0.0283815935f, 0.172165453f, 0.184100106f,
    0.0365160368f, -0.0251404159f, 0.00418158015f, 0.113285579f, 0.0338178091f, -0.0794087052f, 0.0356252939f, 0.0465168245f,
    0.163798332f, -0.00497144414f, -0.0972974449f, 0.0454162993f, -0.0834377408f, 0.0951136723f, -0.0710648522f, -0.0356136747f,
    -0.0240168925f, 0.0434923023f, -0.0205267519f, -0.0835112184f, 0.0100224996f, 0.0728186816f, 0.0344483256f, -0.115651779f,
    -0.0441105776f, -0.063013725f, 0.0814134553f, 0.0664556026f, -0.0272768773f, 0.0364096761f, -0.0746346787f, -0.0284563079f,
    -0.00561005622f, -0.032384716f, 0.0204851814f, -0.0924582034f, 0.0103883119f, -0.0899372399f, -0.142458141f, 0.0440804996f,
    -0.0645935312f, 0.0228665303f, -0.0819126964f, 0.00487213628f, -0.140192509f, -0.0805408359f, 0.0359135866f, -0.148524567f,
    -0.154267475f, -0.0401191376f, -0.00831455737f, -0.0489083193f, 0.0239368789f, 0.040200267f, -0.184151232f, -0.146952927f,
    0.117896646f, 0.0575369969f, -0.483696193f, -0.056402158f, 0.674574554f, 0.231573179f, 0.0526886918f, 0.236456305f,
    0.196167961f, 0.0749669671f, 0.226740152f, 0.257799774f, 0.136376977f, 0.0696647912f, 0.0160205904f, 0.0663291141f,
    0.0121953078f, 0.0712043718f, 0.099405691f, 0.100192823f, 0.104830712f, 0.00561410328f, 0.0133526139f, 0.0744704902f,
    0.101036757f, 0.0420556776f, 0.0580717735f, 0.0169984326f, -0.088148348f, -0.0339311324f, 0.0387041308f, 0.0370762795f,
    0.000244107316f, 0.044346232f, -0.0355918705f, 0.0611390881f, -0.0838900059f, 0.0263971929f, -0.0234443694f, -0.0250476114f,
    0.0104071125f, -0.0792406648f, -0.0794009715f, 0.0202796999f, -0.0481737964f, -0.116061762f, -0.059785042f, -0.0705118328f,
    -0.0640965998f, -0.18168506f, -0.0700064674f, -0.0782682002f, -0.0242126416f, -0.0568274036f, -0.0438149981f, 0.00568095548f,
    0.0528278537f, -0.033831127f, -0.118165463f, 0.0105670653f, -0.0122806896f, 0.0381838121f, -0.062157318f, -0.0379666649f,
    -0.0473748296f, -0.0857447833f, -0.0163431f, 0.0668112189f, -0.110867307f, -0.0673642009f, -0.0182054024f, 0.0643765628f,
    -0.0199900549f, -0.0775888041f, 0.0734046772f, -0.00267980341f, -0.012708256f, -0.05120923f, -0.062441092f, -0.0172840636f,
    -0.0707319081f, -0.041939009f, -0.123636656f, 0.0852481201f, -0.110576242f, 0.0300523117f, -0.105891854f, 0.0233603697f,
    0.0462083444f, -0.0143015981f, -0.0635143742f, -0.0194858573f, 0.0854562521f, -0.0382370837f, -0.117670454f, 0.012705869f,
    -0.0929325819f, -0.124464482f, -0.0848071277f, 0.0293347929f, 0.0373076834f, -0.106497064f, 0.0135942558f, -0.0218889732f,
    0.0505787805f, -0.0533296727f, -0.114893734f, -0.039142251f, 0.016465662f, -0.0343371704f, 0.0438546315f, 0.00819863006f,
    0.0125013757f, -0.0213463232f, -0.0819619372f, 0.0751363337f, -0.0442532822f, 0.0389796607f, 0.0619220324f, 0.000360546372f,
    -0.103462368f, -0.0349257365f, -0.0644138902f, -0.0166173484f, -0.213697448f, -0.067478098f, -0.114995949f, 0.0855238959f,
    -0.0267433394f, 0.129812464f, 0.0257247332f, -0.0158038307f, 0.00449398533f, -0.116548657f, -0.05668718f, 0.0484419875f,
    -0.0693176538f, -0.0282771345f, -0.0732280165f, -0.0102079418f, 0.103368409f, -0.0115375211f, -0.12072131f, -0.0290772803f,
    0.212860346f, 0.215995982f, 0.126627713f, 0.189481929f, 0.165031686f, 0.114889815f, 0.034271799f, 0.22671254f,
    0.29728809f, 0.0866023228f, 0.0708149225f, -0.0199236162f, -0.0248311982f, -0.0241868682f, 0.0248023961f, -0.0590919554f,
    -0.170424581f, -0.16464597f, -0.131059304f, -0.0955395028f, -0.0980295241f, -0.159990236f, -0.196059525f, -0.158759624f,
    -0.189759225f, 0.0172190443f, 0.0478624552f, -0.0151990764f, 0.0471362583f, -0.0425257012f, 0.096911341f, 0.135168061f,
    0.0290258396f, 0.00987709686f, 0.114984088f, 0.0414524823f, 0.0442339629f, 0.025999764f, 0.0649486259f, -0.0358625203f,
    -0.0542876683f, -0.0463810228f, -0.119519509f, -0.0621367209f, -0.00834552664f, -0.0914567262f, -0.014888756f, -0.0898144692f,
    -0.0789116621f, 0.0104290936f, 0.0319261998f, -0.12311615f, -0.143970415f, -0.0868771225f, -0.0244406387f, -0.037510328f,
    -0.0716683641f, -0.0709177256f, -0.0181738213f, 0.113071665f, -0.0427951962f, 0.0690035895f, 0.101942249f, 0.0435065329f,
    0.0290346313f, 0.122390151f, 0.0630115941f, -0.112151131f, 0.0873275176f, 0.0677512437f, -0.0510254465f, -0.0732726082f,
    -0.102075197f, -0.0548617207f, 0.0428786799f, -0.016191097f, -0.0689172f, 0.0577747785f, -0.0804677978f, -0.0743200332f,
    -0.0213259514f, -0.105019562f, -0.00375070702f, -0.0192226376f, -0.0105344886f, 0.0475794859f, -0.018779505f, 0.0262366626f,
    -0.0416475236f, -0.0521324612f, -0.0421750844f, 0.00712828059f, 0.000682700425f, -0.0558042973f, 0.0203677118f, -0.0235351063f,
    -0.149722129f, -0.0715893731f, -0.0682455823f, 0.0417711288f, -0.0939656049f, -0.102016561f, -0.0599694178f, -0.137435138f,
    -0.0831160024f, -0.0279340018f, -0.0538429916f, 0.00300464919f, -0.145859018f, 0.0508680567f, -0.0372026116f, -0.127128214f,
    -0.108345404f, -0.0956701487f, -0.00888173468f, -0.000706655788f, -0.0327195376f, 0.0366051644f, -0.0317785628f, 0.0278573185f,
    0.0165163651f, 0.00119485939f, 0.0148116415f, -0.0387403741f, -0.115190968f, -0.150626585f, -0.20656386f, -0.757366598f,
    -0.586496592f, -0.572402537f, -0.320948303f, -0.154249147f, -0.0962212905f, -0.0678585395f, 0.0405208319f, 0.0433025248f,
    0.0455727912f, 0.224785164f, 0.23402223f, 0.123926014f, 0.170632452f, 0.212672681f, 0.124043636f, 0.0551288389f,
    0.0700805187f, 0.0379856117f, 0.180577129f, 0.220618859f, 0.00271225092f, 0.157097206f, 0.00209500478f, -0.039483346f,
    -0.0996505767f, -0.0566188805f, -0.0272220727f, -0.0862077922f, 0.107249491f, 0.0371404923f, -0.0518869385f, 0.0116718598f,
    -0.0343385451f, 0.079211399f, 0.0111233601f, 0.0599569492f, 0.0093992278f, 0.0745828897f, -0.0205202699f, -0.0523982383f,
    0.0568226464f, -0.0517121404f, 0.0264835488f, 0.0192971863f, -0.0843466446f, 0.0508760735f, -0.0188560598f, 0.0577183738f,
    0.0151824923f, -0.00187358703f, -0.0383161753f, -0.0275901407f, -0.038922675f, 0.0386615656f, 0.110241041f, 0.0730861425f,
    0.19174771f, 0.0800723135f, 0.156000435f, 0.0313573778f, 0.115987636f, 0.0475896411f, 0.140893206f, 0.169576421f,
    0.0788281411f, -0.0147482399f, 0.0671635419f, 0.00344274542f, 0.115818255f, 0.0558941141f, 0.0893383995f, 0.0718472749f,
    0.123632677f, 0.04675759f, 0.0820492133f, -0.0274030063f, 0.0119767869f, -0.068876259f, -0.064320147f, -0.0896804482f,
    -0.0691328198f, 0.028732067f, -0.00500704814f, -0.0410723686f, 0.00740721216f, -0.0229901168f, 0.0317115597f, 0.0194340739f,
    -0.00662532775f, 0.150101304f, 0.0414075926f, 0.0336694121f, 0.0270051733f, 0.109487347f, -0.000739755691f, 0.00974791031f,
    0.119023897f, 0.107303105f, -0.0194974393f, -0.00137670455f, -0.00338150002f, 0.163302675f, -0.0434517562f, 0.0931788012f,
    0.108679563f, 0.150455222f, -0.0282881595f, 0.114212185f, 0.0427762158f, 0.00082119141f, 0.00902054273f, -0.0231150202f,
    0.0647693053f, 0.0620763414f, 0.0891483873f, 0.123960219f, 0.0253998544f, 0.038567733f, 0.0650855601f, 0.173165321f,
    0.0145954182f, 0.0608099997f, 0.0346666947f, 0.0200980566f, 0.0657397136f, 0.0561238043f, 0.0296164136f, 0.0657711923f,
    0.211965278f, -0.0229716115f, 0.176972628f, 0.0904517025f, 0.0570666045f, 0.0379011817f, 0.0264922455f, -0.0181467962f,
    0.0331832059f, -0.123049803f, 0.048967164f, 0.0451417416f, -0.259711504f, -0.234224662f, -0.0560016893f, -0.00179791905f,
    0.0118471002f, 0.00692574447f, 0.0854814276f, 0.121042199f, -0.0328881443f, -0.0196901262f, -0.104595684f, -0.131236881f,
    -0.0453943275f, 0.0588630624f, -0.0106038051f, -0.0238832906f, -0.154647216f, -0.0280962326f, -0.104238145f, -0.171837971f,
    -0.163877428f, -0.11065463f, 0.0696857721f, -0.0673994645f, -0.0727934614f, -0.057559941f, -0.117702544f, 0.00508969743f,
    -0.0495561101f, -0.045457188f, -0.0218975767f, -0.050718341f, -0.0491949357f, -0.0358254611f, -0.0309824832f, -0.186019138f,
    -0.137368515f, 0.00813755766f, -0.138820231f, -0.0296914782f, -0.0781564191f, 0.0177051555f, 0.00933020562f, 0.0358845927f,
    0.055768121f, -0.0216156151f, -0.0837251991f, 0.0262610968f, 0.0248876866f, -0.111712866f, 0.10163492f, -0.0167288221f,
    -0.0814955831f, -0.040245235f, -0.107169189f, -0.159992591f, -0.0224119257f, -0.0354086123f, 0.0455883406f, -0.0755562931f,
    0.0802145302f, 0.0288076047f, 0.0818016753f, 0.0757335499f, 0.0598497801f, 0.0684734732f, 0.121244013f, -0.0680725351f,
    0.0859858468f, -0.0957097709f, -0.0520788282f, 0.047490567f, -0.0738540217f, -0.0190251321f, -0.00919828378f, -0.0701995715f,
    0.0772085413f, 0.0413379148f, -0.0954097509f, -0.0220790319f, -0.000575006357f, -0.0582193434f, 0.0793967173f, -0.0874394774f,
    0.0332574099f, -0.0933419243f, 0.0148724131f, -0.0506285392f, -0.113653377f, -0.0828938931f, 0.0976271033f, 0.0880256146f,
    -0.0795379207f, -0.029223552f, 0.0832520574f, 0.000897104794f, -0.0111101903f, -0.0355594866f, 0.101308517f, -0.124192022f,
    -0.192814574f, -0.0988917649f, -0.0545541793f, 0.0583533198f, -0.0297466442f, -0.0835349113f, 0.09356796f, -0.0302325469f,
    -0.0173605699f, 0.0580428541f, 0.0746732503f, 0.136032805f, 0.194913924f, 0.0773641691f, 0.0707735643f, -0.073888734f,
    -0.125062034f, -0.229724228f, -0.20268701f, 0.0200744402f, -0.0203091446f, -0.0100903967f, 0.0589706488f, 0.154342875f,
    0.0664158612f, 0.140468225f, 0.135166228f, 0.0448375382f, 0.0546526127f, 0.143687367f, 0.0549319945f, -0.0261996929f,
    -0.0527529418f, -0.135101348f, -0.118270352f, -0.0368337519f, 0.018958725f, -0.0280954614f, -0.0822430998f, -0.0182453729f,
    -0.123858362f, -0.165531486f, -0.123694524f, -0.025729483f, -0.0800230354f, -0.104895733f, -0.0837271586f, -0.0216652639f,
    0.018281674f, -0.114389941f, 0.02457623f, -0.052368734f, 0.0168495569f, 0.122805879f, 0.0111648077f, -0.0183125101f,
    -0.0286257286f, -0.0685767382f, 0.0845073685f, -0.00760681648f, 0.0381781273f, 0.108060129f, 0.0698314458f, 0.156031862f,
    0.146025717f, 0.162112623f, 0.238001943f, 0.162875175f, 0.129100278f, 0.173663542f, 0.236534551f, 0.0766295716f,
    0.239881322f, 0.152284876f, -0.00980584323f, 0.000193130647f, 0.103683062f, 0.104741156f, 0.0437918082f, 0.0396087915f,
    -0.00764216902f, 0.164910257f, 0.0582599491f, 0.0312894583f, -0.0224798415f, 0.0744247064f, 0.000966531981f, 0.111558758f,
    0.104338862f, -0.0229402147f, 0.0478503704f, 0.0326706804f, -0.0843528211f, 0.044627279f, -0.0439566597f, -0.0224905573f,
    0.0462338477f, -0.0400542542f, -0.0993388072f, 0.0678968504f, 0.00960455835f, 0.0108540319f, -0.135751188f, -0.0772547424f,
    -0.0756426975f, -0.0386305563f, -0.0695131719f, -0.0218753479f, -0.0527268201f, -0.133888736f, -0.0505523421f, 0.0365449488f,
    -0.020668054f, 0.0312158391f, -0.171401337f, 0.0114356643f, -0.174543336f, -0.14941144f, -0.124455139f, -0.0262432527f,
    -0.167995483f, -0.15255636f, -0.0841194317f, -0.130722299f, -0.101859517f, -0.114180624f, -0.0720180422f, 0.0170090217f,
    0.000395510229f, -0.018605683f, -0.127573952f, -0.110218853f, -0.00615676865f, -0.132642776f, 0.029761916f, -0.042657651f,
    -0.0323873945f, -0.0811221376f, 0.0647314489f, 0.0435518064f, 0.266551465f, -0.0548431799f, 0.0045726602f, 0.056104105f,
    0.00638224324f, 0.0320162289f, 0.0934762433f, -0.0456645116f, -0.123466618f, -0.243320063f, -0.0860050321f, -0.0366988666f,
    0.0674081668f, 0.296484768f, 0.141641796f, 0.012647084f, -0.0345537439f, 0.149505198f, -0.0956257433f, -0.0356659405f,
    -0.141522467f, -0.105052941f, -0.0332454219f, 0.0542565472f, -0.124970809f, -0.0502850562f, 0.0164666642f, -0.0344661362f,
    -0.103801653f, 0.120128617f, 0.00742856693f, 0.119703665f, 0.0105470251f, -0.0447576232f, -0.0623257644f, -0.119239874f,
    -0.152634308f, -0.0338005014f, -0.137653515f, -0.174725011f, -0.130050182f, -0.0108185709f, 0.0171383824f, 0.134847075f,
    0.230151668f, 0.162522137f, 0.184347972f, 0.0606151186f, 0.186731741f, 0.0970809385f, 0.0447511859f, -0.0169533193f,
    0.179452583f, 0.0390364639f, 0.00753740314f, 0.054931365f, -0.131859064f, -0.111366823f, -0.100116171f, 0.0598855689f,
    0.085369274f, -0.00458845496f, 0.0288454499f, -0.0401563384f, 0.0641547516f, -0.0474536307f, -0.0104478672f, -0.0932364389f,
    -0.153043553f, -0.0994109735f, -0.0342408791f, -0.0434002131f, 0.00923222303f, 0.0723645613f, -0.0177462008f, -0.0986583531f,
    -0.0309833456f, -0.0642273501f, -0.119023889f, -0.037993852f, -0.120479412f, -0.0970181152f, -0.0275479741f, -0.0168479532f,
    -0.00919578038f, 0.0269394591f, -0.0279990062f, -0.102846354f, 0.0669718981f, -0.0304151177f, 0.070686318f, -0.06057797f,
    -0.0978254899f, -0.008168553f, -0.00334846415f, -0.00747658126f, -0.00369936484f, -0.0624321587f, 0.0371915177f, 0.0771472082f,
    -0.0981280208f, 0.00882330351f, 0.00745105045f, 0.0597362332f, 0.00238307682f, 0.0163284f, -0.124995574f, -0.0480929054f,
    -6.23286833e-05f, 0.01353807f, -0.0931221619f, -0.0196664073f, -0.00670833839f, 0.0119995894f, -0.00644390611f, -0.042580016f,
    0.0313177705f, 0.0580445118f, 0.00733834133f, -0.0773743987f, -0.0530895144f, 0.0595566966f, -0.0360293202f, -0.154515624f,
    -0.130254835f, -0.141685709f, -0.0787319615f, 0.140225202f, -0.189916074f, -0.369200706f, -0.0975450799f, 0.104073077f,
    0.341741741f, 0.163395673f, -0.110571831f, -0.018292712f, 0.235232592f, 0.0411346331f, -0.0794650763f, 0.00956356246f,
    0.0324115828f, -0.103047527f, -0.127126768f, 0.0921935514f, 0.0218810216f, 0.154222339f, 0.105205491f, 0.0931441784f,
    0.154149875f, -0.0294122659f, -0.00977532938f, -0.0966701359f, -0.0415160432f, -0.0640734136f, 0.0718568414f, 0.0396670923f,
    0.0813439265f, 0.0655971393f, 0.197683454f, 0.0575452335f, 0.0161788091f, -0.0736775771f, 0.0239338912f, 0.102539636f,
    0.0441694371f, -0.0332111865f, -0.053704001f, 0.0549869537f, 0.0228607468f, 0.0609835424f, 0.0860449746f, 0.012511801f,
    0.0489820838f, 0.017504774f, 0.0131532047f, -0.0279464033f, 0.0269533731f, 0.0877356753f, 0.131283805f, 0.0183086004f,
    0.0365553945f, 0.0384981036f, -0.0832812488f, 0.126427397f, -0.00705180643f, -0.0442182757f, -0.143205628f, 0.0273531303f,
    0.120328292f, -0.0719270334f, -0.0362178124f, 0.0150559722f, 0.0952386111f, 0.00995675009f, 0.10617508f, -0.049053032f,
    0.0461913571f, 0.0221092682f, 0.0585786626f, 0.0155526595f, -0.0153968679f, 0.175726235f, 0.0259384904f, -0.0135800932f,
    0.102315009f, -0.052418258f, -0.0452129133f, 0.00290505309f, -0.0572268218f, 0.0525063314f, 0.000738971168f, 0.0133237988f,
    -0.0217460077f, 0.0981656462f, -0.0061350856f, -0.0679090917f, -0.0511256531f, 0.0129802926f, -0.0798949376f, 0.0107900864f,
    -0.0568239838f, 0.0697769746f, 0.0751378238f, -0.14200516f, 0.0673600137f, -0.0659612939f, -0.0274387728f, -0.119112015f,
    0.0329705179f, -0.110625952f, -0.00390438852f, -0.0911378711f, -0.0937469006f, -0.124551877f, 0.00031783228f, -0.0908950791f,
    -0.133351326f, -0.0755718201f, -0.0912773013f, -0.0368466265f, -0.0072520324f, -0.119634785f, 0.0478262976f, -0.0366992913f,
    -0.120216772f, -0.0652797744f, -0.0724669099f, -0.121621102f, -0.0710996911f, -0.0801489949f, 0.0160701424f, -0.00662986422f,
    0.0405554995f, -0.0183568299f, -0.0356343091f, -0.00872597471f, -0.0803489834f, -0.0667185187f, -0.101977445f, -0.0538763143f,
    -0.00807973929f, -0.15493305f, 0.269269139f, 0.25517568f, 0.266824365f, 0.267770767f, 0.291315138f, 0.400075823f,
    0.262125999f, 0.29450047f, 0.108845912f, 0.302391648f, 0.298411965f, 0.229594305f, 0.204359874f, 0.00640165806f,
    0.0521808863f, 0.0126335546f, 0.219675809f, 0.0213678554f, -0.0299750194f, -0.00498824939f, -0.046752952f, 0.00125573599f,
    0.0403958596f, 0.0977463648f, 0.100120731f, -0.089626357f, -0.0577624626f, 0.0272106696f, 0.0536881573f, 0.0390022434f,
    -0.0596480034f, -0.123667471f, -0.116286062f, -0.0134569099f, -0.048313573f, -0.0272565633f, -0.07195279f, -0.00919610355f,
    -0.0351057947f, -0.0589969754f, -0.0150486315f, -0.0234690756f, -0.0704700425f, 0.011912331f, 0.044135917f, -0.0271988753f,
    0.0521420501f, -0.101378709f, -0.0366682671f, -0.119180568f, -0.0838048905f, -0.00321251573f, -0.0120991059f, -0.114592701f,
    -0.0971602798f, 0.0269299988f, 0.0318856388f, 0.0698758736f, 0.102977626f, -0.0327707827f, -0.017358914f, 0.146050274f,
    0.12536256f, -0.00157643133f, -0.052862227f, 0.0893232077f, 0.00692004291f, -0.016594924f, 0.116610743f, -0.0544557869f,
    -0.0344159827f, 0.0358011052f, 0.0156402923f, 0.0399399884f, 0.0152760847f, 0.0927926823f, -0.0378825478f, 0.0326367952f,
    0.0226371065f, -0.108330324f, -0.0132477041f, 0.00848794077f, -0.0928457007f, -0.0821560025f, 0.023181418f, 0.00433007954f,
    0.102839917f, 0.0823478699f, -0.0845834017f, 0.00622242317f, -0.0730430782f, -0.075982593f, 0.0311572868f, -0.118800029f,
    -0.0713285431f, 0.078162156f, 0.072845228f, -0.140831366f, -0.0623878837f, -0.0912570655f, 0.0133560691f, -0.121676594f,
    -0.0451579951f, -0.107874639f, -0.0915363282f, -0.0838576406f, -0.120648503f, 0.0511741936f, 0.0309620462f, 0.014539009f,
    -0.0957007632f, -0.0882241875f, 0.0319865979f, -0.123750009f, -0.0935854018f, 0.102349438f, 0.03514136f, 0.000317892554f,
    0.0759896487f, -0.0197058544f, 0.00790786371f, 0.0275273714f, -0.144365743f, -0.112258412f, 0.0992489383f, 0.0900731012f,
    0.146973938f, -0.0233128928f, 0.010498967f, 0.132354468f, -0.00606715167f, 0.0137206595f, -0.0720626041f, -0.106089987f,
    0.0147886388f, 0.078133896f, 0.0543762818f, 0.0793339759f, 0.0703569576f, 0.0975091308f, 0.145274669f, 0.00372241251f,
    0.0899398476f, 0.103539377f, 0.162499696f, 0.235650748f, 0.130666554f, -0.00898621604f, 0.0299807787f, 0.0961921886f,
    0.127047241f, 0.222720429f, 0.149684161f, 0.176178232f, 0.0712890401f, 0.0481390432f, 0.0933834314f, -0.0447289832f,
    0.12805061f, 0.00926441327f, -0.0235313978f, 0.0289121643f, -0.123160444f, -0.0572090074f, -0.102084376f, -0.0449620448f,
    0.0646024719f, 0.0591815151f, 0.0426216014f, -0.0767297745f, 0.00920578651f, 0.00434407266f, -0.0276990775f, -0.0205854662f,
    -0.00870826002f, -0.0609830394f, -0.070471324f, -0.111189097f, -0.0723570883f, -0.00370441424f, -0.0856524929f, -0.110226788f,
    0.0506235287f, 0.0337384492f, -0.0393598564f, 0.00935839303f, 0.238902479f, 0.00115473755f, 0.0509544946f, 0.0103542274f,
    -0.0815921053f, 0.0950570852f, 0.0839083642f, 0.0554330982f, 0.0199638493f, 0.0380388014f, -0.0283854362f, -0.10036017f,
    0.10173855f, 0.0163245797f, -0.0308891963f, -0.0293116625f, 0.0358061083f, -0.107287005f, 0.0829219297f, 0.0198051464f,
    -0.0189395696f, -0.0105077997f, 0.0592469275f, 0.00317518809f, 0.0389750451f, -0.0186749361f, -0.129354894f, -0.103626899f,
    0.0589087456f, 0.0567541271f, -0.0213598423f, -0.0757680088f, -0.0104276501f, -0.0162852108f, -0.170074597f, 0.0298900437f,
    0.0103104627f, -0.135282099f, -0.14234075f, -0.152627885f, -0.100622281f, -0.158258677f, -0.104081914f, 0.0217433386f,
    -0.078834258f, 0.0445104092f, 0.00441547344f, 0.0321762227f, -0.0177610628f, -0.0327720121f, 0.0204122718f, 0.0115368608f,
    -0.0646589547f, -0.0324395262f, 0.0554031879f, 0.0123317549f, -0.0898126662f, -0.0789299235f, -0.137753949f, 0.0553421378f,
    0.0240338705f, 0.0628798604f, 0.0247171931f, -0.0222833194f, 0.0528259166f, 0.00487427274f, 0.000231098209f, -0.0102357985f,
    0.102768719f, -0.0181320272f, -0.022975985f, -0.0651806593f, -0.025205303f, -0.0875812769f, 0.0250041913f, 0.0558522493f,
    0.0396884531f, 0.0847168937f, 0.0290787537f, -0.0421386212f, -0.0484079793f, 0.00722466549f, 0.2421249f, 0.298183948f,
    0.213262156f, 0.133181408f, 0.12696591f, 0.112443276f, 0.213145092f, 0.208543807f, 0.214974195f, 0.0627132207f,
    -0.00835708063f, -0.0888113752f, -0.0975625068f, -0.116398595f, -0.0693143085f, 0.0313986279f, -0.0328102373f, -0.0371054187f,
    0.091703929f, 0.0856298059f, 0.152549118f, 0.131352842f, 0.0894440114f, 0.106844738f, 0.150115624f, 0.000830178382f,
    0.171268716f, 0.0910913348f, 0.00639506988f, -0.0299914945f, 0.120565526f, 0.0761345699f, 0.0367808118f, 0.0676724911f,
    0.153693974f, 0.173219547f, 0.0901351795f, 0.143947929f, 0.0306723155f, 0.0175342374f, -0.0609684363f, 0.0462115705f,
    -0.0138619142f, 0.000114809503f, -0.00919268373f, 0.0400427356f, 0.0612658076f, 0.0312144533f, -0.140237749f, -0.0579805821f,
    -0.152295649f, -0.131770849f, -0.081412226f, -0.145040095f, -0.147442222f, -0.177878171f, -0.21132344f, -0.205937564f,
    -0.24027054f, -0.227878198f, -0.233895212f, -0.240152195f, -0.183889449f, -0.165161848f, -0.146916166f, -0.277228534f,
    -0.0947874412f, -0.195215389f, -0.116319828f, -0.101079121f, -0.206811354f, -0.256746888f, -0.216669872f, -0.104407735f,
    -0.16209425f, -0.0538383611f, -0.149021477f, -0.128749043f, -0.075366132f, -0.20628114f, -0.0683444068f, -0.223006621f,
    -0.0236050691f, -0.0703834146f, -0.0720806867f, -0.00664903503f, -0.0358239561f, -0.143814683f, -0.0725276917f, -0.0278740935f,
    -0.00554447901f, -0.124198332f, -0.175884962f, -0.163354546f, -0.129797265f, -0.0878440067f, -0.191434637f, -0.0446264185f,
    -0.196096495f, -0.191054031f, -0.184897289f, -0.126558691f, -0.0818290561f, -0.0447233394f, -0.0802690238f, 0.0485397168f,
    0.0309766755f, -0.00787960738f, 0.0270994008f, 0.039389275f, 0.0697703585f, 0.170754403f, 0.149514228f, 0.139385566f,
    0.281109989f, 0.0985809937f, 0.141535297f, -0.0265577268f, 0.025707351f, -0.177806765f, -0.113634914f, -0.00648225797f,
    0.040049348f, -0.0140422015f, -0.0494472794f, 0.290163964f, 0.437245339f, 0.353065282f, 0.198768839f, 0.15463315f,
    0.125619873f, 0.312005818f, 0.147919863f, 0.07612589f, -0.044717323f, -0.140842661f, -0.166013256f, 0.00739784492f,
    0.10257744f, 0.12608254f, 0.114950493f, 0.0340888985f, 0.0872917548f, 0.237747625f, 0.0942453295f, 0.0484905168f,
    0.0153801721f, 0.11179772f, 0.108716778f, 0.00338731799f, -0.0412723906f, -0.135408431f, -0.0642367676f, -0.198850408f,
    -0.0144937988f, 0.13908571f, 0.0992985144f, 0.0842456147f, -0.109108627f, -0.161379874f, -0.275148958f, -0.0157166608f,
    -0.083328627f, 0.171560779f, 0.124048389f, 0.146159053f, -0.103714474f, -0.0296063516f, 0.117270656f, 0.165553048f,
    0.312428504f, 0.104521006f, 0.0463688448f, 0.140388042f, 0.194311619f, 0.0617598891f, 0.0977467224f, 0.0510113798f,
    0.227937505f, 0.212079942f, 0.217629805f, 0.0811342373f, 0.171002358f, 0.168034881f, 0.0759436116f, 0.0247118678f,
    0.104328044f, 0.00993881561f, 0.0365299918f, 0.0920816585f, 0.095368512f, 0.0442522839f, -0.0514526181f, 0.034364935f,
    -0.0388317853f, 0.105380796f, -0.0755293965f, 0.0441251695f, 0.0242762063f, -0.00785090774f, 0.0274187755f, 0.016585568f,
    -0.117682286f, -0.129053533f, 0.0559239909f, 0.0149850268f, -0.126370624f, -0.12233898f, -0.0414964892f, -0.147544131f,
    0.0205707122f, 0.00907435454f, -0.0114669837f, -0.111703932f, 0.0279899221f, -0.139926478f, -0.122862816f, -0.0629401058f,
    -0.0877706036f, -0.0878600925f, -0.116971724f, -0.0955610722f, -0.0186679401f, 0.0245166477f, -0.145005375f, 0.0487175994f,
    -0.0257027727f, -0.0575176477f, -0.0224487688f, 0.0377709009f, -0.0757203177f, 0.0222070385f, 0.0180350095f, -0.0274480525f,
    -0.055313237f, -0.0223410614f, 0.0938116387f, 0.0646973401f, -0.0756742656f, 0.0259347223f, -0.137899727f, -0.0162881427f,
    -0.0190728046f, 0.00704157585f, 0.0916938558f, 0.129097268f, 0.244826049f, 0.251536489f, 0.0897285268f, 0.174128234f,
    0.138844311f, -0.122513868f, -0.0891862586f, 0.134114668f, -0.00217954023f, 0.0314054973f, 0.0419719927f, -0.0462948941f,
    -0.0931649432f, -0.103103034f, -0.0185966734f, 0.0544091426f, -0.0604794696f, -0.137528017f, -0.0793202594f, -0.0622780621f,
    -0.0537168719f, -0.134658575f, 0.111011229f, -0.0552636534f, -0.0432354249f, 0.00191112061f, 0.00540427445f, -0.0126103815f,
    -0.0324428715f, -0.119281054f, 0.0271359123f, -0.0271349903f, -0.0975938514f, 0.052071657f, -0.00261140335f, 0.104124747f,
    0.0049288664f, -0.0451922566f, -0.0148831727f, -0.0439282842f, 0.0695057586f, 0.19170633f, 0.0428547524f, 0.0425984971f,
    -0.0905618221f, 0.0301103611f, 0.0100892931f, 0.0560664944f, -0.00967956427f, -0.0583535731f, 0.0364973359f, 0.0791457668f,
    -0.056427218f, -0.0330161117f, -0.0961732566f, -0.103916124f, 0.0738248676f, 0.0269358382f, 0.0757287964f, -0.0496615395f,
    0.0739602819f, -0.0471897162f, 0.129425362f, 0.0572002642f, -0.0995610431f, 0.08491043f, 0.0966406241f, 0.0724797174f,
    0.0812362134f, -0.0511169061f, 0.000491498795f, 0.00743654044f, 0.0170720406f, 0.0624181405f, -0.028837597f, -0.00018395079f,
    -0.0191053152f, 0.0241962988f, 0.0808156356f, -0.00598795153f, -0.113573559f, -0.0592776686f, 0.0685853735f, -0.0348475911f,
    0.02709442f, -0.0326360613f, 0.00106450252f, 0.0737632215f, -0.097657606f, 0.0883858204f, 0.0302661024f, -0.00515504088f,
    0.0163709205f, 0.0520779453f, 0.120480917f, 0.0721069425f, 0.0677860305f, 0.0145790428f, -0.0569506101f, 0.0285881739f,
    0.0856848285f, -0.0867689103f, 0.0392765477f, 0.0437078886f, 0.0963984877f, 0.0195649657f, 0.124449298f, 0.0942377523f,
    -0.00385326333f, -0.0511448868f, 0.0788794458f, 0.0283781458f, -0.0230862256f, 0.0719046593f, 0.00123245106f, -0.0511166379f,
    0.00204669125f, 0.0295995884f, 0.0722076073f, 0.063470833f, 0.247852758f, 0.179188207f, 0.212795004f, 0.295078874f,
    0.253930837f, 0.142041937f, 0.145418778f, 0.155296922f, 0.0314059295f, -0.0797250122f, 0.0429050364f, 0.0248311292f,
    -0.137844279f, -0.175877973f, 0.206290022f, -0.0851249397f, -0.166431144f, -0.0279793218f, 0.168311223f, 0.0658147186f,
    -0.0268666558f, -0.004571144f, -0.112806566f, 0.109863266f, 0.0782543197f, 0.0970726013f, 0.0695166513f, 0.0332882851f,
    0.0481717661f, -0.0520239621f, -0.119703248f, 0.0763774961f, 0.0213058162f, 0.0235111043f, 0.139559954f, 0.164084941f,
    0.0622924976f, 0.0430080667f, -0.106501371f, -0.16126737f, -0.0800091028f, -0.0380640961f, -0.112480476f, -0.0391350873f,
    0.00498821121f, 0.0229977053f, 0.0604371578f, -0.112763129f, -0.0401003025f, -0.0469595939f, 0.0956007317f, -0.148866892f,
    -0.0856026039f, 0.0592809208f, 0.0781673118f, -0.0298946723f, -0.0179492235f, -0.0613379702f, 0.0642927587f, -0.0725200996f,
    0.100532383f, 0.0175810307f, 0.0111003555f, 0.042826917f, 0.022233896f, -0.0754067674f, 0.0697559863f, 0.043007832f,
    -0.0543549247f, 0.0746752918f, -0.144131467f, 0.0241640434f, 0.00439570565f, -0.067484431f, 0.0783571899f, -0.0155627429f,
    -0.00131238031f, 0.0562731661f, -0.020605091f, -0.0267538335f, -0.0821765512f, -0.141595408f, -9.93295398e-05f, -0.0685866624f,
    0.0967791677f, 0.00485545583f, -0.0420002155f, 0.0226549171f, 0.0320271291f, -0.0448065139f, 0.0412979722f, 0.0666946545f,
    0.106158189f, -0.0502338596f, -0.0890782401f, -0.0830094293f, 0.0221297406f, 0.0183622595f, 0.0156262722f, -0.135480747f,
    -0.098677136f, -0.0937618017f, -0.0140189379f, -0.132383347f, -0.106466629f, 0.0235542022f, -0.112914354f, -0.110368118f,
    -0.137999922f, -0.0234890804f, -0.102352142f, 0.0332905576f, -0.0965743363f, -0.166937754f, -0.163580969f, -0.0179439224f,
    -0.0263678394f, -0.129920363f, -0.0909145176f, -0.0973789319f, -0.0892318636f, 0.0114350291f, -0.0146194585f, 0.0444259532f,
    -0.0591180399f, 0.0551219955f, 0.0775622129f, 0.00419737399f, 0.293052316f, 0.314606875f, 0.204461455f, 0.157167852f,
    0.323825836f, 0.162131906f, 0.195394069f, 0.068328172f, -0.175160661f, -0.268322974f, -0.0832723156f, 0.169825152f,
    0.247538209f, 0.164191201f, 0.0314440094f, 0.00555982022f, 0.0554458499f, 0.047441978f, 0.0557761453f, 0.0106039168f,
    -0.0142020909f, 0.0271437671f, -0.105150275f, -0.0978327245f, -0.119206384f, -0.0637588426f, -0.0807618648f, 0.0374146514f,
    -0.0127324937f, -0.0268531758f, -0.0782366022f, 0.0396203287f, 0.0128380712f, 0.0708814114f, 0.0580399968f, 0.0906110704f,
    0.0459131449f, 0.0254747998f, -0.0122922705f, -0.0974805802f, -0.0925240293f, -0.140415296f, -0.105443574f, -0.18518272f,
    -0.0142080234f, -0.180562198f, -0.0501759239f, -9.1685848e-05f, 0.145482227f, -0.0373536907f, 0.0780265331f, 0.0505983494f,
    -0.019782722f, 0.0164737459f, -0.096998468f, 0.0453863479f, 0.0954758003f, 0.0118203387f, 0.0862709954f, -0.043642275f,
    0.0955149978f, 0.0706862137f, 0.166039094f, -0.0180908404f, 0.0854990408f, 0.0568364337f, -0.0196250696f, -0.0230939686f,
    -0.0114928083f, 0.0806412846f, -0.0942598879f, 0.120295644f, 0.053476885f, -0.0385114029f, 0.0412517041f, -0.0269490015f,
    -0.0304192454f, 0.0267986432f, -0.0194468088f, -0.153441474f, -0.0313556492f, -0.0608843639f, 0.0482840613f, 0.0130480127f,
    -0.0445402898f, 0.0959026739f, 0.0276868269f, 0.0891516656f, -0.0273281801f, 0.0985252559f, -0.0445745401f, 0.0785721317f,
    -0.0432716683f, 0.0680631921f, -0.112186812f, -0.112177216f, 0.0388610177f, 0.0139450086f, -0.119664021f, 0.00654497044f,
    -0.0925806835f, -0.132965222f, -0.04839468f, 0.024223214f, -0.102664232f, -0.0103912428f, 0.0447524562f, -0.0635756254f,
    -0.0155040035f, -0.0510488674f, -0.120671228f, 0.0457383506f, -0.104095913f, 0.0147069898f, -0.0114002861f, -0.0172128491f,
    -0.0295913499f, -0.0466396287f, -0.0555243939f, -0.106688164f, -0.162349299f, -0.116402984f, -0.168056145f, -0.102685139f,
    -0.0997343734f, 0.0946974233f, 0.131219044f, 0.127318695f, 0.0722120404f, -0.0791377053f, -0.24187313f, -0.124661483f,
    0.23326306f, 0.14160268f, -0.00545516703f, 0.0557630658f, 0.130736634f, -0.0418338366f, 0.0120933438f, 0.121366009f,
    0.105307505f, 0.200409591f, 0.0564615428f, -0.057989642f, 0.082405977f, 0.022243632f, -0.0638941973f, -0.011432196f,
    -0.219916716f, -0.286117584f, -0.157699823f, 0.179180101f, 0.0831048861f, -0.126263008f, -0.0356702805f, 0.00712106936f,
    0.227037728f, 0.00443838211f, 0.0220958181f, -0.037001688f, -0.00168984372f, -0.0192374289f, 0.052036345f, 0.222020507f,
    -0.136270672f, -0.025514815f, 0.00884211436f, 0.127338961f, 0.0254363809f, -0.20615077f, -0.119869433f, 0.0442889221f,
    0.0550320148f, -0.00503612543f, 0.106121287f, 0.0237818491f, 0.0289947037f, 0.0617359467f, 0.056454774f, 0.0478707626f,
    0.0097472677f, 0.0554045588f, -0.119230159f, 0.0286589637f, 0.00293393084f, -0.0156191336f, 0.0338752456f, -0.0361021087f,
    -0.127609491f, -0.217452213f, -0.0123942625f, -0.0265011955f, 0.0191302318f, -0.0152489627f, -0.025491029f, -0.0235943366f,
    0.0734816417f, -0.0557185337f, -0.141461954f, 0.0352751166f, -0.107543528f, -0.107420661f, -0.00134595018f, 0.0451159552f,
    -0.0568409711f, -0.0193537269f, -0.0933285728f, -0.135283515f, -0.0131726023f, -0.0247500092f, 0.0642718375f, -0.0660445169f,
    -0.0767193511f, -0.106964812f, -0.0415556505f, -0.0123831388f, 0.0438464992f, 0.0155928284f, -0.0705157965f, 0.0819267258f,
    0.0856264904f, 0.0571378991f, -0.0489001498f, 0.00986240339f, 0.0793385804f, -0.087208584f, -0.0596791692f, 0.00774300518f,
    -0.0895653889f, 0.0570401326f, 0.00295128929f, -0.0945951268f, -0.0633530617f, 0.0800627321f, -0.00730494643f, 0.00920566823f,
    0.0429635532f, 0.0891046971f, -0.0914262086f, 0.0476461649f, 0.0978246853f, -0.0357212313f, 0.100539386f, -0.0757661015f,
    0.0416229926f, 0.0147542702f, -0.0766724944f, 0.100177586f, 0.0661420003f, -0.0686523393f, -0.0430224501f, 0.0453751944f,
    0.0638998672f, 0.112592578f, 0.00984549429f, -0.115185857f, -0.0104346452f, 0.0457968898f, 0.0830356777f, 0.116261862f,
    0.124648944f, 0.3397457f, 0.146665737f, 0.177012131f, 0.0721942112f, 0.226412758f, 0.289261281f, 0.0862635449f,
    0.0539430119f, 0.00879910588f, 0.129087597f, 0.0121295769f, -0.0845830888f, 0.0070402571f, -0.0525342785f, 0.134608522f,
    0.156138122f, 0.324527502f, 0.216601267f, 0.159324557f, 0.238627762f, 0.178919345f, 0.279349297f, 0.0314649679f,
    0.107427537f, -0.115980588f, -0.183669761f, 0.10305237f, 0.0521628298f, 0.0705258176f, 0.105817884f, 0.0126460139f,
    0.0487047061f, 0.0275219567f, 0.0787449405f, -0.0713859722f, 0.0832057074f, 0.0222793464f, 0.0925594866f, 0.0783055723f,
    0.109500095f, 0.188821509f, 0.060936287f, 0.0880171731f, 0.0718536824f, 0.0213491973f, 0.046106115f, -0.13374202f,
    -0.0600854941f, -0.27373752f, -0.179239437f, -0.182505056f, -0.34250024f, -0.313116997f, -0.272631288f, -0.428928703f,
    -0.457904428f, -0.436704516f, -0.393563122f, -0.386991858f, -0.256245553f, -0.240459293f, -0.0818689167f, 0.0305381808f,
    -0.0189108476f, -0.0470603369f, -0.0891205221f, -0.0461186916f, 0.0160491951f, -0.0223046951f, -0.0518307798f, 0.0942148417f,
    0.164782941f, -0.0190459453f, 0.0626230314f, -0.0218925606f, -0.08510869f, -0.043196369f, 0.116682686f, -0.0763813332f,
    0.043789573f, 0.0286089797f, -0.099258244f, 0.0400256813f, -0.13016136f, -0.0587031022f, 0.0595492832f, -0.0717893764f,
    0.0196119193f, -0.111576498f, -0.0245454162f, -0.0310652647f, -0.158311725f, -0.00725757051f, -0.00230149901f, -0.0542110242f,
    0.0723359361f, -0.104316436f, 0.0251668729f, 0.00527752051f, -0.116182849f, -0.117666505f, 0.0658674911f, -0.0787677392f,
    0.0452711843f, -0.129199326f, -0.00492727896f, -0.0720638558f, -0.114883147f, -0.0709915757f, 0.0635044277f, 0.0198122188f,
    0.0407134108f, -0.10707812f, -0.0855308846f, -0.0137298368f, 0.034540277f, 0.0227112044f, -0.0728784725f, 0.00539239217f,
    0.0240904745f, 0.0155091463f, -0.0180639997f, 0.00484364061f, -0.156042293f, 0.0356124267f, 0.142678142f, 0.118372515f,
    -0.00321896491f, 0.0096705649f, 0.0877856612f, 0.07287696f, -0.0208072402f, -0.175642431f, 0.0190117937f, -0.086143814f,
    -0.0765983239f, -0.0989395007f, -0.270135283f, -0.053187862f, 0.0219257176f, -0.0686386004f, 0.0297879037f, -0.0518576168f,
    -0.00253211684f, -0.00145029358f, 0.359732717f, 0.281867474f, 0.28576225f, 0.109766379f, 0.34496671f, 0.369481921f,
    0.257564068f, 0.268342197f, 0.056849692f, 0.320195079f, -0.0355776511f, 0.21893546f, 0.114679262f, 0.191071376f,
    0.12986134f, 0.152589381f, 0.225326806f, -0.0799430832f, -0.133485749f, -0.110646412f, -0.174719915f, -0.0469695032f,
    -0.0311460104f, -0.142991692f, -0.0647009537f, 0.0643660426f, 0.0562771484f, 0.195111111f, 0.0486816391f, 0.128082961f,
    0.144617751f, 0.0538595617f, 0.0964417905f, -0.11747507f, -0.0468536094f, -0.102978908f, 0.0402381197f, -0.132033706f,
    0.0238961298f, 0.108661927f, 0.0944664553f, -0.0375328399f, -0.0740441158f, -0.153202549f, -0.0946175978f, -0.0854079425f,
    -0.0950578153f, -0.0113563044f, 0.0293691307f, -0.0262091644f, -0.142959073f, -0.145203516f, -0.116439305f, -0.0175887067f,
    0.0527552254f, -0.00232394389f, -0.0623117276f, 0.0318454802f, 0.0507854223f, -0.113635249f, 0.0746062696f, -0.110131212f,
    0.0490291528f, 0.094436489f, -0.113174871f, 0.0828664005f, -0.0340451971f, 0.0664183944f, -0.00601597689f, -0.0249768589f,
    -0.00798933208f, -0.0765051171f, 0.0234289356f, -0.0277328119f, -0.0308067445f, 0.0642480776f, 0.078537263f, -0.139348269f,
    -0.123443738f, -0.0148258731f, -0.0970655754f, 0.0228808057f, 0.0108409012f, -0.101978026f, -0.0554902405f, 0.0565928891f,
    0.00952345412f, -0.0993033051f, -0.135970637f, 0.02082761f, -0.0723609775f, -0.014749785f, -0.144863695f, -0.0161552746f,
    -0.0704389364f, -0.0845349357f, -0.127267897f, -0.10804408f, 0.0206131618f, 0.013744819f, 0.0286022499f, -0.0618541613f,
    -0.0592532717f, -0.120613903f, -0.053789068f, -0.15825206f, -0.106808931f, -0.108320788f, -0.0375438817f, 0.0182218608f,
    0.103897795f, -0.00184796378f, 0.0912647545f, 0.202939361f, -0.0375454202f, -0.0160853341f, 0.00623898208f, -0.0304098185f,
    -0.0351733677f, 0.0421615802f, -0.293804675f, 0.0743171722f, 0.0486809723f, -0.109152876f, -0.0430175513f, 0.198380888f,
    0.0640960485f, 0.0178399514f, 0.124732018f, 0.179181829f, -0.0451451614f, -0.0585594401f, -0.0544776171f, -0.0481637269f,
    -0.0619076714f, 0.0381583571f, -0.107996933f, -0.0347291194f, -0.205200374f, -0.207732722f, 0.042867709f, 0.0566140525f,
    -0.0106490105f, 0.208796158f, 0.159351498f, 0.147831976f, 0.0491337515f, 0.200924993f, 0.113326587f, 0.0469537489f,
    -0.0825685188f, 0.0757762492f, 0.136736289f, -0.0983946621f, 0.0392234437f, -0.0264351293f, 0.0391034782f, -0.0420430526f,
    0.0498844609f, -0.0459005944f, 0.00513533829f, -0.0218710862f, -0.0412886031f, -0.0762318596f, -0.0603858903f, -0.0352607481f,
    -0.0561573356f, -0.062090423f, 0.0163949523f, -0.0255458448f, -0.0033313164f, -0.039119944f, -0.0125474175f, 0.0489510112f,
    -0.0419660695f, -0.117540486f, 0.0344218351f, 0.00985806528f, 0.0949672908f, 0.00846967474f, 0.0435858145f, 0.0717708915f,
    -0.0140375989f, 0.0707498044f, 0.0360793024f, 0.00141693116f, 0.0982527658f, 0.0321354009f, 0.0587776899f, 0.00472064782f,
    0.0304661989f, -0.0266655385f, 0.0928340405f, -0.0505176559f, -0.0919326991f, 0.0236219484f, 0.00999401603f, 0.0791411996f,
    0.0344043337f, -0.0731379092f, 0.0990732983f, -0.0811473206f, 0.0792156756f, -0.0066540176f, -0.0341808535f, -0.0298221875f,
    -0.106874071f, 0.0232644025f, 0.0249793828f, -0.0312918164f, 0.0143558998f, 0.0276034661f, 0.0507846512f, 0.0552564487f,
    -0.0995929539f, -0.105465941f, -0.0872676075f, -0.0171283577f, -0.115058176f, -0.12915045f, 0.0605802201f, -0.034679912f,
    -0.0845693275f, -0.106133923f, -0.104737058f, -0.0642191023f, 0.0316095017f, -0.150463343f, -0.141671717f, -0.138327718f,
    -0.0778584629f, -0.0733475387f, -0.119354248f, -0.157834381f, -0.0432228595f, 0.0751699805f, 0.068560265f, 0.0890356675f,
    -0.0276042316f, -0.0460454822f, -0.131535023f, -0.100943744f, -0.109963439f, -0.0490545928f, -0.239535674f, 0.00145668176f,
    -0.106508143f, -0.213812381f, 0.0443783551f, -0.113008343f, -0.0548793934f, -0.452202708f, -0.391016722f, 0.430993229f,
    0.242904305f, -0.24853155f, -0.189607754f, 0.1374778f, -0.199198052f, -0.0909314975f, 0.0630681962f, 0.195361152f,
    0.112831861f, 0.0541868061f, 0.156929016f, 0.186095491f, 0.0228030365f, 0.00236832257f, -0.1303415f, -0.126835138f,
    -0.00573651213f, 0.0476255156f, 0.069263652f, 0.130972981f, 0.10844788f, -0.0205000211f, 0.0754910782f, 0.0250916481f,
    0.109640196f, 0.0847095996f, 0.120295539f, 0.0978453532f, 0.0309081934f, 0.016952984f, 0.0557510518f, 0.0184429456f,
    -0.0278143827f, -0.0942365825f, -0.0581088513f, -0.133172274f, -0.0914467052f, -0.0801076964f, -0.15764001f, -0.107187472f,
    0.0218554679f, -0.0500855148f, -0.0160169303f, -0.0183826145f, 0.0303493496f, -0.0807348117f, -0.0183122549f, -0.0332586095f,
    0.0344069302f, -0.0685065314f, -0.0330030918f, -0.0775482282f, -0.0730199814f, -0.0703069717f, 0.00320507144f, 0.113786295f,
    0.0526308939f, -0.0436884463f, 0.0965955406f, -0.0482029803f, 0.000668149733f, 0.0275620632f, 0.0543908589f, -0.121522628f,
    -0.0457838066f, 0.0985550433f, -0.0787660405f, 0.0882005766f, -0.0867032558f, -0.0209079683f, -0.0366174988f, -0.0435985364f,
    0.0878804922f, 0.0266874209f, -0.0134483697f, 0.058141239f, 0.0389704295f, 0.079361245f, 0.0736770406f, -0.0189981163f,
    -0.0821292996f, 0.0445716903f, -0.0491472408f, 0.0461437181f, 0.0918257162f, -0.00883029029f, 0.0115874875f, 0.119282842f,
    0.0877530351f, -0.0346829966f, 0.120951824f, -0.0512315221f, 0.0802392662f, 0.0740318969f, -0.0250039436f, 0.0617674738f,
    0.0280960146f, 0.13356559f, 0.010101012f, -0.0439248905f, -0.00537552312f, 0.0983493775f, -0.0580184869f, -0.038096372f,
    0.120825775f, 0.0339297727f, 0.0167581495f, 0.0417911001f, 0.094098337f, 0.0818080977f, 0.104529172f, 0.00863500126f,
    0.103455715f, -0.105671629f, -0.0156623125f, -0.0462658964f, -0.153814897f, -0.0229032785f, -0.0920026377f, -0.0440907851f,
    -0.115987882f, -0.088708058f, -0.062307559f, -0.0962713212f, -0.102826603f, -0.233205765f, -0.0573279932f, -0.0095097553f,
    -0.0333062969f, -0.002819377f, -0.055168312f, 0.208235696f, 0.0499448739f, 0.0754026175f, 0.153259039f, -0.00722035766f,
    0.0822934434f, 0.0197490416f, 0.10118033f, -0.00665571587f, -0.0141309751f, -0.0723810792f, -0.196155444f, -0.200759307f,
    -0.0223889872f, -0.0618632659f, -0.0367354862f, -0.340978116f, -0.239061043f, -0.342853487f, -0.379737824f, -0.291015804f,
    -0.375924885f, -0.18080093f, -0.230208233f, -0.0949075297f, -0.091485925f, -0.011154484f, -0.148404792f, -0.141128123f,
    -0.248835161f, -0.168861151f, -0.32317543f, -0.14403607f, -0.102274664f, -0.0131244771f, -0.103370398f, 0.0370500237f,
    0.211200789f, 0.285977513f, 0.105150491f, 0.00143036677f, 0.000858949323f, 0.15013364f, 0.0464895368f, 0.0233836044f,
    0.0909387171f, -0.0261299815f, 0.0104875453f, 0.0680184141f, 0.042547971f, 0.0140997106f, -0.013981686f, 0.087697193f,
    0.00193633849f, 0.0516537242f, -0.0421251021f, 0.0198301468f, -0.0312989764f, -0.0662379339f, 0.0936152339f, 0.00978936814f,
    0.057944499f, -0.00350905745f, -0.0230327155f, 0.0194528028f, -0.0524069518f, -0.0134345861f, 0.0188787393f, 0.129088163f,
    -0.0520481914f, -0.0281762294f, -0.015263983f, 0.0384501331f, -0.059008833f, -0.0378284007f, -0.0661215559f, 0.0140094701f,
    -0.050934542f, -0.0434533618f, 0.0887547731f, 0.0116947945f, -0.033626169f, 0.0370771326f, 0.0859999657f, 0.0567280538f,
    0.0443954915f, 0.173747778f, 0.0829426274f, -0.0128756249f, 0.104417965f, 0.172966972f, 0.0631801486f, 0.075908035f,
    0.104056999f, 0.0403248668f, 0.0138419876f, 0.156335518f, -0.0220359247f, 0.173045143f, -0.00711263763f, 0.0694107562f,
    0.0285255555f, -0.0254483894f, -0.00197512703f, 0.164101437f, 0.0767988712f, 0.0789679736f, 0.0209619831f, -0.128392816f,
    -0.0116696358f, 0.0897599012f, 0.0467752703f, 0.0756077096f, 0.0535388179f, 0.159352913f, 0.183907926f, 0.0255739857f,
    0.0633565113f, 0.066013664f, 0.0263978019f, 0.0812261924f, -0.0740647241f, 0.0571089461f, 0.114098124f, 0.0897370577f,
    0.0975372195f, 0.095381856f, 0.152476281f, 0.0984891057f, -0.0274244919f, 0.0262205061f, 0.0117688663f, 0.0407034047f,
    0.063327387f, 0.0895690918f, 0.069592014f, 0.0031113259f, -0.0742470548f, -0.0486567728f, -0.0140720708f, -0.0300356373f,
    0.0225464143f, -0.0370220244f, -0.0129827615f, 0.00241019623f, -0.0528694056f, -0.110212252f, -0.0973960981f, -0.114095189f,
    -0.100091688f, -0.0686876997f, -0.134427428f, -0.0551343299f, -0.0953069776f, -0.0819082782f, -0.0983901322f, 0.0248511489f,
    -0.0221164785f, -0.0282173436f, 0.194692641f, 0.257778615f, 0.363946527f, 0.448252946f, 0.406400084f, 0.559558928f,
    0.520145953f, 0.486418635f, 0.600076795f, 0.48072359f, 0.584938586f, 0.43750903f, 0.419803381f, 0.442198783f,
    0.38572827f, 0.37615338f, 0.244116589f, 0.384358078f, 0.167679623f, 0.137454569f, 0.209049895f, 0.0708342195f,
    0.213307589f, 0.118716456f, -0.0427268781f, 0.125180006f, 0.142456532f, 0.110416315f, 0.0533705354f, 0.022779718f,
    -0.0435315892f, 0.120185249f, -0.077838175f, 0.0410230644f, -0.0409871265f, -0.0381575823f, -0.0913333222f, -0.0434604511f,
    -0.0153693566f, -0.0121485563f, -0.0215401892f, -0.0611789078f, -0.0787933171f, -0.0452397317f, -0.13561888f, -0.204561204f,
    -0.0372790582f, -0.178608552f, -0.0865641609f, -0.0976316631f, -0.171819702f, -0.219572634f, -0.0988138393f, -0.0800050944f,
    -0.183580786f, -0.0734181553f, -0.171237484f, -0.0827501193f, -0.0648995414f, -0.139443234f, -0.194333524f, -0.184061348f,
    -0.199694887f, -0.0933463797f, -0.222014561f, -0.136109814f, -0.0188277625f, -0.225785688f, -0.0715009794f, -0.158301145f,
    -0.231568635f, -0.0418721586f, -0.167973772f, -0.230733767f, -0.207095772f, -0.104819439f, -0.144911304f, -0.201059148f,
    -0.033336062f, -0.00955928024f, -0.0765935779f, -0.0678427592f, -0.137825176f, 0.00118781219f, -0.0835702121f, -0.100985959f,
    0.00748981256f, 0.0746449307f, -0.0894357711f, -0.0562301911f, -0.216914624f, -0.0917861313f, -0.284034491f, -0.224319816f,
    0.114234112f, 0.300620914f, 0.055947639f, 0.105097502f, 0.303774267f, 0.138020426f, 0.103551008f, -0.0726071f,
    -0.155308604f, -0.00461581536f, 0.0151736652f, -0.162057921f, -0.0498996824f, -0.153479502f, -0.0905042365f, -0.10351292f,
    0.0548277758f, 0.113491036f, 0.06073929f, 0.00997908227f, 0.144024536f, -0.0581916012f, -0.066027157f, 0.0473294035f,
    0.142909154f, 0.103881069f, -0.0874698982f, -0.0602065772f, 0.0435244069f, -0.0656832606f, -0.0888964385f, 0.0549357645f,
    -0.0340580456f, -0.0459282175f, -0.0808165818f, 0.0573324226f, -0.0247279182f, 0.0351549909f, -0.0312638916f, -0.03023283f,
    0.0382879972f, -0.0380661786f, 0.127562389f, 0.0297457613f, 0.0223565921f, -0.0507119596f, 0.0223187562f, -0.0201578122f,
    0.0810831115f, 0.0246912297f, -0.0135290576f, -0.0117606251f, 0.0761709586f, -0.0280066021f, -0.0275996737f, -0.0476797596f,
    -0.0402359366f, 0.00549092423f, -0.0316355266f, -0.0370938554f, 0.0394264571f, -0.00279561756f, -0.0336096361f, 0.0463407673f,
    -0.0638355166f, 0.0113796173f, -0.0551946051f, 0.0495838262f, -0.00698580686f, -0.0191067867f, -0.0665284619f, -0.0142290602f,
    0.00828928407f, -0.0465607978f, -0.0743032917f, 0.0532968417f, -0.0003564613f, -0.0638016686f, -0.0274915881f, -0.0179464277f,
    -0.0475107059f, 0.0221939851f, 0.0340921246f, -0.0224521682f, 0.0305460766f, -0.0615053549f, 0.0308897141f, 0.0352278575f,
    0.0629144758f, 0.0394881666f, -0.0202444047f, -0.0280972701f, -0.063308239f, -0.0457339846f, 0.113791473f, 0.107206352f,
    0.0593907572f, 0.120078743f, 0.0694274008f, -0.0130439047f, 0.00545946835f, 0.0100138355f, 0.0356369764f, 0.133024052f,
    -0.0396454372f, -0.0434488691f, -0.0568184219f, -0.0318228267f, -0.00689255958f, 0.094319649f, 0.0170348994f, 0.0289702956f,
    0.140240803f, -0.113423392f, -0.21744518f, -0.199712485f, 0.000500378083f, -0.000267317606f, -0.0417782329f, -0.133121639f,
    0.0143245962f, 0.114105225f, 0.113384724f, 0.0133865355f, -0.0269413665f, 0.0896796063f, 0.0579925366f, 0.122180171f,
    -0.0457221419f, -0.0584099852f, -0.0941776782f, -0.0674635023f, 0.0607118048f, 0.0438615382f, -0.10888952f, -1.10567053e-05f,
    -0.0580178201f, -0.144163996f, -0.107445642f, 0.0522512794f, 0.132087454f, 0.153953359f, 0.282470107f, 0.16003938f,
    -0.0181118231f, -0.0134282261f, -0.0264850743f, -0.140003175f, -0.11007762f, -0.028509602f, -0.00793043151f, -0.0302905031f,
    -0.0641637668f, -0.163884729f, -0.0708021075f, 0.0257966444f, 0.0837226212f, 0.185134843f, 0.211523905f, 0.089216046f,
    0.154475495f, 0.337346047f, 0.197438687f, 0.249770463f, 0.17586197f, 0.0174927246f, -0.0583842359f, -0.120981097f,
    -0.1807895f, -0.0344675258f, -0.0407228097f, -0.068418473f, 0.0395444892f, 0.188396513f, -0.00382214389f, 0.138770312f,
    0.171162218f, 0.196270034f, 0.0557930879f, -0.00273279264f, 0.107155494f, 0.0501872934f, 0.0578882322f, 0.140742451f,
    -0.0145633714f, 0.0266830884f, 0.0727022365f, 0.0974587351f, 0.0272058137f, 0.14780727f, 0.123149f, -0.0222718734f,
    0.0304075405f, 0.0693773553f, 0.0162278544f, 0.0870466679f, -0.0749915913f, 0.0259324256f, -0.0828726515f, -0.0966785848f,
    0.0408052579f, -0.0237017367f, -0.079626441f, -0.10386283f, -0.127674043f, 0.0496869273f, 0.0436905324f, -0.0323305726f,
    -0.133426949f, -0.0744938254f, -0.0161683243f, -0.111224301f, 0.0216773618f, -0.114106752f, -0.0546124019f, 0.0139569249f,
    -0.0732774138f, -0.00622840552f, -0.00553910807f, -0.136635542f, -0.0113672689f, -0.0371071361f, -0.0755760297f, -0.0817666799f,
    -0.169705525f, 0.014728846f, -0.0298245233f, -0.140953004f, 0.0169866718f, -0.0677031428f, 0.0397949144f, -0.134955078f,
    -0.0237054154f, -0.086239174f, -0.158924595f, -0.122915946f, -0.0911218673f, -0.126407906f, -0.014697725f, 0.0383972973f,
    -0.00557816867f, -0.0396085232f, -0.00616557477f, -0.0163146779f, -0.130621552f, 0.0598828867f, 0.104277499f, 0.0329794213f,
    0.0659478307f, -0.135961369f, -0.144662783f, 0.0615214407f, 0.0464616343f, -0.00172959163f, -0.00411472796f, 0.247158974f,
    0.0458100773f, -0.0434774943f, 0.00617044466f, 0.100507125f, 0.197762579f, 0.0741827115f, -0.070278272f, 0.180184215f,
    0.13495481f, -0.137975007f, -0.134299189f, -0.0311863963f, -0.0109931175f, 0.0246935245f, -0.227228522f, -0.204099253f,
    -0.0025026605f, 0.0130553022f, 0.0805118084f, -0.00401432067f, 0.0312225353f, -0.0854255036f, -0.0801994056f, -0.0349061824f,
    0.174777806f, 0.0850139633f, 0.0677359104f, 0.0395597443f, 0.0926936716f, 0.0175314341f, -0.0141527494f, 0.196913883f,
    -0.0463545136f, 0.0460251048f, 0.0366697982f, 0.0308017395f, -0.0376762897f, -0.0772429481f, -0.0773697644f, -0.0697892085f,
    -0.00378377223f, -0.0326966308f, -0.048490949f, -0.0443128571f, -0.0522654727f, 0.00879980437f, -0.000368880923f, -0.037469767f,
    -0.139382854f, 0.00266399817f, -0.0591071211f, 0.0198603533f, -0.100320488f, -0.0817156881f, -0.0352839008f, 0.0192255117f,
    -0.0699319169f, 0.14983362f, -0.0553233027f, 0.0350180008f, -0.00099839631f, -0.00747871306f, -0.0420077555f, -0.0153681301f,
    0.0539505593f, 0.107595548f, 0.131990895f, -0.0245732162f, -0.0649208575f, 0.0289613698f, -0.167050719f, 0.0481241606f,
    0.045206029f, -0.0888231322f, -0.091664046f, -0.0156377405f, 0.0376017392f, 0.00177931669f, -0.0361974984f, 0.0400914289f,
    0.075293012f, -0.0171991922f, -0.0389259346f, -0.118681028f, -0.129362911f, -0.0307003688f, 0.0503654331f, -0.0269036628f,
    0.037159808f, 0.041362334f, 0.0285566151f, -0.00852223579f, -0.132396847f, -0.0879733488f, 0.0505012609f, 0.0613478981f,
    -0.0728061497f, -0.0922084525f, -0.010777764f, -0.129925892f, -0.0844473839f, 0.0787397772f, 0.0108147077f, 0.0236110408f,
    0.0808938816f, 0.0637630001f, -0.119674869f, -0.0987315699f, -0.0348452814f, -0.0196642131f, 0.052180279f, -0.0880057439f,
    -0.0499783456f, -0.0606192648f, 0.0687502325f, 0.0509128496f, -0.112042673f, -0.117768668f, -0.0120816762f, -0.157487974f,
    0.0473179631f, 0.056464985f, -0.080961965f, 0.042220816f, 0.0787049308f, 0.0897398517f, 0.14021343f, 0.259888738f,
    0.306858063f, 0.281568617f, 0.173194215f, 0.154326454f, 0.108735494f, -0.11986132f, -0.197091684f, -0.154052854f,
    -0.255840868f, 0.0139005221f, 0.198944107f, 0.000871451804f, 0.0236984361f, 0.15023692f, 0.147842795f, -0.0110017909f,
    0.100914799f, -0.00521919644f, -0.0250414573f, -0.122066878f, 0.0945557132f, -0.0404060557f, 0.0389624909f, 0.0138074216f,
    0.0108896056f, 0.132169351f, 0.0999280661f, 0.148459435f, -0.0577032715f, -0.104315437f, -0.0758670568f, 0.0556720048f,
    0.0309393629f, 0.159739301f, 0.0202575903f, -0.00823355746f, -0.0864023194f, -0.0156493727f, -0.0593092516f, -0.178853422f,
    -0.153638333f, -0.138270065f, -0.118616454f, -0.00413725851f, -0.128326535f, -0.104516312f, -0.0841203108f, -0.0898699462f,
    -0.101778343f, -0.0611071587f, -0.0357561819f, -0.0586325228f, -0.0606486946f, -0.0881837755f, -0.114186354f, -0.10589201f,
    -0.0161995813f, 0.111640319f, 0.127792642f, 0.116048425f, 0.0297329091f, -0.0495392904f, -0.06212385f, 0.0507678017f,
    -0.0447454639f, 0.0365944654f, -0.0539657809f, 0.0184658021f, 0.033048667f, -0.0262966827f, 0.0650679618f, -0.0118206087f,
    -0.0226254798f, -0.0105467802f, 0.0748784468f, 0.0395901501f, -0.0502270795f, -0.114872403f, -0.0877131298f, 0.0646017268f,
    -0.085234426f, -0.0285595469f, -0.00121354684f, 0.053883519f, -0.0648262352f, 0.063651666f, 0.0941342339f, -0.0255287234f,
    0.0470753349f, -0.106755003f, -0.0541469119f, 0.0540489703f, -0.0512446314f, 0.0434921011f, -0.0026735065f, 0.0610408224f,
    -0.0038408523f, 0.119466238f, -0.0354339406f, 0.0057267081f, -0.0109820226f, 0.00983266439f, 0.042362798f, 0.101442501f,
    -0.0729158819f, -0.0525938533f, 0.139018029f, 0.143850982f, -0.0528434515f, 0.0897645205f, -0.0190092642f, -0.0571294203f,
    0.133422613f, -0.00116028672f, 0.056687925f, 0.0894374177f, 0.0393734053f, -0.0195121188f, 0.0216966644f, -0.0461518168f,
    0.0633621216f, -0.0674707294f, 0.037051063f, 0.0984008014f, 0.144078493f, 0.274615645f, 0.191912517f, 0.179475963f,
    0.113931306f, 0.0547185726f, 0.00271204486f, 0.14578779f, 0.025653502f, 0.0692425147f, 0.111802928f, 0.15571627f,
    0.034851227f, 0.0469047427f, -0.0656113699f, 0.0320621356f, 0.071257107f, 0.0436853282f, -0.0706459284f, -0.0436246991f,
    -0.0944901481f, -0.0216512568f, -0.108451724f, 0.0788194686f, 0.0401142091f, 0.0133158667f, -0.180154383f, -0.130885303f,
    -0.102145143f, -0.00924573652f, -0.051753737f, 0.0477532856f, 0.0898467302f, -0.0236511827f, 0.0457506999f, 0.0451882482f,
    -0.115450144f, -0.122333214f, -0.0685701296f, -0.0164179746f, -0.0167791266f, -0.033084549f, 0.0325063355f, -0.0599459112f,
    -0.0769835263f, -0.0793516785f, 0.0303508174f, -0.0692279637f, -0.0906852484f, -0.0643183887f, 0.019437125f, 0.073158592f,
    0.109992117f, -0.123438179f, 0.00292211329f, -0.10581772f, -0.0972792357f, -0.00298760412f, -0.130612433f, -0.207686394f,
    0.0425967462f, -0.0873313174f, 0.0715803504f, -0.0455556475f, -0.0392364711f, 0.137433395f, -0.0624816865f, 0.0900424197f,
    0.131755605f, 0.083784081f, -0.0604594499f, 0.101165913f, 0.153060183f, 0.0215976331f, 0.0332056098f, -0.0805583298f,
    -0.066390343f, -0.134599298f, 0.100667998f, 0.0678150803f, 0.0628353283f, -0.0128698954f, -0.0196597297f, -0.00690679951f,
    0.0678299442f, -0.0255283341f, 0.0253055226f, 0.00951875746f, 0.0173628051f, 0.0189652834f, -0.147014871f, -0.0113348253f,
    -0.120026968f, 0.0355768912f, -0.00223501329f, -0.0811608806f, 0.0771892965f, -0.0576085858f, -0.074472025f, 0.00637356006f,
    -0.0136636887f, -0.0718648285f, -0.12166407f, -0.0457246713f, -0.0374781005f, -0.116852805f, -0.111893438f, 0.0830707848f,
    0.025551267f, -0.0110357655f, -0.0286869202f, 0.0158878341f, 0.0803304762f, 0.0854474753f, -0.0594766513f, -0.017951766f,
    -0.0080168806f, -0.0350664817f, -0.137349159f, -0.101858504f, 0.0600868799f, 0.0167726949f, -0.0940642878f, 0.0964249521f,
    0.141125873f, 0.0620596521f, 0.0871480182f, 0.107285514f, 0.00530755613f, -0.072254397f, -0.0947863907f, -0.00822124071f,
    -0.0121406158f, 0.0104448572f, -0.152713835f, -0.014222227f, -0.0317072719f, -0.0258449242f, -0.194514498f, -0.103078239f,
    0.0426710434f, -0.00768857962f, 0.0968819112f, -0.0916098654f, -0.047103975f, -0.136442125f, 0.102245785f, -0.00184529612f,
    0.0389056839f, 0.0440995917f, 0.0502998196f, -0.0148653444f, 0.0481507033f, 0.0581325218f, 0.108637713f, 0.0402769037f,
    0.100831784f, 0.132629678f, 0.0347415842f, 0.0183522478f, 0.0332927704f, 0.00953664538f, 0.0770172477f, -0.0719199628f,
    0.0399679281f, 0.11394012f, 0.185482606f, 0.251717865f, 0.28156215f, 0.169386476f, 0.197590008f, 0.111864381f,
    0.178484783f, 0.120863631f, 0.0662420988f, 0.0787526071f, 0.195208505f, 0.407944113f, 0.333951265f, 0.502566576f,
    0.391648471f, 0.161486447f, -0.031379547f, -0.0236463901f, 0.10437806f, 0.0965594649f, -0.0186465587f, 0.1484126f,
    0.0020347028f, 0.0701354295f, -0.189428389f, -0.201181546f, -0.0123504177f, -0.0264463648f, -0.031681817f, -0.0961229503f,
    0.0205555707f, -0.167577729f, -0.142768234f, -0.0601519644f, -0.0120705375f, -0.118635088f, 0.0637600869f, 0.0527436286f,
    0.0241471976f, -0.132636949f, -0.156260356f, -0.199725017f, -0.0801063552f, 0.0105776815f, 0.101179577f, -0.022112418f,
    0.0905059054f, -0.0444407873f, -0.125589162f, -0.0480366312f, -0.0922298357f, -0.143649742f, -0.020190116f, -0.0983545333f,
    0.0206522122f, 0.00996276364f, -0.0764997229f, -0.0880571827f, -0.00673069619f, -0.08914195f, -0.133592039f, 0.0145672597f,
    -0.128408611f, -0.0112172477f, -0.0202749092f, -0.0812876597f, -0.132642239f, -0.152148426f, -0.142665043f, -0.121722981f,
    0.0251696538f, 0.0423169881f, -0.110626906f, -0.124991044f, 0.0458982401f, -0.0419359542f, -0.11751648f, -0.031874992f,
    0.0706192106f, 0.063602902f, 0.0322349295f, -0.013012683f, 0.0454782657f, -0.0199565496f, -0.022114465f, 0.10750071f,
    -0.0222266652f, -0.0322984792f, -0.0570814051f, -0.0106790019f, -0.123792715f, -0.136502177f, -0.0636783093f, -0.00801218953f,
    -0.142423555f, 0.0556951016f, 0.140373737f, 0.0462331139f, 0.00376065145f, 0.0220851358f, 0.033168342f, 0.196761653f,
    0.175470144f, 0.195575833f, 0.103862278f, 0.203760073f, 0.164423004f, -0.0537279584f, -0.0560108609f, -0.0565318353f,
    0.0854596645f, 0.0349883772f, -0.0101728858f, 0.0756833255f, 0.0124256536f, 0.034540046f, 0.0688874125f, -0.00522970967f,
    -0.0338248685f, 0.119690172f, 0.0103855412f, 0.117941946f, 0.125875026f, 0.0608439632f, 0.0357800759f, 0.0433277488f,
    -0.00221155421f, 0.0427395552f, -0.0165154915f, 0.0451997295f, 0.0402264372f, -0.017847199f, -0.0311400592f, 0.105712041f,
    -0.0965058729f, 0.0868683681f, -0.0724104643f, 0.0196062643f, -0.0847064331f, -0.0223872066f, -0.111217633f, -0.0801246166f,
    0.012266173f, -0.084398292f, -0.130470634f, -0.0725681633f, -0.178389624f, -0.216000274f, -0.160912976f, -0.181032807f,
    -0.138469279f, -0.118413687f, -0.0263015013f, -0.0714752227f, -0.0379439481f, 0.0332348049f, -0.0105073946f, 0.0270221923f,
    0.0754896402f, 0.0358253159f, 0.027155349f, -0.0554155633f, -0.00622570282f, -0.125010192f, 0.028454097f, 0.0648067743f,
    -0.0454632901f, 0.0554896966f, 0.0824634582f, 0.0682284608f, 0.0414220355f, 0.0835283846f, -0.000188444683f, -0.0316297449f,
    0.0884941444f, -0.0116422176f, -0.00559262559f, -0.0827287883f, -0.022571791f, -0.0541165136f, 0.0284375381f, -0.0680929348f,
    0.0485698618f, -0.0253385492f, -0.0329759903f, 0.106524959f, 0.0702644661f, -0.0258141216f, -0.0702157244f, -0.0526556745f,
    0.0818924531f, -0.0502440967f, -0.0931230187f, -0.104012072f, -0.0884812474f, 0.0309214983f, -0.0560395047f, -0.0270342212f,
    0.0857605413f, -0.0504715852f, 0.00461745728f, 0.0665835664f, -0.0436122306f, 0.0622791424f, -0.0906574875f, -0.0812267959f,
    -0.0910521671f, -0.0565648749f, 0.0745923594f, -0.0270751454f, 0.0603279136f, -0.024103988f, 0.0143508315f, 0.0630628765f,
    -0.0624217317f, 0.103406027f, 0.156838715f, -0.13541615f, -0.202745751f, -0.23936227f, -0.0325948074f, 0.135204643f,
    0.137915105f, 0.131339625f, -0.0359019041f, 0.014045842f, 0.0631017014f, 0.0862889215f, -0.0252957363f, -0.197161138f,
    0.0630509183f, 0.0706050545f, 0.229286462f, 0.135617569f, 0.13347663f, 0.165317789f, 0.486444384f, 0.262165427f,
    0.00499617867f, -0.244181529f, -0.225027636f, -0.053863056f, 0.326337129f, 0.44132337f, 0.374160081f, 0.443301678f,
    0.468276113f, 0.48205635f, 0.384474903f, 0.230970517f, 0.161509544f, 0.126217023f, 0.202286258f, 0.120634027f,
    0.0656046122f, -0.00728415186f, 0.12685059f, -0.0740291774f, 0.0356539637f, 0.0301992893f, -0.131818011f, -0.0412606969f,
    0.00120023743f, -0.0985298753f, 0.0102739781f, 0.0465181135f, -0.0205333009f, -0.0613817126f, -0.0930506513f, -0.072790429f,
    -0.0625214055f, 0.0607926883f, -0.0464592278f, 0.0597419776f, 0.038931746f, 0.0224705655f, -0.0186606944f, 0.0118856328f,
    0.102510549f, 0.0354222991f, 0.0176572893f, 0.0245388113f, 0.0330558456f, -0.00295860716f, 0.0943106189f, -0.0114395702f,
    -0.0776756406f, -0.0220806226f, 0.0628120601f, 0.149776086f, 0.172065347f, 0.0858555213f, 0.115667053f, -0.0282715224f,
    0.100432195f, 0.0448416397f, -0.0106689706f, -0.0013171531f, -0.143995091f, -0.0233189072f, -0.0252378024f, 0.033811707f,
    -0.0500895455f, 0.0460759215f, -0.0967380404f, 0.0988892093f, -0.0762472376f, -0.0420199372f, -0.0483345501f, 0.0134684537f,
    -0.093685858f, -0.0975622386f, -0.00987203419f, -0.0323501118f, -0.118062958f, -0.0351932161f, -0.144656792f, -0.129024968f,
    -0.189058453f, -0.0381928645f, -0.0794649348f, -0.164753079f, 0.0127955871f, -0.12953496f, -0.0862016603f, -0.0781414062f,
    -0.180958897f, -0.127310395f, -0.0249075685f, -0.0818859711f, 0.0125300428f, -0.0506808087f, -0.136888877f, -0.131812021f,
    -0.135367081f, -0.100567639f, -0.0817817301f, -0.0676748529f, 0.0174808837f, -0.166725069f, -0.142243698f, -0.0096276179f,
    -0.03772882f, 0.068332687f, 0.072728686f, 0.0928011835f, 0.0474679135f, 0.0012596912f, 0.0281825997f, 0.030830266f,
    -0.0353373922f, -0.0228565708f, -0.00079981715f, 0.0156726576f, 0.109980643f, 0.176376238f, 0.327337354f, 0.599025548f,
    0.630805373f, 0.372808814f, 0.361149758f, 0.282033354f, 0.198075011f, 0.279277533f, 0.0803818032f, 0.257319242f,
    0.127811268f, 0.197761819f, -0.196513861f, -0.303010374f, -0.263736188f, -0.0595593825f, 0.0972602144f, 0.186729476f,
    0.0781250596f, 0.123152077f, 0.233505651f, 0.143098697f, -0.0392728224f, -0.0136951869f, -0.233059168f, -0.171729073f,
    -0.197439387f, -0.207610711f, -0.0858319476f, 0.068694815f, 0.138799995f, -0.0110379839f, 0.00932694133f, 0.0541879237f,
    0.187805519f, 0.166438058f, 0.0715482906f, 0.0932288095f, 0.113602512f, 0.112669356f, 0.069809407f, -0.0655612573f,
    0.0413373336f, -0.0715130493f, -0.0347567126f, 0.103250347f, 0.202535957f, 0.0650299564f, 0.0324356966f, 0.126948208f,
    -0.00186273828f, 0.0808932483f, 0.0330109894f, 0.0935125053f, 0.158184022f, 0.182980135f, 0.164791018f, 0.242231771f,
    0.0329826288f, -0.0123957358f, -0.0433382168f, -0.051709462f, -0.147810698f, -0.0918388888f, -0.0132257184f, -0.179474875f,
    0.0477277376f, 0.0839615092f, -0.0809791461f, -0.105531871f, -0.0645861924f, -0.162178159f, 0.00492935255f, 0.0119815618f,
    -0.0900088847f, 0.0559320524f, -0.154631972f, -0.151232198f, -0.0899104476f, -0.0610404238f, -0.0397518538f, -0.0788314566f,
    0.0373944268f, -0.0333694257f, -0.143885821f, -0.0117929289f, -0.0653101355f, -0.202408433f, -0.120109566f, -0.00738608837f,
    -0.0890272781f, -0.0518494584f, -0.087158978f, -0.0699225143f, -0.149756238f, -0.0304031726f, -0.0338994153f, -0.0971484259f,
    -0.0277157016f, -0.138898537f, -0.0131703382f, 0.000548010285f, -0.181586757f, -0.111274853f, -0.092103526f, -0.173495397f,
    -0.14121905f, -0.145428985f, -0.0101448838f, -0.00833349023f, -0.143065423f, 0.00322744483f, -0.149073824f, -0.165279597f,
    -0.0464403257f, 0.131477356f, 0.128704324f, 0.00745038316f, 0.0917454809f, -0.0357464291f, -0.179689169f, 0.0624349043f,
    0.243819028f, 0.119296581f, 0.123280697f, 0.119665533f, -0.0454868078f, -0.0506842546f, 0.151696026f, 0.135765851f,
    0.0591881573f, -0.045032151f, -0.0599660724f, -0.112174809f, -0.155240402f, -0.0294178091f, -0.153334573f, -0.0137405824f,
    0.071052812f, 0.30823198f, 0.39258191f, 0.32613802f, 0.326571316f, 0.318246841f, 0.243498027f, 0.0658806786f,
    -0.00178102846f, 0.237379611f, -0.0172889251f, 0.033436805f, -0.083473064f, 0.0846710131f, 0.140272662f, 0.111645818f,
    0.173217654f, 0.0991361663f, 0.144074291f, 0.130351201f, 0.2059329f, 0.174546629f, 0.0954952762f, 0.148639366f,
    0.030161716f, 0.137465477f, 0.0755037144f, -0.0437626131f, -0.0627497211f, -0.232788488f, -0.159408018f, -0.0948774889f,
    -0.0717025027f, 0.0681181699f, -0.0667025745f, -0.123877972f, -0.176181778f, -0.0890015811f, -0.153326899f, -0.0334846638f,
    -0.0526777022f, 0.00557803875f, -0.0878721401f, -0.170468181f, 0.0305112544f, -0.153412193f, -0.0328900293f, -0.166585594f,
    -0.0649329871f, -0.179712534f, -0.0654467791f, -0.0703708455f, -0.128067762f, -0.0100396201f, -0.120550804f, 0.068325147f,
    -0.011567533f, 0.13359727f, -0.00201670756f, 0.0927945152f, 0.00533253234f, 0.112994425f, 0.0682779774f, 0.044803597f,
    0.0412086956f, -0.0276750848f, -0.0672583207f, -0.0528522283f, -0.0310258176f, 0.119486935f, -0.0499038137f, 0.0647544116f,
    -0.0359156094f, -0.0650910214f, -0.0119748013f, 0.0517141074f, 0.0730282739f, 0.0693712458f, -0.0940240398f, 0.105271436f,
    0.0597235598f, 0.063426964f, 0.0451671034f, 0.0235420037f, 0.0862808749f, 0.0509240739f, 0.0681841224f, 0.0459963381f,
    -0.0067801252f, -0.0625929385f, 0.0249868724f, -0.000734343077f, 0.122655451f, 0.044147335f, 0.00824373774f, -0.0671579093f,
    0.0251956712f, 0.0198707245f, 0.0161092598f, -0.0138667999f, 0.0184203275f, 0.0021836902f, -0.000348090922f, -0.030189747f,
    -0.0249053184f, -0.0082597807f, 0.0386167243f, -0.00827917084f, -0.0295678452f, -0.0331043266f, 0.0780706331f, -0.0837826505f,
    -0.0950713754f, 0.0612721816f, -0.00949197356f, -0.0795392394f, 0.016627226f, -0.0512191989f, -0.125096485f, 0.12661846f,
    0.491741419f, 0.270497143f, 0.0823415741f, 0.0902792215f, 0.089036651f, 0.0289135054f, -0.00194375019f, 0.0538705736f,
    -0.133113891f, -0.167858347f, -0.142543808f, -0.0827068761f, 0.0213392209f, -0.0397973396f, 0.153145507f, 0.0448461063f,
    -0.0559510551f, -0.00294692023f, -0.0150785511f, -0.14573507f, -0.266958475f, -0.138303578f, -0.0356353968f, 0.0512150861f,
    0.165597871f, 0.210833207f, 0.11611551f, 0.0228761937f, 0.00713372976f, 0.108485073f, 0.184225872f, 0.151182592f,
    0.0758996531f, -0.0131432191f, -0.0572716482f, 0.0625283122f, -0.00979428738f, 0.017093027f, -0.0889948756f, -0.140373439f,
    -0.152813926f, -0.0692136288f, -0.0428865552f, -0.0406334959f, -0.141515806f, -0.12817651f, -0.140889615f, 0.0302245133f,
    -0.111996301f, 0.0493862294f, -0.0375590287f, -0.123645268f, 0.0203452595f, -0.143604755f, -0.091380544f, -0.101634987f,
    -0.221434072f, -0.0658579841f, 0.138732165f, 0.155050173f, 0.0475005321f, -0.00915615261f, 0.0306130908f, -0.0168330744f,
    0.0167809278f, 0.00388636487f, 0.00466323178f, 0.0229269769f, 0.0906567723f, 0.123997085f, 0.0636593774f, -0.0856239572f,
    0.0281698536f, -0.0614559911f, 0.0958931297f, 0.0796616226f, -0.0079896329f, -0.000748529332f, 0.0149625689f, 0.0731674731f,
    -0.0668760315f, -0.00396654429f, 0.0488588959f, -0.0673399344f, -0.0200486351f, -0.0541293621f, 0.0744837448f, 0.111293159f,
    -0.0634308979f, 0.0274196472f, -0.0200086776f, 0.0493065752f, 0.110252f, 0.107153878f, 0.0664999261f, 0.0242378768f,
    -0.0979674235f, 0.0535184368f, -0.0120753003f, -0.0194265191f, -0.110077329f, 0.0108973905f, -0.073793821f, -0.102480218f,
    -0.0879869759f, 0.056865219f, 0.0339460559f, -0.0348695964f, -0.0114894258f, -0.0953533798f, -0.025252318f, -0.103521623f,
    -0.0430061892f, -0.103426248f, -0.0230410695f, 0.0728158206f, -0.0271334648f, -0.125864267f, -0.0642075613f, -0.072998628f,
    0.0881607309f, 0.192182526f, 0.350286752f, 0.317200929f, 0.357577801f, 0.200032771f, 0.0453695171f, 0.0892740712f,
    0.23363705f, 0.292506248f, 0.15209268f, 0.100050732f, 0.0470536947f, -0.013016413f, -0.0422162302f, 0.0305522624f,
    0.0402991511f, 0.0222718958f, -0.10610418f, -0.0882612839f, 0.184398398f, 0.033824794f, 0.0535889417f, 0.00560681801f,
    0.0468990467f, -0.098411262f, 0.0228467025f, -0.0747434571f, 0.0361909457f, 0.0957742557f, 0.0678145215f, 0.111409158f,
    0.075420551f, 0.0141471243f, 0.118500151f, -0.0060687298f, 0.112029746f, -0.0822673142f, -0.147676677f, -0.0985032842f,
    0.0146084242f, 0.0799018294f, 0.106585577f, -0.145784765f, -0.078057155f, -0.06446594f, -0.100182347f, -0.0597545765f,
    -0.220340431f, -0.258923978f, -0.0926233307f, -0.0364547856f, -0.0803132802f, -0.168681651f, -0.0881193206f, -0.104874641f,
    -0.0367118977f, -0.00640344014f, 0.0610325597f, 0.0153166195f, -0.0965089649f, -0.0488773808f, 0.00205159234f, -0.0574313998f,
    -0.00321316649f, -0.0632488728f, 0.0478391647f, -0.0448790714f, 0.00570887094f, -0.0402682796f, -0.10347122f, 0.0201799218f,
    -0.0325529017f, -0.112555109f, -0.0699400678f, -0.156920135f, -0.199467778f, -0.16279231f, -0.355023563f, -0.0973301828f,
    -0.225840151f, -0.204615802f, -0.178339571f, -0.145866856f, -0.275773823f, -0.314402252f, -0.359493703f, -0.202295631f,
    -0.195344955f, -0.188393161f, -0.287490368f, -0.130643994f, -0.235487387f, -0.179180041f, -0.196275339f, -0.0996532366f,
    -0.121628769f, -0.0602279976f, -0.129516989f, 0.0188285243f, -0.0748469979f, 0.0547574274f, 0.148696095f, -0.0649015754f,
    0.0885442942f, 0.0680503175f, 0.0258403737f, -0.0421785414f, -0.00355603429f, -0.0378735811f, -0.0505676232f, -0.0482238159f,
    0.00451556873f, 0.0449457802f, -0.00544301886f, 0.0366994143f, -0.0600654148f, 0.0579502359f, 0.0344226621f, 0.103199705f,
    -0.067382358f, 0.0717434287f, -0.0907831714f, 0.0143513894f, 0.0327733979f, 0.0414355993f, -0.00582279684f, 0.164525658f,
    0.138822079f, 0.139280021f, 0.19353573f, 0.174574018f, 0.111741766f, 0.0603480861f, 0.114823245f, 0.207502201f,
    0.133762062f, 0.222972214f, 0.122835711f, 0.0495094061f, 0.0880077481f, 0.152646199f, 0.0409047119f, 0.0496286154f,
    0.0827306435f, 0.135642424f, 0.166858763f, 0.103550404f, 0.180503309f, 0.0249572583f, -0.00778772822f, 0.0177994501f,
    0.0898007751f, -0.0161664709f, -0.0735298917f, -0.0563319251f, 0.13429068f, 0.04804397f, 0.232901007f, -0.0142606981f,
    0.0552789457f, 0.030269986f, -0.078900747f, 0.0169531479f, -0.0218682997f, 0.0304988474f, 0.058494471f, 0.0686471462f,
    -0.0569753982f, -0.103709802f, -0.0685041174f, -0.0185821503f, -0.0137843164f, -0.0395724811f, -0.0408232771f, -0.0179457702f,
    -0.136505917f, -0.146719545f, -0.150143549f, -0.126320958f, -0.114644796f, -0.202631995f, -0.0734141469f, -0.101048887f,
    -0.0573750027f, -0.0962939113f, -0.105994336f, -0.126607478f, -0.211116374f, 0.00794347096f, -0.19876878f, -0.114907362f,
    -0.137880221f, -0.113394678f, -0.0083411932f, -0.124360919f, -0.0461294167f, -0.00633262796f, -0.0439047143f, -0.0513845757f,
    -0.00309386896f, 0.0612252951f, -0.094756633f, -0.142141894f, 0.0338361226f, -0.0579902679f, 0.134384677f, 0.160416082f,
    -0.0712678954f, -0.179014593f, 0.0214443374f, 0.0204400681f, 0.00268309936f, -0.173573434f, -0.061966341f, 0.0326066203f,
    0.0879123881f, 0.0377902649f, -0.0231776293f, -0.0560363382f, -0.000665005704f, 0.0144450972f, -0.161867142f, -0.159319639f,
    -0.0894023106f, -0.0455255099f, -0.00206441735f, -0.0863635167f, -0.038460426f, 0.000349278067f, -0.0084869694f, -0.0623893701f,
    -0.00436436059f, 0.0485718735f, -0.128374413f, 0.0255946722f, -0.120943874f, 0.043325752f, -0.11159946f, 0.0344793536f,
    -0.000819600769f, 0.0322240032f, -0.120601013f, -0.0948931649f, 0.0414825976f, -0.144421175f, 0.0246912837f, -0.0351507142f,
    -0.0107480399f, -0.122701459f, -0.098671183f, -0.079519406f, 0.0498682745f, 0.0312230084f, -0.119847149f, -0.149057657f,
    0.00212490791f, 0.00848574191f, -0.00618999638f, 0.0617287569f, -0.0144624058f, -0.0472294502f, 0.0953698233f, -0.0444062464f,
    0.0614865199f, -0.0883987099f, 0.0439391658f, -0.014774573f, -0.0492993444f, 0.036356926f, -0.0551301762f, -0.0486989468f,
    -0.0981384441f, 0.027456047f, 0.174327463f, 0.137202695f, 0.0502748787f, 0.0222502276f, 0.0881660283f, 0.0417758115f,
    0.0772862881f, 0.00753480615f, 0.102796599f, -0.065299727f, 0.00208368548f, 0.112414166f, 0.0455396846f, 0.075373821f,
    0.0363233164f, 0.0960210413f, 0.0756531432f, 0.14150314f, 0.018023815f, 0.0811093003f, 0.108012445f, 0.0899852738f,
    0.163785368f, 0.053639017f, 0.107649565f, 0.0176526979f, 0.0107286032f, 0.0485992692f, 0.00248368643f, 0.0678736046f,
    0.089323014f, 0.120117232f, 0.12600404f, 0.0965225101f, 0.02217553f, 0.0610681958f, 0.000878327643f, 0.0137810204f,
    0.0275943335f, 0.064846985f, -0.103209637f, -0.118046835f, -0.0356194712f, -0.0626647919f, -0.0930721238f, -0.175956443f,
    -0.226911217f, -0.0681386366f, -0.064411208f, -0.0736632496f, 0.0666295737f, -0.0425132662f, -0.0912833288f, -0.163764268f,
    -0.0126152318f, 0.0176338963f, -0.0519462377f, -0.0484697632f, -0.0970779508f, -0.0565582737f, -0.0912102163f, 0.0651340112f,
    0.0278413817f, -0.13879779f, -0.00225324463f, -0.136464179f, 0.00072942744f, 0.106179193f, -0.0504245795f, -0.00289110397f,
    0.0708078444f, -0.0237087086f, 0.0320034325f, -0.0509157069f, -0.0179085601f, 0.00184785342f, -0.0311503913f, -0.0821429789f,
    -0.0675237998f, 0.0556480996f, -0.0586563163f, 0.00423161965f, -0.118865207f, -0.0506186485f, -0.0719318241f, -0.044622574f,
    -0.10218145f, -0.0994764194f, 0.0583613813f, -0.00777996937f, -0.0497299433f, -0.0315888599f, 0.0695748776f, 0.0316687003f,
    0.0545391776f, -0.0895630941f, 0.0654710755f, -0.011274281f, -0.118550532f, -0.1309001f, -0.0900786147f, -0.0429037437f,
    0.040277712f, 0.0760421008f, -0.0172305983f, -0.116932362f, 0.0654079244f, 0.0486209318f, -0.0548508763f, 0.0291069411f,
    0.00539855333f, -0.0737865418f, -0.179556027f, -0.084660247f, -0.245791629f, 0.0189319272f, 0.0127415042f, 0.00771954423f,
    -0.063546598f, 0.0117185609f, -0.0938305184f, -0.172599286f, 0.0456995741f, 0.0785681009f, 0.115560152f, -0.00032809432f,
    -0.16220969f, -0.0948421955f, 0.0600896329f, 0.119553946f, 0.152259544f, 0.0702548623f, 0.100598671f, 0.150904194f,
    0.152102441f, 0.0338763632f, 0.0414006375f, 0.0945605859f, 0.162057936f, 0.190324113f, 0.0515294075f, 0.115697362f,
    0.107196338f, 0.149172246f, 0.12429738f, 0.164315343f, 0.10836459f, 0.0343646407f, 0.125315234f, 0.106946364f,
    -0.0416346192f, 0.065207094f, 0.036908336f, 0.0359364152f, -0.0514139533f, -0.0273359232f, -0.00293400488f, -0.127444804f,
    -0.0780516192f, -0.0612673685f, -0.072580263f, -0.129551351f, -0.139732942f, -0.0562973544f, -0.0494709425f, -0.0550302975f,
    -0.0895483345f, -0.0697487742f, -0.00295410492f, -0.111499809f, -0.0873753279f, -0.0728338882f, -0.129346967f, -0.0931293741f,
    0.0368889906f, -0.136472642f, -0.0338307582f, -0.0593583249f, -0.0443570912f, 0.123142228f, -0.0412505567f, -0.060428001f,
    -0.0597937778f, 0.0550117306f, 0.0928855687f, 0.0115932049f, -0.0305657722f, 0.0107789235f, 0.0277613197f, -0.0206237677f,
    -0.00149904168f, 0.089445658f, 0.0634876564f, 0.0332610756f, 0.102100343f, 0.0624609143f, 0.0656638965f, -0.0406622179f,
    0.0622242764f, 0.0281291083f, -0.0280045439f, 0.0752047524f, 0.00327348057f, 0.0147578996f, 0.0137803545f, -0.00239133323f,
    0.0224639811f, 0.103851072f, -0.0592964441f, 0.0992738232f, 0.0302908402f, -0.0366969183f, 0.138341635f, -0.0031638646f,
    0.0855793133f, -0.0441893339f, -0.0311070457f, 0.046268031f, -0.071659781f, 0.113403462f, -0.0650717914f, -0.0649178252f,
    -0.0240378007f, 0.0390793532f, -0.0585738607f, 0.0606712997f, -0.0858419836f, 0.0890426859f, 0.104992539f, 0.0133114913f,
    0.113150761f, -0.00403991248f, 0.0990879983f, 0.00577147119f, -0.0513268299f, 0.107631229f, -0.0529594868f, -0.0993699357f,
    -0.0597977377f, -0.123812929f, 0.093700543f, 0.0458879583f, 0.014569398f, -0.00298420084f, 0.11241433f, 0.0262840018f,
    -0.0489469059f, 0.171545699f, 0.0684656724f, -0.131378144f, 0.0538130179f, 0.0361566246f, -0.00166283478f, -0.0599924847f,
    -0.112459555f, -0.0891573951f, -0.0593766719f, -0.0818824172f, -0.0945787653f, 0.183234528f, 0.189613253f, 0.0664875433f,
    0.127556279f, 0.244961411f, 0.201567978f, 0.395493209f, 0.342012644f, 0.386386305f, 0.401009858f, 0.398612767f,
    0.202820867f, 0.203673959f, 0.155586913f, 0.00622813171f, -0.152319148f, -0.238423333f, -0.287044793f, -0.294375956f,
    -0.294920981f, -0.286126167f, -0.281274974f, -0.334115714f, -0.247734383f, -0.20067735f, -0.196864918f, -0.0485191904f,
    -0.0701885596f, 0.116946973f, 0.153082982f, 0.15576081f, 0.23954019f, 0.252657145f, 0.0902860165f, 0.00651219254f,
    0.0877121538f, 0.0513592213f, 0.115975648f, 0.0711153671f, 0.0320849568f, 0.0856590271f, 0.0150160855f, 0.102830887f,
    0.0745882541f, 0.0615161434f, 0.120481543f, 0.145332783f, 0.0704596788f, 0.244589776f, 0.0258278791f, 0.053260766f,
    0.0969445184f, 0.10130173f, 0.072816506f, 0.137712955f, 0.0459703766f, 0.0802319497f, 0.0562784523f, 0.0862620324f,
    0.0260157287f, 0.0136768091f, 0.071475789f, -0.0982482284f, -0.0162924547f, 0.0811229721f, 0.0623580478f, 0.0875176862f,
    0.0176813584f, -0.0778396055f, 0.0878379345f, -0.0707236901f, 0.0634561926f, 0.0680698603f, -0.139078155f, -0.0419882163f,
    -0.0603636578f, 0.0147769107f, 0.0369207449f, 0.0307943132f, -0.0411176123f, -0.0208839532f, -0.0511910878f, -0.0282425061f,
    -0.094244577f, 0.0186494812f, -0.135243371f, -0.0644791648f, 0.0051276302f, -0.0311195925f, -0.0417693369f, 0.047637932f,
    -0.155403897f, -0.117256194f, 0.00512058754f, 0.05422296f, -0.0773284957f, -0.0239498075f, -0.140164003f, -0.0476832315f,
    -0.00558407279f, -0.00831732992f, -0.0603331812f, 0.0328581855f, -0.0449209101f, -0.108372174f, 0.0212578587f, -0.0333541185f,
    -0.037950106f, 0.0465657748f, -0.198767424f, -0.268087864f, -0.360417962f, -0.112663887f, -0.0491937771f, -0.0477901176f,
    -0.216163233f, -0.323867232f, -0.289800942f, -0.29684642f, -0.194389611f, -0.238611892f, -0.0150252227f, -0.0761240646f,
    -0.0601796769f, -0.0480397567f, -0.00485311821f, -0.00494440831f, 0.00553087983f, -0.07263951f, -0.0385082848f, 0.0506572798f,
    0.0923119932f, 0.109311111f, 0.246527821f, 0.216677219f, 0.161877573f, 0.16349946f, 0.129912421f, 0.214379013f,
    0.158566862f, 0.100076638f, -0.0197752602f, 0.0683355629f, 0.0342493132f, 0.053418424f, 0.140436918f, 0.135770798f,
    0.173195586f, 0.109305501f, 0.0905406401f, 0.171075553f, 0.106174342f, 0.119145937f, 0.11127501f, 0.208928108f,
    0.105880395f, 0.170010716f, 0.0122932186f, 0.141322732f, 0.127745882f, 0.103776559f, 0.167009413f, 0.186344624f,
    0.161338866f, 0.1800704f, 0.079741247f, 0.10409078f, 0.0381141379f, 0.217073441f, 0.100768045f, 0.0663802326f,
    0.187039971f, 0.0877832547f, 0.159251779f, 0.10869918f, 0.129947647f, 0.0637802482f, 0.0852431804f, 0.0390018821f,
    0.222031027f, 0.124795064f, 0.142476946f, 0.123179778f, 0.0474584997f, 0.0863527879f, 0.0957341567f, 0.0185433906f,
    0.13498801f, 0.102923617f, 0.0603178702f, 0.125712827f, 0.0987780243f, -0.0281707253f, -0.0219912175f, 0.0641704351f,
    0.103617802f, -0.0101218875f, 0.0582330301f, 0.033422444f, -0.0661246777f, 0.0166751724f, -0.0020240033f, -0.029084539f,
    0.00995486043f, 0.0509237796f, 0.0142295985f, -0.060197182f, 0.04019133f, 0.0813994855f, -0.0901146531f, -0.105266683f,
    0.0198045336f, -0.0809066519f, 0.0810979679f, 0.0468110703f, 0.0354501791f, 0.0352255292f, -0.0732524619f, -0.0664971992f,
    0.0402836315f, -0.0634206161f, -0.0942215174f, -0.00484767556f, 0.0320229381f, -0.0670431405f, -0.117423885f, -0.0892431438f,
    -0.0159139875f, -0.0677458718f, -0.0409562699f, 0.0331181027f, -0.0803037584f, 0.048675742f, -0.0778995231f, -0.00517065451f,
    -0.0369475409f, 0.0815956518f, -0.0113163292f, -0.0216815863f, 0.0952925757f, 0.0996810645f, -0.0659113526f, -0.0909700245f,
    0.0665003732f, 0.0450619422f, 0.0116934646f, 0.0478774421f, -0.13166213f, -0.0735936239f, 0.100492187f, 0.192281544f,
    0.058945287f, 0.0487531908f, 0.0759809688f, 0.0770228282f, 0.0979003534f, -0.038444452f, 0.191928849f, 0.264630884f,
    0.44859159f, 0.311059773f, 0.149521187f, 0.119262382f, 0.103218384f, 0.0488042273f, -0.0116682155f, 0.102748998f,
    0.033372324f, 0.086456567f, 0.0479249209f, -0.0191254485f, 0.0265663899f, 0.0033265478f, -0.0535083488f, -0.149362564f,
    -0.1490518f, -0.108229637f, 0.0833745524f, 0.00150062959f, -0.0186350103f, 0.0861869454f, 0.164924011f, -0.000694160466f,
    0.0687943324f, -0.122687504f, -0.117393002f, -0.243425339f, -0.238235101f, -0.289069355f, -0.0287120603f, -0.024007611f,
    -0.0209173486f, 0.0200047232f, 0.0741245672f, 0.0644657835f, -0.0700814873f, 0.0288772359f, 0.14796263f, -0.0230067018f,
    -0.13864024f, -0.00589668658f, 0.11560636f, 0.123820953f, -0.0561109446f, 0.0874203816f, -0.143904045f, 0.0274723433f,
    0.111389056f, 0.0320665985f, 0.0516134426f, 0.090316914f, 0.0529243685f, -0.0838547125f, -0.103165016f, -0.12214984f,
    -0.0945956334f, 0.084540762f, -0.00322777918f, 0.0394564718f, -0.0110497624f, 0.0755323097f, 0.0710299984f, 0.0693705529f,
    -0.0191355068f, 0.0803714022f, -0.00724738417f, 0.071964927f, -0.0466736704f, -0.0472195335f, 0.0518889949f, -0.0370602496f,
    -0.1131256f, -0.0914260522f, -0.0644618869f, 0.0264435615f, -0.0440702923f, 0.1005245f, -0.102432124f, -0.0663565844f,
    0.0204163585f, -0.0894135609f, -0.0460133739f, -0.0242074225f, -0.00316215446f, -0.100130908f, -0.140962079f, -0.135672256f,
    -0.0714954585f, 0.0523140766f, 0.0672155768f, -0.0578701161f, -0.108487248f, -0.121988468f, -0.0145083936f, -0.118049964f,
    -0.029753875f, 0.00520034414f, 0.0575485788f, -0.0704881549f, -0.122871034f, -0.0246303063f, -0.0897162259f, -0.113516442f,
    0.000707421568f, -0.0166911036f, 0.0378346294f, -0.116305396f, -0.0395016558f, -0.039938122f, -0.00916976854f, -0.0299189556f,
    0.0215051882f, 0.124310769f, -0.0402134992f, 0.107116163f, 0.179054007f, -0.0460629463f, -0.17859374f, 0.118916504f,
    -0.0707798824f, -0.469239682f, -0.217521816f, 0.205868125f, 0.0745108277f, -0.139369354f, 0.383888304f, 0.5238778f,
    0.112750471f, 0.196550414f, 0.320317417f, 0.136485055f, 0.183267236f, 0.17990984f, -0.0220657121f, -0.10071975f,
    0.00253144908f, -0.0742068067f, -0.0480000414f, -0.164064929f, -0.0620735027f, -0.0976844579f, -0.101296797f, -0.0549472496f,
    -0.108052514f, -0.0313632376f, -0.0664504394f, 0.0839970633f, 0.0186660662f, -0.0129225561f, 0.0306702536f, 0.0100777205f,
    0.0576071516f, 0.0939929262f, 0.0978696048f, -0.00676027965f, 0.0462532155f, -0.0160361286f, -0.00577760441f, -0.0542396642f,
    -0.0297608748f, -0.0191341862f, -0.0199252367f, -0.0115406532f, 0.0363710001f, 0.0920032337f, -0.0383078009f, 0.0052496423f,
    0.000204210446f, -0.0601833276f, -0.100647375f, -0.0424920991f, -0.0366753973f, -0.00892092567f, -0.0538157523f, -0.0508007854f,
    -0.10788209f, -0.00600054022f, -0.0541137494f, -0.00175465783f, 0.0658711791f, -0.069446452f, -0.0540047809f, -0.0603800043f,
    0.0703882873f, -0.115307868f, -0.0936123505f, 0.0453289598f, 0.0568936169f, 0.0500382408f, 0.0262688231f, -0.0084997369f,
    0.0925260037f, 0.00227474747f, -0.045969598f, -0.0799051002f, -0.0131242592f, 0.0622781925f, 0.070046775f, -0.109406479f,
    -0.0062096077f, -0.0719594657f, -0.124204792f, -0.000486778124f, 0.0465816781f, 0.0593971126f, -0.104505524f, -0.0702705756f,
    0.0367306136f, -0.0182023849f, -0.0538629442f, -0.00624483684f, -0.00170649157f, -0.00375628937f, 0.0271699578f, -0.140470758f,
    -0.00166950584f, 0.0269050989f, -0.14277336f, 0.0333956107f, -0.123797841f, -0.0546807498f, 0.0616915226f, -0.0991177857f,
    -0.150745675f, -0.0178509019f, 0.0427330732f, -0.0902911797f, -0.0770426616f, -0.0923225805f, -0.0886665285f, -0.104158781f,
    -0.0684219301f, -0.146403089f, -0.0594888106f, -0.0603714623f, -0.0328595303f, 0.0942118689f, -0.108374946f, 0.0522750057f,
    0.0523469895f, -0.0732011572f, -0.0801762938f, -0.130740806f, -0.044541847f, -0.102136046f, -0.0793458819f, -0.0858552009f,
    -0.0216055848f, 0.0184266511f, 0.0352027677f, 0.143863857f, 0.0235017687f, -0.0174981542f, 0.0261640418f, 0.0201735869f,
    0.0630085394f, 0.0697352514f, -0.0403887667f, -0.130067259f, -0.0221517533f, -0.0546366312f, -0.0200587027f, -0.0711597428f,
    -0.0783280954f, -0.168296218f, -0.137680009f, -0.114060737f, 0.0697318837f, -0.0458608605f, 0.0852898583f, 0.0492596589f,
    -0.0191761237f, 0.0945758075f, -0.0159256049f, 0.083633326f, 0.0379583351f, -0.0447899103f, 0.0973131061f, 0.0992800146f,
    -0.0425456874f, -0.0599914379f, 0.10274981f, 0.107460186f, 0.0435878187f, -0.00892674923f, 0.118189223f, 0.13411513f,
    0.148401797f, 0.170632467f, 0.0941270143f, 0.0802541971f, -0.0112725655f, 0.0437224209f, 0.0458234735f, -0.0359187648f,
    -0.0207233876f, -0.0420603491f, 0.109622173f, 0.121308662f, 0.151744604f, -0.0166730992f, 0.00143541826f, -0.00613867212f,
    0.00939407293f, 0.0254692975f, 0.00417989166f, 0.0400360078f, -0.0471360832f, 0.0106507475f, 0.0323920511f, 0.0186973345f,
    0.0991710946f, -0.0899809226f, -0.0376495235f, -0.0810221136f, -0.0230361838f, -0.0293212216f, -0.00162998342f, 0.0370432436f,
    0.00397792691f, 0.000671631249f, 0.120375715f, -0.0476018824f, 0.0537550338f, 0.0162865128f, -0.0185473058f, 0.0896426737f,
    0.0365003757f, -0.0675510466f, 0.0226184633f, 0.0514478385f, -0.0522705764f, -0.0712340474f, 0.0414837226f, 0.0858239681f,
    -0.0314901657f, -0.0243519414f, -0.0801561102f, -0.0698650107f, -0.019044742f, 0.0718127489f, -0.00669567147f, -0.00029029639f,
    0.0208306275f, -0.0423016325f, -0.112842277f, -0.05358034f, 0.00177803822f, -0.000439904892f, 0.0817258209f, -0.0114317816f,
    -0.0288428739f, -0.00432861689f, 0.00739231845f, 0.0336874165f, -0.105466895f, 0.0123673948f, -0.0431035981f, -0.0676200762f,
    -0.0909467191f, -0.0364758484f, 0.0723279864f, -0.0261593349f, 0.0616821572f, -0.0561823472f, 0.0268356688f, 0.0576240532f,
    -0.0529684946f, 0.139148459f, 0.0465242378f, 0.104630984f, 0.0192562137f, 0.0394409001f, 0.0787261873f, 0.0772417113f,
    0.00268629915f, -0.0221907943f, 0.0225653332f, 0.044905033f, -0.15016219f, -0.127121478f, -0.0718667135f, -0.130747512f,
    -0.106762826f, -0.0288634449f, -0.0749166235f, 0.134450942f, -0.128444448f, -0.0404885188f, -0.0413951986f, 0.0695441067f,
    0.0481396616f, 0.143451422f, 0.137011781f, 0.110108726f, 0.0280511323f, 0.164882362f, 0.0342975035f, 0.148415878f,
    0.0361950547f, 0.0755558908f, 0.078608945f, 0.177909404f, 0.083284542f, 0.111576453f, 0.074370645f, -0.0539232269f,
    -0.101923592f, -0.145174161f, -0.166739255f, -0.230730385f, -0.315131664f, -0.264980078f, -0.127759919f, -0.00580849173f,
    0.03201285f, 0.102933869f, 0.210034654f, 0.125125572f, 0.18494758f, 0.1168999f, 0.1806885f, 0.182108745f,
    0.28634882f, 0.251720876f, 0.188461378f, 0.184688538f, 0.182487622f, 0.151816025f, 0.114513934f, 0.141339257f,
    0.103293099f, 0.149219275f, 0.100619495f, 0.0561250746f, 0.126543462f, 0.186889976f, 0.121522859f, 0.137771145f,
    0.169138566f, -0.0169849861f, 0.0617470853f, -0.0749537572f, -0.0870492458f, 0.0139007038f, 0.0283201504f, 0.0549025945f,
    -0.00485264231f, 0.0578600243f, -0.0447142683f, -0.0926347747f, 0.0252424385f, -0.00489274459f, 0.0165717117f, -0.0065542669f,
    -0.0330032669f, -0.0200412981f, 0.0837451592f, 0.014281203f, 0.0683044121f, 0.0932222679f, 0.0884543285f, -0.0625915006f,
    0.0889828578f, -0.0259846561f, 0.0405487865f, -0.0771278366f, 0.0169212185f, -0.0734121948f, 0.0643084794f, -0.0891450867f,
    -0.0528670587f, -0.000581617001f, 0.000126154511f, 0.0300851613f, -0.0462612063f, -0.11985711f, -0.0609992035f, -0.118820235f,
    -0.00302080321f, -0.0551644117f, -0.103329428f, -0.113665678f, -0.0148489187f, -0.0339617133f, -0.0731099918f, 0.0241338778f,
    -0.113981642f, -0.0111352168f, -0.0982383937f, 0.0236112345f, -0.00510978792f, 0.00949506089f, -0.0432085358f, -0.0411017984f,
    0.031630747f, 0.175045669f, 0.0117717292f, -0.0619233176f, -0.113438256f, 0.116749361f, 0.282146186f, 0.133689806f,
    -0.237200424f, -0.204545021f, 0.071919933f, 0.244918466f, 0.157653093f, -0.0423691422f, -0.234930694f, -0.159567073f,
    -0.0175411683f, -0.014051198f, 0.059197221f, 0.134833753f, 0.153400585f, 0.158830017f, -0.0257302374f, 0.13665311f,
    0.123099409f, 0.147685111f, 0.117603362f, 0.0226952396f, 0.0663073137f, 0.0390199162f, -0.0134698059f, 0.0425716676f,
    0.0427908599f, 0.100287765f, 0.0403084569f, 0.0104781082f, -0.0445548147f, 0.0291035026f, -0.0479728803f, 0.0445506461f,
    -0.0821824446f, -0.0978352502f, -0.0757328942f, 0.0455011651f, 0.112829782f, 0.0211273152f, 0.108207308f, -0.0661148876f,
    0.0524183065f, -0.035141699f, -0.00962592103f, 0.0103839636f, -0.0462731421f, 0.0632823929f, -0.00179267256f, 0.0334184319f,
    0.140889987f, 0.111468442f, 0.20282875f, 0.0415458418f, -0.00224915519f, -0.000246394047f, -0.0718508661f, -0.0115388995f,
    -0.0437628441f, -0.0164122172f, 0.0505286865f, 0.0995138884f, 0.175482452f, -0.0233802758f, 0.0482992344f, 0.101930983f,
    -0.00401843153f, -0.00194203318f, 0.0702724606f, -0.00606266363f, -0.0146479961f, -0.0239842311f, -0.015491656f, -0.00748986891f,
    0.102266401f, 0.136498898f, -0.0408954322f, -0.0681919232f, 0.0353683904f, 0.104180917f, -0.0144127384f, -0.0883030072f,
    -0.013688433f, 0.0644771457f, 0.0727715343f, -0.0811214149f, -0.0632655174f, -0.125544667f, -0.0895920396f, 0.00999623165f,
    0.0548640974f, -0.14247191f, -0.0424974486f, -0.109560892f, -0.0550097823f, -0.155477732f, -0.101634838f, -0.149731383f,
    -0.136290655f, -0.155487329f, -0.156547397f, -0.0442364849f, -0.0105260601f, 0.0109986356f, -0.0948154554f, -0.0954217911f,
    -0.112392232f, -0.137320384f, 0.0188852772f, -0.0467793904f, -0.0711842626f, -0.0689415857f, -0.0723037198f, -0.161665291f,
    -0.0251297448f, -0.154400587f, -0.109026983f, -0.110010527f, -0.0425668322f, -0.0859910995f, -0.176236898f, -0.144532248f,
    -0.1099796f, -0.086253345f, -0.0184521228f, 0.0537274778f, 0.0468843095f, 0.0837350935f, 0.033617001f, 0.000444305275f,
    -0.104522929f, -0.0736016631f, 0.195942566f, -0.0160270687f, 0.0795890167f, 0.177953452f, 0.0672373101f, 0.0946197584f,
    -0.123346694f, -0.0429236405f, -0.00275059883f, -0.147360057f, 0.0531735197f, 0.226151481f, 0.244446725f, 0.0320772678f,
    0.252239287f, 0.05891902f, 0.0465971902f, 0.0839671418f, -0.132366061f, -0.0397833623f, -0.0453642309f, 0.0635826662f,
    0.083121106f, 0.168207571f, 0.135788709f, 0.0697968081f, 0.0214607641f, 0.0839577466f, 0.0229040198f, -0.0675862059f,
    0.0430790409f, -0.143872142f, -0.00039315215f, 0.0407808125f, 0.197497398f, 0.295502216f, 0.25663799f, 0.389629722f,
    0.233011633f, 0.232948586f, 0.202557057f, 0.163453311f, 0.107758448f, 0.178566143f, 0.261558086f, 0.0413337015f,
    0.0357836857f, 0.0495273098f, 0.113548733f, 0.46756354f, 0.538454175f, 0.447776794f, 0.506126046f, 0.434176385f,
    0.356865972f, 0.326078832f, 0.159836322f, 0.05398193f, 0.129935801f, 0.0558420643f, 0.0736540258f, 0.00728984177f,
    -0.0729622021f, 0.258915037f, 0.378698111f, 0.273480356f, 0.0340647586f, 0.171701103f, 0.0157752708f, 0.0735539123f,
    0.0270272437f, 0.0650383011f, 0.0616990328f, 0.0433348194f, 0.0240743738f, 0.135980681f, 0.121858828f, 0.0421630032f,
    -0.00949227251f, 0.0119994897f, -0.0319634527f, -0.129487827f, -0.1673816f, -0.0409595668f, -0.11636553f, -0.205053255f,
    -0.189519584f, -0.142488733f, -0.110920377f, -0.21691367f, -0.266398221f, -0.270832241f, -0.0855086222f, -0.192148477f,
    -0.11298129f, -0.114777036f, -0.200948581f, -0.253164649f, -0.211896658f, -0.196841732f, -0.028752733f, -0.115593418f,
    -0.22229141f, -0.00294183637f, -0.182418466f, -0.060427811f, -0.00844650064f, -0.0340928696f, -0.0231846403f, 0.0123911928f,
    0.0105078239f, -0.161112756f, -0.131027743f, -0.0794267803f, -0.0793441013f, 0.0149283037f, -0.181865558f, 0.0401283316f,
    0.0421702899f, 0.0897069946f, 0.0369954966f, 0.0765886456f, 0.0043709469f, -0.0316064693f, 0.050866235f, 0.157560959f,
    0.0669958144f, -0.0799177438f, 0.0964416489f, -0.0461644679f, 0.0354918204f, 0.0410736464f, 0.086734809f, 0.0505150892f,
    -0.0428376235f, 0.0843202919f, 0.0524018034f, 0.0368811302f, 0.138615668f, 0.153479263f, 0.143515542f, -0.00575694116f,
    -0.0330768414f, 0.15465875f, 0.0958056152f, 0.224217743f, 0.0210395139f, 0.032291811f, 0.0650535524f, 0.167182446f,
