// Generated by voice_reduction/export_voice_reduction_c.py. Do not edit by hand.
// Architecture: cw_denoise_gru_mask
// sample_rate=9600 fft_length=256 hop_length=144 band_bins=0..128

#ifndef VOICE_MODEL_WEIGHTS_H
#define VOICE_MODEL_WEIGHTS_H

#include "denoise_model.h"

#ifndef DENOISE_MODEL_ATTR
#define DENOISE_MODEL_ATTR
#endif

static const float DENOISE_MODEL_ATTR k_voice_reduction_input_norm_weight[129] = {
    0.678470075f, 0.722961307f, 0.770710826f, 0.922454715f, 0.952588558f, 0.98677659f, 1.03805232f, 1.06262922f,
    1.10388446f, 1.09302366f, 1.08720875f, 1.11514223f, 1.09338963f, 1.12250292f, 1.08865738f, 1.10363507f,
    1.08697069f, 1.09939981f, 1.12771428f, 1.14454913f, 1.09598804f, 1.11003399f, 1.06394184f, 1.05629265f,
    1.04418457f, 0.973005831f, 1.01477957f, 0.991834521f, 0.980439007f, 0.933547795f, 0.911340296f, 0.905011356f,
    0.914375782f, 0.890724182f, 0.95031637f, 0.976890504f, 0.979130507f, 0.868581891f, 0.851385713f, 0.887551904f,
    0.903106451f, 0.797437429f, 0.814901531f, 0.875068247f, 0.84394294f, 0.862922847f, 0.83919245f, 0.807134926f,
    0.83830601f, 0.833045959f, 0.808333099f, 0.869467258f, 0.832490504f, 0.835125029f, 0.774660289f, 0.878571332f,
    0.790406168f, 0.797468305f, 0.81885767f, 0.881686866f, 0.816010773f, 0.830525041f, 0.789301813f, 0.800874472f,
    0.845611751f, 0.782584608f, 0.706380904f, 0.585808933f, 0.639522791f, 0.5900563f, 0.554380894f, 0.646948457f,
    0.545537651f, 0.606039762f, 0.590381265f, 0.617339313f, 0.568594277f, 0.593613148f, 0.438100308f, 0.45805335f,
    0.53056699f, 0.580173016f, 0.468261838f, 0.441396594f, 0.44218567f, 0.538947523f, 0.559336603f, 0.592199028f,
    0.585223198f, 0.602572978f, 0.729946494f, 0.657307565f, 0.622170806f, 0.637589097f, 0.720712543f, 0.785808563f,
    0.70170331f, 0.712101221f, 0.674296141f, 0.766197741f, 0.769620538f, 0.741446614f, 0.683667243f, 0.682300508f,
    0.704048693f, 0.694170415f, 0.713687301f, 0.729999959f, 0.726384461f, 0.688910484f, 0.691474676f, 0.650497913f,
    0.754933953f, 0.777364969f, 0.766484022f, 0.690120041f, 0.732280731f, 0.755948305f, 0.778423846f, 0.712751329f,
    0.797547162f, 0.753435433f, 0.802343369f, 0.72799772f, 0.823916733f, 0.847216606f, 0.792254865f, 0.778939843f,
    0.821215749f
};

static const float DENOISE_MODEL_ATTR k_voice_reduction_input_norm_bias[129] = {
    0.238199309f, 0.139179528f, 0.232886061f, 0.144030526f, 0.0866132379f, -0.022846356f, -0.0669236928f, -0.0728606507f,
    -0.0864404365f, -0.0675050616f, -0.0867469609f, -0.108695522f, -0.103399269f, -0.118749797f, -0.0800915956f, -0.0987056196f,
    -0.0648418665f, -0.0907914788f, -0.0784264579f, -0.0937984064f, -0.0669300333f, -0.09276326f, -0.108669892f, -0.218219578f,
    -0.169718727f, -0.0980662927f, -0.0719410554f, -0.0478398539f, -0.0704113469f, -0.0968167931f, -0.0910864249f, -0.0549827404f,
    -0.0391946658f, -0.0669436529f, -0.0457242131f, -0.0240812153f, -0.0378521532f, -0.116917916f, -0.131685987f, -0.105040796f,
    -0.103287227f, -0.17385295f, -0.125076368f, -0.133100256f, -0.1045653f, -0.0770670846f, -0.149105415f, -0.131982997f,
    -0.114960462f, -0.0475887284f, -0.0964354053f, -0.0737558976f, -0.110538252f, -0.123321302f, -0.132172301f, -0.167002335f,
    -0.115546048f, -0.112166859f, -0.101977691f, -0.0864823386f, -0.0834796056f, -0.118789345f, -0.0501342788f, -0.0744400918f,
    -0.075099282f, -0.0482469574f, -0.0768354088f, -0.0766066685f, -0.0295993444f, -0.000802530791f, 0.00842586346f, 0.0390204005f,
    0.0461757481f, 0.0978951156f, 0.135650411f, 0.0995364264f, 0.139115661f, 0.166439727f, 0.197384939f, 0.208596647f,
    0.198863909f, 0.186525509f, 0.247751281f, 0.271726519f, 0.297578871f, 0.227255076f, 0.199331954f, 0.269211859f,
    0.187079221f, 0.253451467f, 0.145377189f, 0.153402224f, 0.205312401f, 0.237820968f, 0.170430377f, 0.12017221f,
    0.141177341f, 0.131707639f, 0.223872885f, 0.0645565838f, 0.129691258f, 0.130667046f, 0.250081122f, 0.206106544f,
    0.210588455f, 0.145967394f, 0.204253927f, 0.215673029f, 0.2540977f, 0.242951572f, 0.181866825f, 0.191139325f,
    0.212785617f, 0.100625567f, 0.1080942f, 0.206098139f, 0.157488734f, 0.0928214192f, 0.162557915f, 0.260965616f,
    0.103481911f, 0.191827014f, 0.145618796f, 0.189724728f, 0.107555047f, 0.0748721361f, 0.135354698f, 0.204742253f,
    0.101726674f
};

static const float DENOISE_MODEL_ATTR k_voice_reduction_gru_weight_ih[49536] = {
    -0.0714092851f, -0.00500255823f, -0.0143943643f, 0.0452898033f, 0.0438507162f, -0.0368797556f, 0.0126430038f, 0.0197315346f,
    0.0081746541f, -0.133474469f, -0.0465354435f, 0.0512612276f, -0.0569785945f, -0.0808618367f, -0.150157839f, -0.181292325f,
    0.0159083568f, -0.0742136165f, -0.119800992f, -0.235169128f, -0.0244849287f, -0.179086313f, -0.0704846978f, -0.00443645474f,
    -0.0326240174f, 0.0938828066f, 0.0761604086f, -0.000811610254f, -0.0129706739f, 0.0250354949f, 0.0153275477f, -0.0120239966f,
    -0.0831959248f, 0.0815072209f, 0.207974553f, 0.224800318f, 0.152482986f, 0.0730473325f, 0.0298898928f, -0.0117778331f,
    0.0839626491f, -0.00192118401f, 0.0231970698f, 0.054769285f, -0.00943941437f, 0.0405379757f, 0.0136568928f, -0.00594064267f,
    0.0717068166f, -0.0192286726f, 0.0690735877f, 0.0321833082f, 0.0621036738f, 0.0413866043f, -0.0114619322f, 0.100546889f,
    0.0106207319f, 0.0106489481f, -0.0224753302f, -0.043338757f, -0.0981138349f, -0.04017362f, 0.00366709824f, 0.0213100351f,
    0.0034013947f, -0.00247467682f, -0.035889212f, 0.0762335956f, -0.0159180146f, 0.061628323f, -0.00105806871f, 0.0379755646f,
    0.0342927985f, -0.0803541467f, -0.0977793112f, -0.104547352f, -0.0143609801f, 0.00610629609f, -0.0110005541f, 0.0235885624f,
    0.0347251892f, -0.00739434315f, 0.0658701807f, -0.0027168591f, 0.00912312325f, 0.0494185798f, -0.0324168652f, 0.0995833874f,
    0.00224920572f, -0.0258544926f, -0.0100807352f, 0.0721618384f, -0.0443072096f, -0.0225010403f, -0.0191320367f, -0.0520070419f,
    -0.0282449424f, -0.037243817f, -0.0421245173f, 0.0961248428f, -0.0544752702f, 0.0662862957f, -0.0248423796f, 0.0853241608f,
    -0.0042733266f, 0.0401162356f, 0.0555305593f, 0.0880878642f, -0.0292880274f, -0.0435031503f, -0.00725460751f, 0.0203815997f,
    0.0579845123f, -0.0467613041f, -0.0196671188f, -0.00312595163f, 0.0111671966f, 0.0166189522f, 0.0526818112f, -0.0268372986f,
    0.0508065931f, 0.0676632375f, 0.036706835f, 0.0735836029f, 0.0528309159f, -0.0129747773f, -0.0220422242f, -0.0352770574f,
    -0.0636848956f, -0.0545241199f, 0.0423373468f, 0.0139662717f, -0.0428550988f, -0.0127450079f, 0.251617163f, 0.0912620947f,
    -0.0405687988f, 0.218334958f, 0.143744558f, -0.0488754176f, 0.144520953f, 0.082058616f, -0.0207346007f, -0.0744277164f,
    0.0851462707f, -0.0539945401f, -0.166015998f, 0.00468704337f, -0.0517495312f, -0.0457586534f, 0.00136679271f, -0.0623781271f,
    -0.0115942461f, 0.0637951791f, 0.0638680682f, 0.130739659f, 0.044165343f, 0.136200756f, -0.0631623715f, 0.0683948845f,
    -0.0682905838f, -0.053425245f, 0.0466015041f, -0.0474146456f, 0.0614470355f, 0.0260348283f, -0.0242758933f, 0.00737092737f,
    0.0341632627f, 0.00289450097f, 0.0180823859f, -0.071729444f, -0.0161095876f, -0.00895240251f, -0.0438485816f, -0.0594783053f,
    -0.0234124679f, -0.0325504281f, -0.114618912f, -0.0333093889f, 0.0767651275f, -0.0555201881f, 0.00959551986f, -0.038072817f,
    -0.0638171434f, 0.04358197f, -0.0412033573f, -0.0114347422f, 0.0444453955f, 0.00727930898f, -0.0240501389f, 0.00568043999f,
    -0.100536928f, -0.0321149342f, -0.036284443f, 0.0121476753f, -0.111980289f, -0.07592161f, 0.0145939877f, 0.00929294899f,
    -0.0166012496f, 0.069671154f, -0.0250539817f, 0.0865713805f, 0.050754834f, -0.000315260404f, -0.00826265849f, 0.0351372361f,
    0.0136164017f, -0.0640291795f, -0.0666161105f, 0.00472350791f, -0.0202399716f, -0.00697545055f, -0.0203745682f, 0.00419534883f,
    -0.00150970975f, 0.122585766f, 0.0402413718f, 0.121266313f, 0.0053774151f, -0.0396417677f, -0.0158560276f, 0.0616141595f,
    0.041078683f, -0.0584417582f, 0.0583868213f, -0.0285000019f, 0.0209368933f, -0.0100286324f, 0.0109242266f, -0.0515640341f,
    -0.0760861337f, -0.05985865f, -0.0219052043f, -0.0158763528f, -0.000841821544f, -0.0234844927f, 0.0541173406f, -0.0129242335f,
    0.0505645014f, -0.0374237187f, -0.0621201135f, -0.0550244525f, 0.0465903394f, 0.0472070798f, 0.00974388514f, 0.0351555906f,
    -0.0207952037f, -0.054533761f, 0.0654221401f, 0.047220204f, -0.031554535f, 0.0680404976f, 0.0473755375f, -0.0651304424f,
    -0.0799217448f, 0.0625494868f, -0.0280581675f, 0.0832716301f, -0.0116238324f, 0.119412452f, 0.0415388085f, -0.110986702f,
    -0.0023064795f, -0.0362178944f, 0.0813205242f, 0.0335896276f, -0.108507365f, 0.040565487f, -0.0773985609f, -0.135627985f,
    -0.0608059093f, 0.104345381f, 0.162130833f, 0.0150814913f, 0.00195519021f, -0.0538396686f, 0.0807705373f, 0.190661237f,
    0.0811735168f, -0.00244713831f, -0.102231622f, 0.0121418815f, -0.104892038f, 0.0103401961f, -0.058009468f, -0.0371444225f,
    -0.0809425786f, -0.0447710194f, 0.069552429f, 0.0864441916f, 0.144766897f, 0.072262466f, 0.0451618955f, 0.0183555055f,
    0.0059824544f, -0.0671835691f, -0.107153744f, -0.025774492f, -0.0860341862f, -0.0527876578f, -0.0810403228f, -0.0602512136f,
    0.0519673079f, -0.0858800486f, -0.0478477553f, -0.0458305478f, -0.0504357368f, -0.0141255939f, 0.011542269f, -0.0592814647f,
    -0.0663342699f, 0.0432643108f, -0.0190583356f, -0.00192134595f, 0.0875790343f, 0.000971901638f, 0.0523390733f, -0.122641079f,
    0.018115893f, -0.0415653884f, -0.0463622212f, -0.0849961564f, 0.0305052698f, -0.0155856898f, 0.032097742f, -0.0257917847f,
    0.0647736341f, 0.0153495995f, 0.0265878495f, -0.054266274f, -0.0372240022f, -0.00250658835f, 0.0228717458f, -0.0308636297f,
    -0.0521830656f, 0.0734166503f, -0.0321747474f, -0.0589652546f, 0.023022281f, -0.0194774717f, -0.0431697592f, -0.0632940382f,
    0.0233917478f, 0.00933388248f, 0.0109749865f, -0.00175229681f, -0.0599752031f, -0.0636448935f, 0.0736831874f, 0.00202795351f,
    0.0237638373f, -0.0212150086f, 0.0643082634f, 8.87892966e-05f, -0.00728844246f, -0.0303243082f, 0.0721857846f, 0.016475467f,
    -0.0402095914f, -0.0184959248f, -0.0242150296f, 0.00281517534f, 0.0278252047f, 0.055895932f, 0.0331687666f, -0.0553664565f,
    -0.0670379251f, -0.0238318238f, 0.0324861407f, 0.0481686257f, 0.0122266756f, -0.0261904951f, 0.0606385022f, 0.0603064708f,
    0.0328612924f, 0.0592728741f, 0.0778021216f, 0.0630167797f, 0.0878324881f, -0.00871175341f, 0.0618804693f, 0.098703146f,
    0.0841524825f, -0.0146384379f, 0.0430960357f, -0.0147851957f, 0.0344044045f, -0.00356749678f, -0.065411821f, -0.0633265227f,
    -0.17907992f, -0.10038095f, -0.154760212f, -0.0226743463f, 0.0795205608f, 0.121707775f, -0.0101315025f, 0.00802000798f,
    0.0429376177f, 0.0264110379f, -0.0561515242f, 0.00683842227f, -0.0769016147f, 0.0166836139f, 0.0283825956f, 0.0773547888f,
    0.0696583986f, 0.206006169f, 0.106983684f, 0.0676697865f, 0.0607325695f, 0.0599476099f, 0.0484303571f, 0.0196050368f,
    -0.0798142701f, -0.105321892f, -0.0433213748f, 0.0889645442f, 0.166230515f, 0.175709128f, 0.110850461f, 0.148042515f,
    0.141502693f, 0.0809543282f, 0.070185408f, 0.097198911f, 0.0109842382f, 0.0425254516f, 0.000919033366f, 0.0214030836f,
    -0.041027721f, 0.08136902f, -0.0350351296f, 0.00668144738f, 0.0322557539f, 0.0254912004f, 0.132841483f, 0.189236954f,
    0.170433953f, 0.130862266f, 0.149823189f, 0.199970156f, 0.136979595f, -0.0128199207f, 0.0200535022f, 0.0241552442f,
    0.0482282788f, -0.0026251094f, -0.094070591f, 0.0190084055f, 0.0354090668f, 0.0793020502f, -0.0538743101f, 0.061434526f,
    0.0630277246f, 0.144698605f, 0.0385479815f, 0.135157377f, 0.00165629794f, -0.00622260943f, -0.00502985902f, -0.0413639769f,
    -0.027078215f, -0.0209150314f, -0.0201636553f, 0.0338821635f, 0.0497066304f, 0.0989873856f, 0.000802597904f, -0.0629894063f,
    -0.0874382183f, -0.0496944599f, 0.0667424724f, -0.00153360411f, -0.0262690857f, -0.0728368238f, -0.0168590229f, -0.00560376048f,
    0.0344786346f, 0.0546846837f, -0.00441665761f, -0.0321845934f, -0.0777423531f, -0.129607901f, -0.00566729065f, 0.0230517704f,
    -0.0489022322f, -0.113013402f, 0.00531848939f, 0.00430137524f, -0.0373434052f, 0.0264623165f, -0.0884324163f, -0.0442783087f,
    -0.0781318918f, -0.079392381f, -0.00187627226f, -0.0990929306f, -0.041710794f, -0.0310305525f, 0.0198728163f, -0.0573948212f,
    0.0180221982f, -8.89697912e-05f, 0.0430887863f, 0.0359565355f, -0.07983426f, -0.0521567091f, -0.0756893158f, -0.0230338592f,
    -0.0871141553f, -0.0935674608f, -0.0490787216f, 0.0231534876f, -0.106700107f, -0.0249498617f, 0.0189980865f, -0.0348305404f,
    0.0500823967f, 0.0075391843f, 0.11931207f, 0.0826907158f, 0.126860932f, 0.0964411944f, 0.0360275321f, 0.191097856f,
    0.0907144919f, 0.000809384801f, 0.101518832f, -0.028610209f, -0.101107076f, -0.0856867507f, 0.0345612392f, 0.00774053764f,
    0.045971822f, -0.0922737643f, -0.0740188211f, -0.102472916f, -0.036625471f, 0.0673661456f, 0.167869166f, 0.168085366f,
    0.0201670565f, 0.143708646f, 0.138297185f, 0.142125249f, 0.267376661f, 0.0845923573f, -0.0387233756f, -0.139184132f,
    -0.066091463f, 0.109124094f, 0.113449164f, 0.187066138f, 0.0887953714f, 0.246447936f, 0.145778313f, 0.229798689f,
    0.229802459f, 0.137665287f, 0.115495801f, 0.189096302f, 0.236306816f, 0.30921945f, 0.240599543f, 0.239831239f,
    0.139022738f, 0.123358019f, 0.118443266f, 0.118601054f, 0.0724786893f, -0.162209466f, -0.080526799f, -0.256785154f,
    -0.116610549f, 0.125403956f, 0.159224063f, 0.212187365f, 0.288569629f, 0.213416472f, 0.186489537f, 0.0931245536f,
    0.094022572f, 0.123898946f, 0.145331487f, 0.0580640025f, 0.0657456145f, 0.146403447f, 0.11495053f, 0.0329816192f,
    0.0203749239f, 0.0350900367f, 0.0750610903f, 0.0110780876f, -0.000312620425f, -0.0439126454f, -0.00310468045f, 0.0106015187f,
    0.0379202962f, 0.00321665802f, 0.0301048402f, 0.0443272591f, 0.0378429331f, 0.062462192f, -0.0760149807f, -0.0775355473f,
    0.0298068263f, -0.0641508624f, -0.0434812419f, -0.0186276529f, 0.0349933431f, -0.12830101f, -0.104649112f, -0.0300413314f,
    -0.00988610275f, 0.00260831486f, -0.0507604778f, -0.0178599637f, -0.0776916742f, -0.0583690517f, -0.0643745512f, -0.10186889f,
    -0.0616012514f, -0.0938598886f, -0.134982198f, 0.0118351188f, -0.0311714858f, -0.0792143121f, -0.0453071333f, 0.0071890098f,
    -0.0747902989f, -0.0626698658f, -0.0581265762f, -0.0179186761f, -0.0255794618f, -0.0631832853f, -0.0823703483f, -0.0428956896f,
    -0.0545711927f, -0.103746578f, -0.060941942f, -0.0383752137f, -0.0171640962f, -0.0945985392f, 0.0239308979f, 0.00441040983f,
    -0.0306103956f, -0.12642625f, 0.0453983769f, 0.105950117f, 0.0781408399f, 0.0334785543f, -0.0939431265f, -0.0271008238f,
    0.0111506898f, -0.019173665f, 0.0178617109f, -0.0854843482f, -0.0161677543f, 0.0759620816f, -0.0299141724f, -0.00601076009f,
    -0.208861545f, -0.0919532031f, -0.0472369194f, -0.0646357983f, 0.00106262974f, 0.106272392f, 0.163722575f, 0.197411746f,
    0.0582343526f, -0.0418461859f, -0.0647943169f, 0.00343543454f, 0.0525707453f, -0.0065892511f, -0.179994479f, -0.0999345258f,
    -0.0659038499f, -0.0382345356f, -0.135631919f, -0.0169210415f, -0.000636921206f, -0.090416424f, -0.0228003357f, -0.00471249921f,
    0.174978435f, 0.109777071f, 0.0952884406f, 0.00714693498f, 0.10548272f, 0.105950713f, 0.076230064f, 0.0536680855f,
    -0.00875094533f, 0.0186513122f, 0.0177730452f, 0.0345062651f, -0.0434595607f, 0.0939143524f, 0.0569303706f, 0.0814000815f,
    0.0957362801f, 0.0241233762f, 0.0718644112f, -0.0279652476f, 0.0702026188f, 0.0535125323f, 0.082669124f, 0.0960438326f,
    0.152177125f, 0.067248717f, -0.00911901519f, 0.0101883709f, -0.010515322f, 0.0978044569f, -0.102855831f, -0.0870294049f,
    -0.0831075609f, -0.135294631f, -0.0479778871f, -0.0919655263f, -0.0783819482f, -0.0325323939f, 0.0461848304f, -0.00649422221f,
    0.0472778752f, -0.0715275705f, -0.03641738f, 0.0904322937f, 0.0732648745f, 0.0711524114f, -0.0227220934f, 0.100337967f,
    -0.0341749117f, -0.0283804946f, 0.0448358431f, -0.0120567922f, 0.0443635806f, -0.0284246542f, 0.0235207193f, 0.0444339439f,
    -0.0478149764f, 0.0649034008f, -0.0556858964f, -0.0408187397f, -0.0887573212f, -0.0474358127f, -0.0670366287f, 0.064951241f,
    0.0583164692f, -0.0191303305f, -0.0353359617f, -0.0836242586f, -0.0428195782f, 0.0480468534f, 0.0501219742f, -0.0287717804f,
    -0.0402775109f, 0.0378814824f, -0.0284473505f, -0.0668756589f, 0.0577030927f, -0.0807148814f, 0.0234536044f, 0.062452592f,
    -0.0766805187f, -0.0292288028f, -0.0432495102f, -0.0103771975f, -0.0839661658f, 0.0214697253f, -0.017436346f, -0.0794440135f,
    -0.0801374316f, 0.00607902603f, 0.188571066f, 0.156948492f, 0.0248208866f, -0.103983305f, 0.092062965f, -0.00668583252f,
    0.0370465778f, 0.0314330161f, -0.0870652422f, 0.0178235359f, -0.0481059812f, -0.0879889354f, 0.123891763f, 0.0540284142f,
    -0.0239358973f, -0.0843361765f, 0.00755140744f, -0.00210527889f, -0.0836408585f, 0.0684912428f, 0.0165404826f, -4.79720511e-05f,
    -0.0410654545f, -0.0500741601f, 0.0410629809f, 0.0512480326f, 0.108606845f, 0.129879445f, 0.0761765391f, 0.0365130939f,
    0.141796574f, 0.109153748f, 0.137432262f, 0.0988200456f, 0.148535714f, 0.157580599f, 0.0156598464f, 0.0217680316f,
    0.00710685737f, 0.105481103f, 0.153126732f, 0.151796326f, 0.189021036f, 0.0557832494f, 0.188414663f, 0.106254779f,
    0.0266974382f, -0.0388149545f, 0.0706255063f, 0.135816902f, 0.179245502f, 0.135623679f, 0.0761283338f, 0.00150774885f,
    0.0639320388f, 0.00555014238f, -0.00522281555f, -0.0220292974f, -0.0416126624f, 0.0348927826f, -0.0878816172f, -0.0419347025f,
    -0.155589342f, -0.214787602f, -0.0790226832f, -0.0660257563f, -0.0669256225f, -0.0105619431f, -0.0187897459f, -0.052189108f,
    -0.0429878347f, -0.0630727038f, 0.0352564193f, -0.0114966119f, 0.0658327565f, -0.0771679878f, -0.0127904052f, 0.0282828379f,
    0.0405019447f, 0.0744680688f, 0.0099640768f, 0.0248346906f, -0.0636252984f, 0.0242934208f, 0.012848136f, 0.0860168859f,
    0.0809117258f, 0.0278438125f, 0.0174883399f, 0.0555861108f, 0.0657762736f, -0.0743061528f, -0.0514699817f, -0.0560744703f,
    -0.0903450698f, 0.024594523f, -0.0139432149f, -0.0782857165f, 0.031605009f, -0.0658394843f, -0.0425893553f, -0.0652366504f,
    -0.0650745481f, -0.117028549f, -0.0260728374f, -0.00608465867f, 0.0214686729f, -0.0732354075f, -0.103548229f, 0.0311123729f,
    0.0235858653f, -0.066867128f, 0.0236757807f, -0.050389383f, 0.029216012f, -0.114864513f, -0.0319092162f, 0.0227152742f,
    0.0336766131f, 0.0206202064f, -0.0612173826f, -0.113639951f, -0.0487572998f, -0.0277368594f, -0.00929403212f, -0.0696138144f,
    -0.0529355407f, 0.0762481689f, 0.0926867947f, -0.0308216438f, -0.0533080287f, -0.170950189f, -0.0267059766f, -0.0159758516f,
    0.0552701689f, 0.00194756559f, -0.108510628f, 0.015362408f, 0.0678731427f, 0.0285140052f, 0.0356170274f, -0.0896007419f,
    -0.107543573f, -0.0313125588f, 0.0227131564f, 0.146541297f, 0.109239854f, -0.0186284129f, 0.0898032859f, 0.0179181173f,
    0.132377431f, 0.191226467f, 0.154461697f, 0.0431414433f, -0.109174877f, -0.194011018f, -0.13530916f, -0.0490124896f,
    -0.0537678599f, 0.00638548424f, -0.131462291f, 0.0316326432f, 0.03723225f, 0.0932314321f, 0.140134528f, 0.102752797f,
    0.0525696613f, -0.028504435f, 0.0306790695f, -0.0215114169f, -0.0778056979f, -0.125672251f, -0.0406251736f, -0.05762266f,
    0.0205988344f, -0.0189531799f, -0.0231779143f, 0.0190467276f, 0.00160907023f, -0.0191794839f, -0.0274953581f, -0.0221468229f,
    -0.0078946678f, 0.0358215012f, -0.0016213312f, -0.0355004072f, -0.0340995789f, -0.0435654707f, -0.0575086884f, -0.0102478834f,
    0.0474697314f, 0.0113868369f, 0.0183825437f, 0.0120265447f, 0.0252577178f, -0.0250034276f, -0.00423334073f, -0.0450962856f,
    -0.0661008731f, 0.0422629528f, 0.0234031975f, 0.045442421f, -0.0202659518f, 0.0632336214f, -0.0409176201f, 0.105948582f,
    0.0819239169f, 0.0930176079f, 0.0185043532f, 0.0138334688f, 0.0462025814f, 0.0089684613f, -0.0192995295f, 0.0598626472f,
    -0.0453899316f, -0.0158507675f, 0.0496404283f, 0.0314207561f, -0.0220899303f, 0.0106139472f, -0.0613394678f, 0.0228172615f,
    -0.0104745626f, 0.0376421362f, -0.0237239078f, 0.00516631501f, -0.036576543f, 0.0912772492f, -0.00671156216f, 0.0425394811f,
    -0.0464105345f, 0.0645452142f, 0.0264506191f, -0.00637830002f, 0.0149614206f, -0.00677348906f, 0.0419399589f, 0.0584924407f,
    -0.0382289216f, -0.0232730769f, -0.00409960793f, 0.0164087377f, 0.012301988f, -0.0190349091f, -0.0109091802f, 0.0644804984f,
    0.0412079543f, -0.0285510421f, -0.039014332f, -0.0185590386f, 0.0486832783f, 0.035689842f, -0.0110242777f, -0.0495234616f,
    -0.0233453605f, -0.0359740704f, 0.00434170663f, -0.00318558374f, -0.0279474594f, -0.0553608984f, 0.029151842f, 0.126245797f,
    0.033026807f, 0.204367489f, -0.0744143799f, -0.0836654752f, -0.0321403071f, 0.115367308f, -0.0281631798f, -0.0729260221f,
    -0.212666065f, -0.0653844997f, -0.0155285206f, -0.107913487f, 0.00927999243f, 0.0176495668f, 0.0282075703f, -0.0140598165f,
    -0.00448078802f, 0.16035977f, 0.0456030965f, -0.0253575295f, -0.064034164f, 0.0652717352f, 0.140882254f, 0.0183738489f,
    0.0313319378f, 0.0944547355f, 0.119898461f, 0.155530214f, 0.149988204f, 0.0674161986f, -0.00898622349f, -0.0204824973f,
    0.0135881323f, 0.160134897f, 0.145307794f, 0.0619095936f, 0.081055589f, -0.0583802052f, 0.0157821868f, -0.0561432466f,
    0.0693185404f, 0.140831351f, 0.164843172f, 0.151870281f, 0.128479496f, 0.0898680389f, 0.112450607f, 0.0115605518f,
    0.145179123f, 0.038576141f, -0.0157283992f, 0.0705019161f, 0.030752534f, 0.000571300392f, -0.0043252972f, -0.0415976681f,
    0.00882161036f, -0.0270492043f, 0.0196037963f, -0.0639385432f, 0.0032058584f, 0.0343253016f, 0.0583067089f, 0.058006268f,
    0.0531704947f, 0.0205688644f, 0.0438453667f, 0.0655694231f, -0.0152591309f, 0.0702504069f, 0.00795492623f, -0.0282517914f,
    0.0342323929f, -0.090390414f, 0.0439489335f, 0.0168340318f, -0.0130719226f, -0.0254964661f, 0.0716528594f, -0.0503952689f,
    0.0453126356f, -0.0368685052f, -0.0586530603f, -0.0126528889f, 0.046422787f, -0.0035811041f, 0.0298227165f, -0.102410696f,
    -0.0594074018f, -0.0817688778f, -0.0271766186f, 0.0152981188f, -0.0478090458f, 0.00198084069f, 0.0237703659f, -0.0839415267f,
    -0.0759197399f, -0.00893998798f, -0.0483705029f, -0.0467525162f, -0.0561612248f, 0.0158844162f, -0.020412486f, 0.0421270616f,
    -0.0934131071f, -0.115184397f, -0.000495486427f, -0.0949243605f, -0.0457316637f, -0.0907340571f, -0.0508288965f, -0.013712774f,
    -0.0521441549f, -0.111978255f, -0.0491653271f, -0.0109146135f, -0.0710992217f, -0.109092779f, -0.094639264f, -0.102705546f,
    0.0143875219f, -0.0109197702f, -0.0355961286f, -0.00302691362f, -0.0124564655f, -0.0722414255f, 0.0462399349f, 0.0914115831f,
    -0.132388294f, -0.00787940342f, 0.0673390701f, 0.0310409218f, 0.0835620984f, -0.0942837447f, 0.069644779f, -0.0802050009f,
    0.0436984077f, 0.00915317517f, 0.0122476211f, 0.0294716638f, 0.0954600945f, 0.111608118f, 0.0669760481f, 0.0725682154f,
    0.0416828059f, -0.0207222383f, -0.112845019f, -0.00809737854f, 0.0561058372f, 0.0916259587f, 0.0401122645f, 0.139736146f,
    0.105818845f, 0.0907528475f, 0.0206932072f, 0.173133105f, -0.0787510201f, 0.0156921037f, -0.131833211f, -0.0501235053f,
    -0.101746507f, 0.0234589558f, -0.0324018598f, 0.0237711221f, 0.00426140241f, 0.140709773f, -0.00312315929f, 0.0130206002f,
    0.0949427038f, 0.0697761178f, -0.00878493302f, 0.00970608275f, 0.0209469479f, -0.091490522f, -0.0111242738f, 0.0967873335f,
    -0.00772110606f, 0.0257884078f, -0.0689021349f, 0.0741796345f, 0.0464400351f, 0.0534239896f, 0.00506318267f, 0.114068657f,
    0.16530329f, 0.12859565f, 0.0771349072f, 0.0491946898f, 0.124188207f, 0.0809866413f, 0.0130275851f, -0.0683663338f,
    0.0926186815f, 0.0763373226f, -0.0390515141f, -0.13661404f, -0.142547861f, -0.220422179f, -0.103963189f, -0.0770033076f,
    -0.13823086f, -0.0757425502f, -0.0999207422f, -0.00161993341f, -0.0899708569f, -0.128427118f, 0.0359804891f, -0.00314034708f,
    0.0285281092f, -0.0603151545f, -0.0383381359f, -0.0150164021f, -0.0685501024f, 0.0424529389f, -0.0508132689f, 0.0108401971f,
    -0.00803390052f, -0.0454679988f, -0.0677611902f, -0.080195725f, 0.0165026858f, -0.0028952267f, 0.0223802384f, 0.0227824245f,
    -0.0831563994f, 0.0376537815f, 0.0344789959f, -0.0367788263f, -0.0779341236f, -0.019894233f, -0.00630966574f, -0.0637663975f,
    -0.0901741311f, -0.0502114855f, -0.0309047215f, -0.0434154347f, -0.0796917155f, -0.102774434f, -0.0760386959f, -0.0130396448f,
    0.032174062f, -0.0146496445f, -0.0344406068f, -0.0362929516f, -0.0576559864f, -0.0879542679f, -0.0350962169f, -0.0516602322f,
    0.0176617f, -0.00936516561f, 0.00268641836f, -0.0449822582f, -0.00419825362f, 0.0853666663f, 0.151733294f, -0.0947413817f,
    -0.21613574f, -0.0203052536f, -0.203913406f, 0.175702959f, 0.0794495642f, 0.0892028511f, -0.164453506f, -0.242805868f,
    0.0429658666f, -0.0674163848f, -0.065339312f, -0.152977362f, -0.136228204f, 0.0260625258f, -0.0595416501f, -0.154661283f,
    -0.139284983f, 0.0264672954f, 0.00897572283f, 0.103687614f, 0.0595701672f, 0.139066726f, 0.0950828269f, 0.0832369402f,
    0.101075478f, 0.0409864224f, -0.0758879557f, -0.048347991f, 0.0528939068f, -0.036265593f, -0.0190297253f, 0.0510091893f,
    0.173183233f, 0.0634057969f, -0.0187307764f, -0.0216414817f, 0.0364938974f, -0.00438336516f, -0.0492371321f, -0.0913314f,
    0.0360970199f, 0.0435672216f, 0.0660242736f, 0.0273111816f, 0.0803890079f, 0.0244453903f, 0.0298748575f, 0.03605064f,
    -0.0307380874f, 0.048855599f, 0.126079813f, 0.0421629138f, 0.0748415664f, -0.00261074444f, 0.0534966625f, 0.0187997706f,
    0.0478050075f, 0.0834105536f, -0.0119330557f, -0.0537140928f, 0.0316723026f, 0.0249781236f, -0.0423850268f, 0.0367264785f,
    -0.0370248407f, 0.049121961f, -0.0941332951f, 0.0452262983f, -0.0763339847f, -0.0510204695f, 0.0461649038f, 0.0657047853f,
    0.0447060503f, -0.0135250837f, -0.0379711688f, -0.0622893833f, 0.0151486211f, 0.0395967923f, -0.0731932521f, -0.0813099593f,
    0.00961561315f, -0.0614255331f, 0.0251970924f, -0.041565273f, 0.0146854762f, 0.0716565773f, 0.0271054078f, -0.00335548981f,
    -0.0409626439f, 0.0547265783f, 0.0219269786f, -0.0113154128f, 0.00469685392f, -0.0127766551f, -0.00163882854f, 0.0709654465f,
    -0.0415288471f, -0.0332250223f, 0.0490923338f, -0.0457038432f, -0.027276041f, -0.00536411768f, -0.0585944504f, 0.0238595679f,
    -0.00435876939f, 0.00687546562f, -0.00381194288f, 0.0357354917f, -0.105796263f, -0.0229089204f, -0.10688509f, -0.057332132f,
    -0.095532462f, 0.0271032639f, -0.0565782227f, -0.0347740836f, -0.0887092948f, 0.0302011333f, 0.0231806207f, 0.0464973301f,
    -0.0266764425f, 0.0353002511f, -0.0703566447f, -0.0795820728f, -0.0637483597f, -0.0494202487f, -0.0578292646f, 0.0376395844f,
    -0.0550783947f, -0.0317912512f, -0.0686603934f, -0.0641069114f, -0.0468189046f, -0.106168836f, -0.0758092031f, -0.0274452791f,
    -0.112053096f, -0.108366504f, 0.0287358332f, -0.00210179156f, -0.0328953452f, -0.0924720392f, -0.00498299114f, 0.0580287501f,
    0.028716132f, 0.0712794811f, 0.189783037f, 0.235867143f, 0.181864291f, 0.226047948f, 0.105558112f, 0.136072025f,
    0.108415119f, 0.0977321416f, 0.0743628293f, 0.149910852f, 0.0878146961f, 0.0905334279f, -0.0173143819f, -0.0849602297f,
    -0.0777063295f, 0.0509665124f, 0.0228378568f, -0.0662792102f, -0.127838075f, -0.00639768085f, 0.0759009793f, 0.0604576133f,
    0.0202564187f, -0.00213279482f, -0.106459104f, -0.0405849442f, -0.111329004f, -0.0115260864f, 0.0223765299f, 0.0268464833f,
    0.00130201271f, 0.106376767f, 0.0282752942f, 0.056193538f, 0.035041973f, 0.0433199033f, 0.0816992819f, 0.0996886268f,
    0.16753684f, 0.131397337f, 0.0922974423f, 0.125176713f, 0.0967874676f, 0.0912386701f, 0.047552865f, 0.0336038917f,
    0.0589023493f, 0.0359259732f, 0.10532926f, 0.0785592347f, 0.0255015809f, -0.046038352f, 0.0119632762f, 0.0237528887f,
    -0.0323670991f, -0.00861718319f, -0.0101335477f, 0.0463477485f, 0.0430553444f, 0.0776385665f, 0.126706228f, 0.075455673f,
    0.0365750641f, 0.00779302325f, 0.110082783f, -0.0167507399f, 0.0557151623f, -0.035535641f, -0.0505803041f, -0.0908752009f,
    -0.0928937569f, -0.0520602725f, 0.0133403921f, 0.0316042006f, -0.0916715637f, -0.0574724078f, 0.00784884859f, -0.10619434f,
    -0.125942349f, 0.0134234382f, -0.104396477f, -0.0991952643f, -0.114017628f, -0.0256611779f, -0.0454572104f, -0.0212081578f,
    0.00698809652f, -0.0426115021f, -0.0965490118f, -0.0867930204f, -0.118194908f, -0.0631170124f, -0.106031999f, -0.0231438354f,
    -0.117698438f, -0.0899958238f, 0.0353211835f, 0.0165641904f, 0.00351978769f, -0.0381127596f, -0.0727663338f, -0.109616965f,
    -0.0383822694f, -0.0347125717f, -0.0020733187f, -0.028684685f, 0.0249025058f, 0.0117171742f, 0.017776167f, -0.02081104f,
    0.0123598753f, 0.0663807243f, 0.0700499192f, 0.0602499098f, -0.10719844f, -0.186182573f, -0.148214296f, 0.00145889889f,
    0.102572151f, 0.064128451f, 0.10964828f, 0.0391436517f, -0.00187061564f, -0.047180485f, -0.0665897205f, 0.068338871f,
    0.0566704795f, 0.0342348181f, 0.0804112703f, 0.148855433f, 0.194287688f, 0.106376603f, 0.0746412948f, 0.203450829f,
    0.135966748f, -0.00739729358f, -0.00901148748f, 0.0396464802f, 0.156097412f, -0.0247242078f, -0.0758635402f, -0.14753592f,
    -0.0404273942f, -0.0149561772f, -0.0909636542f, 0.0453938507f, 0.079693526f, -0.0254702903f, -0.0522965193f, 0.0239298493f,
    0.0456092507f, -0.000950623245f, 0.066308178f, 0.0514251553f, 0.0364674442f, 0.010932087f, 0.0443202406f, 0.0353647582f,
    0.0817361325f, 0.017348662f, 0.150088653f, 0.0340414718f, 0.128677592f, 0.0737455785f, 0.136618316f, 0.0104359752f,
    -0.042895887f, 0.0641490743f, -0.0438766219f, -0.0171768125f, 0.0340587795f, 0.0990401283f, 0.0584479906f, -0.0585650206f,
    0.00489811273f, -0.058858797f, 0.0251518171f, 0.0829963684f, -0.0212364346f, 0.0870248675f, 0.0795336664f, 0.0843490809f,
    0.0799764246f, 0.0329299718f, 0.0508049689f, -0.0533004403f, -0.120193526f, -0.0273385849f, -0.0461964943f, -0.0485994071f,
    -0.0909305736f, -0.0122064054f, -0.0423038751f, 0.0591693558f, 0.0428438f, -0.0551433824f, -0.0585016608f, -0.0396786332f,
    0.0378415957f, 0.0620086044f, 0.0174938291f, -0.0879320204f, -0.0684629157f, 0.0265002009f, -0.0439547598f, -0.00950604212f,
    -0.0143890874f, -0.0278649554f, -0.0748026595f, -0.0506171212f, -0.0663950369f, -0.0618674345f, -0.0285506379f, 0.00599225331f,
    -0.0979497954f, -0.0866907388f, -0.0515576303f, -0.0368497074f, -0.118084587f, 0.018440159f, -0.0156590678f, -0.0439489521f,
    -0.100296542f, -0.0244059302f, -0.0285274498f, -0.033729434f, -0.0747411922f, -0.0550555661f, -0.0642241091f, -0.0463697426f,
    -0.110156335f, 0.0151009876f, -0.0620997027f, 0.022475848f, 0.0179613419f, 0.00747704133f, -0.0296740234f, 0.0844453797f,
    0.0648726597f, -0.0788953081f, 0.0284751114f, 0.101468451f, -0.193562865f, -0.223711595f, 0.00276417146f, 0.122804619f,
    0.173425987f, 0.194695517f, -0.0316908956f, 0.144099295f, 0.0142461695f, -0.00485894736f, 0.155513048f, 0.0721994415f,
    0.166300774f, 0.0805963725f, 0.101521164f, 0.0336892083f, -0.013459295f, -0.0666461885f, -0.0179685019f, -0.0418416597f,
    -0.0325109959f, 0.000725766702f, -0.0547520109f, -0.0590350926f, -0.11579819f, -0.0643429309f, -0.00099876849f, 0.00682215206f,
    0.0488698408f, -0.00744895218f, -0.0772475228f, -0.113368183f, -0.0231776331f, -0.0797278211f, -0.118807442f, -0.0855513364f,
    -0.0760246366f, 0.0207499675f, -0.00453880895f, -0.0271503422f, 0.0290035475f, -0.0199657362f, -0.0327424109f, 0.0265568439f,
    -0.0595862418f, -0.0240788069f, -0.00847618748f, -0.0187404491f, -0.0447071344f, 0.00690057222f, -0.0489927381f, 0.0332751758f,
    -0.0213870723f, -0.072471194f, -0.0738023296f, -0.0535091311f, -0.049826242f, -0.00723664556f, -0.00795599259f, -0.014958526f,
    -0.0600612126f, -0.0244294554f, -0.0585166775f, -0.0141644543f, 0.0235363711f, 0.0190040767f, 0.0134273302f, -0.0307021551f,
    0.0453150161f, -0.0921784565f, -0.0756278485f, 0.03717307f, 0.00752492994f, 0.0311717987f, 0.0241811946f, -0.0505314991f,
    -0.0279547181f, -0.0557619408f, 0.0418922305f, -0.0174757894f, -0.00913053751f, -0.0174394697f, 0.0229969788f, -0.103657879f,
    -0.0315306373f, -0.0426543318f, -0.0740558058f, -0.0508211069f, -0.0475991592f, 0.0220010821f, -0.0436523035f, 0.0595166944f,
    0.000338282727f, -0.0387140997f, 0.0155106401f, 0.079399243f, 0.0725657493f, 0.0174115952f, -0.00600779848f, -0.00502295885f,
    -0.0436552651f, 0.0551079921f, 0.0875175372f, 0.0841771588f, 0.026969159f, -0.012010321f, -0.0168723911f, 0.0202509463f,
    -0.0316438004f, -0.0212768819f, 0.0195723437f, -0.0171993859f, 0.0419659726f, -0.0249115694f, 0.0361738726f, 0.0904941186f,
    0.072073698f, -0.0488845333f, -0.0485858507f, -0.0106777037f, 0.0440342613f, -0.00603616005f, -0.0982483625f, -0.0303888153f,
    -0.0996964723f, 0.0901147723f, -0.0257883612f, -0.0425008684f, -0.098925665f, -0.135474905f, -0.0340954289f, 0.0511947945f,
    0.099686116f, -0.0443185642f, -0.0282962099f, 0.0170434006f, 0.0927714258f, -0.0393292233f, -0.1323459f, -0.131772518f,
    -0.0435124561f, -0.0217798706f, 0.0514402278f, -0.0990562215f, -0.0314078629f, 0.0421570763f, 0.0472426228f, 0.196663037f,
    0.206792191f, 0.167717755f, 0.183758423f, 0.138465837f, -0.0219977573f, 0.0212073214f, -0.128738359f, -0.0694099665f,
    -0.0270426106f, 0.0139577677f, -0.0256978981f, 0.0730276927f, 0.106504634f, 0.117218368f, 0.0772296041f, 0.052690804f,
    0.0528944135f, 0.01777854f, 0.0408571586f, -0.0753841996f, 0.0464415625f, -0.0353980958f, 0.0895524919f, -0.0149780847f,
    0.0149716642f, 0.0104057556f, -0.00205817888f, -0.0837353766f, 0.0420519859f, -0.0144950468f, -0.0166742634f, 0.0279561747f,
    -0.0427568294f, 0.0115184505f, -0.0499882326f, -0.0730689988f, -0.0408109687f, 0.0538039431f, -0.0276102889f, -0.0693679526f,
    0.0630846769f, -0.0207215268f, 0.0866807699f, -0.00338263647f, 0.0643384233f, 0.0691097379f, 0.0407778621f, 0.0338645168f,
    -0.0441743433f, -0.0527532473f, -0.0584668703f, -0.041358307f, -0.0159413889f, -0.0383146815f, -0.0530788638f, -0.0581367873f,
    0.0536366217f, 0.0190036967f, -0.0026793431f, 0.0533628017f, 0.016254412f, 0.0353095829f, -0.0872745141f, 0.0135921994f,
    -0.0323522501f, 0.0467664748f, 0.0272824857f, -0.0371186063f, 0.0544860438f, 0.0535966977f, -0.0405227654f, -0.00959726702f,
    0.0412922762f, 0.038109459f, 0.0256327149f, 0.0490574874f, -0.0758898556f, -0.0211188477f, -0.053778246f, -0.0702073276f,
    -0.0925269872f, -0.0391634926f, -0.069508642f, -0.0940027535f, 0.0588229448f, 0.0130994041f, -0.0312569179f, -0.0470079929f,
    -0.0936780348f, -0.0208829921f, -0.0486292355f, -0.0535381287f, 0.00593302958f, -0.0738958418f, 0.000642340281f, 0.0234251302f,
    -0.0363316163f, 0.00275333296f, 0.0518748835f, 0.00395744853f, 0.0520519055f, -0.0342870243f, 0.00824724231f, 0.0251503307f,
    0.0156678539f, -0.0838601068f, 0.0501028076f, 0.00374628557f, -0.0738437697f, 0.0101785203f, -0.0495042093f, -0.0816435963f,
    -0.108149499f, 0.0771053806f, 0.073242113f, 0.18582727f, 0.226883441f, 0.236386687f, 0.0982914418f, 0.0704990476f,
    -0.00964402873f, 0.0257696081f, 0.0532618836f, 0.0650715083f, 0.130302727f, -0.0134871621f, 0.0715852901f, -0.0321322978f,
    0.0371146202f, 0.106072553f, -0.00560678914f, -0.0744452477f, -0.00340713351f, -0.0786865354f, -0.0416748077f, -0.0636186004f,
    0.0186789893f, -0.016922418f, -0.084091194f, -0.0170574579f, 0.039638374f, 0.0273952596f, 0.0293343607f, -0.048711963f,
    0.0320569165f, -0.0557856336f, -0.0114551391f, -0.042788364f, -0.0320456028f, 0.035531491f, 0.0132954391f, 0.0588585921f,
    0.00384807773f, -0.0885226876f, -0.0273492616f, -0.000856465078f, 0.00210593641f, 0.00634432724f, -0.0396401584f, -0.0902005807f,
    -0.0241451208f, 0.0294445045f, 0.0684509948f, -0.0282612294f, -0.0139843561f, 0.0145118972f, -0.0617621727f, -0.0643382892f,
    0.0247726999f, 0.0358856618f, 0.0166747607f, 0.0718061402f, 0.0369349159f, -0.0357066207f, -0.0182083715f, -0.0307771005f,
    -0.0541201271f, -0.0894612819f, -0.122306481f, -0.00490541989f, -0.0673095435f, -0.0756563768f, -0.128534734f, 0.0209235772f,
    0.0303323455f, -0.0658104643f, -0.0678223148f, -0.0116318772f, 0.0188473351f, -0.0849008337f, -0.0263759196f, 0.0412257798f,
    -0.0163380839f, 0.0581569001f, -0.030018216f, 0.00934091303f, -0.0223378502f, -0.0162782874f, 0.0162337814f, 0.0228760764f,
    -0.00668186741f, -0.0321305022f, -0.0175601877f, -0.0605881847f, -0.0526824296f, 0.0522323959f, -0.0652561784f, -0.0203831401f,
    -0.00652679056f, -0.100569412f, 0.0343576856f, -0.0622122921f, -0.0851812661f, -0.0389657095f, 0.0395477675f, 0.0464566909f,
    -0.0627391785f, -0.091519095f, -0.0564487986f, -0.0479200445f, 0.047245089f, 0.0456224047f, 0.0340402424f, -0.0132758664f,
    -0.0086434111f, 0.0158340968f, 0.0465502441f, -0.05148663f, 0.0167877041f, -0.0802020729f, -0.0147129521f, 0.0268461052f,
    -0.02326224f, -0.013412552f, -0.0330702215f, 0.118171521f, 0.0438375659f, -0.0357139371f, 0.045557905f, -0.0329769477f,
    0.0398183465f, 0.114754207f, 0.00216325372f, 0.0696722195f, 0.0733655989f, 0.0499449186f, -0.0627422556f, -0.0583595857f,
    0.0212860648f, 0.0288977008f, -0.0856685266f, -0.0433306433f, -0.00895321555f, -0.162124723f, -0.0947016403f, -0.0897888243f,
    0.020206973f, 0.0347878374f, 0.0130621661f, 0.115427554f, 0.147087336f, 0.0311280433f, 0.0841392726f, 0.0154611757f,
    0.102813818f, 0.0183700267f, 0.0431470685f, -0.00678049354f, -0.0538771376f, 0.0281695034f, 0.00027733366f, 0.195414662f,
    0.132359117f, -0.0483563431f, -0.0882198736f, -0.180487975f, -0.147234097f, -0.101289287f, -0.170788437f, 0.0136933271f,
    -0.00656507304f, 0.017041767f, 0.0504205488f, 0.106314555f, 0.0940699279f, 0.00694414089f, -0.0369730778f, -0.0851236805f,
    0.0721155927f, 0.012710887f, -0.0227937177f, -0.0133164655f, 0.0171079338f, 0.0238881689f, 0.118979484f, 0.0769632086f,
    -0.00114324933f, 0.0143109029f, -0.0590695031f, -0.0841290653f, -0.0943874419f, -0.219792217f, -0.157787412f, -0.21562238f,
    -0.153278157f, -0.243734583f, -0.264454573f, -0.289096743f, -0.247386739f, -0.116287209f, -0.198750168f, -0.101341821f,
    -0.0202987771f, -0.0491307266f, 0.00229987479f, -0.00424240623f, -0.105833285f, -0.0721339509f, 0.0366906486f, 0.0196242556f,
    0.0301347226f, 0.0066618179f, 0.0350474194f, -0.018647939f, 0.0880379975f, -0.0725717992f, -0.0172525998f, 0.00901329424f,
    -0.0216583237f, -0.0016167626f, 0.00101655489f, -0.00690616807f, 0.0449601375f, -0.0709758848f, 0.0344384275f, 0.03636197f,
    0.0687060133f, 0.0154486289f, -0.000824869028f, -0.0358756334f, 0.0949620306f, -0.0169091281f, 0.00700355042f, 0.0174051095f,
    -0.0173364114f, 0.0293308217f, -0.0242852084f, -0.000708845502f, 0.109347649f, 0.0832222328f, -0.0410184562f, -0.00682907086f,
    0.0510114916f, 0.0586901642f, 0.0377398357f, 0.0471124761f, 0.0481009334f, 0.000767510035f, 0.0631053299f, -0.0396792218f,
    0.0614278838f, -0.0479873121f, 0.0112543656f, 0.0104099419f, -0.0388654917f, -0.0136633432f, -0.0338470042f, -0.0383529365f,
    -0.0680884644f, 0.0584852658f, -0.0769041181f, -0.0159232486f, -0.0477228425f, -0.0621041879f, 0.0638926029f, 0.167892873f,
    0.0829837471f, 0.0107340617f, 0.0438730046f, 0.0750395656f, -0.0141939232f, 0.0631071329f, 0.0724386945f, 0.0908562168f,
    -0.0609072894f, 0.0166451242f, -0.000850241457f, 0.025211757f, 0.0069779451f, -0.019013172f, -0.0667993724f, -0.0250618644f,
    -0.0861149132f, -0.071387887f, -0.0669107437f, 0.0802682638f, 0.0817405954f, 0.0148221059f, -0.0163921062f, -0.0424299389f,
    0.0332362056f, -0.0289398544f, -0.0308411643f, 0.0309278946f, 0.0187697895f, 0.0594338514f, -0.00422845315f, 0.0570094436f,
    -0.0300423298f, -0.0790813863f, 0.0203145929f, -0.0866135061f, -0.0174722932f, -0.139408663f, -0.0954226479f, 0.134489164f,
    0.0390195362f, 0.104738154f, 0.0571911223f, 0.0961964205f, -0.0588067137f, -0.0528843962f, -0.0440173373f, 0.000211747421f,
    0.0198596902f, 0.0380366631f, 0.0459286124f, 0.033345446f, -0.0109403795f, -0.0244839136f, -0.0695482269f, -0.0335794203f,
    0.025355719f, 0.0613247938f, 0.0577665642f, -0.0314156711f, -0.0404367782f, 0.0662105829f, 0.00483812485f, 0.0529642664f,
    -0.0205114409f, 0.0324491523f, 0.0685528889f, -0.0410964563f, -0.0479966588f, 0.0341626368f, 0.0782349855f, 0.0161039848f,
    0.0215945728f, 0.0414857417f, 0.0148027334f, -0.0423898771f, -0.0508462936f, 0.0245616995f, -0.00889435224f, -0.0513119325f,
    0.0168749169f, 0.0347320661f, 0.0186733846f, 0.0444592349f, -0.0147275468f, 0.00217935233f, 0.0618511103f, 0.0454022214f,
    -0.0487093031f, 0.0655604452f, 0.0414776802f, -0.02230254f, -0.0625211522f, -0.0914978459f, -0.070692949f, 0.0504058264f,
    -0.062110614f, 0.00548930466f, -0.00630954746f, -0.0340265334f, 0.0446019098f, 0.0320522524f, -0.0916723236f, -0.000180471674f,
    -0.0944693759f, 0.0440200828f, -0.00856795162f, -0.0515480489f, 0.019047156f, -0.101813577f, 0.0363120809f, -0.00376339769f,
    -0.0274947081f, -0.0342184454f, 0.0548997521f, 0.0956052765f, 0.111405827f, 0.074311398f, 0.108524166f, 0.0823015422f,
    0.103414252f, 0.153711483f, 0.172813103f, 0.0728110746f, 0.137106717f, 0.0835601389f, 0.0520152859f, 0.0643376634f,
    0.0183290597f, 0.0657544583f, 0.0227698945f, -0.0248645693f, 0.100638032f, -0.0683852658f, -0.13329576f, -0.0723545179f,
    -0.027281614f, 0.0274529736f, 0.101463959f, 0.0651974902f, 0.0316780135f, 0.101719975f, 0.0299206711f, 0.0637176707f,
    0.000461767224f, 0.0301197898f, 0.0900284648f, -0.0391110592f, -0.243562892f, -0.15300189f, -0.199491233f, -0.0482026376f,
    0.0523722619f, 0.146883771f, 0.0032776529f, -0.0423427522f, -0.00904930197f, 0.00467026932f, -0.0136779658f, -0.0728699788f,
    -0.00915816426f, -0.0361124314f, -0.0254141539f, 0.0357393771f, -0.0184570383f, -0.00270726299f, 0.0182144064f, -0.0624188967f,
    -0.0349456966f, -0.0219870284f, 0.0606050305f, 0.0356230028f, -0.0393332131f, -0.0231651179f, 0.0191161949f, 0.0312164258f,
    0.0389515162f, -0.0370543823f, -0.0301731974f, -0.0468381755f, -0.0567010082f, -0.134113669f, 0.00480754534f, -0.0636711344f,
    -0.0137735531f, -0.0854826346f, -0.0275490712f, -0.131550357f, -0.037906304f, -0.0372938104f, -0.0973928943f, -0.106294408f,
    -0.0640831068f, -0.0565318726f, -0.028085025f, -0.00570950517f, -0.0904347301f, -0.104437582f, -0.0456395447f, -0.108858965f,
    0.0051477477f, -0.121562958f, -0.104359604f, -0.0554701835f, -0.133960158f, -0.0567759164f, -0.0484627746f, -0.116807729f,
    -0.0445462652f, -0.0378870405f, -0.0735018924f, -0.0172922611f, 0.00172597659f, -0.0324816778f, -0.0769331232f, 0.0100083333f,
    -0.04552605f, 0.0605747588f, 0.00317197875f, 0.0726829544f, -0.016845163f, 0.033939492f, -0.0448154099f, 0.0847903788f,
    -0.0621064045f, -0.0114515806f, 0.0145532265f, -0.00238883169f, -0.0434961058f, -0.0224779043f, -0.0625663102f, 0.081853196f,
    0.032790456f, 0.0729637891f, 0.0883049518f, -0.0514014922f, 0.0025517703f, 0.0890492201f, 0.0559814461f, 0.000722655794f,
    0.0277171396f, 0.0642505065f, 0.0142942416f, -0.105728209f, -0.0270206258f, -0.0144013399f, -0.111859165f, -0.0556999929f,
    -0.0311291795f, -0.0432117805f, 0.0269364156f, -0.0140629122f, -0.016804263f, -0.0259669274f, -0.0701916069f, -0.0167768244f,
    -0.0868672356f, 0.0529492348f, -0.0786508471f, -0.140192002f, -0.143347099f, -0.103984535f, -0.18419525f, -0.0433476828f,
    -0.101239949f, -0.119959265f, -0.0905404389f, -0.130406424f, -0.0793086216f, 0.0513331071f, 0.120623514f, 0.0960159078f,
    -0.0212159641f, -0.0645082965f, 0.0319126509f, 0.0464811921f, 0.00165976828f, 0.0237885378f, 0.135433108f, 0.032514412f,
    0.0221350621f, 0.0793516859f, 0.229426876f, 0.157414183f, -0.0349933095f, 0.00620299717f, 0.0881178379f, -0.0219862107f,
    -0.0681919158f, -0.00497127045f, 0.0493246913f, -0.0685960799f, 0.0151825938f, 0.0082164444f, -0.0331832618f, 0.105799153f,
    -0.00696953293f, -0.00708478084f, 0.0618630275f, 0.0795012042f, 0.0934858024f, 0.0819018707f, 0.118170656f, 0.211585045f,
    0.256552488f, 0.25923717f, 0.259282112f, 0.20551756f, 0.229115918f, 0.134737805f, 0.170246288f, 0.0527650975f,
    0.055900611f, 0.139784724f, 0.107271202f, 0.153433427f, 0.0605362952f, 0.0546343923f, 0.101134829f, 0.0214281306f,
    0.0107707065f, 0.0280962009f, 0.059729021f, -0.0377855338f, 0.0659051389f, -0.0223957784f, 0.087647073f, 0.0456409156f,
    -0.106901586f, 0.0519846417f, -0.0425383002f, -0.0155810378f, 0.0253609624f, 0.047016792f, -0.0421786308f, -0.0131505122f,
    0.0121886497f, -0.0307261683f, -0.0436954014f, -0.00119774777f, -0.0144197298f, 0.00735997269f, -0.0599055216f, -0.0390292555f,
    0.0372332111f, -0.00959780067f, -0.065143615f, -0.0768211335f, -0.0966156572f, 0.00689194258f, 0.00933532417f, -0.0708223581f,
    -0.0637506545f, -0.0348008797f, -0.0429164246f, -0.0970830694f, 0.029791506f, -0.0576883964f, -0.0517526269f, -0.0886482745f,
    -0.0307738315f, 0.0233243033f, -0.079693228f, -0.0290393662f, 0.00794582628f, -0.0367904529f, 0.0351442583f, -0.112896673f,
    0.00810332969f, -0.0862761661f, 0.0328309834f, -0.0893802419f, -0.046803344f, -0.0224588439f, -0.0440524071f, -0.116090283f,
    0.0285208989f, 0.017776845f, -0.186212718f, -0.0492586158f, 0.0717590675f, 0.128541097f, 0.0616283417f, 0.0458129495f,
    -0.0581289493f, -0.0570855476f, 0.0199169014f, 0.0309841968f, -0.0123387845f, -0.00815917552f, 0.0409142189f, 0.180077106f,
    0.0428354368f, 0.0301033407f, -0.0329868048f, 0.00951444823f, 0.207574904f, 0.240373269f, 0.112357445f, -0.0896458626f,
    -0.129179448f, -0.15839693f, -0.170970321f, -0.0501925275f, 0.0648179501f, -0.0128642656f, 0.0295107234f, -0.0133852055f,
    0.100945324f, 0.0521561913f, 0.0824284926f, 0.0684894398f, 0.0836828873f, -0.0135132689f, 0.00972476043f, -0.0408750698f,
    -0.0890667662f, -0.0683109909f, -0.00259990664f, 0.0466714986f, 0.0388421491f, -0.0132842064f, 0.0244089179f, 0.0233562719f,
    0.0175835826f, 0.0502984412f, 0.0361023843f, -0.0437430702f, -0.0889314935f, 0.01889522f, -0.0427624546f, -0.0267331768f,
    -0.0100166621f, 0.0313235819f, -0.0143699087f, -0.0318226032f, -0.0110991914f, 0.0358067825f, 0.0162044354f, -0.0225684643f,
    0.0279453788f, 0.07507357f, -0.0117216166f, -0.0722968578f, -0.0421109423f, -0.0501354933f, 0.0147406207f, -0.00962291379f,
    0.000464404147f, 0.046138268f, 0.0151284523f, 0.0941056833f, 0.0115472237f, -0.00907889195f, 0.0283115879f, -0.0329355113f,
    0.11627768f, 0.031208301f, -0.0203253757f, -0.0243281201f, 0.0447131433f, 0.0208354015f, 0.0828945264f, 0.0432739407f,
    -0.00642557302f, 0.0237021483f, -0.0453183502f, -0.00460567093f, 0.00852237921f, 0.00798603985f, -0.0706784651f, -0.0425284132f,
    0.0714921206f, 0.0440739244f, 0.0349884667f, 0.0658516884f, -0.0692791194f, -0.07593178f, 0.00606051832f, -0.0792201534f,
    0.019071687f, -0.0758116096f, 0.0589196309f, -0.0292511359f, -0.0317370445f, -0.076777339f, -0.0303646456f, -0.0928800926f,
    -0.0342076197f, 0.0349432603f, -0.00334802503f, 0.0282610506f, -0.0755624473f, -0.0436966904f, 0.0582927316f, -0.0405789427f,
    0.0199407581f, -0.0502278619f, -0.0336540677f, -0.0584381707f, 0.0114644449f, 0.0167939663f, 0.0684181303f, -0.00445592403f,
    -0.067768313f, 0.0228348002f, -0.00943344831f, 0.0132040074f, 0.0760389194f, 0.10165453f, -0.0753110126f, 0.0431613438f,
    0.00472866651f, 0.0084958449f, 0.0137944855f, 0.0401345566f, 0.0652246252f, -0.00891908724f, 0.0366233028f, -0.032459829f,
    0.0162083358f, 0.00390899228f, 0.0268469043f, -0.0151878502f, 0.0156815983f, 0.035798531f, 0.0314188302f, 0.00157075597f,
    0.00244690734f, 0.0975658074f, 0.053416539f, 0.124018773f, 0.136512086f, 0.152490303f, 0.190028429f, 0.130780533f,
    0.182347f, 0.0984369442f, 0.0925691053f, 0.0321488604f, -0.0117725087f, -0.117456585f, -0.183449849f, -0.173227936f,
    -0.206791297f, -0.204036489f, -0.253393441f, -0.187350154f, -0.188050985f, -0.17980288f, -0.118163578f, -0.102977835f,
    -0.11614494f, -0.0481801368f, 0.00743008731f, -0.0237171464f, 0.0501079559f, 0.114636205f, 0.0408281274f, 0.0790576786f,
    0.136053637f, 0.0924158245f, 0.0475886688f, 0.0700405613f, -0.0191294178f, -0.0244653821f, 0.0177793298f, 0.0415887013f,
    -0.0518033057f, 0.0396797769f, 0.0620748773f, 0.0385090224f, -0.0285213254f, -0.0110945888f, 0.0892286077f, 0.0161260497f,
    0.00466567138f, 0.0128004886f, 0.0391652025f, 0.0878368095f, 0.0645848066f, -0.0727086589f, -0.00285174605f, 0.0809557587f,
    -0.0148515124f, 0.0495504439f, -0.0397721082f, 0.0377598293f, 0.00616909936f, -0.0238392036f, -0.0617150813f, -0.0674053729f,
    -0.0596539006f, -0.0744480118f, 0.0063865874f, 0.0523184091f, -0.0444328748f, -0.0362994447f, 0.0150171928f, -0.0832279101f,
    0.0320990756f, -0.0876177475f, -0.0709388256f, 0.0454904325f, -0.00639059907f, -0.00382939703f, -0.0325351022f, 0.0543312319f,
    -0.0516260974f, 0.0353895314f, -0.0313420705f, -0.0389965139f, -0.0264519323f, -0.0365369096f, -0.0982032493f, -0.0254672039f,
    0.0552802719f, -0.0202652812f, -0.0628506243f, 0.033320073f, -0.0857609138f, 0.0334952064f, -0.0473680831f, -0.0289010108f,
    -0.0724765956f, -0.00798518024f, 0.042684257f, -0.00518141501f, -0.0187200364f, -0.0649347603f, -0.020370692f, 0.00169960666f,
    0.0322419442f, -0.0451312326f, 0.0710742548f, 0.138231173f, 0.0750769377f, 0.157190233f, 0.128506899f, 0.131894752f,
    0.121228799f, 0.052922491f, -0.0290805679f, 0.0853470191f, 0.119714424f, -0.0163859539f, 0.18406038f, 0.202285022f,
    0.0983030498f, 0.237827539f, 0.119134322f, 0.0830938369f, 0.0366890095f, -0.0559151396f, -0.047936555f, -0.103833154f,
    -0.0654133931f, -0.0101785241f, 0.0347078554f, -0.00612837402f, -0.0352594182f, -0.105375633f, -0.0815571323f, 0.0895051733f,
    0.0820428357f, 0.15257144f, -0.0283839125f, 0.0385893956f, 0.0729180425f, 0.0968446061f, -0.0311165042f, -0.0593504943f,
    0.101515196f, 0.0205035694f, 0.138477042f, 0.10836117f, 0.184416085f, 0.0847838521f, 0.0149317067f, 0.0676468536f,
    0.0416226424f, 0.0084469039f, 0.0113379043f, -0.0294455439f, 0.0467742868f, 0.0293315109f, 0.0395035297f, 0.0123640001f,
    -0.0960538387f, -0.0479015149f, -0.0270671323f, -0.110755302f, -0.0369052142f, 0.00455985684f, 0.0343156755f, -0.0445353501f,
    0.0183463972f, 0.0287780017f, -0.051895868f, -0.00773767801f, -0.0986492112f, -0.128613025f, -0.172550842f, -0.211257875f,
    -0.0649378523f, -0.166015744f, -0.20718661f, -0.0748306066f, -0.0840412229f, -0.109107807f, -0.0850131512f, -0.188220307f,
    -0.215966552f, -0.0628949255f, 0.0184256732f, -0.121054105f, -0.0547073111f, -0.0192671418f, -0.095036909f, 0.0112275081f,
    0.00461949268f, -0.0458687916f, 0.00561038824f, 0.0651800036f, -0.0136573277f, -0.0459417664f, 0.0399789251f, -0.023295911f,
    0.0267101303f, 0.0165743437f, 0.0530402884f, 0.00652003149f, -0.0412315838f, 0.0481116176f, 0.00451640226f, -0.0724286586f,
    -0.0806009918f, 0.0676928461f, -0.0882010609f, -0.0263201967f, -0.0441023968f, -0.00488034822f, -0.0361486971f, -0.0785414353f,
    0.0122481855f, -0.071279943f, -0.101703323f, 0.0106457304f, -0.0901863277f, -0.0815135464f, 0.0262592416f, -0.101670109f,
    -0.0393835157f, -0.0793199092f, -0.0719525069f, -0.035515558f, -0.0410516299f, -0.068819046f, 0.00537149841f, 0.0222838949f,
    -0.102684796f, 0.0163771119f, 0.0338253789f, 0.0675628111f, 0.0792377144f, 0.0289198551f, 0.00856229942f, 0.0589098036f,
    0.0268844198f, -0.0461502075f, 0.0726592913f, -0.0324316397f, -0.140827045f, 0.0609797314f, -0.10716895f, 0.0281761736f,
    0.152571991f, -0.0915064365f, -0.0853301063f, 0.173013255f, 0.136821747f, 0.219320536f, 0.102577068f, 0.0267354716f,
    0.0653467774f, 0.0422294438f, 0.0551675335f, 0.0478649326f, -0.0106768617f, -0.0158700142f, 0.0472650491f, 0.0853150934f,
    -0.0200237632f, 0.00314965146f, -0.0659368485f, -0.0478299893f, 0.0368761308f, 0.179115579f, 0.124960355f, 0.13291879f,
    0.0968018919f, 0.0735473707f, 0.0536716357f, -0.0235025864f, 0.0685029402f, 0.0337546766f, 0.0723297819f, 0.0121989977f,
    0.035121493f, -0.00114608218f, -0.0852357447f, 0.0452498682f, -0.0543698296f, -0.0283508822f, 0.0176239088f, -0.0830643624f,
    -0.14994508f, -0.0681533068f, -0.0767574161f, -0.0287426338f, -0.195911631f, -0.062052954f, 0.0588642731f, -0.0670348406f,
    0.00218352466f, -0.0950134397f, -0.00726400362f, 0.044369664f, -0.0203248058f, -0.0206367914f, -0.000450148626f, -0.0493421778f,
    -0.0193574224f, 0.0163982119f, -0.128437683f, 0.0577492341f, 0.0213771202f, 0.0514634699f, 0.0891298279f, -0.0196763277f,
    0.0331551991f, -0.0492484868f, -0.0500777327f, -0.00573658617f, 0.00637476146f, 0.00782345794f, 0.0762924626f, 0.0467641763f,
    0.0114127537f, 0.053435985f, -1.19123379e-05f, 0.0183521602f, -0.00949697569f, -0.0190580729f, 0.0470104478f, 0.0475641191f,
    0.0227222722f, -0.0822880492f, 0.0372530669f, -0.0742582157f, 0.0551010221f, 0.0406029373f, -0.0553094037f, 0.062643975f,
    0.00290636253f, 0.0419452302f, 0.00494528376f, 0.0660938174f, -0.00547746569f, 0.0432137437f, 0.0035426924f, -0.0379423909f,
    0.00980760437f, 0.0229523201f, -0.0246253368f, 0.0394786485f, 0.0228481703f, 0.0172504652f, -0.0577551983f, -0.0477919318f,
    0.0349990427f, 0.000219185356f, 0.0614756308f, 0.0453097411f, -0.0772090033f, -0.0297852047f, -0.0797069445f, -0.0886267647f,
    0.0278360546f, -0.0262229089f, -0.0751387998f, -0.14763017f, -0.0377867185f, 0.141017735f, 0.0668382943f, -0.0736081749f,
    -0.0214416143f, 0.152726948f, 0.0205084588f, -0.092752099f, -0.00999702699f, -0.138217673f, 0.176163867f, -0.0119179375f,
    -0.130493104f, -0.130023912f, -0.00767666381f, -0.126644567f, -0.0441009961f, -0.115249559f, -0.112675563f, -0.0911820531f,
    0.0469980091f, 0.0733053088f, 0.174072132f, 0.0443247631f, 0.0571581498f, 0.121069402f, 0.0448083133f, 0.00136426219f,
    -0.070754759f, -0.135996506f, -0.107636437f, 0.0282338057f, -0.0327368379f, -0.12582913f, -0.0417181589f, 0.0234675799f,
    -0.0373003967f, 0.0630033761f, 0.0111160427f, 0.106446132f, 0.170246691f, 0.0463784747f, 0.0713652447f, 0.230790392f,
    0.0612590723f, 0.128518119f, 0.117510535f, 0.0720655695f, 0.10771773f, 0.057610523f, 0.206683889f, 0.147914857f,
    0.140878245f, 0.106236294f, 0.0755094364f, 0.0689050332f, 0.0834848061f, 0.07823091f, -0.001872894f, 0.00877933484f,
    0.0228686295f, 0.0480225906f, -0.0317195542f, 0.116895013f, 0.0615718849f, 0.0186422803f, 0.0521251746f, 0.0291634984f,
    0.129588023f, -0.023623798f, -0.0170962401f, -0.0461164229f, 0.0159641281f, -0.0665566027f, -0.0539045222f, 0.0525254495f,
    0.0349350348f, 0.0587211251f, 0.0792395175f, -0.00782873295f, 0.0193728451f, 0.0171797741f, -0.0139944451f, -0.0159450993f,
    -0.0216405746f, -0.0851936489f, 0.00134737941f, -0.0420167111f, -0.00999789499f, -0.0157148391f, -0.0115984892f, -0.0386280641f,
    -0.0235457942f, -0.0215173475f, -0.0092862118f, -0.0213791206f, 0.0536291935f, 0.0146833146f, 0.0474891141f, -0.0923735872f,
    -0.109573103f, -0.00531913619f, 0.0120215109f, 0.0307243802f, -0.106498003f, 0.02831023f, -0.0852346718f, -0.00184220623f,
    -0.0216134656f, -0.00982267689f, -0.0683441088f, -0.0251408406f, 0.00656148978f, 0.0194232166f, -0.00221929001f, -0.00278439629f,
    -0.0210740846f, -0.0722410455f, -0.0709011778f, -0.053245645f, 0.0308480784f, -0.036627274f, -0.0267783068f, -0.0134931579f,
    0.0287795346f, -0.042857714f, 0.0738940388f, 0.0303040743f, 0.0170278773f, 0.0092948582f, 0.102422908f, 0.0587301366f,
    -0.0272225011f, 0.0309786722f, -0.0887486264f, -0.00223194086f, 0.0637007803f, -0.00327000488f, 0.0400664285f, 0.0808560401f,
    0.0617861822f, -0.0202693455f, 0.109134674f, 0.100504436f, 0.190242827f, 0.0850530043f, 0.16624473f, 0.0769004151f,
    0.0521553122f, 0.130273521f, -0.0312245283f, -0.00361692463f, 0.125355303f, 0.204153731f, 0.129693866f, 0.200232551f,
    0.151027218f, 0.0731393695f, 0.0818187818f, 0.0568272509f, 0.128270373f, 0.0861524567f, -0.00158246572f, 0.118296005f,
    0.0439464077f, 0.107276417f, 0.139586285f, 0.195950747f, 0.182514042f, 0.0379952528f, 0.0785652548f, 0.116576985f,
    -0.017558815f, 0.0371382795f, -0.0949049518f, -0.068747893f, -0.140937939f, -0.0853592679f, -0.166352019f, -0.0197939798f,
    0.175048962f, 0.0914696679f, 0.0927968845f, 0.0633353591f, 0.0699218661f, 0.0471198224f, 0.0161209498f, 0.0541324541f,
    0.0166590735f, -0.000270473975f, -0.0172377285f, -0.110389799f, -0.134783804f, -0.15438965f, -0.0189969614f, -0.0993004665f,
    -0.0125835156f, -0.145636946f, -0.166821852f, -0.0487868078f, -0.190388232f, -0.104063943f, -0.113999531f, -0.0524876751f,
    -0.0955998674f, -0.120568722f, -0.202757105f, -0.188460365f, -0.154887915f, -0.087580651f, -0.182680011f, -0.202614591f,
    -0.175090313f, -0.212986127f, -0.17097795f, -0.20254764f, -0.119413115f, -0.0670799464f, 0.00930176675f, -0.118514307f,
    -0.105113134f, -0.0320218876f, -0.138189659f, -0.0213041268f, -0.0126678161f, -0.00730177201f, -0.133415535f, -0.0822566077f,
    -0.093304798f, -0.0112844203f, -0.10207285f, -0.0616056249f, -0.0298186857f, -0.0135691613f, 0.0025586905f, -0.0112149147f,
    -0.0768746436f, -0.0832417458f, 0.0463164337f, -0.0572625995f, 0.0430411063f, -0.00757449726f, 0.0289670005f, 0.0268618129f,
    0.0466115735f, -0.0409564525f, 0.0167131517f, -0.013514881f, -0.0466902368f, -0.0116881859f, 0.0656411648f, 0.0166583098f,
    -0.0513858981f, -0.0627127737f, -0.0109980153f, -0.176036865f, -0.0675858036f, -0.223842338f, -0.245647833f, 0.17635496f,
    -0.0188262258f, -0.103297755f, -0.0930116549f, -0.316784352f, -0.0850841105f, -0.0203502197f, -0.192403182f, 0.00172743737f,
    -0.100281812f, -0.171969384f, -0.06751737f, -0.0688322634f, -0.0859093815f, -0.0548169725f, 0.0712747797f, 0.012842929f,
    0.0270935763f, -0.117782086f, -0.0570978709f, -0.0927721336f, -0.0662012026f, 0.0648893863f, 0.113159642f, 0.0852540806f,
    0.0334572643f, 0.122486576f, 0.155301347f, 0.0565269664f, 0.0720515624f, 0.00391336158f, 0.11214368f, 0.12876673f,
    0.0218793526f, 0.117822774f, 0.0897038653f, 0.0873051882f, 0.119769119f, 0.0582828261f, 0.0427842848f, 0.0482206531f,
    0.0708619207f, 0.0592308305f, 0.141370267f, 0.0565857328f, 0.0838089958f, 0.0139375748f, 0.071124211f, 0.0642940849f,
    0.0402496308f, 0.114315867f, 0.148496985f, 0.124390498f, 0.0367302001f, 0.0794784576f, 0.0796782598f, 0.0841611251f,
    0.0177500509f, 0.0730120316f, 0.0657688454f, 0.122340061f, 0.152993605f, 0.181111827f, 0.0752767622f, 0.0569347963f,
    0.158107281f, 0.192946225f, 0.111490197f, 0.063709341f, 0.11155358f, 0.0374339186f, 0.00158419751f, 0.00346927624f,
    0.0549232289f, 0.0983410031f, 0.0454665422f, 0.00837679859f, 0.103491813f, 0.0999591276f, 0.206366271f, 0.0684822127f,
    -0.0314535238f, -0.00393788982f, -0.0113384165f, -0.017504612f, -0.0307808258f, -0.0255837794f, -0.00936133973f, 0.0834642351f,
    -0.0562328808f, -0.0283725839f, -0.0557045825f, -0.0560983308f, 0.0384993143f, -0.0443478823f, 0.0534109212f, -0.0465757661f,
    0.035677325f, -0.0339477994f, 0.0339425318f, -0.0458502397f, -0.0139969112f, 0.00276264222f, 0.0214206073f, -0.0694771409f,
    0.0366260856f, -0.0296169072f, 0.0170830563f, -0.11480318f, -0.012163654f, -0.0258913282f, -0.0545020141f, -0.123647101f,
    -0.077814661f, -0.0980910137f, 0.0111017274f, -0.0526222028f, -0.0848454311f, -0.122341663f, 0.00106877473f, 0.00309853442f,
    -0.000686046551f, -0.0869458243f, 0.0223637074f, 0.0441394746f, 0.0146403331f, -0.0361264274f, -0.0786187053f, 0.0149120586f,
    0.0701694712f, 0.0592104755f, 0.0570104755f, 0.104051448f, 0.144089147f, 0.0991713703f, 0.0559769608f, 0.2931391f,
    0.240490794f, 0.210449651f, 0.242485523f, 0.0759239271f, 0.12894468f, 0.0981377661f, 0.0863923728f, 0.00271454221f,
    0.0412039943f, -0.0546091273f, 0.0750133246f, -0.00593365775f, -0.107688554f, -0.0411920734f, 0.0443170518f, -0.0489788651f,
    0.0274711289f, 0.000115587944f, 0.0475836769f, -0.00235712202f, 0.0452774428f, -0.0182678029f, -0.0329266265f, -0.00733972294f,
    0.0791652203f, 0.0444331057f, -0.0487633534f, -0.0556245297f, 0.0305530634f, -0.0178545937f, -0.101300821f, -0.090820618f,
    -0.106218427f, -0.0177587532f, -0.187732548f, 0.0105799856f, -0.0900147557f, -0.0786138847f, -0.0481646471f, -0.0817201808f,
    -0.0476456657f, 0.0153874764f, -0.150299877f, -0.0391084701f, -0.13029559f, -0.0707705766f, -0.0588614531f, -0.129453167f,
    -0.108804315f, -0.0738383755f, -0.146599635f, -0.0943358317f, -0.1049463f, -0.0255855154f, -0.13435024f, 0.0119663961f,
    -0.104588792f, 0.00300781778f, -0.0420383178f, -0.0135067943f, -0.0113131972f, -0.0386556424f, 0.0434906594f, 0.0516592413f,
    0.0238946155f, -0.0140105784f, 0.0533200949f, -0.0127153611f, 0.00311521161f, 0.0260868669f, 0.0779877603f, -0.0647880808f,
    -0.0715073645f, -0.0435057208f, 0.00464771641f, -0.0322122425f, -0.00583848683f, -0.0345134586f, -0.0076175048f, 0.0326685458f,
    0.088991791f, -0.0592667423f, -0.0291011781f, 0.0473242924f, 0.00532101002f, -0.0656408519f, -0.0434827022f, -0.0316877775f,
    -0.0690095797f, 0.00497354148f, -0.0825257599f, -0.0709724203f, 0.0722365901f, 0.0641406402f, -0.0299889017f, -0.0579292066f,
    -0.00867004599f, -0.0164372064f, -0.00814237259f, 0.0270196982f, -0.0982971787f, 0.0480030999f, -0.0970742479f, -0.0955205113f,
    0.0430982783f, -0.00416133692f, -0.0455594137f, -0.00229705963f, 0.033820264f, -0.102759808f, -0.0809356421f, -0.0555617325f,
    0.0288441926f, -0.0846021995f, 0.0293429419f, 0.043795988f, -0.103234284f, 0.0168486964f, 0.0516459197f, -0.05546147f,
    -0.193455204f, -0.0722351447f, 0.086102888f, -0.128875658f, 0.0330059864f, -0.00452680886f, 0.113083087f, 0.0185105652f,
    0.0929389521f, 0.0274589919f, -0.193902284f, 0.015353011f, 0.0181603022f, 0.0320976712f, 0.0179993529f, 0.109521411f,
    0.0252060797f, -0.013985387f, -0.0455839224f, -0.0961325914f, -0.0687953383f, -0.0410983376f, 0.024581302f, -0.0399645828f,
    -0.000855114835f, -0.122656368f, 0.0528364964f, -0.000678493292f, -0.110782333f, 0.0367938317f, 0.153975502f, 0.22613734f,
    0.163539857f, 0.0883068442f, 0.162458509f, 0.136634856f, 0.145745516f, 0.161060095f, 0.197811112f, 0.139856413f,
    0.0984707102f, 0.159816206f, 0.0131427543f, 0.110178664f, 0.0907154009f, 0.118418358f, 0.0905750468f, 0.0899175406f,
    0.0105667766f, 0.118480474f, 0.114085019f, 0.142336965f, 0.18372649f, 0.0317098387f, 0.111617036f, 0.0653158277f,
    0.147168621f, 0.0762746632f, 0.0754426196f, 0.0304664094f, 0.0275436323f, 0.0458725207f, 0.00342535204f, 0.105437569f,
    -0.0652331039f, 0.103566639f, 0.00190736458f, 0.034028627f, 0.0159345996f, 0.0303151011f, 0.0568185039f, 0.116266236f,
    0.0644462779f, 0.031039346f, 0.0321645476f, 0.117793351f, 0.00803216454f, 0.0373470597f, -0.0106887324f, 0.0599922538f,
    0.107066385f, -0.00924461149f, 0.0892876983f, -0.0209740195f, 0.0907497779f, 0.0672550127f, -0.0697117522f, -0.0422491618f,
    -0.0549782291f, -0.0504213981f, -0.104813948f, -0.0217617322f, -0.0533597432f, -0.111579731f, 0.0422686115f, -0.0230586492f,
    -0.027045181f, -0.0611372478f, 0.0146771893f, -0.0305568557f, -0.0878147706f, -0.124946766f, -0.138423592f, -0.0400395729f,
    -0.132023722f, -0.135593995f, -0.134698033f, -0.13388361f, -0.01956328f, -0.00744681433f, -0.139082089f, -0.0498402379f,
    -0.135468841f, -0.117377989f, -0.0664607361f, -0.0956085399f, -0.117500804f, -0.0848545954f, -0.00369243114f, -0.145989105f,
    -0.0941610485f, -0.0129045378f, -0.0677979141f, -0.0549445972f, -0.0583894737f, 0.0624587312f, -0.0402256213f, -0.0413998961f,
    0.130251944f, -0.000498887384f, -0.0119002443f, -0.0283354502f, -0.0258617811f, -0.067906335f, -0.104818054f, -0.162724108f,
    -0.167455748f, -0.254614025f, -0.143440843f, -0.126015246f, 0.00151249475f, 0.0826242268f, 0.0930901244f, 0.0806508735f,
    0.24740456f, 0.228868634f, 0.279767513f, 0.228131875f, 0.0159731489f, -0.00927083008f, 0.011234886f, 0.0155367702f,
    -0.0210594386f, 0.00833349116f, 0.0155742718f, -0.00902730506f, -0.0600233153f, -0.0146390814f, 0.0266478807f, 0.0381729566f,
    0.0430183709f, -0.00828633457f, -0.0679104924f, -0.0723448843f, 0.00669220975f, -0.0994623974f, -0.141363248f, -0.165788442f,
    -0.0326747969f, -0.0946296304f, -0.0780692399f, -0.0805015191f, -0.116180025f, -0.036461208f, -0.0503413901f, -0.0429434106f,
    -0.083376646f, -0.0283543635f, -0.0807683766f, -0.0694691762f, -0.0517832451f, -0.0717484429f, -0.0121276714f, -0.00774935447f,
    0.0231683552f, -0.0334046632f, -0.0716240853f, -0.0110339038f, 0.015659282f, -0.0704977438f, -0.0337831527f, -0.102829233f,
    -0.0333532132f, -0.0706212223f, -0.147202998f, -0.0784253553f, -0.0745077953f, -0.0903686211f, -0.0690587237f, -0.0880243853f,
    -0.0877312571f, -0.129378766f, -0.063631393f, -0.0740313306f, -0.0794070363f, -0.111636385f, -0.00765941897f, -0.104060777f,
    -0.0470913053f, -0.041714374f, -0.137180507f, -0.0580654852f, -0.0147089213f, -0.0322304331f, -0.0570385307f, -0.00709258951f,
    -0.0543883406f, -0.0706144199f, -0.0217517689f, -0.0443370268f, -0.0639584288f, -0.0087725427f, 0.0302673839f, -0.0483373813f,
    0.0129519682f, -0.0624274984f, -0.0132657941f, 0.058780387f, -0.0227094777f, 0.0570143424f, 0.0279256105f, 0.0697613209f,
    0.0076418058f, 0.0388580188f, -0.0490359552f, -0.0637786612f, 0.0617330149f, 0.0755988732f, -0.0271546748f, 0.0188080892f,
    0.0208432358f, -0.0335277878f, 0.0293655023f, 0.0193587821f, 0.0408240929f, 0.0760221481f, 0.0926512405f, 0.056684114f,
    0.103045784f, -0.00519899093f, 0.0878699049f, 0.056853313f, -0.0276330914f, -0.00647724979f, -0.0647329912f, -0.00294477982f,
    -0.00518558314f, 0.0397790633f, -0.0356035493f, 0.113715515f, 0.0990509018f, 0.0888420269f, -0.0369375832f, -0.0258027967f,
    -0.000284907554f, 0.0774953812f, 0.0819235742f, 0.024697192f, 0.0273677539f, -0.0467250273f, -0.0307942163f, 0.0753784254f,
    0.0815109387f, 0.0701692104f, 0.0904406235f, -0.00259856903f, -0.0017874199f, 0.0495337583f, 0.0177031085f, 0.0867088884f,
    0.0375176296f, 0.034810137f, 0.0594766699f, -0.0274717305f, -0.0691741705f, -0.0494509675f, 0.0548422635f, -0.0956817642f,
    -0.0482061096f, 0.153395832f, 0.0780343041f, 0.109599732f, 0.120491683f, 0.20534794f, 0.143573359f, -0.0465383679f,
    -0.102790162f, -0.0507187173f, -0.133579984f, -0.0333906896f, -0.00302765728f, -5.41071058e-05f, 0.0394735895f, 0.0177990627f,
    -0.0669775978f, -0.01871562f, -0.0928256214f, -0.0426595062f, -0.000858521787f, 0.0502091572f, 0.0636434779f, 0.0668970346f,
    -0.0788582191f, -0.0191167779f, -0.00923873484f, -0.160079479f, -0.105363883f, -0.0368929394f, 0.0385893509f, -0.0422407649f,
    0.0243053567f, -0.0882915929f, -0.0928454772f, 0.0158156287f, -0.0146928644f, -0.0226100218f, -0.0254401844f, -0.0313500352f,
    -0.0207186695f, 0.00254822918f, -0.0463984646f, -0.0300458204f, 0.0306867529f, -0.0912095606f, -0.00820872746f, 0.00305296457f,
    -0.0355063863f, 0.0866815448f, 0.0570457056f, -0.0372448042f, -0.0114806248f, 0.0290658381f, 0.00875535328f, 0.0672376454f,
    0.0648956671f, -0.00718718627f, 0.0523885153f, -0.0806966275f, 0.0138815828f, -0.112047233f, -0.119029634f, -0.0116007878f,
    -0.0563876815f, 0.0331949927f, -0.111027673f, -0.103944831f, -0.0462782085f, -0.0815113112f, -0.0927903727f, -0.0342393033f,
    -0.00325086084f, 0.0210048147f, -0.015092412f, -0.0146259237f, -0.0876339674f, -0.0887618437f, -0.103816412f, 0.0121722054f,
    0.0182992797f, -0.0935169905f, -0.061570432f, -0.000678203767f, -0.0487367362f, -0.100789666f, -0.055107221f, -0.02062729f,
    -0.0793080851f, -0.0348747894f, 0.0209975056f, -0.119610012f, -0.066125311f, -0.0590487532f, 0.0219606441f, -0.0583941825f,
    0.0110187912f, -0.057987839f, -0.00434703054f, 0.0254381429f, 0.0353354327f, 0.0164688565f, -0.0370556302f, 0.00107257778f,
    -0.0515875258f, 0.0100165941f, 0.0890148431f, -0.121598534f, -0.209568426f, -0.0719358996f, -0.240041271f, -0.288685143f,
    -0.226993859f, 0.0253619682f, 0.0825098678f, 0.16620335f, 0.296634346f, 0.160965204f, 0.142449304f, 0.10445226f,
    0.181337237f, 0.043742314f, 0.0701087117f, 0.0364003032f, 0.0293151792f, 0.0122025553f, 0.0378798321f, 0.0982159078f,
    0.0623142831f, 0.0673886687f, 0.110117093f, 0.20905517f, 0.0813826397f, 0.0109591791f, -0.0928799734f, 0.0187426228f,
    0.0403815433f, 0.116953611f, 0.0358333774f, 0.0134756938f, 0.00125715556f, 0.0366236642f, 0.0317079909f, 0.0212508626f,
    -0.0739115104f, -0.0118944068f, 0.0706008822f, 0.0565841459f, 0.048054181f, 0.00567054376f, 0.00619011698f, 0.0543924756f,
    0.0582613349f, 0.0865254402f, 0.0394861847f, 0.0116958283f, 0.0396810435f, 0.0560124293f, 0.0624447726f, 0.0790874362f,
    0.114449382f, 0.152000248f, 0.156757891f, 0.0797181129f, 0.0859278291f, 0.0490917973f, 0.03796589f, 0.051390104f,
    0.00602990109f, -0.00276348507f, 0.00119006389f, 0.0358596183f, -0.0512190498f, 0.00917107053f, -0.0779483393f, -0.0685781613f,
    -0.0579423942f, 0.0988569483f, -0.0260772239f, 0.0275515728f, 0.0719012916f, 0.0591209605f, -0.0162620284f, 0.0698725879f,
    0.0761479959f, -0.0102923261f, -0.031999182f, 0.0415548757f, -0.0385809168f, 0.0592012294f, 0.032896731f, -0.053202793f,
    0.055175744f, 0.0464386791f, 0.042680081f, -0.0702499002f, -0.0470714942f, -0.0655862987f, -0.0243351012f, -0.0844655931f,
    -0.0178830512f, -0.049659621f, -0.0551436134f, -0.112514451f, -0.099556461f, -0.108014241f, -0.129588589f, 0.0169149041f,
    -0.0462568551f, -0.0923657715f, -0.128917143f, -0.0107409516f, -0.0847764611f, -0.130009636f, -0.149535298f, -0.0249865483f,
    -0.104626976f, -0.0609316267f, -0.127395421f, 0.00788508169f, -0.00997388922f, -0.103885867f, -0.144756973f, -0.0997000337f,
    -0.0404336043f, -0.0299287494f, -0.0489758179f, -0.0365412869f, -0.022848092f, -0.0656462386f, 0.0612248853f, 0.00664562453f,
    -0.0596902817f, 0.00249169208f, 0.0463965945f, -0.012844325f, 0.130881101f, 0.0155259725f, 0.00429416308f, 0.0587607212f,
    -0.0435355902f, 0.0196205713f, -0.0637414455f, -0.0359298661f, -0.0509381741f, -0.00200907025f, -0.0880733356f, -0.0430789664f,
    0.0645714849f, 0.0617060438f, 0.033792071f, -0.0419901088f, 0.0255666599f, 0.0516603403f, -0.0433497727f, 0.0423862524f,
    -0.0507310368f, 0.182923734f, 0.114774413f, 0.226166472f, 0.145942152f, 0.0652536005f, 0.113222897f, 0.0921437517f,
    0.21234946f, -0.00440225331f, 0.126147479f, -0.0620588772f, 0.0264892764f, 0.113072075f, 0.146937296f, 0.105364799f,
    0.0180068053f, 0.149499282f, 0.0487323366f, 0.134767443f, 0.26169458f, 0.290180206f, 0.31473586f, 0.259583414f,
    0.398424089f, 0.577514112f, 0.415502876f, 0.450626761f, 0.369954884f, 0.38574031f, 0.391194224f, 0.245438814f,
    0.290486783f, 0.380065531f, 0.290176153f, 0.11601679f, 0.217009708f, 0.241617724f, 0.264608622f, 0.100435264f,
    0.148189485f, 0.151329875f, 0.108480729f, 0.138349667f, 0.0730755031f, 0.107905023f, 0.222094357f, 0.194042459f,
    0.0350540392f, 0.0293373894f, 0.18097873f, 0.0737600848f, 0.204211056f, -0.0155474888f, -0.0522500984f, 0.0679381415f,
    0.0107798902f, -0.0249571241f, 0.00555259595f, -0.0447861552f, -0.0788739845f, -0.106295653f, -0.127767503f, -0.0532743186f,
    -0.158115581f, -0.170721814f, -0.161328822f, -0.0578375347f, -0.0475802235f, -0.0250442326f, -0.02853854f, -0.0238679927f,
    -0.0868760496f, -0.0467863977f, -0.175532654f, -0.0658454522f, -0.186662734f, -0.143503979f, -0.136487663f, -0.0590005107f,
    -0.162865952f, -0.0609655268f, -0.182600424f, -0.148642093f, -0.191038713f, -0.204078257f, -0.0696476102f, -0.064486675f,
    -0.135665938f, -0.100185074f, -0.0921087563f, -0.216124833f, -0.184993252f, -0.0719359741f, -0.0775107816f, -0.0829414129f,
    -0.140690356f, 0.00594717264f, 0.0225900132f, -0.0938084647f, -0.065269269f, -0.0540865771f, 0.00740096066f, 0.102153838f,
    0.0678324252f, 0.0874848589f, -0.00504118297f, -0.0349175707f, 0.0799137279f, 0.0953132659f, 0.0274902526f, 0.167843431f,
    0.135241777f, 0.120493732f, -0.0285511818f, 0.10513895f, -0.0932313129f, -0.0563369803f, -0.134464577f, 0.0812861845f,
    -0.0146321766f, 0.0143494029f, 0.111287251f, 0.16656962f, 0.0331596024f, 0.131611273f, 0.064168632f, 0.0595163591f,
    0.0724192262f, 0.022183951f, 0.0851859301f, 0.0676337928f, 0.11528556f, -0.0551038273f, -0.345700294f, -0.355911821f,
    -0.248648182f, -0.1960942f, -0.216717049f, -0.203775674f, -0.167590901f, -0.0438842848f, -0.0632229522f, 0.105706684f,
    0.238095865f, 0.103431456f, 0.178608373f, 0.146692574f, 0.0936946198f, 0.0771555752f, 0.0653278083f, 0.141979069f,
    0.155763641f, 0.294161588f, 0.23050043f, 0.330602139f, 0.286369562f, 0.0500807837f, 0.0379518978f, 0.0931928232f,
    0.117982805f, 0.120126225f, 0.236653939f, 0.259199351f, 0.237148628f, 0.133474693f, 0.123306207f, -0.0246687233f,
    -0.0352493636f, -0.10990984f, -0.200900435f, -0.158012718f, -0.0156689733f, -0.0509427041f, -0.0737701133f, -0.0292117652f,
    -0.0531796068f, 0.0398724377f, -0.0244596303f, 0.0326589458f, 0.0201947223f, -0.0382988527f, -0.0915572792f, -0.046820417f,
    -0.0129275257f, -0.0652525648f, 0.00215329765f, 0.00753344875f, -0.00292101945f, -0.117086358f, -0.0460113138f, -0.0265158564f,
    -0.0513739586f, -0.0182250831f, 0.0384324156f, -0.0905831605f, -0.0773068592f, -0.0448405445f, -0.0891472101f, -0.0566815995f,
    -0.0430632047f, 0.0285919607f, 0.0259266011f, 0.00677192491f, -0.108655006f, -0.00634040963f, -0.0656826645f, 0.0283873044f,
    -0.0865215585f, -0.100939341f, -0.0387503095f, -0.0583208241f, -0.104321375f, -0.100555934f, -0.00953166094f, -0.0945449248f,
    -0.0701364502f, 0.0114128888f, -0.105930358f, -0.0815099925f, -0.102313593f, 0.0367532261f, 0.0262143482f, -0.0468259603f,
    -0.0486835875f, -0.06917575f, 0.0459998623f, -0.0176218431f, 0.0242954213f, 0.00788918138f, 0.00202979287f, -0.0315922722f,
    -0.0109958388f, 0.020584099f, 0.130581304f, 0.066928722f, 0.0203305241f, 0.0247906111f, -0.152049258f, -0.0613130778f,
    -0.0976839066f, -0.103186265f, -0.0376600549f, 0.0644211546f, 0.336167783f, 0.155476794f, 0.0810946897f, 0.0259682592f,
    0.046718251f, -0.038524095f, 0.0990924165f, 0.102213204f, 0.162886932f, 0.106397972f, 0.00709021417f, -0.00248021819f,
    -0.140284762f, -0.0918621495f, -0.0507247113f, -0.173542723f, -0.0914284438f, -0.0858742595f, -0.0793265477f, -0.142222419f,
    -0.0614713244f, -0.00533163687f, -0.0294166021f, -0.0588534363f, -0.0747863129f, -0.0799459815f, -0.0484254844f, 0.0142107476f,
    -0.0757081583f, -0.0101236319f, -0.0339632705f, -0.0591958053f, -0.0698546544f, -0.0720532313f, 0.0578344278f, 0.0143808853f,
    -0.0416630395f, 0.0536396615f, -0.0188273881f, -0.0830217153f, 0.0471246913f, -0.0607057735f, -0.0121413544f, 0.0100096036f,
    0.000110726214f, -0.101905338f, -0.0775841922f, 0.00203527347f, -0.0781194419f, -0.0902995542f, 0.0604572371f, -0.0453003906f,
    -0.0579041876f, 0.0611658655f, 0.0484658778f, -0.0335066207f, 0.0788636208f, 0.0104210693f, 0.000843127782f, 0.0145609528f,
    0.0212625451f, -0.128344044f, -0.0462816209f, 4.66822676e-05f, 0.000228975536f, -0.012128761f, 0.000435023278f, -0.00557225989f,
    -0.0512571707f, -0.0913984329f, -0.087111786f, 0.0242678821f, 0.0358434059f, 0.0324642397f, 0.00568205491f, -0.00770195434f,
    -0.0308703855f, 0.0426974818f, -0.0853995979f, 0.0550599359f, 0.0106599014f, -0.0160073452f, -0.0330066755f, -0.0354113542f,
    -0.0724901408f, -0.0886562243f, -0.00923321769f, -0.0024353005f, 0.0420905091f, -0.0103820693f, -0.0146673359f, 0.0403135084f,
    0.015105675f, -0.0211709477f, 0.0446126424f, -0.0803331286f, -0.00384062598f, -0.06365031f, -0.00796487555f, -0.048953414f,
    0.0695261508f, -0.0371703058f, -0.00830371771f, -0.0138766132f, 0.0683585927f, -0.0505889207f, -0.0130301798f, -0.0146186715f,
    -0.000199548289f, 0.0531994551f, 0.0684486628f, -0.0670271665f, -0.0432064086f, 0.0585582852f, -0.0614290982f, -0.0625955015f,
    -0.100582145f, -0.0734522864f, 0.127544671f, -0.0717337281f, -0.115569763f, 0.0577282645f, 0.00627014739f, -0.0619395785f,
    -0.0636516139f, -0.223655984f, -0.121234305f, 0.0622228757f, 0.11781992f, 0.15744032f, 0.0973060802f, 0.0530074984f,
    0.159541219f, 0.0931754708f, 0.184517398f, 0.0144622652f, 0.000739932177f, 0.0558347218f, 0.16873914f, 0.15010114f,
    0.0928283483f, 0.113902368f, 0.111840814f, 0.0441413037f, -0.0447803885f, 0.0697384477f, -0.0232965387f, 0.0353146009f,
    0.0562925935f, 0.0668489411f, 0.0764552057f, -0.00806502718f, 0.0903356895f, 0.0995597318f, 0.140159041f, -0.0443478487f,
    0.0719777197f, -0.0115003241f, 0.0930779576f, 0.0423366465f, -0.00580397155f, 0.113780841f, -0.0275468826f, 0.0943694785f,
    0.0655498728f, 0.0776540264f, -0.023594141f, -0.0338103957f, -0.00706748618f, -0.0570529513f, -0.129711717f, -0.088560909f,
    -0.109509714f, -0.0450270735f, 0.0556565188f, -0.017869452f, 0.0131218061f, 0.113819897f, 0.0716812313f, -0.00528828055f,
    0.0298136491f, 0.0705292001f, 0.0983942077f, -0.0161431879f, 0.0529910885f, -0.0149952155f, -0.000359419471f, 0.0660830513f,
    0.0840061381f, 0.0701339096f, 0.0809955671f, 0.060174346f, 0.0428942591f, 0.118900076f, 0.102566868f, 0.0147831896f,
    0.0168257132f, -0.0440259427f, 0.02973588f, 0.0195405651f, -0.0560879968f, -0.041504547f, -0.0113208499f, 0.0474111959f,
    0.0597472973f, 0.0351996832f, 0.0325614102f, -0.0656837597f, -0.0222584568f, 0.0288926922f, -0.0396053083f, 0.00110922009f,
    -0.0050159758f, 0.0231701229f, 0.0362630449f, -0.00135637866f, -0.0341146104f, -0.0656872094f, 0.0310652163f, -0.00474119047f,
    0.00809660088f, -0.039835006f, -0.0317230262f, 0.0339662619f, -0.00332677225f, 0.0202139206f, -0.0738344714f, -0.115711764f,
    -0.102638587f, -0.0912752748f, -0.0506052412f, -0.0461253934f, -0.0709654838f, -0.0186329931f, 0.0310539976f, 0.0226318799f,
    -0.00526522147f, -0.0490103401f, -0.0212714523f, -0.0274015013f, 0.069070749f, -0.0055686105f, 0.0222605169f, -0.123013169f,
    -0.0256970003f, 0.196996957f, 0.0297829825f, -0.0708410591f, -0.0457126424f, -0.0811743885f, -0.0891450047f, -0.0104013048f,
    -0.0718642026f, -0.253437728f, -0.0549884439f, -0.108742408f, 0.0721235722f, 0.0619551092f, 0.0645691752f, 0.108628705f,
    0.0451164171f, 0.0212131925f, 0.172339082f, 0.0999933258f, 0.113181986f, 0.0991281345f, 0.0539581627f, 0.0647956133f,
    0.0563718267f, 0.110265389f, 0.10111846f, -0.0546358712f, -0.0428158715f, -0.0301971752f, -0.0434467904f, 0.106557712f,
    0.064853549f, -0.0405416824f, 0.0129791051f, 0.115863889f, -0.0899891332f, 0.00161027117f, 0.0622896627f, -0.0738789439f,
    -0.0274973884f, 0.00781782437f, 0.026289599f, -0.000331109884f, -0.0157930963f, 0.0262895189f, 0.0104580941f, 0.0156606827f,
    0.044444982f, 0.0240564737f, -0.0382327326f, -0.0652671605f, 0.018243473f, -0.00569892721f, 0.001306238f, -0.0258420203f,
    -0.0712091476f, -0.0306959879f, 0.00551141985f, -0.0963225663f, -0.0300866943f, -0.0363491029f, -0.0519221388f, 0.0623992756f,
    -0.0617878437f, 0.0389965847f, -0.00806705095f, 0.0422615819f, 0.0622065701f, -0.0477288254f, -0.0130861513f, 0.0273511764f,
    -0.0248996839f, 0.0846158341f, -0.0458006226f, -0.0473962054f, -0.0232941378f, -0.0711923912f, -0.0596465841f, -0.0163061526f,
    0.0881171152f, 0.0457537957f, 0.00166646752f, 0.0113218026f, 0.0191627871f, 0.0669834688f, -0.0811789632f, -0.0057725627f,
    0.0354007632f, 0.0389730074f, -0.0182920136f, -0.0678946003f, -0.0638334453f, -0.0540466271f, -0.0776439756f, 0.0331625454f,
    0.0479283705f, -0.00553192524f, -0.0630404055f, 0.0206639636f, 0.0367839895f, -0.0112902718f, 0.0485160127f, -0.0581130534f,
    0.019094171f, -0.0169188157f, -0.0158486739f, -0.0624962635f, -0.0806894973f, -0.0536516309f, 0.0146491835f, 0.0513507053f,
    -0.0398796462f, 0.0316345952f, -0.0185034852f, 0.00443077972f, 0.0639616475f, 0.00564074051f, 0.0353582874f, -0.0488381013f,
    0.0603588745f, 0.0337416232f, 0.0592030101f, 0.0549337491f, 0.0328281373f, 0.087848112f, 0.0877676457f, 0.0515271351f,
    -0.164774373f, -0.107748762f, -0.197452471f, 0.0405717529f, -0.0350346826f, -0.142531842f, 0.0148144113f, 0.0984128565f,
    -0.0498674028f, -0.176249504f, -0.0938103721f, -0.000823177688f, -0.126212329f, -0.104378246f, -0.0207366031f, -0.00569855841f,
    -0.0584490784f, -0.0319385007f, 0.000852042169f, 0.00741482014f, -0.0733661428f, -0.11452239f, 0.00868944172f, 0.00966490339f,
    -0.00669732364f, 0.0698107257f, 0.00407290552f, -0.0562491119f, -0.0248625595f, -0.126150787f, -0.0388593338f, -0.00999816414f,
    -0.0175061505f, 0.0447224565f, -0.00914967153f, 0.0217687655f, 0.101544045f, 0.0608549491f, 0.0512758419f, -0.0188556295f,
    -0.0422084667f, -0.0140200006f, -0.0786545277f, 0.00284564728f, 0.0678924173f, 0.113820799f, 0.0837713853f, 0.0602010339f,
    0.0190742761f, 0.104904637f, 0.092173934f, 0.104352497f, 0.0755075589f, 0.109963164f, 0.08878427f, 0.112607434f,
    0.122033149f, 0.0862942487f, 0.135780588f, 0.0978723764f, 0.177375138f, 0.132153913f, 0.0859415904f, 0.0651641712f,
    0.0979020298f, -0.00914523099f, 0.0864500701f, 0.114056692f, 0.0792783052f, 0.154874697f, 0.0610876791f, 0.0576121993f,
    0.0404519252f, -0.00388715463f, 0.0307711288f, 0.153726012f, 0.0632740706f, 0.0483285487f, -0.00676978007f, -0.00226786942f,
    0.0322316848f, 0.0390759856f, 0.116039664f, 0.0927597731f, -0.0420419425f, -0.0534703247f, 0.0618643947f, 0.0268235207f,
    -0.0486544892f, 0.0179350432f, 0.0568377376f, -0.0319391415f, -0.0174520221f, 0.0684632286f, -0.0417656861f, 0.0465306267f,
    -0.0526706986f, -0.0554613732f, -0.0662360117f, -0.0176770147f, 0.0633140877f, -0.0534328818f, 0.0132111283f, 0.0693630651f,
    0.00968108512f, 0.0494954996f, 0.031454321f, 0.0889453217f, 0.022147987f, -0.0473189168f, -0.0293486044f, 0.0779663622f,
    0.00703153061f, 0.0517316647f, 0.0651909113f, 0.016259741f, 0.0757904351f, -0.0266941655f, 0.0586847588f, -0.0401236638f,
    -0.0489669703f, 0.012115499f, -0.000986841507f, -0.040662393f, -0.00947266258f, -0.0433028191f, -0.0302678272f, 0.0459287986f,
    0.0166937709f, 0.0343669578f, 0.120048657f, 0.0407229252f, 0.0686834753f, 0.0651840717f, 0.099109441f, 0.0238806568f,
    -0.146222532f, -0.060195554f, -0.00495196506f, 0.0316866226f, 0.0787205771f, 0.0896992609f, 0.122408412f, 0.0419938415f,
    -0.0684768185f, 0.00478990329f, 0.0805581436f, -0.0454943702f, 0.00876082014f, 0.0114187831f, 0.0430501141f, -0.0229629576f,
    -0.0140927462f, -0.00692651235f, 0.0805508345f, 0.152801812f, 0.0670881346f, 0.0157908481f, 0.0512205996f, 0.0722314119f,
    0.0907111242f, -0.00247037807f, -0.000282839261f, -0.00900069904f, -0.00587154692f, -0.082092829f, -0.0627613217f, -0.0785178021f,
    -0.0296493508f, -0.0126176225f, 0.0134324487f, 0.00286949053f, -0.0119052697f, -0.0337934941f, 0.0311375838f, -0.0390958302f,
    0.0418161266f, -0.027740838f, -0.00306117395f, 0.0208985321f, -0.0234877933f, -0.00610560877f, 0.10728626f, 0.110444881f,
    0.0175527632f, 0.00225057732f, 0.0333469324f, 0.0444073379f, -0.0112530906f, 0.0458407402f, -0.00618167222f, 0.0915546417f,
    0.0243537053f, -0.0181019828f, -0.159325019f, -0.0736239552f, -0.0654783323f, 0.0736186951f, 0.144625828f, 0.00796714984f,
    0.0180923566f, 0.0810122117f, 0.0159338452f, 0.107140221f, 0.0952788144f, 0.0502728149f, -0.00253002532f, -0.0123714171f,
    0.0458542965f, -0.0236163586f, 0.0751455426f, 0.038188912f, -0.0527245067f, 0.00741254911f, -0.013697071f, -0.0106603112f,
    0.0140091525f, 0.00284762518f, -0.0420806892f, -0.0657043904f, -0.0793058574f, -0.08241456f, -0.0480581671f, -0.0410352461f,
    -0.0123145357f, 0.0663468242f, 0.00922342949f, -0.0522257499f, -0.00538929924f, -0.0672211125f, 0.0180015676f, 0.029553201f,
    -0.0244888216f, -0.0132975196f, -0.043705564f, -0.0316781066f, 0.0298393257f, -0.0804850757f, -0.000612239528f, -0.0800268352f,
    0.0379406139f, -0.0582408905f, 0.0562725328f, -0.0765043646f, -0.0624401979f, -0.00426433049f, -0.0666797683f, -0.0133778416f,
    -0.0287086014f, 0.0237154234f, -0.0316911638f, -0.00150206743f, -0.0823555589f, -0.0649643689f, 0.0132542467f, -0.0344580002f,
    -0.0809708238f, -0.058370363f, -0.142667115f, -0.0870851129f, -0.000280928274f, -0.0280863326f, -0.0441449732f, -0.0313691907f,
    -0.107334383f, -0.0900627375f, -0.0181548074f, -0.00261834706f, 0.0780785382f, 0.0570642874f, 0.00265234453f, -0.0414279588f,
    0.00256046234f, -0.0805087909f, -0.056084577f, -0.0802343562f, 0.00151312631f, 0.0629367009f, -0.0054264483f, 0.0835997462f,
    0.162082791f, 0.0912751332f, 0.0900195315f, -0.0283841025f, -0.110789508f, -0.0911226943f, 0.00945622753f, -0.0321909711f,
    0.0355667099f, 0.12888509f, 0.164994091f, 0.0795099661f, 0.0919200554f, 0.0498478599f, 0.0323199145f, 0.101886876f,
    0.0235061254f, -0.0424252041f, -0.0966090411f, 0.0495137274f, -0.0455285236f, -0.0276886411f, -0.0595598966f, -0.0518062785f,
    -0.00228869426f, 0.0620159358f, -0.0368977822f, 0.0169067923f, -0.11504072f, -0.070520021f, 0.0660836473f, 0.0306906197f,
    0.051396057f, 0.0233225767f, -0.0345272571f, 0.0231736694f, 0.0345909931f, 0.152034253f, 0.122021958f, 0.189386681f,
    0.165862605f, 0.0294740014f, 0.0558470972f, -0.000132358618f, 0.0472574234f, -0.0175270103f, -0.0516866297f, -0.0162440035f,
    -0.079938218f, -0.0346213952f, -0.0784189403f, -0.0434107035f, 0.00104701717f, -0.00612024358f, -0.0291284546f, -0.0145545434f,
    0.0521880016f, -0.0837767273f, 0.0348814242f, -0.0687870085f, 0.0230705552f, -0.058250621f, 0.0635257363f, -0.0573567003f,
    0.0425038487f, 0.0371346138f, -0.0108649442f, -0.0295094103f, -0.0823858082f, -0.00726696244f, -0.00481933542f, -0.020149393f,
    0.00112627191f, 0.00797780231f, -0.00500331214f, -0.000466832658f, 0.0598172583f, -0.0088575948f, -0.0364675932f, -0.0636301786f,
    0.0478211604f, -0.0637618378f, -0.0775902197f, 0.0272446275f, -0.0461605266f, -0.0052199522f, 0.0675150529f, -0.0033490425f,
    -0.0845502168f, 0.0598881654f, 0.0701237246f, -0.0294471085f, 0.0194055438f, -0.0486490093f, 0.0753116757f, -0.0186359007f,
    -0.0638406202f, -0.0785725862f, 0.0645499751f, -0.0580737926f, -0.0733757019f, -0.0786068365f, -0.0405771211f, -0.0663562566f,
    -0.0324681289f, 0.0474931598f, -0.0117651839f, 0.036039222f, 0.0240934845f, -0.0171606448f, 0.0608114377f, 0.0582207441f,
    -0.0759847015f, 0.00415281393f, 0.0100410208f, -0.0400245413f, -0.0949873328f, 0.0652326345f, -0.083534047f, 0.0909582078f,
    0.160244644f, -0.0347486027f, -0.0550405085f, -0.010368323f, -0.0520666763f, -0.0304511059f, 0.0813862607f, 0.100088939f,
    0.114738367f, 0.0869056433f, 0.077881813f, 0.0173056107f, 0.102950826f, 0.177510545f, 0.0993210524f, 0.026811447f,
    0.111125186f, 0.109766483f, -0.0225513689f, 0.0711815357f, 0.00519717066f, 0.099604547f, 0.188144475f, 0.050880529f,
    -0.0244926438f, 0.0829483867f, -0.0712364614f, -0.00494597526f, -0.0646307468f, -0.03548076f, -0.0715153143f, -0.166936874f,
    -0.256715f, -0.129472956f, -0.252204776f, -0.167971104f, -0.107979275f, -0.102053262f, 0.022777196f, -0.0492866263f,
    -0.0265698247f, -0.0779223591f, -0.103521146f, -0.0456840694f, -0.0801911652f, -0.0948496759f, -0.124099731f, -0.167176247f,
    -0.141483918f, -0.00275225262f, -0.0571796112f, -0.0916404203f, -0.0754078701f, -0.0986088663f, -0.0572711937f, -0.0238568597f,
    -0.00586923398f, 0.0157414302f, 0.0457179844f, 0.0602020733f, -0.0625779107f, -0.0702917576f, 0.0498504564f, 0.013330875f,
    0.0342283137f, -0.0323324502f, -0.0283682384f, -0.0738810077f, -0.101190619f, -0.0917389914f, 0.0647576228f, 0.0488217697f,
    0.0349787921f, -0.00796431024f, -0.0454583466f, 0.00708458573f, -0.0711215138f, -0.0158275403f, 0.0711012259f, 0.00960462168f,
    -0.0196218416f, 0.0613611266f, -0.0707493573f, 0.0454772562f, 0.0491232872f, 0.0171429701f, 0.0403418243f, -0.0299502946f,
    0.0589595474f, -0.0403983593f, 0.0688298568f, -0.0320294499f, -0.0142888669f, 0.0290701967f, -0.0302517898f, -0.035206981f,
    -0.0331467018f, 0.0382120758f, -0.0292821843f, -0.0505055375f, -0.0578660034f, 0.0861244872f, 0.0625501871f, 0.0246123485f,
    -0.000481042021f, 0.00578531716f, 0.0809091404f, 0.0473737493f, 0.0716360211f, 0.055883009f, 0.0519774295f, 0.0677646399f,
    0.0634152293f, 0.0169870723f, 0.0107559264f, -0.000609046605f, -0.10349077f, -0.00530782295f, -0.0489588529f, 0.0111430082f,
    -0.0138651663f, -0.00926164538f, -0.133487865f, 0.0238749459f, 0.00958073977f, 0.0593676046f, 0.110105798f, 0.00339357369f,
    -0.0116819665f, -0.091567196f, 0.0693308339f, -0.204216525f, -0.14104031f, 0.0788401738f, 0.147477672f, -0.076101765f,
    -0.175874352f, 0.0693664029f, 0.152715445f, 0.0753984526f, 0.00490661198f, 0.0361896232f, -0.0132039785f, 0.00722813606f,
    0.0898080543f, -0.0366752371f, -0.0135693802f, -0.00155005651f, 0.110977978f, 0.124767274f, -0.0123773133f, 0.0583525971f,
    -0.00730730826f, 0.0160830468f, 0.054358948f, 0.00340090203f, 0.0788224712f, 0.0411555283f, -0.0260345861f, -0.0308167059f,
    0.00858016405f, -0.0551491454f, -0.00692825485f, -0.00111554458f, 0.0681698099f, -0.111796528f, -0.112160534f, 0.00687934272f,
    0.0710018128f, 0.0636498928f, 0.083844386f, 0.100314781f, 0.161873817f, 0.0198718775f, 0.0543850623f, -0.00280169491f,
    0.0458570793f, 0.0950416401f, 0.113275222f, 0.0734183565f, 0.0753024668f, 0.0780336857f, 0.0373065658f, 0.00487736752f,
    0.0680716112f, 0.028817445f, -0.00537189376f, 0.0283718146f, -0.0803178325f, 0.0182296596f, 0.0686836839f, 0.0201520883f,
    0.0667503774f, 0.0153092239f, -0.0155524611f, 0.0126168644f, -0.0660387129f, 0.0506001264f, 0.0776369572f, 0.037011195f,
    0.00971516967f, 0.0210386477f, 0.046224013f, -0.0538510717f, -0.051345028f, 0.0547951497f, 0.044394806f, 0.0365220606f,
    0.0134377843f, 0.0825631693f, -0.00926173106f, 0.0581576191f, -0.0644759685f, -0.0648737177f, -0.0227594972f, 0.0798020884f,
    -0.0679392666f, -0.0358554758f, -0.0333982743f, -0.00421455596f, 0.0146390582f, -0.0092418259f, 0.0516016483f, -0.0480444878f,
    -0.0734603778f, -0.0721236169f, -0.0340864472f, -0.0777612329f, 0.000206241806f, 0.0733387843f, -0.0502603129f, 0.0593636334f,
    0.0731515437f, 0.0138236126f, -0.0492596552f, 0.0582178049f, -6.62490711e-05f, 0.00761111313f, -0.00219863304f, -0.0637255162f,
    -0.0443643294f, 0.0694059804f, -0.058310803f, 0.00586694106f, 0.0303361379f, 0.0143819172f, -0.0578106344f, -0.172555044f,
    -0.0955282971f, -0.0480462648f, -0.203937262f, -0.0862180889f, -0.016673984f, 0.0173051842f, -0.10444133f, -0.163227797f,
    -0.0859183818f, -0.0531804338f, 0.0588503033f, 0.00618987577f, -0.0372900665f, -0.0665387958f, 0.025435647f, -0.0143723451f,
    -0.117081016f, 0.0144086629f, -0.0288767219f, -0.0925414637f, -0.0719494373f, -0.0272971895f, -0.0223278925f, -0.0839424804f,
    -0.111047313f, -0.0442422293f, 0.0402082466f, 0.116388202f, 0.0533869155f, 0.0860318691f, -0.00696545932f, 0.0615320653f,
    0.0166753884f, 0.113721482f, 0.0962216407f, -0.00883573666f, 0.0572807193f, -0.0552618466f, 0.0579164103f, -0.0145708742f,
    -0.00681972411f, -0.0149366874f, 0.083046928f, -0.0623014979f, 0.0164187308f, -0.00507390173f, 0.00475370651f, 0.0713952035f,
    0.22594063f, 0.228939831f, 0.166565448f, 0.219611496f, 0.174970374f, 0.119363025f, 0.115203708f, 0.0370608345f,
    0.102595001f, 0.142471448f, 0.162534177f, 0.0786390007f, 0.140432313f, -0.0442012325f, 0.0469832644f, -0.0209126174f,
    0.0312126186f, 0.0361130387f, -0.00173498911f, 0.0175128039f, -0.0772714019f, -0.128174827f, -0.108247377f, -0.0265605878f,
    -0.123323932f, 0.00813384354f, -0.109418385f, -0.0174165014f, -0.0857562423f, 0.0398548432f, -0.00471040374f, -0.103867359f,
    0.0222165473f, -0.050439354f, 0.0548440181f, 0.033930026f, -0.0589562915f, -0.0485079587f, 0.0221833326f, -0.0496061295f,
    -0.0452396013f, -0.0298374109f, -0.0658509433f, 0.0896411687f, -0.0258998182f, -0.0394582376f, 0.0788737983f, -0.0398124009f,
    -0.0629328862f, 0.0522876568f, 0.021838909f, -0.0584771894f, 0.0256598499f, 0.0564750172f, 0.0448721834f, -0.045452971f,
    -0.0677058846f, -0.081892699f, -0.0180707574f, 0.0295117553f, -0.0580518506f, -0.0405536741f, 0.0328227282f, 0.00238498696f,
    0.00107296044f, 0.0261744391f, 0.0187870897f, -0.0676241443f, -0.0263869558f, -0.0037642417f, 0.0403199047f, 0.0737281144f,
    0.0025433905f, -0.0416799374f, -0.0623207502f, 0.0135475453f, 0.0135119064f, -0.0629623234f, 0.0408007912f, 0.135337397f,
    0.00870448444f, 0.0447923578f, 0.113352299f, 0.225109473f, 0.149266958f, 0.0216980614f, -0.0376258008f, 0.0732007772f,
    0.257315874f, 0.180558443f, 0.106377847f, 0.118760929f, 0.101560496f, 0.0848536938f, 0.011471808f, 0.0048223841f,
    0.0386729576f, 0.0199958477f, 0.0582980178f, 0.126529187f, 0.191405088f, 0.0679467097f, 0.0949546173f, 0.0899636671f,
    0.0407611802f, 0.0109116593f, -0.0352172032f, 0.0355394594f, -0.0710962564f, 0.0443129875f, 0.10420242f, 0.0724990815f,
    0.116270378f, -0.0543891825f, -0.101584278f, -0.0312119424f, 0.0209363028f, 0.0331043489f, 0.0329815f, -0.0900918692f,
    -0.0214901194f, -0.118149899f, -0.0770566389f, -0.000860969012f, -0.100626484f, 0.0411735699f, 0.0198876224f, 0.0187996272f,
    -0.0209300742f, -0.113544345f, -0.245229945f, -0.273304313f, -0.172331795f, -0.0683268756f, -0.134784505f, -0.0598688573f,
    0.0848164409f, -0.12624076f, 0.000282666442f, 0.0086775776f, 0.0439791903f, -0.109954529f, -0.198620752f, -0.041239284f,
    -0.0534596182f, -0.0387338847f, 0.0128932213f, -0.0573859662f, -0.0503237098f, 0.0894944221f, 0.00577795692f, 0.0334962681f,
    0.0959913209f, 0.0765231177f, 0.00934939831f, 0.0791203529f, -0.0429639444f, 0.0545526259f, 0.0279282741f, -0.0240325145f,
    -0.100997508f, 0.00854489487f, -0.014748482f, 0.0893213749f, -0.0272463076f, -0.0104550906f, -0.0222440399f, -0.0390783474f,
    -0.0279389117f, 0.0195776932f, 0.101877578f, 0.0686888099f, -0.0788251758f, -0.0696307495f, -0.0284381229f, -0.00475082826f,
    0.0355859511f, -0.0398993865f, -0.0943691656f, -0.071030423f, -0.0232677869f, -0.0520759746f, -0.0658087656f, -0.0344121419f,
    -0.0106097776f, -0.081758f, 0.0130591076f, -0.0595475808f, 0.0314624682f, -0.106281094f, 0.00724514155f, -0.000326242734f,
    -0.0286702551f, -0.0321565159f, 0.0181227289f, -0.0195723716f, -0.0172335058f, -0.0185326412f, 0.00994524173f, -0.00912296213f,
    -0.010439191f, -0.0649867356f, -0.11282263f, -0.0838871449f, 0.0500089414f, -0.081448555f, 0.0285441298f, -0.0031259174f,
    -0.087344192f, 0.0804180875f, 0.0728638917f, 0.0714972392f, -0.084814027f, 0.00641820813f, -0.0135277398f, -0.104402274f,
    0.0330972522f, -0.125298664f, -0.0441046916f, -0.041255217f, 0.105304904f, 0.166672245f, 0.0470451117f, 0.0515994579f,
    0.0967129096f, 0.148916349f, 0.106673114f, 0.0617732108f, -0.0899075121f, -0.0545399897f, 0.0762473121f, 0.247036129f,
    0.256078601f, 0.27498883f, 0.212110832f, 0.12022537f, 0.122825556f, 0.110814355f, 0.128858224f, 0.099611029f,
    0.19787237f, 0.116604306f, 0.110785164f, 0.127901301f, 0.0872463882f, 0.0873082727f, 0.00238517066f, 0.0645354167f,
    0.0334240049f, -0.0216351599f, -0.0968398824f, -0.0483243428f, -0.0207729656f, -0.00837976951f, 0.1063767f, 0.0602914542f,
    0.0980981067f, 0.137061357f, -0.00646807021f, 0.139572665f, 0.100724295f, 0.0138065759f, 0.0260962043f, 0.0952290595f,
    0.0998293087f, 0.0486267209f, 0.0189862885f, 0.13392055f, -0.0533232577f, -0.0520236902f, -0.0270885024f, -0.0880121365f,
    -0.064365454f, -0.0117816105f, 0.0186581519f, 0.106809258f, 0.173745498f, -0.0613927394f, -0.10544543f, -0.193067655f,
    -0.159365073f, -0.101866767f, 0.00799045898f, -0.118909344f, -0.0409656763f, 0.0181858148f, -0.0660009757f, -0.0136030968f,
    -0.130062252f, -0.129811108f, 0.0458885543f, 0.00875995867f, 0.0149884447f, 0.00468540238f, -0.0969723985f, -0.0886910707f,
    -0.122184828f, -0.150921464f, -0.038713865f, -0.10586495f, -0.0416583084f, -0.0990081951f, -0.146739438f, -0.0267556924f,
    0.0050375564f, -0.0226311721f, -0.0385858119f, -0.0501392335f, -0.100305118f, 0.0107324058f, 0.0163760837f, -0.107429251f,
    0.0166071188f, 0.0256098062f, -0.0450033695f, -0.0557674654f, -0.089235872f, -0.0955373123f, 0.0119062541f, -0.02311402f,
    -0.0192820132f, -0.0172493178f, 0.0553596243f, 0.0472459532f, -0.0875024721f, -0.0525457859f, 0.0277073644f, -0.015600278f,
    -0.0176392775f, 0.024838604f, 0.0512559041f, -0.051751636f, -0.0108052641f, 0.00808976404f, 0.0517547689f, -0.0184299238f,
    -0.0886024162f, -0.161852494f, -0.0375396647f, -0.0312145371f, 0.0480820723f, 0.0679813772f, 0.0469146781f, 0.0417788886f,
    0.123773329f, 0.0805880353f, 0.0401150547f, -0.0350301675f, 0.0409836322f, -0.0755139813f, -0.179743662f, 0.0429152101f,
    -0.0138870049f, 0.00985870231f, 0.152723745f, 0.0719261542f, 0.0489269495f, 0.0898185819f, 0.181439161f, 0.047359284f,
    -0.0500455089f, -0.0193452369f, -0.0761630312f, 0.072693415f, 0.0425966568f, 0.173484936f, 0.0572023392f, 0.0344278514f,
    -0.0167792719f, -0.0213700701f, -0.144270226f, -0.0571073666f, -0.0893917307f, -0.163912967f, -0.090327628f, -0.100307122f,
    -0.0791037306f, 0.0737267658f, 0.0939662829f, 0.152496666f, 0.04082302f, 0.0788986236f, -0.0233136397f, -0.0379136465f,
    -0.0608162358f, 0.00842482597f, -0.0219498463f, 0.106920503f, 0.0946069509f, 0.0266895313f, -0.00248409668f, 0.0552912652f,
    0.042578388f, 0.0414574593f, -0.00694786012f, -0.0134297628f, -0.0929115787f, -0.107223742f, -0.00763019966f, 0.00953499693f,
    -0.0395562164f, -0.0164278578f, -0.0630911589f, -0.00685280189f, 0.0610046275f, 0.0982854217f, 0.00542821642f, 0.00251643127f,
    0.0148037411f, 0.0745467767f, 0.0200163815f, 0.0178297684f, 0.100293696f, -0.0296807457f, 0.0806406289f, 0.133233741f,
    0.090375565f, -0.0513035506f, 0.0945243016f, -0.0614240095f, -0.0797723383f, 0.0498975217f, 0.0266898796f, -0.000255383697f,
    -0.0348683707f, -0.00393640576f, -0.0153226415f, -0.0240604691f, -0.0829216614f, 0.00771930115f, 0.0396679975f, -0.00370637258f,
    -0.0291541349f, 0.027960388f, -0.0226066727f, 0.0176900085f, 0.0114920493f, -0.0429179184f, -0.127524063f, -0.0994236842f,
    -0.0244551282f, 0.0267754123f, -0.094299823f, -0.0375249758f, 0.00960433669f, -0.0469767526f, -0.0468590073f, 0.0525673814f,
    -0.089974016f, -0.0837897882f, -0.0382850654f, 0.0628621578f, -0.0149972336f, 0.00728551345f, -0.0281569213f, 0.0770888701f,
    0.0312445816f, -0.00636416953f, -0.0299846437f, -0.0716194734f, -0.0274932943f, -0.0152786849f, -0.0921116769f, -0.107432328f,
    0.0337798409f, -0.0863007754f, -0.191881016f, -0.160199285f, -0.0373440236f, -0.0371196084f, -0.0454462208f, -0.0557409525f,
    -0.0580501668f, 0.0876898617f, -0.0552064627f, -0.0671199635f, -0.053954199f, -0.0208435748f, -0.102943406f, -0.0497835949f,
    0.0285741333f, 0.0166910421f, 0.134041801f, 0.0495724529f, 0.115737557f, 0.0409437604f, 0.00818466023f, -0.117867433f,
    -0.0383155234f, 0.0618891269f, 0.0327052549f, 0.0355922952f, 0.0274051204f, 0.106059261f, 0.0841871127f, 0.158091038f,
    0.0522645041f, 0.0886039138f, 0.0511748828f, 0.123300642f, 0.10394007f, 0.0709584877f, 0.0870082006f, 0.00897037424f,
    0.0405946597f, -0.0100068906f, -0.0977064446f, -0.0909427181f, -0.00609196071f, 0.0384119712f, 0.0568276979f, -0.0100437989f,
    0.0501088016f, 0.00706209103f, 0.0938339382f, -0.0593297742f, 0.0391658172f, -0.0958940238f, 0.00699615385f, 0.0419647917f,
    0.00871581212f, -0.0302800909f, -0.0166713633f, 0.0690214634f, 0.118813716f, -0.0126041714f, 0.00391674507f, -0.0517744534f,
    0.00574127026f, -0.0352073833f, 0.0822443441f, 0.0584171377f, 0.0310083628f, -0.00500683952f, 0.0101058781f, 0.00710908603f,
    0.0852790475f, 0.0900753886f, -0.0227225106f, 0.0265997108f, -0.0127576524f, 0.00301043782f, 0.0511603765f, 0.0295276158f,
    0.0183584765f, 0.112561658f, 0.114631966f, 0.0277541801f, -0.00682963757f, -0.018077923f, 0.0797579288f, -0.0525654964f,
    -0.0402949825f, -0.00876995828f, 0.0453635789f, -0.00964649022f, -0.00618505571f, 0.0105628185f, -0.011149372f, 0.0590993464f,
